{"learner":{"attributes":{"scikit_learn":"{\"_estimator_type\": \"regressor\"}"},"feature_names":["alias","lagged_wt_1_day","lagged_wt_2_days","lagged_wt_3_days","temperature_2m","precipitation","wind_speed_10m","wind_direction_10m"],"feature_types":["int","float","float","float","float","float","float","float"],"gradient_booster":{"model":{"gbtree_model_param":{"num_parallel_tree":"1","num_trees":"100"},"iteration_indptr":[0,1,2,3,4,5,6,7,8,9,10,11,12,13,14,15,16,17,18,19,20,21,22,23,24,25,26,27,28,29,30,31,32,33,34,35,36,37,38,39,40,41,42,43,44,45,46,47,48,49,50,51,52,53,54,55,56,57,58,59,60,61,62,63,64,65,66,67,68,69,70,71,72,73,74,75,76,77,78,79,80,81,82,83,84,85,86,87,88,89,90,91,92,93,94,95,96,97,98,99,100],"tree_info":[0,0,0,0,0,0,0,0,0,0,0,0,0,0,0,0,0,0,0,0,0,0,0,0,0,0,0,0,0,0,0,0,0,0,0,0,0,0,0,0,0,0,0,0,0,0,0,0,0,0,0,0,0,0,0,0,0,0,0,0,0,0,0,0,0,0,0,0,0,0,0,0,0,0,0,0,0,0,0,0,0,0,0,0,0,0,0,0,0,0,0,0,0,0,0,0,0,0,0,0],"trees":[{"base_weights":[3.1491857E-7,-6.053554E0,7.5319014E0,-7.742601E0,-1.972388E0,3.755982E0,9.463249E0,-8.701052E0,-6.433946E0,-3.6634517E0,-6.977302E-1,2.1183991E0,5.344287E0,8.178857E0,1.0761297E1,-8.722892E0,1.3152895E0,-6.493325E0,2.1183476E0,-4.1538057E0,-2.8952177E0,-1.6525003E0,-1.0833412E-2,1.2989297E0,2.8422582E0,4.69001E0,5.9548507E0,7.456503E0,8.777698E0,1.0239095E1,3.6576478E0,-2.7962427E0,-2.4750504E0,-7.1696177E0,-5.7704177E0,-1.293934E0,-1.0176244E0,-3.1782951E0,-2.3417208E0,-1.8559892E0,-1.096335E0,-5.462727E-1,2.8531197E-1,1.111844E0,1.9599276E0,2.3808596E0,3.3348403E0,1.2631279E0,1.5309266E0,4.9896714E-1,1.7897271E0,2.0497909E0,7.6908116E0,-2.3603283E-1,2.639545E0,2.9827328E0,3.2524679E0,-2.235795E0,-2.0455797E0,-1.8555267E0,-1.6062825E0,-9.6386516E-1,9.3967155E-2,-7.416853E-1,-1.07652575E-1,-6.8828344E-1,-4.7669014E-1,-3.574297E-1,9.634747E-2,-2.0372815E-1,-1.1986268E-2,-3.3193782E-3,1.8965496E-1,-1.7365254E-1,3.4658563E-1,6.0705215E-1,3.063475E-1,6.536403E-1,8.543806E-1,9.2927575E-1,1.2110907E0,2.310908E0,6.0396713E-1],"categories":[],"categories_nodes":[],"categories_segments":[],"categories_sizes":[],"default_left":[0,0,0,0,0,0,0,0,0,0,0,0,0,0,0,0,0,0,0,0,0,0,0,0,0,0,0,0,0,0,0,0,0,0,0,0,0,0,0,0,0,0,0,0,0,0,0,0,0,0,0,0,0,0,0,0,0,0,0,0,0,0,0,0,0,0,0,0,0,0,0,0,0,0,0,0,0,0,0,0,0,0,0],"id":0,"left_children":[1,3,5,7,9,11,13,15,17,19,21,23,25,27,29,31,-1,33,-1,35,37,39,41,43,45,47,49,51,53,55,-1,-1,-1,57,59,-1,-1,61,63,65,67,69,71,73,75,77,79,-1,-1,-1,-1,-1,81,-1,-1,-1,-1,-1,-1,-1,-1,-1,-1,-1,-1,-1,-1,-1,-1,-1,-1,-1,-1,-1,-1,-1,-1,-1,-1,-1,-1,-1,-1],"loss_changes":[2.8282438E5,2.3690719E4,2.0121234E4,2.9944219E3,2.1702156E3,2.4257969E3,2.9596562E3,4.3864062E2,8.728203E2,1.510874E2,3.777393E2,2.7095068E2,1.6182324E2,3.338125E2,5.52125E2,3.1853125E2,0E0,4.6121484E2,0E0,1.7163086E1,1.9506714E1,2.5240051E1,5.3434673E1,2.4903107E1,4.7743042E1,2.4870605E1,1.4042969E0,9.576172E0,1.0612891E2,1.1953125E1,0E0,0E0,0E0,1.5390625E0,5.3507812E1,0E0,0E0,1.4411499E1,1.5164093E1,1.6835205E1,9.41423E0,8.042839E0,2.2315573E1,1.3374817E1,7.3895264E-1,6.063843E0,6.8187256E0,0E0,0E0,0E0,0E0,0E0,5.3652344E0,0E0,0E0,0E0,0E0,0E0,0E0,0E0,0E0,0E0,0E0,0E0,0E0,0E0,0E0,0E0,0E0,0E0,0E0,0E0,0E0,0E0,0E0,0E0,0E0,0E0,0E0,0E0,0E0,0E0,0E0],"parents":[2147483647,0,0,1,1,2,2,3,3,4,4,5,5,6,6,7,7,8,8,9,9,10,10,11,11,12,12,13,13,14,14,15,15,17,17,19,19,20,20,21,21,22,22,23,23,24,24,25,25,26,26,27,27,28,28,29,29,33,33,34,34,37,37,38,38,39,39,40,40,41,41,42,42,43,43,44,44,45,45,46,46,52,52],"right_children":[2,4,6,8,10,12,14,16,18,20,22,24,26,28,30,32,-1,34,-1,36,38,40,42,44,46,48,50,52,54,56,-1,-1,-1,58,60,-1,-1,62,64,66,68,70,72,74,76,78,80,-1,-1,-1,-1,-1,82,-1,-1,-1,-1,-1,-1,-1,-1,-1,-1,-1,-1,-1,-1,-1,-1,-1,-1,-1,-1,-1,-1,-1,-1,-1,-1,-1,-1,-1,-1],"split_conditions":[1.12E1,5.6E0,1.69E1,2.7E0,8.1E0,1.42E1,1.99E1,1.49145E1,1.8583E1,6.9E0,9.5E0,1.24E1,1.58E1,1.85E1,2.19E1,1.6E0,1.3152895E0,3.9E0,2.1183476E0,1.18235E1,7.7E0,9.797E0,1.02E1,1.4528E1,1.34E1,1.5278E1,3.0939984E0,1.75E1,8.447E0,2.11E1,3.6576478E0,-2.7962427E0,-2.4750504E0,3.3E0,4.6E0,-1.293934E0,-1.0176244E0,9E0,1.5378E1,8.6E0,1.01E1,1.33735E1,1.0212501E1,9.6E0,2.03774E1,1.4528E1,1.6258E1,1.2631279E0,1.5309266E0,4.9896714E-1,1.7897271E0,2.0497909E0,2.09E1,-2.3603283E-1,2.639545E0,2.9827328E0,3.2524679E0,-2.235795E0,-2.0455797E0,-1.8555267E0,-1.6062825E0,-9.6386516E-1,9.3967155E-2,-7.416853E-1,-1.07652575E-1,-6.8828344E-1,-4.7669014E-1,-3.574297E-1,9.634747E-2,-2.0372815E-1,-1.1986268E-2,-3.3193782E-3,1.8965496E-1,-1.7365254E-1,3.4658563E-1,6.0705215E-1,3.063475E-1,6.536403E-1,8.543806E-1,9.2927575E-1,1.2110907E0,2.310908E0,6.0396713E-1],"split_indices":[1,1,1,1,1,1,1,4,4,1,1,1,1,1,1,1,0,1,0,4,1,4,1,4,1,4,7,1,4,1,0,0,0,1,1,0,0,2,4,1,2,4,4,2,6,4,4,0,0,0,0,0,2,0,0,0,0,0,0,0,0,0,0,0,0,0,0,0,0,0,0,0,0,0,0,0,0,0,0,0,0,0,0],"split_type":[0,0,0,0,0,0,0,0,0,0,0,0,0,0,0,0,0,0,0,0,0,0,0,0,0,0,0,0,0,0,0,0,0,0,0,0,0,0,0,0,0,0,0,0,0,0,0,0,0,0,0,0,0,0,0,0,0,0,0,0,0,0,0,0,0,0,0,0,0,0,0,0,0,0,0,0,0,0,0,0,0,0,0],"sum_hessian":[6.201E3,3.438E3,2.763E3,2.431E3,1.007E3,9.36E2,1.827E3,1.4E3,1.031E3,4.32E2,5.75E2,4.62E2,4.74E2,9.22E2,9.05E2,1.398E3,2E0,1.027E3,4E0,2.61E2,1.71E2,2.4E2,3.35E2,2.18E2,2.44E2,2.33E2,2.41E2,4.24E2,4.98E2,6.69E2,2.36E2,6.09E2,7.89E2,5.26E2,5.01E2,2.12E2,4.9E1,1.1E2,6.1E1,1.74E2,6.6E1,1.19E2,2.16E2,1.72E2,4.6E1,1.29E2,1.15E2,1.13E2,1.2E2,1E0,2.4E2,1.24E2,3E2,1E0,4.97E2,4.6E2,2.09E2,2.8E2,2.46E2,2.44E2,2.57E2,1.09E2,1E0,5.7E1,4E0,6.3E1,1.11E2,6.2E1,4E0,9.4E1,2.5E1,1.17E2,9.9E1,4E0,1.68E2,4.2E1,4E0,9.4E1,3.5E1,9E1,2.5E1,2.99E2,1E0],"tree_param":{"num_deleted":"0","num_feature":"8","num_nodes":"83","size_leaf_vector":"1"}},{"base_weights":[1.9368152E-3,-4.2743225E0,5.243307E0,-5.49034E0,-1.5811228E0,2.5286853E0,6.6036434E0,-6.149554E0,-4.660759E0,-2.775339E0,-5.9108293E-1,1.335406E0,3.5931318E0,5.6479764E0,7.503244E0,-6.1670284E0,1.0522317E0,-4.7044015E0,1.6099442E0,-3.2885735E0,-2.367001E0,-1.2500954E0,-7.133589E-2,8.822701E-1,1.8770232E0,3.0016317E0,4.026601E0,4.985956E0,5.998721E0,7.198639E0,2.6340442E0,-6.498349E0,-1.7373291E0,-1.5373377E0,-4.228053E0,-3.3127007E0,-1.5345407E-1,-2.4867942E0,-1.7406125E0,-1.4046024E0,-8.4902257E-1,-4.849347E-1,1.183175E-1,7.785389E-1,1.5893526E0,1.8301715E0,1.3030713E0,2.6814256E0,3.360616E0,1.1376368E0,1.3358164E0,4.5496764E0,1.564839E0,-2.0062795E-1,6.011262E0,2.083442E0,2.310265E0,-2.0426626E0,-1.8845118E0,-1.3428358E0,-1.1820501E0,-1.0036073E0,-5.677248E-1,-7.5006396E-1,7.987204E-2,-5.6188244E-1,-2.5841758E-1,-5.304531E-1,-3.497534E-1,-2.8208822E-1,6.451142E-3,-1.8094528E-1,-2.1202505E-2,-8.055349E-1,4.2845987E-2,1.8229811E-1,3.6124545E-1,2.1134146E-1,5.4841053E-1,4.5850804E-1,6.0910356E-1,1.9457589E-1,8.0800766E-1,6.908139E-1,1.0411291E0,3.0550805E-1,1.3713465E0,1.6465696E0,1.8793519E0],"categories":[],"categories_nodes":[],"categories_segments":[],"categories_sizes":[],"default_left":[0,0,0,0,0,0,0,0,0,0,0,0,0,0,0,0,0,0,0,0,0,0,0,0,0,0,0,0,0,0,0,0,0,0,0,0,0,0,0,0,0,0,0,0,0,0,0,0,0,0,0,0,0,0,0,0,0,0,0,0,0,0,0,0,0,0,0,0,0,0,0,0,0,0,0,0,0,0,0,0,0,0,0,0,0,0,0,0,0],"id":1,"left_children":[1,3,5,7,9,11,13,15,17,19,21,23,25,27,29,31,-1,33,-1,35,37,39,41,43,45,47,49,51,53,55,-1,57,-1,-1,59,61,-1,63,65,67,69,71,73,75,77,79,-1,81,83,-1,-1,85,-1,-1,87,-1,-1,-1,-1,-1,-1,-1,-1,-1,-1,-1,-1,-1,-1,-1,-1,-1,-1,-1,-1,-1,-1,-1,-1,-1,-1,-1,-1,-1,-1,-1,-1,-1,-1],"loss_changes":[1.3903069E5,1.1178648E4,1.0275125E4,1.258125E3,1.2563496E3,1.1790112E3,1.5532578E3,2.4235156E2,4.8299023E2,9.3230225E1,1.9959985E2,1.06576965E2,1.14061035E2,1.8E2,3.0746484E2,1.2503125E2,0E0,1.8683203E2,0E0,1.2442871E1,1.6081665E1,1.4733368E1,2.5707394E1,1.6512466E1,1.5162903E1,1.5358032E1,1.1191406E1,8.30127E0,5.301953E1,4.5320312E1,0E0,3.3789062E0,0E0,0E0,1.7642578E1,3.363037E0,0E0,9.014648E0,3.8549347E0,1.391095E1,5.8998337E0,5.0015087E0,1.5838964E1,1.4759369E1,5.0483627E0,8.859009E0,0E0,1.0913086E0,3.161255E0,0E0,0E0,4.294922E0,0E0,0E0,4.3052734E1,0E0,0E0,0E0,0E0,0E0,0E0,0E0,0E0,0E0,0E0,0E0,0E0,0E0,0E0,0E0,0E0,0E0,0E0,0E0,0E0,0E0,0E0,0E0,0E0,0E0,0E0,0E0,0E0,0E0,0E0,0E0,0E0,0E0,0E0],"parents":[2147483647,0,0,1,1,2,2,3,3,4,4,5,5,6,6,7,7,8,8,9,9,10,10,11,11,12,12,13,13,14,14,15,15,17,17,19,19,20,20,21,21,22,22,23,23,24,24,25,25,26,26,27,27,28,28,29,29,31,31,34,34,35,35,37,37,38,38,39,39,40,40,41,41,42,42,43,43,44,44,45,45,47,47,48,48,51,51,54,54],"right_children":[2,4,6,8,10,12,14,16,18,20,22,24,26,28,30,32,-1,34,-1,36,38,40,42,44,46,48,50,52,54,56,-1,58,-1,-1,60,62,-1,64,66,68,70,72,74,76,78,80,-1,82,84,-1,-1,86,-1,-1,88,-1,-1,-1,-1,-1,-1,-1,-1,-1,-1,-1,-1,-1,-1,-1,-1,-1,-1,-1,-1,-1,-1,-1,-1,-1,-1,-1,-1,-1,-1,-1,-1,-1,-1],"split_conditions":[1.11E1,5.2E0,1.68E1,2.5E0,7.9E0,1.39E1,1.98E1,1.3547E1,1.8583E1,6.2E0,9.4E0,1.24E1,1.53E1,1.81E1,2.23E1,1.7E0,1.0522317E0,3.7E0,1.6099442E0,7.5E0,1.33735E1,9.4645E0,1E1,1.6678E1,1.73E1,1.5278E1,1.7997E1,1.7558E1,8.447E0,2.22525E1,2.6340442E0,1E0,-1.7373291E0,-1.5373377E0,4.4E0,1.43525E1,-1.5345407E-1,9.2E0,7.7E0,8.5E0,9.7E0,1.32734995E1,9.6250004E-1,1.2E1,1.05E1,1.3E1,1.3030713E0,4.0249224E0,1.41E1,1.1376368E0,1.3358164E0,1.48E1,1.564839E0,-2.0062795E-1,1.8678E1,2.083442E0,2.310265E0,-2.0426626E0,-1.8845118E0,-1.3428358E0,-1.1820501E0,-1.0036073E0,-5.677248E-1,-7.5006396E-1,7.987204E-2,-5.6188244E-1,-2.5841758E-1,-5.304531E-1,-3.497534E-1,-2.8208822E-1,6.451142E-3,-1.8094528E-1,-2.1202505E-2,-8.055349E-1,4.2845987E-2,1.8229811E-1,3.6124545E-1,2.1134146E-1,5.4841053E-1,4.5850804E-1,6.0910356E-1,1.9457589E-1,8.0800766E-1,6.908139E-1,1.0411291E0,3.0550805E-1,1.3713465E0,1.6465696E0,1.8793519E0],"split_indices":[1,1,1,1,1,1,1,4,4,1,1,1,1,1,1,1,0,1,0,2,4,4,1,4,3,4,4,4,4,4,0,1,0,0,1,4,0,2,1,1,2,4,4,1,3,1,0,6,1,0,0,2,0,0,4,0,0,0,0,0,0,0,0,0,0,0,0,0,0,0,0,0,0,0,0,0,0,0,0,0,0,0,0,0,0,0,0,0,0],"split_type":[0,0,0,0,0,0,0,0,0,0,0,0,0,0,0,0,0,0,0,0,0,0,0,0,0,0,0,0,0,0,0,0,0,0,0,0,0,0,0,0,0,0,0,0,0,0,0,0,0,0,0,0,0,0,0,0,0,0,0,0,0,0,0,0,0,0,0,0,0,0,0,0,0,0,0,0,0,0,0,0,0,0,0,0,0,0,0,0,0],"sum_hessian":[6.201E3,3.415E3,2.786E3,2.352E3,1.063E3,9.31E2,1.855E3,1.307E3,1.045E3,4.81E2,5.82E2,4.4E2,4.91E2,9.03E2,9.52E2,1.305E3,2E0,1.041E3,4E0,2.1E2,2.71E2,2.56E2,3.26E2,2.41E2,1.99E2,2.11E2,2.8E2,3.18E2,5.85E2,7.74E2,1.78E2,6.85E2,6.2E2,5.48E2,4.93E2,2.08E2,2E0,2.25E2,4.6E1,1.83E2,7.3E1,1.02E2,2.24E2,2.12E2,2.9E1,1.97E2,2E0,1.16E2,9.5E1,1.87E2,9.3E1,1.17E2,2.01E2,1E0,5.84E2,5.24E2,2.5E2,2.69E2,4.16E2,2.57E2,2.36E2,2.02E2,6E0,2.24E2,1E0,3.9E1,7E0,7E1,1.13E2,6.6E1,7E0,7.9E1,2.3E1,1E0,2.23E2,1.53E2,5.9E1,7E0,2.2E1,8.2E1,1.15E2,1E0,1.15E2,1.1E1,8.4E1,1E0,1.16E2,1.98E2,3.86E2],"tree_param":{"num_deleted":"0","num_feature":"8","num_nodes":"89","size_leaf_vector":"1"}},{"base_weights":[2.9804988E-3,-2.9142463E0,3.7828503E0,-3.7894483E0,-8.6209005E-1,2.0653322E0,4.711464E0,-4.232419E0,-3.072714E0,-1.6024346E0,-1.18687384E-1,1.2396135E0,2.8091388E0,4.2036357E0,5.5162563E0,-4.255362E0,1.0628499E0,-3.091076E0,1.1096312E0,-1.9558121E0,-1.1335359E0,-4.9515808E-1,1.7072004E-1,8.220867E-1,1.5890256E0,2.512144E0,3.1374154E0,3.8578627E0,4.608333E0,5.30662E0,1.9268985E0,-4.4730163E0,-3.8684223E0,-3.3644247E0,-2.7159483E0,-2.1155975E0,-1.6182812E0,-1.1853652E0,-3.1853428E-1,-7.0836884E-1,-3.5097444E-1,8.4652506E-2,9.9455976E-1,6.1323524E-1,9.7928536E-1,1.4590034E0,2.258909E0,7.147747E-1,2.9790702E0,3.0788128E0,1.3768822E0,3.7166338E0,1.3183904E0,-1.7053372E-1,4.620034E0,1.5270723E0,1.6872358E0,-1.4137657E0,-1.2909034E0,-1.1616216E0,-2.791759E-1,-1.0671169E0,-9.6644306E-1,-8.624395E-1,-7.2277445E-1,-6.832972E-1,-5.5998445E-1,-5.068972E-1,-1.7587508E-1,2.3489486E-1,-3.5948467E-1,1.969092E-2,-4.1742384E-1,-2.3206648E-1,-7.732454E-2,-1.8263716E-1,-7.1859375E-2,-6.847046E-1,3.0580902E-2,-9.432092E-2,3.4926343E-1,1.0576297E-1,2.5659993E-1,1.7085072E-1,3.1441167E-1,3.700067E-1,5.057534E-1,1.1444464E-1,6.8980205E-1,9.074456E-1,8.315878E-2,2.534765E-1,9.254877E-1,1.1168859E0,1.110499E-1,1.3247141E0,1.4769455E0],"categories":[],"categories_nodes":[],"categories_segments":[],"categories_sizes":[],"default_left":[0,0,0,0,0,0,0,0,0,0,0,0,0,0,0,0,0,0,0,0,0,0,0,0,0,0,0,0,0,0,0,0,0,0,0,0,0,0,0,0,0,0,0,0,0,0,0,0,0,0,0,0,0,0,0,0,0,0,0,0,0,0,0,0,0,0,0,0,0,0,0,0,0,0,0,0,0,0,0,0,0,0,0,0,0,0,0,0,0,0,0,0,0,0,0,0,0],"id":2,"left_children":[1,3,5,7,9,11,13,15,17,19,21,23,25,27,29,31,-1,33,-1,35,37,39,41,43,45,47,49,51,53,55,-1,57,59,61,63,65,67,69,71,73,75,77,79,81,83,85,87,-1,89,91,-1,93,-1,-1,95,-1,-1,-1,-1,-1,-1,-1,-1,-1,-1,-1,-1,-1,-1,-1,-1,-1,-1,-1,-1,-1,-1,-1,-1,-1,-1,-1,-1,-1,-1,-1,-1,-1,-1,-1,-1,-1,-1,-1,-1,-1,-1],"loss_changes":[6.839885E4,6.284709E3,4.299715E3,7.661211E2,5.7660205E2,5.7998364E2,6.932539E2,2.851504E2,1.2843457E2,8.4774536E1,5.717612E1,6.463544E1,4.07688E1,1.3321094E2,9.422461E1,1.0986914E2,0E0,8.714844E1,0E0,1.2648193E1,9.253387E0,6.7604446E0,2.0974846E1,6.228348E0,1.8043701E1,9.054565E0,5.6984863E0,2.824121E1,3.242871E1,9.431641E0,0E0,1.8816406E1,2.3046875E0,3.3833008E0,1.2610107E1,3.7781982E0,6.3756714E0,6.3792725E0,6.2738543E0,2.4736633E0,3.819172E0,1.1278582E1,6.583929E0,5.5048523E0,2.6995087E0,8.567474E0,2.0072784E0,0E0,5.836334E0,5.097656E-1,0E0,8.603027E0,0E0,0E0,8.668945E0,0E0,0E0,0E0,0E0,0E0,0E0,0E0,0E0,0E0,0E0,0E0,0E0,0E0,0E0,0E0,0E0,0E0,0E0,0E0,0E0,0E0,0E0,0E0,0E0,0E0,0E0,0E0,0E0,0E0,0E0,0E0,0E0,0E0,0E0,0E0,0E0,0E0,0E0,0E0,0E0,0E0,0E0],"parents":[2147483647,0,0,1,1,2,2,3,3,4,4,5,5,6,6,7,7,8,8,9,9,10,10,11,11,12,12,13,13,14,14,15,15,17,17,19,19,20,20,21,21,22,22,23,23,24,24,25,25,26,26,27,27,28,28,29,29,31,31,32,32,33,33,34,34,35,35,36,36,37,37,38,38,39,39,40,40,41,41,42,42,43,43,44,44,45,45,46,46,48,48,49,49,51,51,54,54],"right_children":[2,4,6,8,10,12,14,16,18,20,22,24,26,28,30,32,-1,34,-1,36,38,40,42,44,46,48,50,52,54,56,-1,58,60,62,64,66,68,70,72,74,76,78,80,82,84,86,88,-1,90,92,-1,94,-1,-1,96,-1,-1,-1,-1,-1,-1,-1,-1,-1,-1,-1,-1,-1,-1,-1,-1,-1,-1,-1,-1,-1,-1,-1,-1,-1,-1,-1,-1,-1,-1,-1,-1,-1,-1,-1,-1,-1,-1,-1,-1,-1,-1],"split_conditions":[1.15E1,5.7E0,1.73E1,2.9E0,8.8E0,1.46E1,2.04E1,1.49145E1,1.8583E1,7.3E0,1.01E1,1.28E1,1.63E1,1.92E1,2.27E1,2.1E0,1.0628499E0,4.2E0,1.1096312E0,9.328E0,1.5564501E1,9.3E0,1.5378E1,1.1958E1,1.7682999E1,1.90645E1,1.89E1,2.22525E1,8.447E0,2.22525E1,1.9268985E0,1.2E0,4.5E0,1.7644999E0,7.3025002E0,6.5E0,1E-1,5.4E0,2.054633E2,1.3778E1,5.697E0,9.6250004E-1,9.6E0,1.22E1,1.07E1,1.37E1,1.10924576E2,7.147747E-1,1.92E1,3.0939984E0,1.3768822E0,2.15E1,1.3183904E0,-1.7053372E-1,2.0858E1,1.5270723E0,1.6872358E0,-1.4137657E0,-1.2909034E0,-1.1616216E0,-2.791759E-1,-1.0671169E0,-9.6644306E-1,-8.624395E-1,-7.2277445E-1,-6.832972E-1,-5.5998445E-1,-5.068972E-1,-1.7587508E-1,2.3489486E-1,-3.5948467E-1,1.969092E-2,-4.1742384E-1,-2.3206648E-1,-7.732454E-2,-1.8263716E-1,-7.1859375E-2,-6.847046E-1,3.0580902E-2,-9.432092E-2,3.4926343E-1,1.0576297E-1,2.5659993E-1,1.7085072E-1,3.1441167E-1,3.700067E-1,5.057534E-1,1.1444464E-1,6.8980205E-1,9.074456E-1,8.315878E-2,2.534765E-1,9.254877E-1,1.1168859E0,1.110499E-1,1.3247141E0,1.4769455E0],"split_indices":[1,1,1,1,1,1,1,4,4,1,1,1,1,1,1,1,0,1,0,4,4,1,4,4,4,4,3,4,4,4,0,1,3,4,4,1,5,2,7,4,4,4,2,3,3,1,7,0,3,7,0,2,0,0,4,0,0,0,0,0,0,0,0,0,0,0,0,0,0,0,0,0,0,0,0,0,0,0,0,0,0,0,0,0,0,0,0,0,0,0,0,0,0,0,0,0,0],"split_type":[0,0,0,0,0,0,0,0,0,0,0,0,0,0,0,0,0,0,0,0,0,0,0,0,0,0,0,0,0,0,0,0,0,0,0,0,0,0,0,0,0,0,0,0,0,0,0,0,0,0,0,0,0,0,0,0,0,0,0,0,0,0,0,0,0,0,0,0,0,0,0,0,0,0,0,0,0,0,0,0,0,0,0,0,0,0,0,0,0,0,0,0,0,0,0,0,0],"sum_hessian":[6.201E3,3.5E3,2.701E3,2.453E3,1.047E3,9.49E2,1.752E3,1.513E3,9.4E2,5.24E2,5.23E2,4.51E2,4.98E2,1.078E3,6.74E2,1.509E3,4E0,9.38E2,2E0,2.97E2,2.27E2,2.27E2,2.96E2,2.07E2,2.44E2,2.66E2,2.32E2,5.87E2,4.91E2,5.53E2,1.21E2,9.59E2,5.5E2,5.38E2,4E2,1.98E2,9.9E1,2.13E2,1.4E1,9E1,1.37E2,2.69E2,2.7E1,9.1E1,1.16E2,2.07E2,3.7E1,2.13E2,5.3E1,2.26E2,6E0,4.71E2,1.16E2,1E0,4.9E2,3.39E2,2.14E2,3.87E2,5.72E2,5.49E2,1E0,2.19E2,3.19E2,2.58E2,1.42E2,1.15E2,8.3E1,9.2E1,7E0,1E0,2.12E2,1.1E1,3E0,7.8E1,1.2E1,4E1,9.7E1,1E0,2.68E2,3E0,2.4E1,4.5E1,4.6E1,1.8E1,9.8E1,1.07E2,1E2,1E0,3.6E1,5.2E1,1E0,1E0,2.25E2,4.7E2,1E0,3.02E2,1.88E2],"tree_param":{"num_deleted":"0","num_feature":"8","num_nodes":"97","size_leaf_vector":"1"}},{"base_weights":[3.3930887E-3,-2.1296427E0,2.5506606E0,-2.7083094E0,-8.451788E-1,1.1653956E0,3.228082E0,-3.0868144E0,-2.3587518E0,-1.4228501E0,-3.6365545E-1,6.126843E-1,1.6958253E0,2.9119318E0,3.9706924E0,-3.0980246E0,2.0973842E0,-2.3798118E0,9.628597E-1,-1.5661969E0,-1.1571757E0,-6.2218285E-1,-1.029602E-1,4.3576297E-1,8.926794E-1,1.3320457E0,1.8769486E0,2.5703132E0,3.2108364E0,3.8483787E0,4.8062696E0,-3.314692E0,-8.9361715E-1,7.6441145E-1,1.7941147E-1,-2.5937033E0,-2.1051006E0,-1.6946132E0,-1.3431739E0,-1.2811921E0,-9.0639204E-1,-7.111363E-1,-3.9004204E-1,-5.119048E-1,-1.6614871E-2,-5.632146E-1,4.7075936E-1,8.509575E-1,9.044966E-1,1.2253671E0,1.6944816E0,1.7977848E0,2.3102217E0,2.3684137E0,2.8379402E0,2.5797307E0,3.2738607E0,3.401105E0,3.9566731E0,1.450829E0,4.2117837E-1,-1.092936E0,-9.654934E-1,-7.907215E-1,-6.936863E-1,-6.5494704E-1,-5.4689E-1,-5.122034E-1,-2.0177616E-1,3.7780523E-2,-4.1094562E-1,-3.8727942E-1,-3.0020716E-2,-2.8065568E-1,1.2181392E-1,-2.6571792E-1,-1.682814E-1,-1.3156308E-1,1.3337722E-1,-1.171445E-1,-3.3016983E-1,-1.4608164E-2,3.146846E-1,-1.25947E-3,-3.364174E-1,1.2809658E-1,3.750058E-1,2.1088637E-1,3.4045312E-1,2.6732686E-1,3.815899E-1,2.0211125E-2,5.2252394E-1,4.8091537E-1,5.724873E-1,1.4901868E-1,7.020444E-1,7.142124E-1,2.8633215E-2,8.580912E-1,4.1875803E-1,-1.449536E-1,7.895638E-1,9.561325E-1,1.0601084E0,2.0451994E-1,1.0262663E0,9.176751E-1,1.1974547E0],"categories":[],"categories_nodes":[],"categories_segments":[],"categories_sizes":[],"default_left":[0,0,0,0,0,0,0,0,0,0,0,0,0,0,0,0,0,0,0,0,0,0,0,0,0,0,0,0,0,0,0,0,0,0,0,0,0,0,0,0,0,0,0,0,0,0,0,0,0,0,0,0,0,0,0,0,0,0,0,0,0,0,0,0,0,0,0,0,0,0,0,0,0,0,0,0,0,0,0,0,0,0,0,0,0,0,0,0,0,0,0,0,0,0,0,0,0,0,0,0,0,0,0,0,0,0,0,0,0],"id":3,"left_children":[1,3,5,7,9,11,13,15,17,19,21,23,25,27,29,31,33,35,-1,37,39,41,43,45,47,49,51,53,55,57,59,61,-1,-1,-1,63,65,67,69,71,73,75,77,79,81,83,85,87,-1,89,91,93,95,97,99,101,103,105,107,-1,-1,-1,-1,-1,-1,-1,-1,-1,-1,-1,-1,-1,-1,-1,-1,-1,-1,-1,-1,-1,-1,-1,-1,-1,-1,-1,-1,-1,-1,-1,-1,-1,-1,-1,-1,-1,-1,-1,-1,-1,-1,-1,-1,-1,-1,-1,-1,-1,-1],"loss_changes":[3.370346E4,2.5070117E3,2.6491152E3,3.0060156E2,2.9155286E2,2.7161316E2,4.3404297E2,7.123926E1,1.5000195E2,1.6353455E1,3.8621735E1,2.2249466E1,2.8731201E1,1.280664E2,3.9146484E1,1.8870117E1,5.032339E-1,6.5637695E1,0E0,6.5161743E0,4.1570587E0,5.6697464E0,1.0125595E1,1.0124027E1,1.3018585E1,4.1485596E0,6.6168213E0,2.7211914E1,1.9715332E1,1.0616211E1,1.11328125E-1,4.9414062E-1,0E0,0E0,0E0,1.9018555E0,7.802246E0,1.3369751E0,4.7523804E0,1.159195E0,2.6734962E0,4.9313507E0,3.5144148E0,3.144102E0,8.186447E0,3.1155915E0,8.777958E0,6.5130463E0,0E0,8.604126E-1,2.4974365E0,2.7511597E0,1.2798004E0,9.944458E0,4.553711E0,1.2292725E1,3.1640625E0,3.2628174E0,1.1425781E-1,0E0,0E0,0E0,0E0,0E0,0E0,0E0,0E0,0E0,0E0,0E0,0E0,0E0,0E0,0E0,0E0,0E0,0E0,0E0,0E0,0E0,0E0,0E0,0E0,0E0,0E0,0E0,0E0,0E0,0E0,0E0,0E0,0E0,0E0,0E0,0E0,0E0,0E0,0E0,0E0,0E0,0E0,0E0,0E0,0E0,0E0,0E0,0E0,0E0,0E0],"parents":[2147483647,0,0,1,1,2,2,3,3,4,4,5,5,6,6,7,7,8,8,9,9,10,10,11,11,12,12,13,13,14,14,15,15,16,16,17,17,19,19,20,20,21,21,22,22,23,23,24,24,25,25,26,26,27,27,28,28,29,29,30,30,31,31,35,35,36,36,37,37,38,38,39,39,40,40,41,41,42,42,43,43,44,44,45,45,46,46,47,47,49,49,50,50,51,51,52,52,53,53,54,54,55,55,56,56,57,57,58,58],"right_children":[2,4,6,8,10,12,14,16,18,20,22,24,26,28,30,32,34,36,-1,38,40,42,44,46,48,50,52,54,56,58,60,62,-1,-1,-1,64,66,68,70,72,74,76,78,80,82,84,86,88,-1,90,92,94,96,98,100,102,104,106,108,-1,-1,-1,-1,-1,-1,-1,-1,-1,-1,-1,-1,-1,-1,-1,-1,-1,-1,-1,-1,-1,-1,-1,-1,-1,-1,-1,-1,-1,-1,-1,-1,-1,-1,-1,-1,-1,-1,-1,-1,-1,-1,-1,-1,-1,-1,-1,-1,-1,-1],"split_conditions":[1.09E1,5.1E0,1.66E1,2.3E0,7.7E0,1.37E1,2.07E1,1.3547E1,1.8583E1,6.6E0,9.4E0,1.24E1,1.49E1,1.89E1,2.34E1,1.2E0,2E0,3.5E0,9.628597E-1,8.028E0,9.908E0,9.4645E0,5.697E0,9.6E0,1.69E1,1.68145E1,2.04025E1,1.9678E1,1.59645E1,1.90645E1,2.49E1,7E-1,-8.9361715E-1,7.6441145E-1,1.7941147E-1,6.6644998E0,8.028E0,7.4E0,1E0,8.6E0,9E0,8.5E0,1.01E1,1.08E1,1.23E1,8.3E0,1.9997E1,1.4528E1,9.044966E-1,1.38E1,1.04E1,1.57E1,2.7645891E1,2.15E1,2.67525E1,8.447E0,2.2473501E1,1.85E1,1.96E1,1.450829E0,4.2117837E-1,-1.092936E0,-9.654934E-1,-7.907215E-1,-6.936863E-1,-6.5494704E-1,-5.4689E-1,-5.122034E-1,-2.0177616E-1,3.7780523E-2,-4.1094562E-1,-3.8727942E-1,-3.0020716E-2,-2.8065568E-1,1.2181392E-1,-2.6571792E-1,-1.682814E-1,-1.3156308E-1,1.3337722E-1,-1.171445E-1,-3.3016983E-1,-1.4608164E-2,3.146846E-1,-1.25947E-3,-3.364174E-1,1.2809658E-1,3.750058E-1,2.1088637E-1,3.4045312E-1,2.6732686E-1,3.815899E-1,2.0211125E-2,5.2252394E-1,4.8091537E-1,5.724873E-1,1.4901868E-1,7.020444E-1,7.142124E-1,2.8633215E-2,8.580912E-1,4.1875803E-1,-1.449536E-1,7.895638E-1,9.561325E-1,1.0601084E0,2.0451994E-1,1.0262663E0,9.176751E-1,1.1974547E0],"split_indices":[1,1,1,1,1,1,1,4,4,1,1,1,1,1,1,2,0,1,0,4,4,4,4,2,3,4,4,4,4,4,3,1,0,0,0,4,4,2,0,2,2,1,2,2,3,2,4,4,0,3,2,3,7,3,4,4,4,2,2,0,0,0,0,0,0,0,0,0,0,0,0,0,0,0,0,0,0,0,0,0,0,0,0,0,0,0,0,0,0,0,0,0,0,0,0,0,0,0,0,0,0,0,0,0,0,0,0,0,0],"split_type":[0,0,0,0,0,0,0,0,0,0,0,0,0,0,0,0,0,0,0,0,0,0,0,0,0,0,0,0,0,0,0,0,0,0,0,0,0,0,0,0,0,0,0,0,0,0,0,0,0,0,0,0,0,0,0,0,0,0,0,0,0,0,0,0,0,0,0,0,0,0,0,0,0,0,0,0,0,0,0,0,0,0,0,0,0,0,0,0,0,0,0,0,0,0,0,0,0,0,0,0,0,0,0,0,0,0,0,0,0],"sum_hessian":[6.201E3,3.375E3,2.826E3,2.326E3,1.049E3,9.29E2,1.897E3,1.113E3,1.213E3,4.76E2,5.73E2,4.56E2,4.73E2,1.334E3,5.63E2,1.111E3,2E0,1.209E3,4E0,3.06E2,1.7E2,2.87E2,2.86E2,2.81E2,1.75E2,1.6E2,3.13E2,6.27E2,7.07E2,4.96E2,6.7E1,3.85E2,7.26E2,1E0,1E0,6.75E2,5.34E2,1.9E2,1.16E2,1.11E2,5.9E1,2.06E2,8.1E1,4.9E1,2.37E2,9E0,2.72E2,1.73E2,2E0,1.27E2,3.3E1,2.69E2,4.4E1,3.63E2,2.64E2,6.8E1,6.39E2,1.03E2,3.93E2,6.6E1,1E0,7.9E1,3.06E2,5.8E2,9.5E1,4.13E2,1.21E2,1.87E2,3E0,2E0,1.14E2,1.1E2,1E0,5.8E1,1E0,9.3E1,1.13E2,7.7E1,4E0,4.2E1,7E0,2.31E2,6E0,5E0,4E0,2.59E2,1.3E1,1.16E2,5.7E1,1.8E1,1.09E2,1E0,3.2E1,1.03E2,1.66E2,1E0,4.3E1,3.61E2,2E0,2.59E2,5E0,1E0,6.7E1,4.89E2,1.5E2,1E0,1.02E2,1.8E1,3.75E2],"tree_param":{"num_deleted":"0","num_feature":"8","num_nodes":"109","size_leaf_vector":"1"}},{"base_weights":[3.768518E-3,-1.4925195E0,1.7906325E0,-1.9226389E0,-6.427042E-1,1.0114549E0,2.3875322E0,-1.9356502E0,2.5063643E0,-1.0362625E0,-2.555682E-1,5.281772E-1,1.4375896E0,2.193417E0,2.8848763E0,-2.0905173E0,-1.5754013E0,8.2639426E-1,1.5249968E-1,-1.1948229E0,-8.807108E-1,-4.6401295E-1,-8.8665135E-2,3.295555E-1,7.9598475E-1,1.2304002E0,1.6085275E0,2.0006309E0,2.3339653E0,2.6626835E0,3.11122E0,-2.2402933E0,-1.9319394E0,-1.6916744E0,-1.4814852E0,-1.3937778E0,-1.0877706E0,-9.690056E-1,-7.1996874E-1,-4.9611434E-1,1.4589759E-2,-1.8687975E-1,1.3905382E-1,2.975075E-1,9.077712E-1,3.6527413E-1,8.636572E-1,1.1286653E0,1.4902707E0,1.4969752E0,1.9602995E0,1.9079838E0,2.3601453E0,-1.2321053E-1,2.338739E0,1.7322761E0,2.7011552E0,2.7860863E0,3.3962464E0,-7.354084E-1,-6.531922E-1,-6.097508E-1,-5.5687356E-1,-1.1296893E-1,-5.0846004E-1,-4.4640318E-1,-4.8338845E-2,-4.2284265E-1,7.559896E-3,-3.3529776E-1,-1.3678269E-1,-3.183653E-1,-2.6289305E-1,-1.543356E-1,-2.6435456E-1,-4.8726E-1,-1.4392245E-1,6.735794E-2,-3.1198713E-1,-1.8457128E-1,-4.3253142E-2,4.1236505E-1,2.5500068E-2,4.4405617E-2,1.3082011E-1,3.3602107E-2,4.3608165E-1,1.3449644E-1,-2.0100127E-1,2.3447426E-1,3.400266E-1,2.4022494E-1,3.535432E-1,4.5456538E-1,-7.5824834E-2,2.1539083E-1,4.5089152E-1,5.3982806E-1,8.0272347E-1,5.8662754E-1,4.445566E-1,5.163097E-1,7.3682046E-1,6.0954976E-1,7.19696E-1,6.0136676E-1,-1.8942004E-1,8.1366974E-1,2.976412E-1,8.452231E-1,3.8489214E-1,1.0228351E0,2.9355413E-1],"categories":[],"categories_nodes":[],"categories_segments":[],"categories_sizes":[],"default_left":[0,0,0,0,0,0,0,0,0,0,0,0,0,0,0,0,0,0,0,0,0,0,0,0,0,0,0,0,0,0,0,0,0,0,0,0,0,0,0,0,0,0,0,0,0,0,0,0,0,0,0,0,0,0,0,0,0,0,0,0,0,0,0,0,0,0,0,0,0,0,0,0,0,0,0,0,0,0,0,0,0,0,0,0,0,0,0,0,0,0,0,0,0,0,0,0,0,0,0,0,0,0,0,0,0,0,0,0,0,0,0,0,0],"id":4,"left_children":[1,3,5,7,9,11,13,15,17,19,21,23,25,27,29,31,33,-1,-1,35,37,39,41,43,45,47,49,51,53,55,57,59,61,63,65,67,69,71,73,75,77,79,81,83,85,87,89,91,93,95,97,99,101,-1,103,105,107,109,111,-1,-1,-1,-1,-1,-1,-1,-1,-1,-1,-1,-1,-1,-1,-1,-1,-1,-1,-1,-1,-1,-1,-1,-1,-1,-1,-1,-1,-1,-1,-1,-1,-1,-1,-1,-1,-1,-1,-1,-1,-1,-1,-1,-1,-1,-1,-1,-1,-1,-1,-1,-1,-1,-1],"loss_changes":[1.6584732E4,1.2327666E3,1.3123975E3,1.3399414E2,1.7281683E2,2.5213672E2,1.4813965E2,1.2139844E2,2.0722733E0,1.283374E1,1.9928352E1,3.0429688E1,2.1112427E1,2.6626465E1,1.4145752E1,3.2723633E1,4.8757324E0,0E0,0E0,4.362274E0,3.3898315E0,3.9250107E0,7.182892E0,5.900646E0,6.825592E0,6.2229004E0,1.0956848E1,1.1950928E1,9.633789E0,3.625122E0,1.0462158E1,5.244873E0,2.050537E0,6.002197E-1,3.0513306E0,2.1070557E0,2.965149E0,6.342621E-1,3.05867E0,3.6351395E0,3.997095E0,4.008706E0,6.361117E0,6.501503E0,7.2212267E0,3.3095746E0,3.7859497E0,2.633484E0,3.9051208E0,1.9616699E-1,4.6230164E0,5.1484375E0,1.7196655E0,0E0,7.3481445E0,8.988651E0,1.4927979E0,1.3761597E0,1.7553711E-1,0E0,0E0,0E0,0E0,0E0,0E0,0E0,0E0,0E0,0E0,0E0,0E0,0E0,0E0,0E0,0E0,0E0,0E0,0E0,0E0,0E0,0E0,0E0,0E0,0E0,0E0,0E0,0E0,0E0,0E0,0E0,0E0,0E0,0E0,0E0,0E0,0E0,0E0,0E0,0E0,0E0,0E0,0E0,0E0,0E0,0E0,0E0,0E0,0E0,0E0,0E0,0E0,0E0,0E0],"parents":[2147483647,0,0,1,1,2,2,3,3,4,4,5,5,6,6,7,7,8,8,9,9,10,10,11,11,12,12,13,13,14,14,15,15,16,16,19,19,20,20,21,21,22,22,23,23,24,24,25,25,26,26,27,27,28,28,29,29,30,30,31,31,32,32,33,33,34,34,35,35,36,36,37,37,38,38,39,39,40,40,41,41,42,42,43,43,44,44,45,45,46,46,47,47,48,48,49,49,50,50,51,51,52,52,54,54,55,55,56,56,57,57,58,58],"right_children":[2,4,6,8,10,12,14,16,18,20,22,24,26,28,30,32,34,-1,-1,36,38,40,42,44,46,48,50,52,54,56,58,60,62,64,66,68,70,72,74,76,78,80,82,84,86,88,90,92,94,96,98,100,102,-1,104,106,108,110,112,-1,-1,-1,-1,-1,-1,-1,-1,-1,-1,-1,-1,-1,-1,-1,-1,-1,-1,-1,-1,-1,-1,-1,-1,-1,-1,-1,-1,-1,-1,-1,-1,-1,-1,-1,-1,-1,-1,-1,-1,-1,-1,-1,-1,-1,-1,-1,-1,-1,-1,-1,-1,-1,-1],"split_conditions":[1.09E1,4.8E0,1.79E1,1.68145E1,7.7E0,1.46E1,2.11E1,3E0,1.7418196E1,6E0,9.2E0,1.28E1,1.64E1,1.94E1,2.22525E1,1.9E0,2.4125E0,8.2639426E-1,1.5249968E-1,2.347E0,9.328E0,1.5378E1,1.18235E1,1.9997E1,1.06235E1,1.90645E1,2.04025E1,2.2573502E1,8.447E0,2.0854538E1,2.15E1,9E-1,5.4700005E-1,1.9E0,5.7E0,6.9E0,1.54735E1,6.8E0,2.036294E2,5.7E0,2.4555606E2,2.7145E0,3.5455887E0,1.17E1,1.06E1,1.0547E1,1.6157999E1,1.47E1,3E-1,9.608E0,1.82E1,1.9134262E1,1.82E1,-1.2321053E-1,1.7558E1,2.33E1,2.47E1,3.2799466E2,2.51E1,-7.354084E-1,-6.531922E-1,-6.097508E-1,-5.5687356E-1,-1.1296893E-1,-5.0846004E-1,-4.4640318E-1,-4.8338845E-2,-4.2284265E-1,7.559896E-3,-3.3529776E-1,-1.3678269E-1,-3.183653E-1,-2.6289305E-1,-1.543356E-1,-2.6435456E-1,-4.8726E-1,-1.4392245E-1,6.735794E-2,-3.1198713E-1,-1.8457128E-1,-4.3253142E-2,4.1236505E-1,2.5500068E-2,4.4405617E-2,1.3082011E-1,3.3602107E-2,4.3608165E-1,1.3449644E-1,-2.0100127E-1,2.3447426E-1,3.400266E-1,2.4022494E-1,3.535432E-1,4.5456538E-1,-7.5824834E-2,2.1539083E-1,4.5089152E-1,5.3982806E-1,8.0272347E-1,5.8662754E-1,4.445566E-1,5.163097E-1,7.3682046E-1,6.0954976E-1,7.19696E-1,6.0136676E-1,-1.8942004E-1,8.1366974E-1,2.976412E-1,8.452231E-1,3.8489214E-1,1.0228351E0,2.9355413E-1],"split_indices":[1,1,1,4,1,1,1,1,6,1,1,1,3,1,4,2,4,0,0,4,4,4,4,4,4,4,4,4,4,7,3,1,4,2,2,2,4,2,7,3,7,4,6,3,3,4,4,3,5,4,2,6,1,0,4,2,2,7,2,0,0,0,0,0,0,0,0,0,0,0,0,0,0,0,0,0,0,0,0,0,0,0,0,0,0,0,0,0,0,0,0,0,0,0,0,0,0,0,0,0,0,0,0,0,0,0,0,0,0,0,0,0,0],"split_type":[0,0,0,0,0,0,0,0,0,0,0,0,0,0,0,0,0,0,0,0,0,0,0,0,0,0,0,0,0,0,0,0,0,0,0,0,0,0,0,0,0,0,0,0,0,0,0,0,0,0,0,0,0,0,0,0,0,0,0,0,0,0,0,0,0,0,0,0,0,0,0,0,0,0,0,0,0,0,0,0,0,0,0,0,0,0,0,0,0,0,0,0,0,0,0,0,0,0,0,0,0,0,0,0,0,0,0,0,0,0,0,0,0],"sum_hessian":[6.201E3,3.375E3,2.826E3,2.24E3,1.135E3,1.227E3,1.599E3,2.234E3,6E0,5.62E2,5.73E2,5.76E2,6.51E2,1.154E3,4.45E2,1.559E3,6.75E2,5E0,1E0,2.75E2,2.87E2,2.54E2,3.19E2,3.32E2,2.44E2,2.98E2,3.53E2,4.93E2,6.61E2,2.31E2,2.14E2,7.95E2,7.64E2,2.94E2,3.81E2,9.2E1,1.83E2,1.82E2,1.05E2,2.38E2,1.6E1,2.23E2,9.6E1,3.16E2,1.6E1,3.4E1,2.1E2,2.18E2,8E1,2.72E2,8.1E1,3.97E2,9.6E1,1E0,6.6E2,1.1E1,2.2E2,1.05E2,1.09E2,1.74E2,6.21E2,3.17E2,4.47E2,1E0,2.93E2,3.79E2,2E0,9.1E1,1E0,1.74E2,9E0,8.6E1,9.6E1,4.8E1,5.7E1,2E0,2.36E2,1.4E1,2E0,1.9E1,2.04E2,3E0,9.3E1,1.53E2,1.63E2,7E0,9E0,3.2E1,2E0,1.64E2,4.6E1,3.1E1,1.87E2,7.9E1,1E0,3E0,2.69E2,6.9E1,1.2E1,3.54E2,4.3E1,1.5E1,8.1E1,1.14E2,5.46E2,1E1,1E0,2.18E2,2E0,1.02E2,3E0,1.08E2,1E0],"tree_param":{"num_deleted":"0","num_feature":"8","num_nodes":"113","size_leaf_vector":"1"}},{"base_weights":[3.677721E-3,-1.0722013E0,1.2298594E0,-1.3470488E0,-4.9230894E-1,5.17432E-1,1.5779401E0,-1.3565979E0,1.8942965E0,-7.287361E-1,-2.2617193E-1,2.7542302E-1,8.212976E-1,1.3763409E0,1.8909954E0,-1.5354673E0,-1.1924684E0,6.1979556E-1,1.2962466E-1,-8.903829E-1,-6.4201117E-1,-3.302603E-1,-9.655974E-2,1.7327714E-1,5.250196E-1,6.953714E-1,1.0211198E0,1.1727045E0,1.5056884E0,1.8226649E0,7.301233E-1,-5.724596E-1,-1.51134E0,-1.3029581E0,-1.0793693E0,-1.2458217E0,-8.1248254E-1,-6.6089296E-1,-2.3630658E-2,-3.8980806E-1,-3.1853002E-1,-1.3695927E-1,3.4866458E-1,3.902904E-2,3.3809376E-1,6.426632E-1,3.4008607E-1,5.130549E-1,7.529222E-1,9.019076E-1,1.6054175E0,1.2256262E0,8.392507E-1,1.1604333E0,1.5529436E0,1.7426673E0,2.1409678E0,-4.7812423E-1,-4.40403E-1,-3.925585E-1,-1.1786674E-1,-3.6788386E-1,-3.1088266E-1,-2.3533079E-1,-4.0862635E-1,-2.4705833E-1,1.4227248E-2,-2.2681713E-1,-1.7390807E-1,1.5851918E-1,-5.606279E-2,-1.0026076E-1,7.448198E-2,-4.700327E-2,2.7087402E-1,1.1225094E-3,2.1944897E-1,-5.0478774E-1,1.659524E-2,1.05431095E-1,-5.1756077E-2,3.8889128E-1,1.8194154E-1,-6.460996E-2,1.17776506E-1,-1.977585E-1,1.623693E-1,1.968318E-1,2.7356803E-1,2.2564732E-1,3.4102282E-1,3.4875047E-1,6.311136E-1,3.554409E-1,5.1770306E-1,2.7415043E-1,-1.6917172E-1,3.7035164E-1,1.5284964E-1,4.6853974E-1,1.6136889E-1,4.9466687E-1,5.6040436E-1,4.6697754E-1,6.7692494E-1],"categories":[],"categories_nodes":[],"categories_segments":[],"categories_sizes":[],"default_left":[0,0,0,0,0,0,0,0,0,0,0,0,0,0,0,0,0,0,0,0,0,0,0,0,0,0,0,0,0,0,0,0,0,0,0,0,0,0,0,0,0,0,0,0,0,0,0,0,0,0,0,0,0,0,0,0,0,0,0,0,0,0,0,0,0,0,0,0,0,0,0,0,0,0,0,0,0,0,0,0,0,0,0,0,0,0,0,0,0,0,0,0,0,0,0,0,0,0,0,0,0,0,0,0,0],"id":5,"left_children":[1,3,5,7,9,11,13,15,17,19,21,23,25,27,29,31,33,-1,-1,35,37,39,41,43,45,47,49,51,53,55,-1,-1,57,59,61,63,65,67,69,-1,71,73,75,77,79,81,83,85,87,89,91,93,95,97,99,101,103,-1,-1,-1,-1,-1,-1,-1,-1,-1,-1,-1,-1,-1,-1,-1,-1,-1,-1,-1,-1,-1,-1,-1,-1,-1,-1,-1,-1,-1,-1,-1,-1,-1,-1,-1,-1,-1,-1,-1,-1,-1,-1,-1,-1,-1,-1,-1,-1],"loss_changes":[8.183139E3,5.2593506E2,7.180845E2,7.193359E1,6.678421E1,6.985573E1,1.2027588E2,6.378369E1,8.64645E-1,7.3209534E0,6.740654E0,1.3472507E1,9.908661E0,2.9526123E1,2.3749512E1,6.7023926E0,1.3214233E1,0E0,0E0,4.3594055E0,4.304535E0,2.7463665E0,4.0947943E0,8.372677E0,3.1319008E0,2.3627396E0,9.766586E0,7.194824E0,9.993774E0,1.3558838E1,0E0,0E0,1.2526855E0,2.4614868E0,2.4265137E0,7.0176697E-1,1.577713E0,2.3358154E0,1.1801363E0,0E0,2.5347404E0,4.3858995E0,2.506165E0,5.9821177E0,1.2188835E0,1.4138527E0,1.8926272E0,2.5367146E0,2.4337234E0,3.9276428E0,3.292694E0,6.1209106E0,7.5270653E0,3.7586823E0,4.8497314E0,3.3614502E0,5.3931274E0,0E0,0E0,0E0,0E0,0E0,0E0,0E0,0E0,0E0,0E0,0E0,0E0,0E0,0E0,0E0,0E0,0E0,0E0,0E0,0E0,0E0,0E0,0E0,0E0,0E0,0E0,0E0,0E0,0E0,0E0,0E0,0E0,0E0,0E0,0E0,0E0,0E0,0E0,0E0,0E0,0E0,0E0,0E0,0E0,0E0,0E0,0E0,0E0],"parents":[2147483647,0,0,1,1,2,2,3,3,4,4,5,5,6,6,7,7,8,8,9,9,10,10,11,11,12,12,13,13,14,14,15,15,16,16,19,19,20,20,21,21,22,22,23,23,24,24,25,25,26,26,27,27,28,28,29,29,32,32,33,33,34,34,35,35,36,36,37,37,38,38,40,40,41,41,42,42,43,43,44,44,45,45,46,46,47,47,48,48,49,49,50,50,51,51,52,52,53,53,54,54,55,55,56,56],"right_children":[2,4,6,8,10,12,14,16,18,20,22,24,26,28,30,32,34,-1,-1,36,38,40,42,44,46,48,50,52,54,56,-1,-1,58,60,62,64,66,68,70,-1,72,74,76,78,80,82,84,86,88,90,92,94,96,98,100,102,104,-1,-1,-1,-1,-1,-1,-1,-1,-1,-1,-1,-1,-1,-1,-1,-1,-1,-1,-1,-1,-1,-1,-1,-1,-1,-1,-1,-1,-1,-1,-1,-1,-1,-1,-1,-1,-1,-1,-1,-1,-1,-1,-1,-1,-1,-1,-1,-1],"split_conditions":[1.06E1,4.8E0,1.64E1,1.68145E1,7.7E0,1.38E1,2.02E1,2.2E0,1.7418196E1,5.6E0,9.4E0,1.39525E1,1.60525E1,1.83E1,2.32E1,6E-1,3.2E0,6.1979556E-1,1.2962466E-1,3.235E-1,1.59645E1,5.7E0,1.5564501E1,1.2E1,6E0,1.1408E1,1.68E1,1.7935081E1,1.5814501E1,2.4178E1,7.301233E-1,-5.724596E-1,1.2E0,4.4E0,-3.9E-1,4.9E0,6.4E0,4.5025E0,2E0,-3.8980806E-1,1.7032999E1,1.34E1,1.03E1,9.6250004E-1,1.3778E1,1.07E1,1.04E1,1.35E1,2.6034018E2,1.3797912E1,2.4343501E2,1.89E1,1.89E1,2.19718E1,2.15E1,2.13E1,1.3036446E2,-4.7812423E-1,-4.40403E-1,-3.925585E-1,-1.1786674E-1,-3.6788386E-1,-3.1088266E-1,-2.3533079E-1,-4.0862635E-1,-2.4705833E-1,1.4227248E-2,-2.2681713E-1,-1.7390807E-1,1.5851918E-1,-5.606279E-2,-1.0026076E-1,7.448198E-2,-4.700327E-2,2.7087402E-1,1.1225094E-3,2.1944897E-1,-5.0478774E-1,1.659524E-2,1.05431095E-1,-5.1756077E-2,3.8889128E-1,1.8194154E-1,-6.460996E-2,1.17776506E-1,-1.977585E-1,1.623693E-1,1.968318E-1,2.7356803E-1,2.2564732E-1,3.4102282E-1,3.4875047E-1,6.311136E-1,3.554409E-1,5.1770306E-1,2.7415043E-1,-1.6917172E-1,3.7035164E-1,1.5284964E-1,4.6853974E-1,1.6136889E-1,4.9466687E-1,5.6040436E-1,4.6697754E-1,6.7692494E-1],"split_indices":[1,1,1,4,1,2,1,1,6,2,2,4,4,1,1,1,1,0,0,4,4,3,4,3,0,4,3,6,4,4,0,0,3,3,4,1,3,4,0,0,4,3,1,4,4,1,2,3,7,6,7,2,2,6,2,1,7,0,0,0,0,0,0,0,0,0,0,0,0,0,0,0,0,0,0,0,0,0,0,0,0,0,0,0,0,0,0,0,0,0,0,0,0,0,0,0,0,0,0,0,0,0,0,0,0],"split_type":[0,0,0,0,0,0,0,0,0,0,0,0,0,0,0,0,0,0,0,0,0,0,0,0,0,0,0,0,0,0,0,0,0,0,0,0,0,0,0,0,0,0,0,0,0,0,0,0,0,0,0,0,0,0,0,0,0,0,0,0,0,0,0,0,0,0,0,0,0,0,0,0,0,0,0,0,0,0,0,0,0,0,0,0,0,0,0,0,0,0,0,0,0,0,0,0,0,0,0,0,0,0,0,0,0],"sum_hessian":[6.201E3,3.303E3,2.898E3,2.24E3,1.063E3,9.52E2,1.946E3,2.234E3,6E0,5.62E2,5.01E2,5.31E2,4.21E2,1.187E3,7.59E2,1.065E3,1.169E3,5E0,1E0,1.93E2,3.69E2,2.77E2,2.24E2,3.78E2,1.53E2,2.61E2,1.6E2,4.65E2,7.22E2,6.78E2,8.1E1,6E1,1.005E3,5.86E2,5.83E2,3.2E1,1.61E2,3.58E2,1.1E1,2E0,2.75E2,2.06E2,1.8E1,2.09E2,1.69E2,9.2E1,6.1E1,6.5E1,1.96E2,1.35E2,2.5E1,3.99E2,6.6E1,9E1,6.32E2,5.47E2,1.31E2,3.34E2,6.71E2,5.82E2,4E0,1.26E2,4.57E2,8E0,2.4E1,1.59E2,2E0,1.61E2,1.97E2,2E0,9E0,2.68E2,7E0,2.03E2,3E0,1E1,8E0,1E0,2.08E2,1.65E2,4E0,3E0,8.9E1,5E0,5.6E1,1E0,6.4E1,1.25E2,7.1E1,8.5E1,5E1,1.5E1,1E1,3.72E2,2.7E1,6.3E1,3E0,8E1,1E1,6.26E2,6E0,3.21E2,2.26E2,2.4E1,1.07E2],"tree_param":{"num_deleted":"0","num_feature":"8","num_nodes":"105","size_leaf_vector":"1"}},{"base_weights":[3.2442152E-3,-7.56885E-1,8.57315E-1,-9.610579E-1,-3.8603082E-1,4.4195008E-1,1.1617358E0,-9.6729064E-1,1.3920003E0,-5.910325E-1,-2.0233233E-1,2.0496035E-1,6.641317E-1,1.0641383E0,1.4304786E0,-1.0958065E0,-8.7105995E-1,5.411732E-1,7.350676E-1,-7.2876954E-1,-5.287124E-1,-3.4351167E-1,-1.2651128E-1,4.8159502E-2,3.1155542E-1,6.021344E-1,9.064482E-1,9.0367484E-1,1.1417409E0,1.3802506E0,1.8807609E0,-1.5040841E0,-1.0799992E0,-9.148946E-1,-7.4861014E-1,-2.6061632E-2,3.114015E-1,-9.22453E-1,-6.820604E-1,-5.363923E-1,6.2286633E-1,-3.981939E-1,-1.5986302E-1,-1.14157274E-1,-8.090866E-1,-4.2906955E-1,6.0129147E-2,2.747974E-1,6.6412514E-1,4.7846115E-1,6.685174E-1,9.3643063E-1,2.544046E-1,6.4475536E-1,9.534161E-1,1.1084574E0,1.4212027E0,1.3053826E0,1.6427795E0,2.0239286E0,1.130931E0,-4.6807215E-1,2.7090581E-2,-3.4756708E-1,-3.1447002E-1,-2.9201618E-1,-2.5501278E-1,-2.3438351E-1,-1.5485954E-1,8.663321E-3,-2.86876E-1,-9.023364E-2,-2.117878E-1,-1.6266707E-1,2.519211E-1,2.4267199E-2,2.5602266E-1,-1.2254191E-1,1.9313736E-1,3.5037924E-2,-7.1658984E-2,-4.5581903E-2,4.718271E-2,-4.2509496E-1,-8.475941E-2,-1.9863111E-1,2.1574747E-2,5.0828453E-2,1.12042055E-1,4.6312547E-1,1.4686938E-1,3.1299973E-1,1.379718E-1,1.02761164E-1,2.1255393E-1,2.6013887E-1,3.799432E-1,1.9554155E-1,-3.1949973E-1,-1.0974369E-1,2.1882655E-1,2.8801075E-1,-1.9459249E-1,-1.2763983E-1,3.3332416E-1,3.3978212E-1,4.95769E-1,4.217964E-1,3.1569213E-1,3.9418676E-1,5.312964E-1,6.1709297E-1,1.4000244E-1,4.1528666E-1,-1.343897E-1],"categories":[],"categories_nodes":[],"categories_segments":[],"categories_sizes":[],"default_left":[0,0,0,0,0,0,0,0,0,0,0,0,0,0,0,0,0,0,0,0,0,0,0,0,0,0,0,0,0,0,0,0,0,0,0,0,0,0,0,0,0,0,0,0,0,0,0,0,0,0,0,0,0,0,0,0,0,0,0,0,0,0,0,0,0,0,0,0,0,0,0,0,0,0,0,0,0,0,0,0,0,0,0,0,0,0,0,0,0,0,0,0,0,0,0,0,0,0,0,0,0,0,0,0,0,0,0,0,0,0,0,0,0,0,0],"id":6,"left_children":[1,3,5,7,9,11,13,15,17,19,21,23,25,27,29,31,33,-1,35,37,39,41,43,45,47,49,51,53,55,57,59,61,63,65,67,-1,-1,69,71,73,75,77,79,81,83,-1,85,87,89,91,93,95,97,99,101,103,105,107,109,111,113,-1,-1,-1,-1,-1,-1,-1,-1,-1,-1,-1,-1,-1,-1,-1,-1,-1,-1,-1,-1,-1,-1,-1,-1,-1,-1,-1,-1,-1,-1,-1,-1,-1,-1,-1,-1,-1,-1,-1,-1,-1,-1,-1,-1,-1,-1,-1,-1,-1,-1,-1,-1,-1,-1],"loss_changes":[4.027013E3,2.4813672E2,3.6883472E2,3.237964E1,4.382788E1,6.499782E1,4.267285E1,2.5152588E1,2.975874E-1,4.3443604E0,6.5611343E0,1.0013514E1,9.038879E0,1.440918E1,7.49115E0,4.184082E0,5.8204956E0,0E0,1.0861585E0,8.997345E-1,3.7213364E0,2.0954418E0,3.3059497E0,4.4037776E0,4.4441376E0,3.8753662E0,2.264145E0,4.6528015E0,6.163452E0,5.815857E0,2.219864E0,2.9164734E0,9.5654297E-1,2.5410767E0,2.0642548E0,0E0,0E0,9.922695E-1,1.0633774E0,3.5126648E0,3.0581236E-1,2.0302353E0,1.1425486E0,4.095286E0,1.8402953E0,0E0,2.1162078E0,3.3158875E0,4.311322E0,1.4277573E0,4.0597687E0,1.6922607E0,4.3644934E0,6.170553E0,4.239044E0,3.4822388E0,3.8037262E0,6.6679077E0,1.2985687E0,7.898407E-1,4.2203455E0,0E0,0E0,0E0,0E0,0E0,0E0,0E0,0E0,0E0,0E0,0E0,0E0,0E0,0E0,0E0,0E0,0E0,0E0,0E0,0E0,0E0,0E0,0E0,0E0,0E0,0E0,0E0,0E0,0E0,0E0,0E0,0E0,0E0,0E0,0E0,0E0,0E0,0E0,0E0,0E0,0E0,0E0,0E0,0E0,0E0,0E0,0E0,0E0,0E0,0E0,0E0,0E0,0E0,0E0],"parents":[2147483647,0,0,1,1,2,2,3,3,4,4,5,5,6,6,7,7,8,8,9,9,10,10,11,11,12,12,13,13,14,14,15,15,16,16,18,18,19,19,20,20,21,21,22,22,23,23,24,24,25,25,26,26,27,27,28,28,29,29,30,30,31,31,32,32,33,33,34,34,37,37,38,38,39,39,40,40,41,41,42,42,43,43,44,44,46,46,47,47,48,48,49,49,50,50,51,51,52,52,53,53,54,54,55,55,56,56,57,57,58,58,59,59,60,60],"right_children":[2,4,6,8,10,12,14,16,18,20,22,24,26,28,30,32,34,-1,36,38,40,42,44,46,48,50,52,54,56,58,60,62,64,66,68,-1,-1,70,72,74,76,78,80,82,84,-1,86,88,90,92,94,96,98,100,102,104,106,108,110,112,114,-1,-1,-1,-1,-1,-1,-1,-1,-1,-1,-1,-1,-1,-1,-1,-1,-1,-1,-1,-1,-1,-1,-1,-1,-1,-1,-1,-1,-1,-1,-1,-1,-1,-1,-1,-1,-1,-1,-1,-1,-1,-1,-1,-1,-1,-1,-1,-1,-1,-1,-1,-1,-1,-1],"split_conditions":[1.05E1,4.4E0,1.76E1,1.68145E1,6.8E0,1.41E1,2.11E1,2E0,2E0,2.5235002E0,4.633E0,1.11235E1,2.0483E1,1.8678E1,2.38E1,4E-1,3.5E0,5.411732E-1,4E0,6.924738E0,8.4E0,8.9E0,1.19E1,9.6250004E-1,1.9997E1,1.54E1,3.3883865E2,1.47145E1,2.4727999E1,2.4727999E1,1.5175612E1,5E0,-1.222E0,2.2735002E0,9.328E0,-2.6061632E-2,3.114015E-1,4.4E0,-7.3719997E0,1.88025E1,1E0,2.7859905E1,2.7645891E1,1.06E1,1.22E1,-4.2906955E-1,8.5E0,1.23E1,2.0158E1,1.31E1,9.743131E1,1.81E1,1.1384198E1,1.83E1,2.1E1,1.47E1,1.97E1,1.6299694E1,2.12E1,2.51E1,2.31735E1,-4.6807215E-1,2.7090581E-2,-3.4756708E-1,-3.1447002E-1,-2.9201618E-1,-2.5501278E-1,-2.3438351E-1,-1.5485954E-1,8.663321E-3,-2.86876E-1,-9.023364E-2,-2.117878E-1,-1.6266707E-1,2.519211E-1,2.4267199E-2,2.5602266E-1,-1.2254191E-1,1.9313736E-1,3.5037924E-2,-7.1658984E-2,-4.5581903E-2,4.718271E-2,-4.2509496E-1,-8.475941E-2,-1.9863111E-1,2.1574747E-2,5.0828453E-2,1.12042055E-1,4.6312547E-1,1.4686938E-1,3.1299973E-1,1.379718E-1,1.02761164E-1,2.1255393E-1,2.6013887E-1,3.799432E-1,1.9554155E-1,-3.1949973E-1,-1.0974369E-1,2.1882655E-1,2.8801075E-1,-1.9459249E-1,-1.2763983E-1,3.3332416E-1,3.3978212E-1,4.95769E-1,4.217964E-1,3.1569213E-1,3.9418676E-1,5.312964E-1,6.1709297E-1,1.4000244E-1,4.1528666E-1,-1.343897E-1],"split_indices":[1,1,2,4,2,1,1,1,0,4,4,4,4,4,1,1,1,0,0,6,3,1,2,4,4,1,7,4,4,4,6,0,4,4,4,0,0,2,4,4,0,6,7,3,3,0,2,3,4,3,7,1,6,3,1,1,2,6,2,2,4,0,0,0,0,0,0,0,0,0,0,0,0,0,0,0,0,0,0,0,0,0,0,0,0,0,0,0,0,0,0,0,0,0,0,0,0,0,0,0,0,0,0,0,0,0,0,0,0,0,0,0,0,0,0],"split_type":[0,0,0,0,0,0,0,0,0,0,0,0,0,0,0,0,0,0,0,0,0,0,0,0,0,0,0,0,0,0,0,0,0,0,0,0,0,0,0,0,0,0,0,0,0,0,0,0,0,0,0,0,0,0,0,0,0,0,0,0,0,0,0,0,0,0,0,0,0,0,0,0,0,0,0,0,0,0,0,0,0,0,0,0,0,0,0,0,0,0,0,0,0,0,0,0,0,0,0,0,0,0,0,0,0,0,0,0,0,0,0,0,0,0,0],"sum_hessian":[6.201E3,3.281E3,2.92E3,2.115E3,1.166E3,1.236E3,1.684E3,2.11E3,5E0,5.5E2,6.16E2,5.99E2,6.37E2,1.239E3,4.45E2,8.99E2,1.211E3,2E0,3E0,1.68E2,3.82E2,2.14E2,4.02E2,2.43E2,3.56E2,5.1E2,1.27E2,4.08E2,8.31E2,4.04E2,4.1E1,3E1,8.69E2,8.87E2,3.24E2,1E0,2E0,2.9E1,1.39E2,3.8E2,2E0,1.64E2,5E1,3.96E2,6E0,1E0,2.42E2,3.24E2,3.2E1,1.81E2,3.29E2,1.21E2,6E0,6.8E1,3.4E2,7.47E2,8.4E1,3.19E2,8.5E1,3.3E1,8E0,2.9E1,1E0,2.4E2,6.29E2,4.59E2,4.28E2,2.82E2,4.2E1,1E0,2.8E1,9E0,1.3E2,3.79E2,1E0,1E0,1E0,1.63E2,1E0,1.1E1,3.9E1,3.48E2,4.8E1,2E0,4E0,3E0,2.39E2,1.58E2,1.66E2,4E0,2.8E1,4E0,1.77E2,3.7E1,2.92E2,1.03E2,1.8E1,5E0,1E0,5E0,6.3E1,3.39E2,1E0,1E0,7.46E2,4E1,4.4E1,2.25E2,9.4E1,2.7E1,5.8E1,3.2E1,1E0,7E0,1E0],"tree_param":{"num_deleted":"0","num_feature":"8","num_nodes":"115","size_leaf_vector":"1"}},{"base_weights":[2.8345834E-3,-4.9446973E-1,6.4719415E-1,-6.417456E-1,-1.4391084E-1,3.920591E-1,8.409079E-1,-7.3494667E-1,-5.3080535E-1,-2.7286312E-1,-1.9561846E-2,2.548743E-1,5.330951E-1,7.4651396E-1,9.720979E-1,-7.3812073E-1,9.224799E-1,-5.3743315E-1,1.0666053E0,-2.360833E-1,-4.2093173E-1,-3.425381E-2,6.754101E-1,2.3297335E-1,6.3222873E-1,4.9353325E-1,7.7884805E-1,6.150414E-1,8.32293E-1,8.899895E-1,1.2557857E0,-8.2148266E-1,-7.033481E-1,3.516452E-1,6.3470796E-2,-5.734343E-1,-3.9248824E-1,4.110532E-1,-2.2152329E-2,-5.3429586E-1,-2.094243E-1,-4.679337E-1,-3.7256163E-2,-8.678183E-2,8.74145E-2,1.2766184E-1,1.3071756E0,1.6768543E-1,3.2338506E-1,2.706686E-1,1.0777584E0,5.0579023E-1,1.16980046E-1,8.281888E-1,-2.1922018E-1,6.3554776E-1,-1.6213456E-1,3.4810424E-1,8.561078E-1,1.0236684E0,7.472216E-1,1.0771768E0,1.4119918E0,-3.2851177E-1,-2.3912896E-1,-2.2339623E-1,-1.932877E-1,-1.9087161E-1,-1.5028107E-1,-1.2185462E-1,1.4174606E-1,-4.2620186E-2,-1.9032952E-1,-6.425746E-2,2.3817287E-1,-1.7716245E-1,-9.691153E-2,2.5691363E-1,-9.048631E-2,-5.4597723E-1,-2.309002E-2,2.0217482E-2,3.2783777E-1,9.5121175E-2,-6.9172E-2,4.5569652E-1,6.898871E-2,2.2349992E-1,4.7486316E-2,1.013393E-1,-1.2214606E-1,5.0995905E-2,2.2529355E-1,1.2549639E-1,4.1928965E-1,1.6851215E-1,1.2639943E-1,-2.0040199E-1,1.4991751E-1,2.9814345E-1,1.7830992E-1,-1.2898107E-1,1.938086E-1,-1.9789001E-1,1.4018726E-1,1.4493392E-1,-1.646925E-1,2.396539E-2,2.6046667E-1,-5.805779E-2,3.1021667E-1,3.426598E-1,2.0603877E-1,3.3585894E-1,2.9541494E-2,2.025947E-1,4.4428104E-1],"categories":[],"categories_nodes":[],"categories_segments":[],"categories_sizes":[],"default_left":[0,0,0,0,0,0,0,0,0,0,0,0,0,0,0,0,0,0,0,0,0,0,0,0,0,0,0,0,0,0,0,0,0,0,0,0,0,0,0,0,0,0,0,0,0,0,0,0,0,0,0,0,0,0,0,0,0,0,0,0,0,0,0,0,0,0,0,0,0,0,0,0,0,0,0,0,0,0,0,0,0,0,0,0,0,0,0,0,0,0,0,0,0,0,0,0,0,0,0,0,0,0,0,0,0,0,0,0,0,0,0,0,0,0,0,0,0],"id":7,"left_children":[1,3,5,7,9,11,13,15,17,19,21,23,25,27,29,31,33,35,37,39,41,43,45,47,49,51,53,55,57,59,61,63,65,-1,-1,67,69,-1,-1,71,73,75,77,79,81,83,85,87,89,91,93,95,97,99,-1,101,103,105,107,109,111,113,115,-1,-1,-1,-1,-1,-1,-1,-1,-1,-1,-1,-1,-1,-1,-1,-1,-1,-1,-1,-1,-1,-1,-1,-1,-1,-1,-1,-1,-1,-1,-1,-1,-1,-1,-1,-1,-1,-1,-1,-1,-1,-1,-1,-1,-1,-1,-1,-1,-1,-1,-1,-1,-1,-1],"loss_changes":[1.9877063E3,1.8066034E2,1.3321167E2,2.509729E1,1.6623047E1,2.24626E1,1.8282959E1,7.7144775E0,1.2526245E1,2.6726074E0,5.4244914E0,4.7617683E0,5.206024E0,9.604126E0,1.3766724E1,3.2920532E0,2.844894E-1,5.645447E0,1.8322124E0,3.147623E0,1.7859192E0,3.3245125E0,3.6396575E0,3.2690468E0,4.8630276E0,2.2393036E0,6.4149284E0,5.808502E0,5.92865E0,8.758514E0,2.4129028E0,1.7088318E0,1.8351746E0,0E0,0E0,3.7745361E0,2.880684E0,0E0,0E0,1.2059813E0,1.9780655E0,1.3903427E0,3.0932498E0,6.034907E0,3.0868554E0,5.480781E-1,7.915268E-1,1.6670437E0,2.6118393E0,7.911588E-1,2.368454E0,2.0396652E0,5.4414644E0,2.3525124E0,0E0,4.175125E0,3.4396243E0,3.5352857E0,4.7640076E0,3.4241028E0,5.062912E0,2.7913284E0,2.6567688E0,0E0,0E0,0E0,0E0,0E0,0E0,0E0,0E0,0E0,0E0,0E0,0E0,0E0,0E0,0E0,0E0,0E0,0E0,0E0,0E0,0E0,0E0,0E0,0E0,0E0,0E0,0E0,0E0,0E0,0E0,0E0,0E0,0E0,0E0,0E0,0E0,0E0,0E0,0E0,0E0,0E0,0E0,0E0,0E0,0E0,0E0,0E0,0E0,0E0,0E0,0E0,0E0,0E0,0E0],"parents":[2147483647,0,0,1,1,2,2,3,3,4,4,5,5,6,6,7,7,8,8,9,9,10,10,11,11,12,12,13,13,14,14,15,15,16,16,17,17,18,18,19,19,20,20,21,21,22,22,23,23,24,24,25,25,26,26,27,27,28,28,29,29,30,30,31,31,32,32,35,35,36,36,39,39,40,40,41,41,42,42,43,43,44,44,45,45,46,46,47,47,48,48,49,49,50,50,51,51,52,52,53,53,55,55,56,56,57,57,58,58,59,59,60,60,61,61,62,62],"right_children":[2,4,6,8,10,12,14,16,18,20,22,24,26,28,30,32,34,36,38,40,42,44,46,48,50,52,54,56,58,60,62,64,66,-1,-1,68,70,-1,-1,72,74,76,78,80,82,84,86,88,90,92,94,96,98,100,-1,102,104,106,108,110,112,114,116,-1,-1,-1,-1,-1,-1,-1,-1,-1,-1,-1,-1,-1,-1,-1,-1,-1,-1,-1,-1,-1,-1,-1,-1,-1,-1,-1,-1,-1,-1,-1,-1,-1,-1,-1,-1,-1,-1,-1,-1,-1,-1,-1,-1,-1,-1,-1,-1,-1,-1,-1,-1,-1,-1],"split_conditions":[1.15E1,5.8E0,1.81E1,2.6E0,8.8E0,1.55E1,2.1278E1,1.49145E1,1.8583E1,1.710284E1,1.9997E1,1.62E1,2.2473501E1,1.97E1,2.17E1,1.2E0,2E0,8.028E0,1.1457958E1,-2.7975001E0,8.4E0,1.1408E1,1.05E1,1.37E1,1.7178E1,1.88E1,1.8434847E1,2.06E1,1.92E1,1.9965392E2,2.31735E1,4E-1,2.5235002E0,3.516452E-1,6.3470796E-2,3.8E0,6.6E0,4.110532E-1,-2.2152329E-2,-6.542E0,1E0,2.4435904E2,7.9E0,7E0,1.34E1,2.10645E1,6E0,6.088435E0,1.61E1,2.8692758E2,1.65E1,6E0,1.7178E1,5E0,-2.1922018E-1,1.5E1,1.951E1,1.97E1,1.33735E1,6.088435E0,1E0,3.5405322E2,5.95906E0,-3.2851177E-1,-2.3912896E-1,-2.2339623E-1,-1.932877E-1,-1.9087161E-1,-1.5028107E-1,-1.2185462E-1,1.4174606E-1,-4.2620186E-2,-1.9032952E-1,-6.425746E-2,2.3817287E-1,-1.7716245E-1,-9.691153E-2,2.5691363E-1,-9.048631E-2,-5.4597723E-1,-2.309002E-2,2.0217482E-2,3.2783777E-1,9.5121175E-2,-6.9172E-2,4.5569652E-1,6.898871E-2,2.2349992E-1,4.7486316E-2,1.013393E-1,-1.2214606E-1,5.0995905E-2,2.2529355E-1,1.2549639E-1,4.1928965E-1,1.6851215E-1,1.2639943E-1,-2.0040199E-1,1.4991751E-1,2.9814345E-1,1.7830992E-1,-1.2898107E-1,1.938086E-1,-1.9789001E-1,1.4018726E-1,1.4493392E-1,-1.646925E-1,2.396539E-2,2.6046667E-1,-5.805779E-2,3.1021667E-1,3.426598E-1,2.0603877E-1,3.3585894E-1,2.9541494E-2,2.025947E-1,4.4428104E-1],"split_indices":[1,2,2,2,2,1,4,4,4,6,4,3,4,3,3,2,0,4,6,4,2,4,2,1,4,1,6,2,2,7,4,1,4,0,0,2,3,0,0,4,5,7,1,3,3,4,0,7,2,7,3,0,4,0,0,3,4,1,4,7,0,7,6,0,0,0,0,0,0,0,0,0,0,0,0,0,0,0,0,0,0,0,0,0,0,0,0,0,0,0,0,0,0,0,0,0,0,0,0,0,0,0,0,0,0,0,0,0,0,0,0,0,0,0,0,0,0],"split_type":[0,0,0,0,0,0,0,0,0,0,0,0,0,0,0,0,0,0,0,0,0,0,0,0,0,0,0,0,0,0,0,0,0,0,0,0,0,0,0,0,0,0,0,0,0,0,0,0,0,0,0,0,0,0,0,0,0,0,0,0,0,0,0,0,0,0,0,0,0,0,0,0,0,0,0,0,0,0,0,0,0,0,0,0,0,0,0,0,0,0,0,0,0,0,0,0,0,0,0,0,0,0,0,0,0,0,0,0,0,0,0,0,0,0,0,0,0],"sum_hessian":[6.201E3,3.5E3,2.701E3,2.464E3,1.036E3,1.167E3,1.534E3,1.336E3,1.128E3,5.08E2,5.28E2,5.93E2,5.74E2,8.96E2,6.38E2,1.334E3,2E0,1.124E3,4E0,4.09E2,9.9E1,5.18E2,1E1,5.62E2,3.1E1,4.97E2,7.7E1,3.57E2,5.39E2,4.98E2,1.4E2,3.86E2,9.48E2,1E0,1E0,8.98E2,2.26E2,3E0,1E0,3.2E1,3.77E2,8.8E1,1.1E1,3.62E2,1.56E2,6E0,4E0,3.28E2,2.34E2,1.8E1,1.3E1,4.81E2,1.6E1,7.5E1,2E0,3.48E2,9E0,2.6E1,5.13E2,2.54E2,2.44E2,6.9E1,7.1E1,2.8E1,3.58E2,5.51E2,3.97E2,4.77E2,4.21E2,2.23E2,3E0,7E0,2.5E1,3.76E2,1E0,4.6E1,4.2E1,2E0,9E0,1E0,3.61E2,1.54E2,2E0,4E0,2E0,3E0,1E0,4E0,3.24E2,2.3E2,4E0,1.6E1,2E0,5E0,8E0,2.86E2,1.95E2,5E0,1.1E1,4.2E1,3.3E1,3E0,3.45E2,5E0,4E0,2.3E1,3E0,8E0,5.05E2,2E0,2.52E2,3E1,2.14E2,6.6E1,3E0,7E0,6.4E1],"tree_param":{"num_deleted":"0","num_feature":"8","num_nodes":"117","size_leaf_vector":"1"}},{"base_weights":[2.5192506E-3,-3.7244493E-1,4.2382357E-1,-4.8083398E-1,-2.0275928E-1,1.7727613E-1,5.489786E-1,-4.8477086E-1,9.096408E-1,-2.992986E-1,-9.838095E-2,9.043533E-2,2.8823105E-1,4.329868E-1,6.372156E-1,-5.525968E-1,-4.39357E-1,5.395017E-2,3.0589065E-1,-2.8091094E-1,-5.5874574E-1,-1.1519577E-1,1.6085526E-1,-3.9689797E-1,1.0473384E-1,2.507409E-1,4.5005348E-1,4.672583E-1,2.4221736E-1,8.144374E-1,5.985214E-1,-5.471654E-1,-4.4777453E-1,-6.670857E-1,-4.259518E-1,-2.9537106E-1,-6.844374E-2,-4.230732E-1,-9.1496825E-1,-1.0869529E-1,-6.317789E-1,3.5292622E-1,1.01612404E-1,-4.0199828E-1,-7.618391E-2,-3.2736668E-1,1.1435595E-1,2.5851157E-1,-2.2260304E-1,6.155983E-1,2.3062097E-1,4.5227113E-1,1.1811001E0,-8.21682E-1,2.6526016E-1,6.926746E-1,1.0349032E0,6.9060427E-1,5.2288854E-1,-2.1443442E-1,-1.6062671E-1,-2.0840083E-1,1.6474056E-1,-1.318257E-1,-9.547592E-2,-8.676899E-2,-2.2781277E-1,3.982167E-2,-6.949869E-2,-9.91646E-2,-1.899233E-1,-1.3955495E-1,-3.0764696E-1,-5.8543943E-2,-1.9724624E-2,-3.3545795E-1,-6.4072385E-2,7.436866E-2,-3.17633E-2,2.3411358E-2,-8.0734685E-2,1.6121078E-2,-2.6149774E-1,-1.9101246E-3,4.2982925E-2,2.0170731E-2,8.507774E-2,1.3349608E-1,2.884788E-1,1.0691687E-1,-1.8612666E-1,3.3943275E-1,1.3282707E-1,4.6207842E-1,1.3365251E-1,-3.1586295E-1,-5.389395E-2,9.245692E-2,-1.0098216E-1,-3.7031893E-2,2.1805607E-1,2.5904372E-1,4.3607593E-1,1.1585743E-1,2.2461939E-1,-1.5870082E-1,1.6230923E-1],"categories":[],"categories_nodes":[],"categories_segments":[],"categories_sizes":[],"default_left":[0,0,0,0,0,0,0,0,0,0,0,0,0,0,0,0,0,0,0,0,0,0,0,0,0,0,0,0,0,0,0,0,0,0,0,0,0,0,0,0,0,0,0,0,0,0,0,0,0,0,0,0,0,0,0,0,0,0,0,0,0,0,0,0,0,0,0,0,0,0,0,0,0,0,0,0,0,0,0,0,0,0,0,0,0,0,0,0,0,0,0,0,0,0,0,0,0,0,0,0,0,0,0,0,0,0,0],"id":8,"left_children":[1,3,5,7,9,11,13,15,17,19,21,23,25,27,29,31,33,-1,-1,35,37,39,41,43,45,47,49,51,53,55,57,59,-1,61,63,65,67,69,71,73,75,-1,77,-1,79,81,83,85,-1,87,89,91,93,95,97,99,101,103,105,-1,-1,-1,-1,-1,-1,-1,-1,-1,-1,-1,-1,-1,-1,-1,-1,-1,-1,-1,-1,-1,-1,-1,-1,-1,-1,-1,-1,-1,-1,-1,-1,-1,-1,-1,-1,-1,-1,-1,-1,-1,-1,-1,-1,-1,-1,-1,-1],"loss_changes":[9.799128E2,6.026529E1,9.003497E1,1.1400269E1,1.28787E1,9.464819E0,1.9548828E1,5.9084473E0,2.9828358E-1,3.0155106E0,2.7080398E0,3.9019184E0,2.5079918E0,5.378708E0,7.042053E0,3.2523346E0,3.3822327E0,0E0,0E0,1.8938255E0,1.6910744E0,1.8789916E0,2.166731E0,4.737342E0,2.2784467E0,2.9149857E0,2.764103E0,7.072418E0,3.404941E0,4.490982E0,5.9417725E0,1.1801453E0,0E0,2.5620785E0,1.5092468E0,1.4416199E0,1.3770566E0,4.319458E-1,6.9779396E-2,2.1183052E0,1.1851261E0,0E0,1.1492816E0,0E0,4.078067E-1,2.5360217E0,1.8443522E0,1.6648083E0,0E0,2.2285042E0,4.0743537E0,4.009369E0,3.0125465E0,2.5615954E-1,3.4109888E0,3.6601448E0,3.5536118E0,6.8771515E0,9.847122E0,0E0,0E0,0E0,0E0,0E0,0E0,0E0,0E0,0E0,0E0,0E0,0E0,0E0,0E0,0E0,0E0,0E0,0E0,0E0,0E0,0E0,0E0,0E0,0E0,0E0,0E0,0E0,0E0,0E0,0E0,0E0,0E0,0E0,0E0,0E0,0E0,0E0,0E0,0E0,0E0,0E0,0E0,0E0,0E0,0E0,0E0,0E0,0E0],"parents":[2147483647,0,0,1,1,2,2,3,3,4,4,5,5,6,6,7,7,8,8,9,9,10,10,11,11,12,12,13,13,14,14,15,15,16,16,19,19,20,20,21,21,22,22,23,23,24,24,25,25,26,26,27,27,28,28,29,29,30,30,31,31,33,33,34,34,35,35,36,36,37,37,38,38,39,39,40,40,42,42,44,44,45,45,46,46,47,47,49,49,50,50,51,51,52,52,53,53,54,54,55,55,56,56,57,57,58,58],"right_children":[2,4,6,8,10,12,14,16,18,20,22,24,26,28,30,32,34,-1,-1,36,38,40,42,44,46,48,50,52,54,56,58,60,-1,62,64,66,68,70,72,74,76,-1,78,-1,80,82,84,86,-1,88,90,92,94,96,98,100,102,104,106,-1,-1,-1,-1,-1,-1,-1,-1,-1,-1,-1,-1,-1,-1,-1,-1,-1,-1,-1,-1,-1,-1,-1,-1,-1,-1,-1,-1,-1,-1,-1,-1,-1,-1,-1,-1,-1,-1,-1,-1,-1,-1,-1,-1,-1,-1,-1,-1],"split_conditions":[1.05E1,4.1E0,1.64E1,1.68145E1,6.8E0,1.38E1,1.94E1,1.9E0,2.22525E1,2.2963936E1,1.59645E1,5.308E0,2.02525E1,1.7935081E1,1E0,3E0,-4.7375E0,5.395017E-2,3.0589065E-1,1.3778E1,3.2903632E2,1.19E1,3.319036E0,1.1113451E1,9.6E0,1.94E1,6E0,2.04E1,1.8043148E1,2.2473501E1,1.9068486E2,5E-1,-4.4777453E-1,4.5E0,7.6235E0,7.6E0,1.6727565E2,6E0,2.5171696E1,8.2E0,1.22E1,3.5292622E-1,6E0,-4.0199828E-1,1.11E1,8.4E0,9.078E0,1.0030479E2,-2.2260304E-1,2.1553777E2,2.8692758E2,1.52E1,1.2245293E1,5E0,1.99E1,1.96E1,2.28E1,1.74235E1,1.83E1,-2.1443442E-1,-1.6062671E-1,-2.0840083E-1,1.6474056E-1,-1.318257E-1,-9.547592E-2,-8.676899E-2,-2.2781277E-1,3.982167E-2,-6.949869E-2,-9.91646E-2,-1.899233E-1,-1.3955495E-1,-3.0764696E-1,-5.8543943E-2,-1.9724624E-2,-3.3545795E-1,-6.4072385E-2,7.436866E-2,-3.17633E-2,2.3411358E-2,-8.0734685E-2,1.6121078E-2,-2.6149774E-1,-1.9101246E-3,4.2982925E-2,2.0170731E-2,8.507774E-2,1.3349608E-1,2.884788E-1,1.0691687E-1,-1.8612666E-1,3.3943275E-1,1.3282707E-1,4.6207842E-1,1.3365251E-1,-3.1586295E-1,-5.389395E-2,9.245692E-2,-1.0098216E-1,-3.7031893E-2,2.1805607E-1,2.5904372E-1,4.3607593E-1,1.1585743E-1,2.2461939E-1,-1.5870082E-1,1.6230923E-1],"split_indices":[1,2,3,4,2,1,1,2,4,6,4,4,4,6,0,3,4,0,0,4,7,2,6,6,2,1,0,2,6,4,7,2,0,3,4,1,7,0,6,2,3,0,0,0,2,2,4,7,0,7,7,2,6,0,2,1,2,4,3,0,0,0,0,0,0,0,0,0,0,0,0,0,0,0,0,0,0,0,0,0,0,0,0,0,0,0,0,0,0,0,0,0,0,0,0,0,0,0,0,0,0,0,0,0,0,0,0],"split_type":[0,0,0,0,0,0,0,0,0,0,0,0,0,0,0,0,0,0,0,0,0,0,0,0,0,0,0,0,0,0,0,0,0,0,0,0,0,0,0,0,0,0,0,0,0,0,0,0,0,0,0,0,0,0,0,0,0,0,0,0,0,0,0,0,0,0,0,0,0,0,0,0,0,0,0,0,0,0,0,0,0,0,0,0,0,0,0,0,0,0,0,0,0,0,0,0,0,0,0,0,0,0,0,0,0,0,0],"sum_hessian":[6.201E3,3.281E3,2.92E3,2.001E3,1.28E3,9.84E2,1.936E3,1.996E3,5E0,6.64E2,6.16E2,5.53E2,4.31E2,8.39E2,1.097E3,7.96E2,1.2E3,1E0,4E0,6.22E2,4.2E1,5.79E2,3.7E1,1.5E1,5.38E2,3.52E2,7.9E1,7.1E2,1.29E2,1.93E2,9.04E2,7.93E2,3E0,6.4E1,1.136E3,5.82E2,4E1,3.2E1,1E1,5.73E2,6E0,1E0,3.6E1,3E0,1.2E1,1.1E1,5.27E2,3.5E2,2E0,4.4E1,3.5E1,6.97E2,1.3E1,2E0,1.27E2,1.27E2,6.6E1,4.04E2,5E2,4.8E1,7.45E2,6.3E1,1E0,1.007E3,1.29E2,5.76E2,6E0,1.8E1,2.2E1,2.4E1,8E0,3E0,7E0,1.89E2,3.84E2,2E0,4E0,2.1E1,1.5E1,7E0,5E0,7E0,4E0,1.02E2,4.25E2,4.1E1,3.09E2,3.1E1,1.3E1,3.1E1,4E0,8E0,6.89E2,8E0,5E0,1E0,1E0,1.19E2,8E0,5E0,1.22E2,4.9E1,1.7E1,6.6E1,3.38E2,8E0,4.92E2],"tree_param":{"num_deleted":"0","num_feature":"8","num_nodes":"107","size_leaf_vector":"1"}},{"base_weights":[1.6949141E-3,-2.3828018E-1,3.2685414E-1,-3.1537414E-1,-6.031519E-2,2.183945E-1,4.3465537E-1,-3.18256E-1,7.523327E-1,-1.7381954E-1,-1.0576831E-2,1.7646867E-1,3.6339384E-1,4.0686828E-1,6.1295956E-1,-3.7128082E-1,-2.6825044E-1,2.7890587E-1,8.8592225E-1,-1.5017498E-1,-3.1602037E-1,4.6220366E-2,-9.215411E-2,1.8149394E-1,-4.831705E-1,4.857523E-1,2.7378052E-1,4.6050432E-1,3.2361543E-1,7.770107E-1,4.4386455E-1,-3.6752856E-1,-7.8217524E-1,-3.5953906E-1,-2.4131997E-1,1.9022085E-1,-6.4713195E-2,3.0929205E-1,4.5857623E-2,-2.4810833E-1,-1.0566579E-1,1.3561508E-1,-3.8715604E-1,2.6954687E-1,4.0331163E-2,-7.973517E-2,-5.4944974E-1,5.1054846E-2,2.0898399E-1,4.7603227E-2,-2.1706982E-1,5.254454E-1,3.3836797E-2,4.2461333E-1,5.3235095E-2,4.1302374E-1,6.374273E-1,2.9558367E-1,5.7057863E-1,1.1439551E0,6.5938896E-1,3.1860423E-1,7.1969914E-1,-1.3322562E-1,-1.06156975E-1,-3.4715912E-1,-1.0178838E-1,-1.9767289E-1,-1.02244124E-1,-8.552338E-2,-5.748701E-2,-1.954497E-1,-6.319405E-2,-8.1975505E-2,-1.9948784E-2,7.9458475E-2,-9.59796E-2,-2.0619513E-1,-8.719114E-2,-2.6653307E-2,2.4556624E-2,-5.4443363E-2,-8.312355E-3,-3.029964E-1,-2.1338768E-2,1.859812E-1,1.03242695E-2,6.7283474E-2,8.0068465E-3,8.811901E-2,1.8643588E-1,7.702929E-2,-1.9386742E-1,9.906181E-2,2.9833344E-1,4.0092506E-2,-7.6757684E-2,1.6749343E-1,1.1028973E-1,-6.800661E-2,2.0097233E-1,1.0634096E-3,9.6636966E-2,1.533223E-1,3.6998445E-1,1.0198312E-1,4.3927494E-1,-9.932957E-2,2.0364723E-1,2.2605154E-1,6.965009E-2,2.5359106E-1,9.471775E-2],"categories":[],"categories_nodes":[],"categories_segments":[],"categories_sizes":[],"default_left":[0,0,0,0,0,0,0,0,0,0,0,0,0,0,0,0,0,0,0,0,0,0,0,0,0,0,0,0,0,0,0,0,0,0,0,0,0,0,0,0,0,0,0,0,0,0,0,0,0,0,0,0,0,0,0,0,0,0,0,0,0,0,0,0,0,0,0,0,0,0,0,0,0,0,0,0,0,0,0,0,0,0,0,0,0,0,0,0,0,0,0,0,0,0,0,0,0,0,0,0,0,0,0,0,0,0,0,0,0,0,0,0,0],"id":9,"left_children":[1,3,5,7,9,11,13,15,17,19,21,23,25,27,29,31,33,35,37,39,41,43,45,47,49,51,53,55,57,59,61,63,65,67,69,-1,-1,-1,-1,71,73,75,77,-1,79,81,83,85,87,-1,-1,89,91,93,95,97,99,101,103,105,107,109,111,-1,-1,-1,-1,-1,-1,-1,-1,-1,-1,-1,-1,-1,-1,-1,-1,-1,-1,-1,-1,-1,-1,-1,-1,-1,-1,-1,-1,-1,-1,-1,-1,-1,-1,-1,-1,-1,-1,-1,-1,-1,-1,-1,-1,-1,-1,-1,-1,-1,-1],"loss_changes":[4.840207E2,4.8947723E1,3.0701996E1,7.901169E0,6.0953236E0,7.930046E0,6.290619E0,6.4868164E0,1.9562554E-1,1.0587301E0,3.4885466E0,3.475481E0,3.0907097E0,4.963791E0,4.5373993E0,1.5673065E0,3.0649567E0,6.637848E-1,3.740654E-1,1.2117205E0,1.530365E0,2.1922812E0,1.7110393E0,3.6288948E0,1.3491927E0,2.1885853E0,5.6990585E0,5.56662E0,2.9604568E0,3.043827E0,2.8457508E0,1.0926056E0,1.2682676E0,1.4011192E0,2.1047745E0,0E0,0E0,0E0,0E0,1.1925864E0,1.2749994E0,4.968828E-1,9.5908785E-1,0E0,2.3781233E0,1.5935787E0,1.6904392E0,1.6637121E0,2.3304062E0,0E0,0E0,2.3313046E0,1.833576E0,5.158848E0,1.7987702E0,3.4218826E0,4.2215614E0,3.1610909E0,1.1442175E0,4.652647E0,1.5530224E0,2.193335E0,1.103118E0,0E0,0E0,0E0,0E0,0E0,0E0,0E0,0E0,0E0,0E0,0E0,0E0,0E0,0E0,0E0,0E0,0E0,0E0,0E0,0E0,0E0,0E0,0E0,0E0,0E0,0E0,0E0,0E0,0E0,0E0,0E0,0E0,0E0,0E0,0E0,0E0,0E0,0E0,0E0,0E0,0E0,0E0,0E0,0E0,0E0,0E0,0E0,0E0,0E0,0E0],"parents":[2147483647,0,0,1,1,2,2,3,3,4,4,5,5,6,6,7,7,8,8,9,9,10,10,11,11,12,12,13,13,14,14,15,15,16,16,17,17,18,18,19,19,20,20,21,21,22,22,23,23,24,24,25,25,26,26,27,27,28,28,29,29,30,30,31,31,32,32,33,33,34,34,39,39,40,40,41,41,42,42,44,44,45,45,46,46,47,47,48,48,51,51,52,52,53,53,54,54,55,55,56,56,57,57,58,58,59,59,60,60,61,61,62,62],"right_children":[2,4,6,8,10,12,14,16,18,20,22,24,26,28,30,32,34,36,38,40,42,44,46,48,50,52,54,56,58,60,62,64,66,68,70,-1,-1,-1,-1,72,74,76,78,-1,80,82,84,86,88,-1,-1,90,92,94,96,98,100,102,104,106,108,110,112,-1,-1,-1,-1,-1,-1,-1,-1,-1,-1,-1,-1,-1,-1,-1,-1,-1,-1,-1,-1,-1,-1,-1,-1,-1,-1,-1,-1,-1,-1,-1,-1,-1,-1,-1,-1,-1,-1,-1,-1,-1,-1,-1,-1,-1,-1,-1,-1,-1,-1],"split_conditions":[1.19E1,5.9E0,1.88E1,1.8583E1,5.178E0,2.0664501E1,2.4178E1,2.4E0,1.7287508E2,1.7373497E1,2.363099E2,1.98E1,1.7642374E2,1.476439E1,3E0,3E0,-3.9E-1,1E0,1.7418196E1,6.8E0,2E0,5.4E0,1.22E1,1.18235E1,1.0308831E1,1.7935081E1,6E0,2.15E1,5E-1,2.08E1,2.17E1,9E-1,1.3939879E2,-8.2975E0,3.8E0,1.9022085E-1,-6.4713195E-2,3.0929205E-1,4.5857623E-2,4.6938257E0,-1.6999997E-2,8.6E0,4E0,2.6954687E-1,8.2E0,8.6E0,2.7279263E2,6.088435E0,2.1261345E1,4.7603227E-2,-2.1706982E-1,3E0,2.6323502E1,3.082902E2,2.9230624E2,8.287822E0,1.6073652E1,1.86E1,2.33E1,9.779817E0,2E1,1.98E1,2.3285323E2,-1.3322562E-1,-1.06156975E-1,-3.4715912E-1,-1.0178838E-1,-1.9767289E-1,-1.02244124E-1,-8.552338E-2,-5.748701E-2,-1.954497E-1,-6.319405E-2,-8.1975505E-2,-1.9948784E-2,7.9458475E-2,-9.59796E-2,-2.0619513E-1,-8.719114E-2,-2.6653307E-2,2.4556624E-2,-5.4443363E-2,-8.312355E-3,-3.029964E-1,-2.1338768E-2,1.859812E-1,1.03242695E-2,6.7283474E-2,8.0068465E-3,8.811901E-2,1.8643588E-1,7.702929E-2,-1.9386742E-1,9.906181E-2,2.9833344E-1,4.0092506E-2,-7.6757684E-2,1.6749343E-1,1.1028973E-1,-6.800661E-2,2.0097233E-1,1.0634096E-3,9.6636966E-2,1.533223E-1,3.6998445E-1,1.0198312E-1,4.3927494E-1,-9.932957E-2,2.0364723E-1,2.2605154E-1,6.965009E-2,2.5359106E-1,9.471775E-2],"split_indices":[1,3,3,4,4,4,4,2,7,6,7,2,7,6,0,3,4,0,6,1,0,2,2,4,6,6,0,3,5,1,1,1,7,4,3,0,0,0,0,6,4,1,0,0,2,1,7,7,6,0,0,0,4,7,7,6,7,1,3,6,2,1,7,0,0,0,0,0,0,0,0,0,0,0,0,0,0,0,0,0,0,0,0,0,0,0,0,0,0,0,0,0,0,0,0,0,0,0,0,0,0,0,0,0,0,0,0,0,0,0,0,0,0],"split_type":[0,0,0,0,0,0,0,0,0,0,0,0,0,0,0,0,0,0,0,0,0,0,0,0,0,0,0,0,0,0,0,0,0,0,0,0,0,0,0,0,0,0,0,0,0,0,0,0,0,0,0,0,0,0,0,0,0,0,0,0,0,0,0,0,0,0,0,0,0,0,0,0,0,0,0,0,0,0,0,0,0,0,0,0,0,0,0,0,0,0,0,0,0,0,0,0,0,0,0,0,0,0,0,0,0,0,0,0,0,0,0,0,0],"sum_hessian":[6.201E3,3.568E3,2.633E3,2.489E3,1.079E3,1.314E3,1.319E3,2.483E3,6E0,3.28E2,7.51E2,1.021E3,2.93E2,1.144E3,1.75E2,1.202E3,1.281E3,2E0,4E0,2.83E2,4.5E1,4.43E2,3.08E2,1.014E3,7E0,1.22E2,1.71E2,6.93E2,4.51E2,8.7E1,8.8E1,1.193E3,9E0,2.89E2,9.92E2,1E0,1E0,3E0,1E0,8.7E1,1.96E2,6E0,3.9E1,2E0,4.41E2,3.01E2,7E0,1.77E2,8.37E2,2E0,5E0,1.12E2,1E1,1.01E2,7E1,5.49E2,1.44E2,4.07E2,4.4E1,1.9E1,6.8E1,6.2E1,2.6E1,1.76E2,1.017E3,4E0,5E0,1.5E1,2.74E2,5.25E2,4.67E2,6E0,8.1E1,3.6E1,1.6E2,5E0,1E0,8E0,3.1E1,1.07E2,3.34E2,1.01E2,2E2,3E0,4E0,4E0,1.73E2,7.72E2,6.5E1,3.4E1,7.8E1,8E0,2E0,8.8E1,1.3E1,5.6E1,1.4E1,1.28E2,4.21E2,5E0,1.39E2,3.4E1,3.73E2,4.2E1,2E0,6E0,1.3E1,1E0,6.7E1,9E0,5.3E1,1.9E1,7E0],"tree_param":{"num_deleted":"0","num_feature":"8","num_nodes":"113","size_leaf_vector":"1"}},{"base_weights":[1.4283861E-3,-1.8240088E-1,2.117545E-1,-2.2899175E-1,-8.478563E-2,1.0960507E-1,2.9206875E-1,-2.3147207E-1,5.952981E-1,-6.1158523E-2,-1.718755E-1,8.101449E-2,2.819646E-1,2.6502806E-1,4.3368644E-1,-2.712083E-1,-2.0148085E-1,2.455391E-1,3.4233913E-1,-7.896864E-2,9.880435E-2,-2.6804373E-1,-1.0604081E-1,-6.292016E-2,1.0846175E-1,1.12753026E-1,3.9793566E-1,3.2749203E-1,2.1628965E-1,4.1650403E-1,3.6594465E-1,-2.6832154E-1,-7.6775837E-1,-2.6485488E-1,-1.8166482E-1,-5.5006314E-2,5.196011E-1,-3.572968E-1,-6.940726E-2,7.049406E-2,2.5473624E-1,-1.4421585E-1,-3.415483E-1,2.3048425E-1,-1.246847E-1,-7.138833E-1,-4.3631E-2,7.10587E-1,1.0439485E-1,1.689678E-2,3.1574354E-1,1.629782E-1,5.2497053E-1,2.5193128E-1,4.093493E-1,2.789382E-1,7.645691E-2,4.4686761E-1,1.836669E-1,-1.4847054E-1,-7.917871E-2,-2.8731725E-1,-1.1842847E-3,-1.4762315E-1,-7.487241E-2,-4.9732763E-2,-7.904841E-2,3.897901E-2,1.8185444E-1,-1.6437657E-1,-5.8105584E-2,-4.8776064E-2,-1.20806275E-2,2.1031167E-1,1.1425695E-2,-5.7813734E-2,1.3604522E-1,-1.104129E-1,7.741127E-2,-7.8268945E-2,-9.196769E-3,-5.987331E-2,-2.3776957E-1,2.3756449E-3,-5.3089898E-2,2.6947495E-1,-3.4159042E-2,1.18194735E-2,3.871201E-2,1.5710821E-2,-1.7398377E-1,1.079302E-1,-3.3703614E-2,4.8806854E-3,6.827393E-2,1.6927293E-1,2.8956454E-2,9.159742E-2,-1.9037921E-2,-7.733438E-3,1.4178509E-1,8.602065E-2,-2.4542557E-1,1.5687874E-2,1.477549E-1,1.2735176E-1,3.2383168E-1,8.535797E-2,-2.5575963E-1],"categories":[],"categories_nodes":[],"categories_segments":[],"categories_sizes":[],"default_left":[0,0,0,0,0,0,0,0,0,0,0,0,0,0,0,0,0,0,0,0,0,0,0,0,0,0,0,0,0,0,0,0,0,0,0,0,0,0,0,0,0,0,0,0,0,0,0,0,0,0,0,0,0,0,0,0,0,0,0,0,0,0,0,0,0,0,0,0,0,0,0,0,0,0,0,0,0,0,0,0,0,0,0,0,0,0,0,0,0,0,0,0,0,0,0,0,0,0,0,0,0,0,0,0,0,0,0,0,0],"id":10,"left_children":[1,3,5,7,9,11,13,15,17,19,21,23,25,27,29,31,33,-1,35,37,39,41,43,45,47,49,51,53,55,57,-1,59,61,63,65,-1,67,69,71,73,-1,75,77,-1,79,81,83,85,87,89,91,93,95,97,99,101,103,105,107,-1,-1,-1,-1,-1,-1,-1,-1,-1,-1,-1,-1,-1,-1,-1,-1,-1,-1,-1,-1,-1,-1,-1,-1,-1,-1,-1,-1,-1,-1,-1,-1,-1,-1,-1,-1,-1,-1,-1,-1,-1,-1,-1,-1,-1,-1,-1,-1,-1,-1],"loss_changes":[2.3983336E2,1.5034401E1,2.3702332E1,4.7174835E0,2.193266E0,6.2601776E0,6.084915E0,2.6076965E0,1.1496973E-1,2.4123218E0,1.415091E0,4.332745E0,3.5070105E0,4.07563E0,2.976902E0,1.1672058E0,1.5555687E0,0E0,5.611985E-1,1.9977126E0,1.745684E0,7.8811884E-1,2.3289957E0,2.1788023E0,2.1786995E0,1.454008E0,3.1081543E0,3.5770607E0,6.7066E0,1.7136421E0,0E0,8.188553E-1,7.21709E-1,9.257355E-1,1.2253075E0,0E0,5.6190252E-2,6.735871E-1,1.9917772E0,1.6694019E0,0E0,1.1309025E0,1.0004625E0,0E0,1.7210588E0,4.4154644E-2,1.1836282E0,1.0305898E0,1.4606104E0,1.1312933E0,4.9272442E-1,3.6592567E-1,1.106554E0,5.2733994E0,7.8305473E0,4.76807E0,2.3770697E0,2.7103462E0,3.4823987E0,0E0,0E0,0E0,0E0,0E0,0E0,0E0,0E0,0E0,0E0,0E0,0E0,0E0,0E0,0E0,0E0,0E0,0E0,0E0,0E0,0E0,0E0,0E0,0E0,0E0,0E0,0E0,0E0,0E0,0E0,0E0,0E0,0E0,0E0,0E0,0E0,0E0,0E0,0E0,0E0,0E0,0E0,0E0,0E0,0E0,0E0,0E0,0E0,0E0,0E0],"parents":[2147483647,0,0,1,1,2,2,3,3,4,4,5,5,6,6,7,7,8,8,9,9,10,10,11,11,12,12,13,13,14,14,15,15,16,16,18,18,19,19,20,20,21,21,22,22,23,23,24,24,25,25,26,26,27,27,28,28,29,29,31,31,32,32,33,33,34,34,36,36,37,37,38,38,39,39,41,41,42,42,44,44,45,45,46,46,47,47,48,48,49,49,50,50,51,51,52,52,53,53,54,54,55,55,56,56,57,57,58,58],"right_children":[2,4,6,8,10,12,14,16,18,20,22,24,26,28,30,32,34,-1,36,38,40,42,44,46,48,50,52,54,56,58,-1,60,62,64,66,-1,68,70,72,74,-1,76,78,-1,80,82,84,86,88,90,92,94,96,98,100,102,104,106,108,-1,-1,-1,-1,-1,-1,-1,-1,-1,-1,-1,-1,-1,-1,-1,-1,-1,-1,-1,-1,-1,-1,-1,-1,-1,-1,-1,-1,-1,-1,-1,-1,-1,-1,-1,-1,-1,-1,-1,-1,-1,-1,-1,-1,-1,-1,-1,-1,-1,-1],"split_conditions":[1.06E1,4.8E0,1.7682999E1,1.68145E1,1.7193533E1,4E-1,2.15E1,2.1E0,2E0,1.5278E1,1.9134262E1,9.797E0,1.6904597E2,1.9068486E2,1E0,3E0,-1.0875E0,2.455391E-1,4E0,4.5E0,1.6267857E1,6.7E0,1.9242327E1,8.9E0,9.6E0,1.92E1,1.20735E1,5E0,6E0,2.38E1,3.6594465E-1,2E-1,1.9E0,-8.2975E0,2.0240198E1,-5.5006314E-2,1.9E0,1.1988594E1,8.049845E0,3.5455887E0,2.5473624E-1,1.30735E1,6E-1,2.3048425E-1,7.158E0,4E0,1.584409E1,5E0,1.34E1,1.68145E1,3E0,1.29E1,1.9242327E1,4E0,9.439862E1,2.29E1,2E-1,2.46E1,2E-1,-1.4847054E-1,-7.917871E-2,-2.8731725E-1,-1.1842847E-3,-1.4762315E-1,-7.487241E-2,-4.9732763E-2,-7.904841E-2,3.897901E-2,1.8185444E-1,-1.6437657E-1,-5.8105584E-2,-4.8776064E-2,-1.20806275E-2,2.1031167E-1,1.1425695E-2,-5.7813734E-2,1.3604522E-1,-1.104129E-1,7.741127E-2,-7.8268945E-2,-9.196769E-3,-5.987331E-2,-2.3776957E-1,2.3756449E-3,-5.3089898E-2,2.6947495E-1,-3.4159042E-2,1.18194735E-2,3.871201E-2,1.5710821E-2,-1.7398377E-1,1.079302E-1,-3.3703614E-2,4.8806854E-3,6.827393E-2,1.6927293E-1,2.8956454E-2,9.159742E-2,-1.9037921E-2,-7.733438E-3,1.4178509E-1,8.602065E-2,-2.4542557E-1,1.5687874E-2,1.477549E-1,1.2735176E-1,3.2383168E-1,8.535797E-2,-2.5575963E-1],"split_indices":[3,1,4,4,6,5,3,2,0,4,6,4,7,7,5,3,4,0,0,3,6,3,6,1,1,3,4,0,0,3,0,1,2,4,6,0,1,6,6,6,0,4,5,0,4,1,6,0,3,4,5,2,6,0,7,2,5,1,5,0,0,0,0,0,0,0,0,0,0,0,0,0,0,0,0,0,0,0,0,0,0,0,0,0,0,0,0,0,0,0,0,0,0,0,0,0,0,0,0,0,0,0,0,0,0,0,0,0,0],"split_type":[0,0,0,0,0,0,0,0,0,0,0,0,0,0,0,0,0,0,0,0,0,0,0,0,0,0,0,0,0,0,0,0,0,0,0,0,0,0,0,0,0,0,0,0,0,0,0,0,0,0,0,0,0,0,0,0,0,0,0,0,0,0,0,0,0,0,0,0,0,0,0,0,0,0,0,0,0,0,0,0,0,0,0,0,0,0,0,0,0,0,0,0,0,0,0,0,0,0,0,0,0,0,0,0,0,0,0,0,0],"sum_hessian":[6.201E3,3.309E3,2.892E3,2.239E3,1.07E3,1.274E3,1.618E3,2.233E3,6E0,8.43E2,2.27E2,1.094E3,1.8E2,1.361E3,2.57E2,9.57E2,1.276E3,2E0,4E0,7.59E2,8.4E1,9.1E1,1.36E2,1.75E2,9.19E2,7.4E1,1.06E2,5.94E2,7.67E2,2.53E2,4E0,9.53E2,4E0,3.01E2,9.75E2,1E0,3E0,2.4E1,7.35E2,8.2E1,2E0,3.5E1,5.6E1,2E0,1.34E2,4E0,1.71E2,5E0,9.14E2,5.1E1,2.3E1,3.8E1,6.8E1,3.11E2,2.83E2,5.29E2,2.38E2,2.23E2,3E1,1.6E1,9.37E2,3E0,1E0,1.7E1,2.84E2,8.19E2,1.56E2,1E0,2E0,1E1,1.4E1,1.74E2,5.61E2,3E0,7.9E1,3.3E1,2E0,5.4E1,2E0,5.4E1,8E1,1E0,3E0,1.24E2,4.7E1,4E0,1E0,2.52E2,6.62E2,4.9E1,2E0,2.1E1,2E0,1.2E1,2.6E1,6.2E1,6E0,2.66E2,4.5E1,3.6E1,2.47E2,5.26E2,3E0,2.26E2,1.2E1,2.17E2,6E0,2.8E1,2E0],"tree_param":{"num_deleted":"0","num_feature":"8","num_nodes":"109","size_leaf_vector":"1"}},{"base_weights":[1.1461962E-3,-1.2770322E-1,1.4856769E-1,-1.5516862E-1,-4.397734E-2,7.926048E-2,2.1495886E-1,-1.5892936E-1,2.2229889E-1,-4.9226373E-2,2.8524935E-1,-2.1639736E-2,9.509271E-2,2.0776214E-1,6.2463456E-1,-1.6044158E-1,4.8831925E-1,1.88818E-1,8.9055635E-2,-5.9408072E-2,7.195762E-2,3.7723255E-1,-1.4710553E-1,-6.5191466E-1,-8.256897E-3,9.92039E-2,-3.676515E-1,6.9295186E-1,2.0256019E-1,-4.40074E-2,6.6288525E-1,-1.9958223E-1,-1.4456911E-1,4.8058607E-2,1.8369971E-1,1.8126488E-2,1.454836E-1,-5.3056035E-2,-2.6574743E-1,-4.1036356E-2,3.1694648E-1,1.5243244E-2,4.0479365E-1,6.538296E-3,-7.273579E-2,-5.0892342E-2,-2.2683765E-1,-4.4996005E-2,1.3514313E-1,9.33831E-2,4.6069247E-1,3.4541264E-1,-8.244614E-1,-1.2952805E-2,4.5046514E-1,3.1629777E-1,1.818841E-1,7.182096E-1,3.621165E-2,-5.905224E-2,-2.3346229E-1,-7.433367E-2,-4.107451E-2,9.177504E-2,-4.537852E-2,-1.3793278E-2,-6.294313E-2,-9.249016E-2,9.418016E-2,2.2554427E-2,-5.527703E-2,1.8188027E-1,3.4356683E-2,1.2900649E-1,2.6661301E-2,-5.227177E-2,3.296107E-3,1.4624691E-1,2.4284003E-2,2.0480095E-1,2.725052E-2,1.6690525E-1,-1.1134244E-2,1.4404736E-1,-2.9035235E-2,-3.9361367E-1,-1.1010561E-1,8.1198454E-2,-2.0112057E-1,6.964577E-2,1.2990884E-1,6.3872196E-2,2.4633827E-2,2.2558849E-1,7.613793E-2,-7.452393E-3,2.3747636E-2],"categories":[],"categories_nodes":[],"categories_segments":[],"categories_sizes":[],"default_left":[0,0,0,0,0,0,0,0,0,0,0,0,0,0,0,0,0,0,0,0,0,0,0,0,0,0,0,0,0,0,0,0,0,0,0,0,0,0,0,0,0,0,0,0,0,0,0,0,0,0,0,0,0,0,0,0,0,0,0,0,0,0,0,0,0,0,0,0,0,0,0,0,0,0,0,0,0,0,0,0,0,0,0,0,0,0,0,0,0,0,0,0,0,0,0,0,0],"id":11,"left_children":[1,3,5,7,9,11,13,15,17,19,21,23,25,27,29,31,33,-1,35,37,39,41,43,45,47,49,51,53,55,-1,57,59,61,-1,-1,63,-1,65,67,69,71,-1,73,-1,-1,-1,-1,75,77,79,81,83,85,87,-1,89,91,93,95,-1,-1,-1,-1,-1,-1,-1,-1,-1,-1,-1,-1,-1,-1,-1,-1,-1,-1,-1,-1,-1,-1,-1,-1,-1,-1,-1,-1,-1,-1,-1,-1,-1,-1,-1,-1,-1,-1],"loss_changes":[1.1782704E2,7.6047363E0,1.3294777E1,3.5728722E0,1.4293735E0,2.2656813E0,4.2248993E0,2.4939613E0,1.3000137E0,9.999989E-1,5.72495E-1,1.6225467E0,2.3669472E0,3.5269127E0,8.3483315E-1,1.5013084E0,1.4605713E-1,0E0,5.52812E-1,9.623532E-1,1.756989E0,7.8394055E-2,5.3596415E-2,7.276249E-2,1.0070748E0,2.5135212E0,3.8678617E0,8.581351E0,3.3264923E0,0E0,8.0607986E-1,9.698944E-1,1.3532753E0,0E0,0E0,9.237426E-1,0E0,7.936876E-1,6.3946533E-1,7.462221E-1,1.1018806E0,0E0,4.1484237E-2,0E0,0E0,0E0,0E0,1.1016992E0,7.052809E-1,1.7353191E0,9.2541647E-1,3.443911E-1,1.0797467E0,1.8596095E0,0E0,2.060402E0,3.7586975E0,1.5400696E-1,9.832556E-3,0E0,0E0,0E0,0E0,0E0,0E0,0E0,0E0,0E0,0E0,0E0,0E0,0E0,0E0,0E0,0E0,0E0,0E0,0E0,0E0,0E0,0E0,0E0,0E0,0E0,0E0,0E0,0E0,0E0,0E0,0E0,0E0,0E0,0E0,0E0,0E0,0E0,0E0],"parents":[2147483647,0,0,1,1,2,2,3,3,4,4,5,5,6,6,7,7,8,8,9,9,10,10,11,11,12,12,13,13,14,14,15,15,16,16,18,18,19,19,20,20,21,21,22,22,23,23,24,24,25,25,26,26,27,27,28,28,30,30,31,31,32,32,35,35,37,37,38,38,39,39,40,40,42,42,47,47,48,48,49,49,50,50,51,51,52,52,53,53,55,55,56,56,57,57,58,58],"right_children":[2,4,6,8,10,12,14,16,18,20,22,24,26,28,30,32,34,-1,36,38,40,42,44,46,48,50,52,54,56,-1,58,60,62,-1,-1,64,-1,66,68,70,72,-1,74,-1,-1,-1,-1,76,78,80,82,84,86,88,-1,90,92,94,96,-1,-1,-1,-1,-1,-1,-1,-1,-1,-1,-1,-1,-1,-1,-1,-1,-1,-1,-1,-1,-1,-1,-1,-1,-1,-1,-1,-1,-1,-1,-1,-1,-1,-1,-1,-1,-1,-1],"split_conditions":[1.06E1,5.9E0,1.83E1,1.5033E1,1.4E1,9.797E0,2.7914501E1,6.8E0,2E0,3E-1,1.3246826E1,8.6E0,1.97E1,1.72E1,1.69E1,1.8E0,7.3E0,1.88818E-1,3.459637E2,1.05E1,7.3025002E0,-3E-1,1.6E1,4E0,1E-1,1.9E1,1.78E1,2.02525E1,1E0,-4.40074E-2,1.863401E2,2.7E0,-4.7375E0,4.8058607E-2,1.8369971E-1,1.56525E1,1.454836E-1,2.2691425E1,3.3001843E2,1.5580141E1,1.0800426E2,1.5243244E-2,1.1726277E1,6.538296E-3,-7.273579E-2,-5.0892342E-2,-2.2683765E-1,4E0,7.754637E0,9.6E0,6E0,3E0,1.5807239E1,1.64E1,4.5046514E-1,2.1383E1,2.6910486E2,1.8043148E1,2.03E1,-5.905224E-2,-2.3346229E-1,-7.433367E-2,-4.107451E-2,9.177504E-2,-4.537852E-2,-1.3793278E-2,-6.294313E-2,-9.249016E-2,9.418016E-2,2.2554427E-2,-5.527703E-2,1.8188027E-1,3.4356683E-2,1.2900649E-1,2.6661301E-2,-5.227177E-2,3.296107E-3,1.4624691E-1,2.4284003E-2,2.0480095E-1,2.725052E-2,1.6690525E-1,-1.1134244E-2,1.4404736E-1,-2.9035235E-2,-3.9361367E-1,-1.1010561E-1,8.1198454E-2,-2.0112057E-1,6.964577E-2,1.2990884E-1,6.3872196E-2,2.4633827E-2,2.2558849E-1,7.613793E-2,-7.452393E-3,2.3747636E-2],"split_indices":[3,1,2,4,1,4,4,2,0,5,6,1,3,1,1,2,2,0,7,3,4,2,1,1,5,3,2,4,0,0,7,1,4,0,0,4,0,6,7,6,7,0,6,0,0,0,0,0,6,1,0,0,6,1,0,4,7,6,1,0,0,0,0,0,0,0,0,0,0,0,0,0,0,0,0,0,0,0,0,0,0,0,0,0,0,0,0,0,0,0,0,0,0,0,0,0,0],"split_type":[0,0,0,0,0,0,0,0,0,0,0,0,0,0,0,0,0,0,0,0,0,0,0,0,0,0,0,0,0,0,0,0,0,0,0,0,0,0,0,0,0,0,0,0,0,0,0,0,0,0,0,0,0,0,0,0,0,0,0,0,0,0,0,0,0,0,0,0,0,0,0,0,0,0,0,0,0,0,0,0,0,0,0,0,0,0,0,0,0,0,0,0,0,0,0,0,0],"sum_hessian":[6.201E3,3.309E3,2.892E3,2.491E3,8.18E2,1.416E3,1.476E3,2.467E3,2.4E1,8.06E2,1.2E1,1.92E2,1.224E3,1.452E3,2.4E1,2.462E3,5E0,5E0,1.9E1,7.44E2,6.2E1,1E1,2E0,3E0,1.89E2,1.214E3,1E1,1.4E1,1.438E3,1E0,2.3E1,7.07E2,1.755E3,2E0,3E0,1.7E1,2E0,7.23E2,2.1E1,4.3E1,1.9E1,1E0,9E0,1E0,1E0,1E0,2E0,1.51E2,3.8E1,1.196E3,1.8E1,4E0,6E0,8E0,6E0,2.19E2,1.219E3,2.1E1,2E0,7.05E2,2E0,1.19E2,1.636E3,6E0,1.1E1,6.93E2,3E1,2E1,1E0,2.4E1,1.9E1,7E0,1.2E1,8E0,1E0,4.5E1,1.06E2,4E0,3.4E1,4E0,1.192E3,1.5E1,3E0,3E0,1E0,2E0,4E0,6E0,2E0,1.29E2,9E1,9.29E2,2.9E2,1.9E1,2E0,1E0,1E0],"tree_param":{"num_deleted":"0","num_feature":"8","num_nodes":"97","size_leaf_vector":"1"}},{"base_weights":[9.884628E-4,-8.350966E-2,1.16544105E-1,-1.1407955E-1,-1.1893155E-2,7.539922E-2,1.65545E-1,-1.1273574E-1,-2.7843893E-1,-6.855924E-2,8.395587E-3,8.6492874E-2,-5.1820546E-2,1.48404E-1,2.646045E-1,-1.3110599E-1,-8.684958E-2,-5.9776336E-2,-4.64074E-1,-1.7543849E-2,9.286281E-2,1.2352612E-1,3.0388178E-2,-4.382886E-3,-7.8308976E-1,5.6350157E-2,1.784966E-1,3.09852E-1,8.7469205E-2,-3.167734E-1,-1.2766261E-1,-8.085687E-2,-2.1809101E-1,6.3733035E-3,-1.13861814E-1,-8.3570224E-1,-6.933427E-2,5.0421607E-2,-4.5927666E-2,6.099496E-1,6.619627E-2,7.708948E-2,1.7445078E-1,1.4604492E-1,-4.167806E-2,-2.1091525E-1,5.0268E-2,-1.232368E0,-1.3803911E-1,8.468635E-2,-5.747448E-1,1.6572201E-1,4.0717062E-1,2.599713E-1,8.1609184E-1,2.5699508E-1,-1.7830175E-1,-2.0171592E-2,-2.3419379E-1,-3.8799826E-2,2.4558414E-2,-2.6330547E-2,9.259595E-3,-3.8583525E-2,-2.334813E-1,5.5292053E-3,-2.2511989E-1,1.4560743E-2,-4.82007E-2,-7.726178E-2,-2.9880425E-1,-3.169613E-2,5.943632E-3,8.029679E-3,7.114459E-2,-9.122186E-2,-6.6491747E-3,2.6535654E-1,9.7572975E-2,2.6722685E-2,-9.812525E-2,1.9852113E-2,1.1550653E-1,4.490287E-2,1.3360184E-1,-2.7593903E-2,6.70145E-2,-6.938411E-2,-4.6758736E-3,-9.363273E-2,3.8345627E-2,-3.670564E-2,2.467397E-2,-3.062153E-2,-4.7253287E-1,-6.959382E-2,2.156725E-2,-1.3979678E-1,2.9463934E-2,-5.033129E-1,1.4574194E-2,4.604726E-2,1.2126366E-1,1.3789321E-1,-5.4000236E-2,7.174422E-2,4.356909E-1,3.6916927E-2,3.100292E-1,1.0581187E-1,-3.647968E-3,1.6355896E-1,-9.9464215E-2],"categories":[],"categories_nodes":[],"categories_segments":[],"categories_sizes":[],"default_left":[0,0,0,0,0,0,0,0,0,0,0,0,0,0,0,0,0,0,0,0,0,0,0,0,0,0,0,0,0,0,0,0,0,0,0,0,0,0,0,0,0,0,0,0,0,0,0,0,0,0,0,0,0,0,0,0,0,0,0,0,0,0,0,0,0,0,0,0,0,0,0,0,0,0,0,0,0,0,0,0,0,0,0,0,0,0,0,0,0,0,0,0,0,0,0,0,0,0,0,0,0,0,0,0,0,0,0,0,0,0,0,0,0],"id":12,"left_children":[1,3,5,7,9,11,13,15,-1,17,19,21,23,25,27,29,31,33,35,37,39,41,43,45,47,49,51,53,55,57,59,61,63,65,67,69,71,73,75,77,79,81,83,85,87,89,91,93,95,97,99,101,103,105,107,109,111,-1,-1,-1,-1,-1,-1,-1,-1,-1,-1,-1,-1,-1,-1,-1,-1,-1,-1,-1,-1,-1,-1,-1,-1,-1,-1,-1,-1,-1,-1,-1,-1,-1,-1,-1,-1,-1,-1,-1,-1,-1,-1,-1,-1,-1,-1,-1,-1,-1,-1,-1,-1,-1,-1,-1,-1],"loss_changes":[6.0567513E1,7.8429375E0,5.2697945E0,2.6422272E0,1.234186E0,2.0170422E0,1.9898186E0,1.1812534E0,0E0,9.5533586E-1,1.7347356E0,2.7222395E0,3.9858837E0,2.8182564E0,1.3755093E0,8.9616585E-1,8.034644E-1,9.9533594E-1,8.222358E-1,1.1713619E0,2.5243618E0,1.8547201E0,4.365264E0,1.2409046E0,1.8585353E0,4.573029E0,2.1789398E0,3.2978115E0,1.7128596E0,2.9570706E0,5.1449394E-1,7.748904E-1,2.1555076E0,1.1635424E0,1.1708088E0,2.1546364E-2,1.5044225E-2,7.843343E-1,2.6188257E0,4.158671E-1,1.6307783E0,1.3694692E0,2.4567347E0,3.720564E0,1.5942982E0,8.282826E-1,4.9031553E-1,1.3888235E0,9.556067E-2,1.855838E0,7.6440706E0,2.0673752E0,1.3151708E0,2.8307962E0,1.6803131E0,5.967947E-1,1.8438528E0,0E0,0E0,0E0,0E0,0E0,0E0,0E0,0E0,0E0,0E0,0E0,0E0,0E0,0E0,0E0,0E0,0E0,0E0,0E0,0E0,0E0,0E0,0E0,0E0,0E0,0E0,0E0,0E0,0E0,0E0,0E0,0E0,0E0,0E0,0E0,0E0,0E0,0E0,0E0,0E0,0E0,0E0,0E0,0E0,0E0,0E0,0E0,0E0,0E0,0E0,0E0,0E0,0E0,0E0,0E0,0E0],"parents":[2147483647,0,0,1,1,2,2,3,3,4,4,5,5,6,6,7,7,9,9,10,10,11,11,12,12,13,13,14,14,15,15,16,16,17,17,18,18,19,19,20,20,21,21,22,22,23,23,24,24,25,25,26,26,27,27,28,28,29,29,30,30,31,31,32,32,33,33,34,34,35,35,36,36,37,37,38,38,39,39,40,40,41,41,42,42,43,43,44,44,45,45,46,46,47,47,48,48,49,49,50,50,51,51,52,52,53,53,54,54,55,55,56,56],"right_children":[2,4,6,8,10,12,14,16,-1,18,20,22,24,26,28,30,32,34,36,38,40,42,44,46,48,50,52,54,56,58,60,62,64,66,68,70,72,74,76,78,80,82,84,86,88,90,92,94,96,98,100,102,104,106,108,110,112,-1,-1,-1,-1,-1,-1,-1,-1,-1,-1,-1,-1,-1,-1,-1,-1,-1,-1,-1,-1,-1,-1,-1,-1,-1,-1,-1,-1,-1,-1,-1,-1,-1,-1,-1,-1,-1,-1,-1,-1,-1,-1,-1,-1,-1,-1,-1,-1,-1,-1,-1,-1,-1,-1,-1,-1],"split_conditions":[1.30735E1,6.4E0,1.91E1,7.5E0,5.178E0,2.1129885E1,2E-1,3.033E0,-2.7843893E-1,1.11E1,1E-1,6E0,1.9E1,1.9127998E1,2.2E1,-1.0592E1,2.6282465E1,1.1304229E1,5E0,8.308001E0,6.7E0,1.8158E1,1.7642374E2,2.19718E1,1.82E1,2.29E1,3.3595578E2,2.15E1,2.23645E1,9.028754E0,6.2E0,3.258855E2,3.3459232E2,1.05E1,2.7645891E1,2E0,4.41E0,1.2E1,6.1189304E1,1.1988594E1,1.75E1,1.3E0,3.171211E2,7.9919464E1,1.8476355E2,1.79E1,1.3547E1,4E0,6E0,1.8E1,2.19E1,2.7414501E1,2.37E1,2.22E1,1.3423619E2,1.6135872E1,1.10924576E2,-2.0171592E-2,-2.3419379E-1,-3.8799826E-2,2.4558414E-2,-2.6330547E-2,9.259595E-3,-3.8583525E-2,-2.334813E-1,5.5292053E-3,-2.2511989E-1,1.4560743E-2,-4.82007E-2,-7.726178E-2,-2.9880425E-1,-3.169613E-2,5.943632E-3,8.029679E-3,7.114459E-2,-9.122186E-2,-6.6491747E-3,2.6535654E-1,9.7572975E-2,2.6722685E-2,-9.812525E-2,1.9852113E-2,1.1550653E-1,4.490287E-2,1.3360184E-1,-2.7593903E-2,6.70145E-2,-6.938411E-2,-4.6758736E-3,-9.363273E-2,3.8345627E-2,-3.670564E-2,2.467397E-2,-3.062153E-2,-4.7253287E-1,-6.959382E-2,2.156725E-2,-1.3979678E-1,2.9463934E-2,-5.033129E-1,1.4574194E-2,4.604726E-2,1.2126366E-1,1.3789321E-1,-5.4000236E-2,7.174422E-2,4.356909E-1,3.6916927E-2,3.100292E-1,1.0581187E-1,-3.647968E-3,1.6355896E-1,-9.9464215E-2],"split_indices":[4,3,3,1,4,6,5,4,0,2,5,0,1,4,1,4,6,6,0,4,2,4,7,6,3,2,7,1,4,6,3,7,7,1,7,0,4,1,7,6,1,5,7,7,7,1,4,0,0,2,1,4,2,2,7,6,7,0,0,0,0,0,0,0,0,0,0,0,0,0,0,0,0,0,0,0,0,0,0,0,0,0,0,0,0,0,0,0,0,0,0,0,0,0,0,0,0,0,0,0,0,0,0,0,0,0,0,0,0,0,0,0,0],"split_type":[0,0,0,0,0,0,0,0,0,0,0,0,0,0,0,0,0,0,0,0,0,0,0,0,0,0,0,0,0,0,0,0,0,0,0,0,0,0,0,0,0,0,0,0,0,0,0,0,0,0,0,0,0,0,0,0,0,0,0,0,0,0,0,0,0,0,0,0,0,0,0,0,0,0,0,0,0,0,0,0,0,0,0,0,0,0,0,0,0,0,0,0,0,0,0,0,0,0,0,0,0,0,0,0,0,0,0,0,0,0,0,0,0],"sum_hessian":[6.201E3,3.582E3,2.619E3,2.51E3,1.072E3,1.425E3,1.194E3,2.507E3,3E0,2.82E2,7.9E2,1.311E3,1.14E2,1.02E3,1.74E2,1.464E3,1.043E3,2.77E2,5E0,6.05E2,1.85E2,7.89E2,5.22E2,1.08E2,6E0,2.52E2,7.68E2,1.38E2,3.6E1,2.5E1,1.439E3,9.99E2,4.4E1,1.25E2,1.52E2,2E0,3E0,1.78E2,4.27E2,8E0,1.77E2,4.14E2,3.75E2,2E2,3.22E2,2.2E1,8.6E1,3E0,3E0,2.42E2,1E1,7.29E2,3.9E1,1.27E2,1.1E1,2.2E1,1.4E1,1.7E1,8E0,1.428E3,1.1E1,9.41E2,5.8E1,3.9E1,5E0,1.24E2,1E0,3.4E1,1.18E2,1E0,1E0,2E0,1E0,1.59E2,1.9E1,3.5E1,3.92E2,3E0,5E0,1.68E2,9E0,4.01E2,1.3E1,3.45E2,3E1,4.9E1,1.51E2,3.8E1,2.84E2,1.7E1,5E0,1.3E1,7.3E1,1E0,2E0,2E0,1E0,5E0,2.37E2,3E0,7E0,6.95E2,3.4E1,3.6E1,3E0,1.26E2,1E0,3E0,8E0,1.6E1,6E0,2E0,1.2E1],"tree_param":{"num_deleted":"0","num_feature":"8","num_nodes":"113","size_leaf_vector":"1"}},{"base_weights":[5.492058E-4,-5.3198833E-2,9.038365E-2,-8.128995E-2,-1.2193744E-2,8.0913655E-2,1.9683126E-1,-9.817277E-2,-4.7219418E-2,-1.1656395E-1,-7.513664E-4,1.3240975E-1,5.8567412E-2,1.5201744E-1,6.412994E-1,-2.9644033E-1,-9.510202E-2,6.125488E-1,-5.1492244E-2,1.5192458E-1,-1.714303E-1,6.507533E-2,-3.2839376E-2,5.2187815E-2,1.7324394E-1,1.9840011E-2,1.0844828E-1,1.6813688E-1,-3.9307883E-1,2.1082552E-1,8.569374E-1,-7.535659E-2,-7.0155275E-1,-1.0115087E-1,-3.627495E-2,5.521195E-2,2.0209984E-1,-3.771041E-2,-1.477132E-1,5.0912574E-2,4.332571E-1,1.5602325E-1,-2.1229559E-1,-5.3359363E-2,8.8595405E-2,-5.8143277E-2,7.88737E-3,7.883989E-2,-3.762097E-1,5.132436E-1,1.5350755E-1,3.9757323E-2,-8.924498E-2,2.4737862E-1,5.2762683E-2,-5.2251E-2,2.5386968E-1,-3.413725E-2,1.2092457E-1,3.2731354E-1,3.5779914E-1,-7.634928E-2,1.6695635E-3,-8.7009594E-2,-3.1216967E-1,-1.322957E-2,-3.24774E-2,-1.6578639E-2,6.653422E-2,-1.0012029E-2,-1.0532523E-1,7.7111624E-2,-4.775442E-2,3.146823E-2,-4.284213E-2,3.2974437E-2,1.4064851E-1,1.8192086E-2,7.691084E-2,1.0540376E-1,-7.06688E-2,-2.5597027E-2,1.0332895E-1,2.891079E-2,-7.536205E-2,-1.995425E-2,2.8565502E-2,8.154079E-3,-4.811144E-2,1.7849792E-2,2.5448996E-1,5.90507E-3,-2.1550761E-1,1.1144649E-1,4.0033495E-1,6.0510375E-2,2.2342348E-2,-5.6724533E-2,1.5246166E-2,-7.464869E-2,3.5849985E-2,1.12069815E-1,1.7947074E-2,4.836439E-2,4.5316913E-3,-7.842394E-2,3.0303897E-2,1.21394746E-1,4.068502E-2,-1.2423515E-2,-1.8470765E-3,4.5508146E-2,1.7733307E-1],"categories":[],"categories_nodes":[],"categories_segments":[],"categories_sizes":[],"default_left":[0,0,0,0,0,0,0,0,0,0,0,0,0,0,0,0,0,0,0,0,0,0,0,0,0,0,0,0,0,0,0,0,0,0,0,0,0,0,0,0,0,0,0,0,0,0,0,0,0,0,0,0,0,0,0,0,0,0,0,0,0,0,0,0,0,0,0,0,0,0,0,0,0,0,0,0,0,0,0,0,0,0,0,0,0,0,0,0,0,0,0,0,0,0,0,0,0,0,0,0,0,0,0,0,0,0,0,0,0,0,0,0,0],"id":13,"left_children":[1,3,5,7,9,11,13,15,17,19,21,23,25,27,29,31,33,35,37,39,41,43,45,47,49,51,53,55,-1,57,59,61,63,65,67,-1,-1,69,71,73,75,77,79,81,83,85,87,89,91,93,95,97,99,101,103,105,107,109,-1,-1,111,-1,-1,-1,-1,-1,-1,-1,-1,-1,-1,-1,-1,-1,-1,-1,-1,-1,-1,-1,-1,-1,-1,-1,-1,-1,-1,-1,-1,-1,-1,-1,-1,-1,-1,-1,-1,-1,-1,-1,-1,-1,-1,-1,-1,-1,-1,-1,-1,-1,-1,-1,-1],"loss_changes":[2.99507E1,4.469449E0,2.3247871E0,1.3200665E0,1.8856227E0,2.4479322E0,3.6670728E0,9.087963E-1,2.1881344E0,2.3240788E0,3.0099778E0,2.1038475E0,2.8761659E0,4.298109E0,1.3973861E0,2.0071003E0,5.3613377E-1,6.9651604E-3,1.0035927E0,7.452268E-1,1.7727158E0,1.3055996E0,9.8772097E-1,2.5301328E0,2.78654E0,1.828599E0,5.023356E0,3.2631145E0,0E0,3.4342968E-1,8.9499855E-1,2.3335893E-1,8.142891E-1,5.527582E-1,7.129202E-1,0E0,0E0,8.948008E-1,4.8188448E-1,2.3458257E-1,2.8980732E-2,1.2802348E-1,1.6040211E0,1.0211542E0,1.0544264E0,7.65043E-1,1.1989603E0,3.0300603E0,1.7750481E0,2.1817055E0,1.5275803E0,1.8096474E0,4.36034E0,4.379731E0,1.9006993E0,1.5972002E0,2.1560574E0,5.591996E-4,0E0,0E0,1.5076554E-1,0E0,0E0,0E0,0E0,0E0,0E0,0E0,0E0,0E0,0E0,0E0,0E0,0E0,0E0,0E0,0E0,0E0,0E0,0E0,0E0,0E0,0E0,0E0,0E0,0E0,0E0,0E0,0E0,0E0,0E0,0E0,0E0,0E0,0E0,0E0,0E0,0E0,0E0,0E0,0E0,0E0,0E0,0E0,0E0,0E0,0E0,0E0,0E0,0E0,0E0,0E0,0E0],"parents":[2147483647,0,0,1,1,2,2,3,3,4,4,5,5,6,6,7,7,8,8,9,9,10,10,11,11,12,12,13,13,14,14,15,15,16,16,17,17,18,18,19,19,20,20,21,21,22,22,23,23,24,24,25,25,26,26,27,27,29,29,30,30,31,31,32,32,33,33,34,34,37,37,38,38,39,39,40,40,41,41,42,42,43,43,44,44,45,45,46,46,47,47,48,48,49,49,50,50,51,51,52,52,53,53,54,54,55,55,56,56,57,57,60,60],"right_children":[2,4,6,8,10,12,14,16,18,20,22,24,26,28,30,32,34,36,38,40,42,44,46,48,50,52,54,56,-1,58,60,62,64,66,68,-1,-1,70,72,74,76,78,80,82,84,86,88,90,92,94,96,98,100,102,104,106,108,110,-1,-1,112,-1,-1,-1,-1,-1,-1,-1,-1,-1,-1,-1,-1,-1,-1,-1,-1,-1,-1,-1,-1,-1,-1,-1,-1,-1,-1,-1,-1,-1,-1,-1,-1,-1,-1,-1,-1,-1,-1,-1,-1,-1,-1,-1,-1,-1,-1,-1,-1,-1,-1,-1,-1],"split_conditions":[1.4E1,5.697E0,2.4727999E1,3.5E0,7.4623695E1,1.0703569E1,2.3E1,-1.0592E1,2.4E0,1.2528798E1,1.9068486E2,1.78E1,5E0,2.27E1,2.6323502E1,9.028754E0,3.3103244E2,2.3E0,8E0,1.1E1,6.6644998E0,8.427383E0,1.04E1,1.76E1,1.8E1,4E0,6E0,1.0853866E1,-3.9307883E-1,2.32E1,2.7914501E1,6E-1,1.2E0,5.9420856E1,3.4E0,5.521195E-2,2.0209984E-1,1.11E1,1.061961E1,8E0,5.0911684E0,8.4E0,3.319036E0,1.88025E1,1.37E1,2E-1,1.6408E1,1.86E1,1.9678E1,1.85E1,5E0,1.46E1,2.4343501E2,2.2302507E2,1.7287508E2,2.60145E1,3E0,3E0,1.2092457E-1,3.2731354E-1,2.38E1,-7.634928E-2,1.6695635E-3,-8.7009594E-2,-3.1216967E-1,-1.322957E-2,-3.24774E-2,-1.6578639E-2,6.653422E-2,-1.0012029E-2,-1.0532523E-1,7.7111624E-2,-4.775442E-2,3.146823E-2,-4.284213E-2,3.2974437E-2,1.4064851E-1,1.8192086E-2,7.691084E-2,1.0540376E-1,-7.06688E-2,-2.5597027E-2,1.0332895E-1,2.891079E-2,-7.536205E-2,-1.995425E-2,2.8565502E-2,8.154079E-3,-4.811144E-2,1.7849792E-2,2.5448996E-1,5.90507E-3,-2.1550761E-1,1.1144649E-1,4.0033495E-1,6.0510375E-2,2.2342348E-2,-5.6724533E-2,1.5246166E-2,-7.464869E-2,3.5849985E-2,1.12069815E-1,1.7947074E-2,4.836439E-2,4.5316913E-3,-7.842394E-2,3.0303897E-2,1.21394746E-1,4.068502E-2,-1.2423515E-2,-1.8470765E-3,4.5508146E-2,1.7733307E-1],"split_indices":[3,4,4,2,7,6,2,4,1,7,7,3,0,2,4,6,7,1,0,2,4,6,2,3,3,0,0,6,0,3,4,1,1,7,1,0,0,2,7,0,6,1,6,4,3,5,4,1,4,2,0,1,7,7,7,4,0,0,0,0,2,0,0,0,0,0,0,0,0,0,0,0,0,0,0,0,0,0,0,0,0,0,0,0,0,0,0,0,0,0,0,0,0,0,0,0,0,0,0,0,0,0,0,0,0,0,0,0,0,0,0,0,0],"split_type":[0,0,0,0,0,0,0,0,0,0,0,0,0,0,0,0,0,0,0,0,0,0,0,0,0,0,0,0,0,0,0,0,0,0,0,0,0,0,0,0,0,0,0,0,0,0,0,0,0,0,0,0,0,0,0,0,0,0,0,0,0,0,0,0,0,0,0,0,0,0,0,0,0,0,0,0,0,0,0,0,0,0,0,0,0,0,0,0,0,0,0,0,0,0,0,0,0,0,0,0,0,0,0,0,0,0,0,0,0,0,0,0,0],"sum_hessian":[6.201E3,3.88E3,2.321E3,2.302E3,1.578E3,2.133E3,1.88E2,1.538E3,7.64E2,1.55E2,1.423E3,6.44E2,1.489E3,1.72E2,1.6E1,2.2E1,1.516E3,4E0,7.6E2,2.6E1,1.29E2,4.66E2,9.57E2,2.18E2,4.26E2,8.39E2,6.5E2,1.71E2,1E0,6E0,1E1,1.5E1,7E0,1.374E3,1.42E2,1E0,3E0,6.66E2,9.4E1,2E1,6E0,1.4E1,1.15E2,7.7E1,3.89E2,5.9E2,3.67E2,2.06E2,1.2E1,2.2E1,4.04E2,7.1E2,1.29E2,1.85E2,4.65E2,4.8E1,1.23E2,3E0,3E0,6E0,4E0,4E0,1.1E1,4E0,3E0,1.53E2,1.221E3,1.33E2,9E0,6.58E2,8E0,2E0,9.2E1,1.6E1,4E0,1E0,5E0,8E0,6E0,4E0,1.11E2,7.2E1,5E0,3.81E2,8E0,5.6E2,3E1,3.3E2,3.7E1,2.02E2,4E0,6E0,6E0,2E1,2E0,2.5E2,1.54E2,3.2E1,6.78E2,7.3E1,5.6E1,1.1E2,7.5E1,1.19E2,3.46E2,2E1,2.8E1,5.3E1,7E1,2E0,1E0,3E0,1E0],"tree_param":{"num_deleted":"0","num_feature":"8","num_nodes":"113","size_leaf_vector":"1"}},{"base_weights":[5.669278E-4,-4.2371955E-2,5.9288092E-2,-5.7845075E-2,-6.1227647E-3,5.5903655E-2,2.6569697E-1,-5.6771446E-2,-2.149653E-1,-4.1256873E-3,-4.3187332E-1,6.727768E-2,3.0526213E-4,3.9444938E-1,7.646052E-3,-5.720728E-2,1.5537937E-1,-3.8241405E-2,1.8981077E-2,-2.322836E-1,-1.5270233E-1,6.251227E-2,2.929722E-1,1.3908206E-2,-2.711204E-1,2.3021078E-1,5.662469E-1,-1.4099869E-1,1.9476739E-1,-1.5498078E-1,-5.6634266E-2,2.538796E-2,-1.04391634E-1,4.1357506E-2,-3.603449E-2,-5.50726E-2,-9.012509E-3,8.281396E-2,2.158617E-2,2.2409035E-1,6.9187546E-1,-2.56134E-2,1.2380251E-1,-1.3101922E-1,-8.3379555E-1,7.543707E-2,1.6668767E-1,-3.2599926E-2,6.3154525E-1,-5.35655E-1,1.7261839E-1,-1.625679E-2,-4.4274252E-2,1.18591495E-1,3.4321956E-3,-1.7043332E-2,-9.6229605E-2,1.648099E-2,-7.681688E-2,-1.767784E-2,4.0875066E-2,1.7616196E-2,6.4667515E-2,-2.386896E-2,3.382641E-2,1.5343565E-1,4.0030204E-2,2.3335923E-1,3.928986E-2,-6.008328E-2,8.200143E-3,-7.069502E-2,4.507869E-2,-1.4090104E-1,-2.1418846E-4,-9.187088E-2,-3.62471E-1,-1.9756867E-2,8.5925676E-2,2.0756577E-1,-4.8302654E-3,-1.0845566E-2,-3.0693227E-1,9.292918E-2,-4.7763634E-2],"categories":[],"categories_nodes":[],"categories_segments":[],"categories_sizes":[],"default_left":[0,0,0,0,0,0,0,0,0,0,0,0,0,0,0,0,0,0,0,0,0,0,0,0,0,0,0,0,0,0,0,0,0,0,0,0,0,0,0,0,0,0,0,0,0,0,0,0,0,0,0,0,0,0,0,0,0,0,0,0,0,0,0,0,0,0,0,0,0,0,0,0,0,0,0,0,0,0,0,0,0,0,0,0,0],"id":14,"left_children":[1,3,5,7,9,11,13,15,-1,17,19,21,23,25,27,29,-1,31,33,-1,35,37,39,41,43,45,47,49,-1,-1,51,53,55,57,59,-1,-1,61,63,65,67,69,71,73,75,77,-1,-1,79,81,83,-1,-1,-1,-1,-1,-1,-1,-1,-1,-1,-1,-1,-1,-1,-1,-1,-1,-1,-1,-1,-1,-1,-1,-1,-1,-1,-1,-1,-1,-1,-1,-1,-1,-1],"loss_changes":[1.5640367E1,2.0093079E0,1.8154192E0,1.7351198E0,9.105437E-1,1.6308823E0,1.3924203E0,6.5781975E-1,0E0,8.434227E-1,3.597139E-1,2.2843895E0,1.6246413E0,6.596856E-1,1.5220491E0,6.3068104E-1,0E0,1.8209803E0,7.869015E-1,0E0,9.632692E-3,1.741375E0,1.0539536E0,1.8229715E0,1.546217E0,7.639356E-1,6.415467E-1,1.7014863E0,0E0,0E0,5.490179E-1,1.1356931E0,2.1643546E0,1.847599E0,7.376464E-1,0E0,0E0,4.4712925E0,6.4364533E0,9.4775045E-1,1.8751717E-1,2.8631008E0,1.0911347E0,7.9396844E-1,4.2015386E-1,3.7658632E-1,0E0,0E0,4.8009253E-1,1.4239172E0,4.133907E-1,0E0,0E0,0E0,0E0,0E0,0E0,0E0,0E0,0E0,0E0,0E0,0E0,0E0,0E0,0E0,0E0,0E0,0E0,0E0,0E0,0E0,0E0,0E0,0E0,0E0,0E0,0E0,0E0,0E0,0E0,0E0,0E0,0E0,0E0],"parents":[2147483647,0,0,1,1,2,2,3,3,4,4,5,5,6,6,7,7,9,9,10,10,11,11,12,12,13,13,14,14,15,15,17,17,18,18,20,20,21,21,22,22,23,23,24,24,25,25,26,26,27,27,30,30,31,31,32,32,33,33,34,34,37,37,38,38,39,39,40,40,41,41,42,42,43,43,44,44,45,45,48,48,49,49,50,50],"right_children":[2,4,6,8,10,12,14,16,-1,18,20,22,24,26,28,30,-1,32,34,-1,36,38,40,42,44,46,48,50,-1,-1,52,54,56,58,60,-1,-1,62,64,66,68,70,72,74,76,78,-1,-1,80,82,84,-1,-1,-1,-1,-1,-1,-1,-1,-1,-1,-1,-1,-1,-1,-1,-1,-1,-1,-1,-1,-1,-1,-1,-1,-1,-1,-1,-1,-1,-1,-1,-1,-1,-1],"split_conditions":[1.30735E1,6.4E0,2.38E1,7.5E0,2.06E1,1.8218275E1,2.39E1,7.7E0,-2.149653E-1,4E0,8.447E0,1.3E0,3.171211E2,2.34E1,2.60145E1,1E-1,1.5537937E-1,2E0,8E0,-2.322836E-1,2.06E1,6E0,1.90645E1,2.03E1,2.15E1,1.4685176E1,1.6678E1,2.44E1,1.9476739E-1,-1.5498078E-1,1.1408E1,1.8435053E1,1.21E1,3.4156494E2,3.2799466E2,-5.50726E-2,-9.012509E-3,5E0,8E0,1E0,4E0,1.7031128E2,2.0854538E1,2E0,3E0,2.3E1,1.6668767E-1,-3.2599926E-2,6E0,2.35E1,2.4028E1,-1.625679E-2,-4.4274252E-2,1.18591495E-1,3.4321956E-3,-1.7043332E-2,-9.6229605E-2,1.648099E-2,-7.681688E-2,-1.767784E-2,4.0875066E-2,1.7616196E-2,6.4667515E-2,-2.386896E-2,3.382641E-2,1.5343565E-1,4.0030204E-2,2.3335923E-1,3.928986E-2,-6.008328E-2,8.200143E-3,-7.069502E-2,4.507869E-2,-1.4090104E-1,-2.1418846E-4,-9.187088E-2,-3.62471E-1,-1.9756867E-2,8.5925676E-2,2.0756577E-1,-4.8302654E-3,-1.0845566E-2,-3.0693227E-1,9.292918E-2,-4.7763634E-2],"split_indices":[4,3,1,1,3,6,2,2,0,0,4,5,7,3,4,1,0,0,0,0,2,0,4,2,1,6,4,2,0,0,4,7,2,7,7,0,0,0,0,0,0,7,7,0,0,3,0,0,0,3,4,0,0,0,0,0,0,0,0,0,0,0,0,0,0,0,0,0,0,0,0,0,0,0,0,0,0,0,0,0,0,0,0,0,0],"split_type":[0,0,0,0,0,0,0,0,0,0,0,0,0,0,0,0,0,0,0,0,0,0,0,0,0,0,0,0,0,0,0,0,0,0,0,0,0,0,0,0,0,0,0,0,0,0,0,0,0,0,0,0,0,0,0,0,0,0,0,0,0,0,0,0,0,0,0,0,0,0,0,0,0,0,0,0,0,0,0,0,0,0,0,0,0],"sum_hessian":[6.201E3,3.582E3,2.619E3,2.51E3,1.072E3,2.578E3,4.1E1,2.507E3,3E0,1.068E3,4E0,2.14E3,4.38E2,2.7E1,1.4E1,2.506E3,1E0,4.31E2,6.37E2,1E0,3E0,2.097E3,4.3E1,4.18E2,2E1,1.5E1,1.2E1,1.2E1,2E0,2E0,2.504E3,2.2E2,2.11E2,4.53E2,1.84E2,2E0,1E0,1.401E3,6.96E2,3.8E1,5E0,3.08E2,1.1E2,1.7E1,3E0,1.1E1,4E0,1E0,1.1E1,5E0,7E0,2.44E3,6.4E1,7E0,2.13E2,1.74E2,3.7E1,4.34E2,1.9E1,1.63E2,2.1E1,1.187E3,2.14E2,3.3E2,3.66E2,8E0,3E1,4E0,1E0,7.1E1,2.37E2,7E0,1.03E2,4E0,1.3E1,2E0,1E0,7E0,4E0,1E1,1E0,3E0,2E0,5E0,2E0],"tree_param":{"num_deleted":"0","num_feature":"8","num_nodes":"85","size_leaf_vector":"1"}},{"base_weights":[3.3405866E-4,-2.5529012E-2,5.0503355E-2,-5.25625E-2,-9.820943E-3,4.669517E-2,3.0439118E-1,-5.1006496E-2,-6.233132E-1,1.2065661E-1,-1.3759898E-2,1.2227957E-1,3.700161E-2,3.649262E-1,-8.659045E-3,-5.29004E-2,1.8840413E-1,-3.699875E-2,-2.2465946E-1,1.3881187E-1,-1.1429008E-1,8.499141E-3,-3.1579588E-2,1.3115524E-2,2.0245081E-1,-5.8935422E-2,5.5004578E-2,2.1800123E-1,4.9508184E-1,1.05119325E-1,-8.663264E-2,-4.4005167E-2,-9.621818E-2,2.0347567E-1,2.2609282E-2,1.23255774E-1,1.3509941E-1,-6.484409E-2,5.9615772E-2,3.2600863E-3,2.0530291E-1,-2.9441377E-2,-2.983174E-1,-5.227981E-1,6.4837106E-2,6.0384893E-1,1.5511729E-1,1.5483247E-1,-6.468093E-2,1.2178326E-1,3.6482885E-2,8.02588E-2,1.6268778E-1,6.324518E-1,1.4879951E-1,5.1970486E-2,1.9639332E-3,-4.3311965E-2,-1.160423E-2,-5.501278E-2,-2.1493755E-2,-1.3696261E-1,3.7972562E-2,-6.606609E-3,4.5356445E-2,3.2961275E-2,-6.1341766E-3,-6.4817056E-2,2.2046338E-3,8.1686154E-2,-1.3979693E-1,-3.597676E-2,-6.898685E-3,-3.0844074E-1,-3.6756594E-2,-6.35933E-2,-2.574988E-1,1.1432887E-1,-1.7485124E-3,2.481545E-1,1.2953931E-1,1.3541704E-1,2.5834018E-2,-2.0797003E-2,1.9154663E-1,4.3555867E-2,-1.0704389E-1,8.706649E-2,8.817583E-3,5.913291E-2,-5.2052308E-2,2.2048801E-1,5.4734614E-2,9.150167E-2,-7.14037E-2,1.0126019E-2,-9.242249E-3],"categories":[],"categories_nodes":[],"categories_segments":[],"categories_sizes":[],"default_left":[0,0,0,0,0,0,0,0,0,0,0,0,0,0,0,0,0,0,0,0,0,0,0,0,0,0,0,0,0,0,0,0,0,0,0,0,0,0,0,0,0,0,0,0,0,0,0,0,0,0,0,0,0,0,0,0,0,0,0,0,0,0,0,0,0,0,0,0,0,0,0,0,0,0,0,0,0,0,0,0,0,0,0,0,0,0,0,0,0,0,0,0,0,0,0,0,0],"id":15,"left_children":[1,3,5,7,9,11,13,15,17,19,21,23,25,27,29,31,33,-1,-1,35,37,39,41,43,45,47,49,51,53,55,-1,57,59,-1,61,63,-1,-1,65,67,69,71,73,75,77,79,81,-1,83,85,87,89,-1,91,93,-1,95,-1,-1,-1,-1,-1,-1,-1,-1,-1,-1,-1,-1,-1,-1,-1,-1,-1,-1,-1,-1,-1,-1,-1,-1,-1,-1,-1,-1,-1,-1,-1,-1,-1,-1,-1,-1,-1,-1,-1,-1],"loss_changes":[8.048582E0,1.737551E0,2.0258446E0,1.3038969E0,1.3327786E0,1.5194535E0,5.906253E-1,6.9055176E-1,1.5873837E-1,3.4004414E-1,9.97841E-1,2.0627732E0,3.189836E0,3.8927245E-1,2.21583E-1,5.6989574E-1,9.592366E-1,0E0,0E0,2.8856194E-1,1.191668E-1,1.1530932E0,7.8798366E-1,2.833445E0,2.4902768E0,9.981252E-1,1.9176283E0,5.8183783E-1,5.242858E-1,3.479225E-2,0E0,6.560025E-1,5.2870417E-1,0E0,5.55941E-1,2.833284E-1,0E0,0E0,1.4317295E-2,9.7990876E-1,1.4308983E0,8.061683E-1,1.285317E0,7.566631E-1,2.0806413E0,1.807704E-1,2.475739E0,0E0,9.909401E-1,3.826398E0,2.1829526E0,3.603813E-1,0E0,2.810688E-1,3.747068E-1,0E0,4.165216E-3,0E0,0E0,0E0,0E0,0E0,0E0,0E0,0E0,0E0,0E0,0E0,0E0,0E0,0E0,0E0,0E0,0E0,0E0,0E0,0E0,0E0,0E0,0E0,0E0,0E0,0E0,0E0,0E0,0E0,0E0,0E0,0E0,0E0,0E0,0E0,0E0,0E0,0E0,0E0,0E0],"parents":[2147483647,0,0,1,1,2,2,3,3,4,4,5,5,6,6,7,7,8,8,9,9,10,10,11,11,12,12,13,13,14,14,15,15,16,16,19,19,20,20,21,21,22,22,23,23,24,24,25,25,26,26,27,27,28,28,29,29,31,31,32,32,34,34,35,35,38,38,39,39,40,40,41,41,42,42,43,43,44,44,45,45,46,46,48,48,49,49,50,50,51,51,53,53,54,54,56,56],"right_children":[2,4,6,8,10,12,14,16,18,20,22,24,26,28,30,32,34,-1,-1,36,38,40,42,44,46,48,50,52,54,56,-1,58,60,-1,62,64,-1,-1,66,68,70,72,74,76,78,80,82,-1,84,86,88,90,-1,92,94,-1,96,-1,-1,-1,-1,-1,-1,-1,-1,-1,-1,-1,-1,-1,-1,-1,-1,-1,-1,-1,-1,-1,-1,-1,-1,-1,-1,-1,-1,-1,-1,-1,-1,-1,-1,-1,-1,-1,-1,-1,-1],"split_conditions":[1.5564501E1,2.5235002E0,1.3E0,1.07E1,1.6073652E1,1E0,6E0,9.9E0,4E0,1.908E1,1.2984975E1,1.863401E2,2E0,2.0055612E2,2E1,8E0,2.0854538E1,-3.699875E-2,-2.2465946E-1,1.93E1,4.5E0,3.5405322E2,2.16E1,5.6920996E0,6.725354E0,4.8E0,3E0,1.7032999E1,3.7E0,7E0,-8.663264E-2,8E-1,-3.5875E0,2.0347567E-1,-7.22E-1,3.0939984E0,1.3509941E-1,-6.484409E-2,3E0,2.7645891E1,1.5278E1,6.1189304E1,2E1,2.12E1,5.1842735E1,2.628751E2,1.86E1,1.5483247E-1,3.580251E2,2.36E1,3.5455887E0,1.59645E1,1.6268778E-1,1.6135872E1,2.05E1,5.1970486E-2,1.97E1,-4.3311965E-2,-1.160423E-2,-5.501278E-2,-2.1493755E-2,-1.3696261E-1,3.7972562E-2,-6.606609E-3,4.5356445E-2,3.2961275E-2,-6.1341766E-3,-6.4817056E-2,2.2046338E-3,8.1686154E-2,-1.3979693E-1,-3.597676E-2,-6.898685E-3,-3.0844074E-1,-3.6756594E-2,-6.35933E-2,-2.574988E-1,1.1432887E-1,-1.7485124E-3,2.481545E-1,1.2953931E-1,1.3541704E-1,2.5834018E-2,-2.0797003E-2,1.9154663E-1,4.3555867E-2,-1.0704389E-1,8.706649E-2,8.817583E-3,5.913291E-2,-5.2052308E-2,2.2048801E-1,5.4734614E-2,9.150167E-2,-7.14037E-2,1.0126019E-2,-9.242249E-3],"split_indices":[4,4,5,3,7,0,0,3,1,6,6,7,0,7,1,0,7,0,0,1,1,7,3,6,6,1,0,4,5,0,0,1,4,0,4,7,0,0,0,7,4,7,2,1,7,7,3,0,7,3,6,4,0,6,1,0,1,0,0,0,0,0,0,0,0,0,0,0,0,0,0,0,0,0,0,0,0,0,0,0,0,0,0,0,0,0,0,0,0,0,0,0,0,0,0,0,0],"split_type":[0,0,0,0,0,0,0,0,0,0,0,0,0,0,0,0,0,0,0,0,0,0,0,0,0,0,0,0,0,0,0,0,0,0,0,0,0,0,0,0,0,0,0,0,0,0,0,0,0,0,0,0,0,0,0,0,0,0,0,0,0,0,0,0,0,0,0,0,0,0,0,0,0,0,0,0,0,0,0,0,0,0,0,0,0,0,0,0,0,0,0,0,0,0,0,0,0],"sum_hessian":[6.201E3,4.092E3,2.109E3,1.503E3,2.589E3,2.079E3,3E1,1.5E3,3E0,7.5E1,2.514E3,2.35E2,1.844E3,2.5E1,5E0,1.489E3,1.1E1,1E0,2E0,7E1,5E0,1.118E3,1.396E3,1E2,1.35E2,2.91E2,1.553E3,1.3E1,1.2E1,4E0,1E0,1.237E3,2.52E2,2E0,9E0,6.8E1,2E0,3E0,2E0,1.09E3,2.8E1,1.386E3,1E1,8E0,9.2E1,1.3E1,1.22E2,2E0,2.89E2,3.36E2,1.217E3,1E1,3E0,8E0,4E0,2E0,2E0,6.1E1,1.176E3,5.4E1,1.98E2,1E0,8E0,1.1E1,5.7E1,1E0,1E0,1.9E1,1.071E3,2.6E1,2E0,9.1E1,1.295E3,1E0,9E0,5E0,3E0,1.6E1,7.6E1,4E0,9E0,2.2E1,1E2,2.88E2,1E0,3.21E2,1.5E1,3.2E1,1.185E3,7E0,3E0,6E0,2E0,3E0,1E0,1E0,1E0],"tree_param":{"num_deleted":"0","num_feature":"8","num_nodes":"97","size_leaf_vector":"1"}},{"base_weights":[3.0773913E-4,-2.0331407E-2,3.4803957E-2,-2.1156546E-2,2.2680657E-1,2.0242313E-2,7.527798E-2,-2.0633789E-2,-4.2101708E-1,3.2814494E-1,-1.483881E-1,5.814796E-2,-1.0247504E-2,-5.3642625E-3,9.780178E-2,-2.1399267E-2,3.5109723E-1,-1.8678762E-2,-1.4854203E-1,1.6730547E-1,1.4366436E-1,2.4163958E-3,1.2514772E-1,-1.659978E-1,6.08285E-3,4.6609275E-2,-2.4768393E-1,4.910353E-1,8.7531835E-2,-3.5290238E-2,-7.5044036E-3,1.4042382E-1,1.1709523E-1,1.1471748E-2,2.2068557E-1,2.086868E-1,-5.9817825E-3,-1.1271268E-1,1.5749194E-1,-4.2656913E-1,-1.24316104E-1,1.4857069E-1,-1.3741396E-2,-5.747762E-2,1.1737625E-1,-3.4918472E-1,-1.5723982E-1,-3.7643432E-3,7.3890567E-1,1.6206999E-1,4.95044E-2,-1.15322225E-1,-1.0418524E-2,1.7163318E-1,-2.5207205E-3,-4.8723366E-2,7.9320334E-2,-1.0197259E-2,1.1386871E-2,7.587233E-2,1.3769532E-2,2.0705353E-1,-3.8277E-3,3.9699323E-2,-1.0244843E-1,-7.85961E-3,5.913463E-2,-3.581449E-2,-2.1415792E-1,-1.3730118E-2,-8.764541E-2,1.4156589E-1,3.053355E-2,-3.489714E-3,-2.4059087E-1,8.093554E-2,-4.3312073E-2,5.461989E-2,-6.966006E-3,1.7966557E-2,-8.311026E-2,5.125244E-2,-1.05328135E-1,-6.870261E-2,2.729684E-1,4.3575156E-2,2.3199207E-1,-1.0425669E-1,2.0796852E-2],"categories":[],"categories_nodes":[],"categories_segments":[],"categories_sizes":[],"default_left":[0,0,0,0,0,0,0,0,0,0,0,0,0,0,0,0,0,0,0,0,0,0,0,0,0,0,0,0,0,0,0,0,0,0,0,0,0,0,0,0,0,0,0,0,0,0,0,0,0,0,0,0,0,0,0,0,0,0,0,0,0,0,0,0,0,0,0,0,0,0,0,0,0,0,0,0,0,0,0,0,0,0,0,0,0,0,0,0,0],"id":16,"left_children":[1,3,5,7,9,11,13,15,17,19,-1,21,23,25,27,29,31,-1,-1,-1,33,35,37,39,41,43,45,47,49,51,53,-1,55,57,59,-1,61,63,65,67,69,71,73,75,77,-1,79,81,83,85,87,-1,-1,-1,-1,-1,-1,-1,-1,-1,-1,-1,-1,-1,-1,-1,-1,-1,-1,-1,-1,-1,-1,-1,-1,-1,-1,-1,-1,-1,-1,-1,-1,-1,-1,-1,-1,-1,-1],"loss_changes":[4.416361E0,7.96224E-1,1.3669896E0,8.00051E-1,1.1127251E0,1.9757491E0,1.1157761E0,1.1073062E0,1.0213113E-1,4.2802846E-1,0E0,2.845006E0,2.4122074E0,1.7117627E0,1.8954921E0,7.443799E-1,1.6418266E-1,0E0,0E0,0E0,7.892145E-2,2.431797E0,2.6796718E0,9.2446566E-1,2.4284708E0,8.3172905E-1,1.8058791E0,1.4745357E0,1.3213551E0,3.6501122E-1,1.009359E0,0E0,2.0763348E-1,6.1063813E-3,1.6552031E-2,0E0,1.9573518E0,2.3997788E0,2.2250948E0,9.738033E-1,1.0281098E0,1.5404799E0,1.2457721E0,1.3470888E0,6.136045E-1,0E0,6.148385E-1,3.6321002E-1,1.5323954E0,1.5120244E0,2.479048E0,0E0,0E0,0E0,0E0,0E0,0E0,0E0,0E0,0E0,0E0,0E0,0E0,0E0,0E0,0E0,0E0,0E0,0E0,0E0,0E0,0E0,0E0,0E0,0E0,0E0,0E0,0E0,0E0,0E0,0E0,0E0,0E0,0E0,0E0,0E0,0E0,0E0,0E0],"parents":[2147483647,0,0,1,1,2,2,3,3,4,4,5,5,6,6,7,7,8,8,9,9,11,11,12,12,13,13,14,14,15,15,16,16,20,20,21,21,22,22,23,23,24,24,25,25,26,26,27,27,28,28,29,29,30,30,32,32,33,33,34,34,36,36,37,37,38,38,39,39,40,40,41,41,42,42,43,43,44,44,46,46,47,47,48,48,49,49,50,50],"right_children":[2,4,6,8,10,12,14,16,18,20,-1,22,24,26,28,30,32,-1,-1,-1,34,36,38,40,42,44,46,48,50,52,54,-1,56,58,60,-1,62,64,66,68,70,72,74,76,78,-1,80,82,84,86,88,-1,-1,-1,-1,-1,-1,-1,-1,-1,-1,-1,-1,-1,-1,-1,-1,-1,-1,-1,-1,-1,-1,-1,-1,-1,-1,-1,-1,-1,-1,-1,-1,-1,-1,-1,-1,-1,-1],"split_conditions":[1.4E1,2.3823502E1,1E-1,2.3477999E1,1E-1,1.9965392E2,1.46235E1,2.2573502E1,2E0,1.39E1,-1.483881E-1,5E0,2.1815727E2,1.97E1,1.52E1,3.9E0,1.2E1,-1.8678762E-2,-1.4854203E-1,1.6730547E-1,1.9E1,1.42E1,5.1842735E1,1.52E1,1E0,3E-1,1.8E1,1.49E1,1.1457958E1,1E-1,2.4E0,1.4042382E-1,1.2E1,1.75E1,2.02E1,2.086868E-1,4.5738406E0,1.6914501E1,1.7178E1,1.46E1,2.1928E1,6.725354E0,2.48E1,1.1342871E2,1.7193533E1,-3.4918472E-1,2.04E1,1.7558E1,9.439862E1,1.1384198E1,1.1792404E1,-1.15322225E-1,-1.0418524E-2,1.7163318E-1,-2.5207205E-3,-4.8723366E-2,7.9320334E-2,-1.0197259E-2,1.1386871E-2,7.587233E-2,1.3769532E-2,2.0705353E-1,-3.8277E-3,3.9699323E-2,-1.0244843E-1,-7.85961E-3,5.913463E-2,-3.581449E-2,-2.1415792E-1,-1.3730118E-2,-8.764541E-2,1.4156589E-1,3.053355E-2,-3.489714E-3,-2.4059087E-1,8.093554E-2,-4.3312073E-2,5.461989E-2,-6.966006E-3,1.7966557E-2,-8.311026E-2,5.125244E-2,-1.05328135E-1,-6.870261E-2,2.729684E-1,4.3575156E-2,2.3199207E-1,-1.0425669E-1,2.0796852E-2],"split_indices":[3,4,5,4,5,7,4,4,0,1,0,0,7,3,2,3,2,0,0,0,1,3,7,2,0,5,2,3,6,1,1,0,1,1,1,0,7,4,4,3,4,6,2,7,6,0,3,4,7,6,6,0,0,0,0,0,0,0,0,0,0,0,0,0,0,0,0,0,0,0,0,0,0,0,0,0,0,0,0,0,0,0,0,0,0,0,0,0,0],"split_type":[0,0,0,0,0,0,0,0,0,0,0,0,0,0,0,0,0,0,0,0,0,0,0,0,0,0,0,0,0,0,0,0,0,0,0,0,0,0,0,0,0,0,0,0,0,0,0,0,0,0,0,0,0,0,0,0,0,0,0,0,0,0,0,0,0,0,0,0,0,0,0,0,0,0,0,0,0,0,0,0,0,0,0,0,0,0,0,0,0],"sum_hessian":[6.201E3,3.88E3,2.321E3,3.868E3,1.2E1,1.708E3,6.13E2,3.864E3,4E0,1.1E1,1E0,7.61E2,9.47E2,1.34E2,4.79E2,3.857E3,7E0,1E0,3E0,4E0,7E0,4.16E2,3.45E2,8.9E1,8.58E2,1.11E2,2.3E1,1.1E1,4.68E2,1.928E3,1.929E3,4E0,3E0,3E0,4E0,4E0,4.12E2,4.1E1,3.04E2,1.1E1,7.8E1,1.04E2,7.54E2,4.5E1,6.6E1,1E0,2.2E1,4E0,7E0,1.57E2,3.11E2,2E0,1.926E3,2E0,1.927E3,1E0,2E0,1E0,2E0,3E0,1E0,3E0,4.09E2,2E1,2.1E1,5.4E1,2.5E2,6E0,5E0,5.4E1,2.4E1,1.2E1,9.2E1,7.53E2,1E0,9E0,3.6E1,4.5E1,2.1E1,8E0,1.4E1,3E0,1E0,1E0,6E0,1.54E2,3E0,1.4E1,2.97E2],"tree_param":{"num_deleted":"0","num_feature":"8","num_nodes":"89","size_leaf_vector":"1"}},{"base_weights":[2.391316E-4,-8.617247E-3,4.5241456E-2,-7.338784E-3,-2.0791262E-1,3.5099957E-2,2.013779E-1,-2.115422E-2,9.541969E-3,-1.0349905E0,1.4215469E-2,8.352064E-2,-5.938893E-3,5.123074E-1,9.124492E-2,-1.9819943E-2,-2.8840432E-1,-3.352578E-3,5.024206E-2,1.36844E-1,-1.5310932E0,-2.234798E-1,1.2605979E-1,6.9963254E-2,4.629823E-1,-1.5227789E-1,2.3815772E-2,1.2984991E-1,5.905784E-1,2.4949478E-1,1.519357E-3,-3.7301414E-2,-1.1321926E-2,1.79044E-2,-5.9727085E-1,-1.6194101E-3,-3.4075525E-1,5.2977473E-2,-1.4204064E-1,1.1347962E-2,5.023184E-2,-1.1033335E-1,-5.189933E-1,-8.435567E-3,-4.901762E-1,-4.6412997E-2,2.557139E-1,4.3171875E-2,2.2655827E-1,6.2242717E-1,-1.310978E-1,-1.2949729E-1,-3.2012844E-1,1.19794056E-1,-2.9057339E-2,4.963112E-2,3.4632685E-3,2.696312E-1,7.0326257E-1,3.5854816E-1,-1.9456577E-1,5.5844013E-2,-1.5723762E-1,-2.3885382E-2,-4.2722784E-3,1.01945E-2,-5.6749843E-3,-3.4580853E-2,8.348522E-2,-2.1984783E-1,3.2409098E-2,-2.2053951E-3,3.5057995E-2,-2.1798478E-2,-1.6220936E-1,8.667021E-3,3.4202766E-2,-4.790583E-2,5.88131E-2,-1.6731149E-1,-4.3138504E-2,8.996583E-3,-4.4823647E-2,1.2521507E-1,1.5427589E-2,1.7112857E-2,-7.888624E-2,-2.2890148E-1,9.238778E-2,1.5851498E-2,2.4192575E-1,-7.894325E-2,3.9756205E-2,-7.473778E-2,1.1668844E-2,1.0703497E-1,1.3340606E-2,-2.5808766E-1,-2.3146095E-3,-7.044125E-3,1.0463376E-1,2.7905765E-1,1.00704126E-1,7.018706E-2,1.4570314E-1,2.379284E-2,-9.3688205E-2,-1.6731978E-3,8.766661E-2],"categories":[],"categories_nodes":[],"categories_segments":[],"categories_sizes":[],"default_left":[0,0,0,0,0,0,0,