{"learner":{"attributes":{"scikit_learn":"{\"_estimator_type\": \"regressor\"}"},"feature_names":["lagged_aq_1_day","lagged_aq_2_days","lagged_aq_3_days","weather_temperature_2m_mean","weather_precipitation_sum","weather_wind_speed_10m_max","weather_wind_direction_10m_dominant"],"feature_types":["float","float","float","float","float","float","float"],"gradient_booster":{"model":{"gbtree_model_param":{"num_parallel_tree":"1","num_trees":"100"},"iteration_indptr":[0,1,2,3,4,5,6,7,8,9,10,11,12,13,14,15,16,17,18,19,20,21,22,23,24,25,26,27,28,29,30,31,32,33,34,35,36,37,38,39,40,41,42,43,44,45,46,47,48,49,50,51,52,53,54,55,56,57,58,59,60,61,62,63,64,65,66,67,68,69,70,71,72,73,74,75,76,77,78,79,80,81,82,83,84,85,86,87,88,89,90,91,92,93,94,95,96,97,98,99,100],"tree_info":[0,0,0,0,0,0,0,0,0,0,0,0,0,0,0,0,0,0,0,0,0,0,0,0,0,0,0,0,0,0,0,0,0,0,0,0,0,0,0,0,0,0,0,0,0,0,0,0,0,0,0,0,0,0,0,0,0,0,0,0,0,0,0,0,0,0,0,0,0,0,0,0,0,0,0,0,0,0,0,0,0,0,0,0,0,0,0,0,0,0,0,0,0,0,0,0,0,0,0,0],"trees":[{"base_weights":[1.238805E-7,-4.3926135E-1,6.031398E0,7.2376025E-1,-1.0649713E0,8.397501E0,2.652212E0,-1.00295156E-1,2.424876E0,-1.2973286E0,-3.815712E-1,7.2459664E0,1.8713202E1,7.4000616E0,1.4326882E0,-8.972945E-1,2.536646E-1,3.786414E0,2.2614386E0,4.4209623E-1,-1.3118966E0,9.575446E-2,-6.6848415E-1,7.4585814E0,1.1378367E-2,6.7042966E0,1.9254136E0,-5.619549E-1,9.231838E0,2.5532436E0,-3.8999176E-1,-1.0934076E0,-5.91745E-1,3.1885047E0,1.600954E-1,5.3272142E0,1.9140235E0,-1.4401985E0,-1.0457038E0,-7.213502E-2,2.0251713E0,-9.968422E-1,-2.871516E-1,7.8535666E0,2.8946292E0,-1.2793988E-1,1.3306014E-1,-2.5843987E-1,5.560148E-3,4.1241354E-1,1.1280344E1,3.2602384E0,-5.824437E-1,6.303436E-1,-9.526881E-1,-3.8818672E-1,-2.3421672E-1,-2.2729892E-1,2.502669E-1,1.9144965E0,-1.927038E-1,1.0737983E-1,-1.6281816E-1,5.560083E-1,2.4002914E0,4.694071E-1,9.617487E-1,-3.7824634E-1,-4.647059E-1,-2.5087222E-1,-3.5560665E-1,6.0088146E-2,-1.5939564E-1,8.6710316E-1,-2.0058651E-1,1.367669E-1,-3.2368952E-1,-1.3840078E-1,2.87473E-1,7.078963E-1,2.4575322E0,1.1152962E0,1.674135E-1,1.4814136E0,3.8488965E0,7.287336E-1,2.3974135E0,-3.493038E-1,3.4906012E-1,3.4413505E-2,2.4409623E-1,6.8402053E-3,-3.8411534E-1],"categories":[],"categories_nodes":[],"categories_segments":[],"categories_sizes":[],"default_left":[1,0,0,0,1,0,0,0,0,0,0,0,0,0,0,0,0,0,0,0,1,0,0,0,0,0,0,0,0,0,0,0,0,0,0,0,0,0,0,0,0,0,0,0,0,0,0,0,0,0,0,0,0,0,0,0,0,0,0,0,0,0,0,0,0,0,0,0,0,0,0,0,0,0,0,0,0,0,0,0,0,0,0,0,0,0,0,0,0,0,0,0,0],"id":0,"left_children":[1,3,5,7,9,11,13,15,17,19,21,23,25,27,29,31,33,-1,35,-1,37,39,41,43,45,-1,-1,47,49,51,53,55,57,59,61,63,65,67,69,71,73,75,77,79,81,-1,-1,-1,-1,-1,83,85,87,89,91,-1,-1,-1,-1,-1,-1,-1,-1,-1,-1,-1,-1,-1,-1,-1,-1,-1,-1,-1,-1,-1,-1,-1,-1,-1,-1,-1,-1,-1,-1,-1,-1,-1,-1,-1,-1,-1,-1],"loss_changes":[5.0735254E3,1.2997406E3,1.01714307E3,8.7637683E2,1.8386377E2,7.671997E2,3.0785437E2,1.19276215E2,3.1142175E2,3.689148E1,4.0601482E1,1.0758765E2,1.69375E2,1.6561884E2,9.2904366E1,7.1428757E0,7.995046E1,0E0,2.0495312E2,0E0,2.7933838E1,3.6426105E1,2.2878273E1,9.985034E1,7.568029E-1,0E0,0E0,5.375551E-1,1.2935107E2,6.397252E1,1.0935022E1,3.8810349E0,1.3171528E1,1.1419155E2,3.982196E1,1.709361E2,7.7566345E1,9.349121E0,7.316284E0,1.3116289E1,2.2907906E1,1.2302826E1,1.931483E1,9.587085E1,1.1386845E1,0E0,0E0,0E0,0E0,0E0,5.4299927E0,7.102811E1,7.4506845E0,5.6830955E-1,3.865161E0,0E0,0E0,0E0,0E0,0E0,0E0,0E0,0E0,0E0,0E0,0E0,0E0,0E0,0E0,0E0,0E0,0E0,0E0,0E0,0E0,0E0,0E0,0E0,0E0,0E0,0E0,0E0,0E0,0E0,0E0,0E0,0E0,0E0,0E0,0E0,0E0,0E0,0E0],"parents":[2147483647,0,0,1,1,2,2,3,3,4,4,5,5,6,6,7,7,8,8,9,9,10,10,11,11,12,12,13,13,14,14,15,15,16,16,18,18,20,20,21,21,22,22,23,23,24,24,27,27,28,28,29,29,30,30,31,31,32,32,33,33,34,34,35,35,36,36,37,37,38,38,39,39,40,40,41,41,42,42,43,43,44,44,50,50,51,51,52,52,53,53,54,54],"right_children":[2,4,6,8,10,12,14,16,18,20,22,24,26,28,30,32,34,-1,36,-1,38,40,42,44,46,-1,-1,48,50,52,54,56,58,60,62,64,66,68,70,72,74,76,78,80,82,-1,-1,-1,-1,-1,84,86,88,90,92,-1,-1,-1,-1,-1,-1,-1,-1,-1,-1,-1,-1,-1,-1,-1,-1,-1,-1,-1,-1,-1,-1,-1,-1,-1,-1,-1,-1,-1,-1,-1,-1,-1,-1,-1,-1,-1,-1],"split_conditions":[6.75E0,1.9428308E2,2.0674158E1,2.27E0,1.7E0,2.129E1,5.857083E0,8.5E-1,4.3E-1,7.2805495E0,4E-1,2.602633E2,9.39E0,4.2133034E1,2.0256635E2,9.3550005E0,1.000256E1,3.786414E0,1.0948973E1,4.4209623E-1,1.04E0,4.8E0,2.79E0,1.6550833E1,3.4E0,6.7042966E0,1.9254136E0,1.823E1,3.58E0,7.7999997E0,2.494413E1,1.0409395E2,3.17E0,9.2E-1,1.6801793E2,1.000256E1,1.4527917E1,2.3920941E2,4E-1,2.3006226E1,1E-1,1.9726813E2,2.6694754E2,1.08E0,5.42E0,-1.2793988E-1,1.3306014E-1,-2.5843987E-1,5.560148E-3,4.1241354E-1,8E-1,3.9E0,1.62E1,3.71E0,2.1702032E2,-3.8818672E-1,-2.3421672E-1,-2.2729892E-1,2.502669E-1,1.9144965E0,-1.927038E-1,1.0737983E-1,-1.6281816E-1,5.560083E-1,2.4002914E0,4.694071E-1,9.617487E-1,-3.7824634E-1,-4.647059E-1,-2.5087222E-1,-3.5560665E-1,6.0088146E-2,-1.5939564E-1,8.6710316E-1,-2.0058651E-1,1.367669E-1,-3.2368952E-1,-1.3840078E-1,2.87473E-1,7.078963E-1,2.4575322E0,1.1152962E0,1.674135E-1,1.4814136E0,3.8488965E0,7.287336E-1,2.3974135E0,-3.493038E-1,3.4906012E-1,3.4413505E-2,2.4409623E-1,6.8402053E-3,-3.8411534E-1],"split_indices":[0,6,5,0,0,0,3,0,1,5,4,6,2,6,6,3,5,0,5,0,0,0,0,3,1,0,0,0,1,4,5,6,1,2,6,5,3,6,4,5,4,6,6,1,2,0,0,0,0,0,4,4,0,1,6,0,0,0,0,0,0,0,0,0,0,0,0,0,0,0,0,0,0,0,0,0,0,0,0,0,0,0,0,0,0,0,0,0,0,0,0,0,0],"split_type":[0,0,0,0,0,0,0,0,0,0,0,0,0,0,0,0,0,0,0,0,0,0,0,0,0,0,0,0,0,0,0,0,0,0,0,0,0,0,0,0,0,0,0,0,0,0,0,0,0,0,0,0,0,0,0,0,0,0,0,0,0,0,0,0,0,0,0,0,0,0,0,0,0,0,0,0,0,0,0,0,0,0,0,0,0,0,0,0,0,0,0,0,0],"sum_hessian":[1.913E3,1.784E3,1.29E2,6.24E2,1.16E3,7.5E1,5.4E1,4.21E2,2.03E2,8.65E2,2.95E2,6.9E1,6E0,1E1,4.4E1,1.29E2,2.92E2,2E0,2.01E2,4E0,8.61E2,1.11E2,1.84E2,6.7E1,2E0,4E0,2E0,2E0,8E0,2.7E1,1.7E1,7.7E1,5.2E1,8E0,2.84E2,1.9E1,1.82E2,5.78E2,2.83E2,1.03E2,8E0,9.8E1,8.6E1,6.1E1,6E0,1E0,1E0,1E0,1E0,2E0,6E0,2.2E1,5E0,6E0,1.1E1,4.5E1,3.2E1,4.7E1,5E0,4E0,4E0,2.22E2,6.2E1,9E0,1E1,1.45E2,3.7E1,2.23E2,3.55E2,1.16E2,1.67E2,6.5E1,3.8E1,6E0,2E0,5E0,9.3E1,7.6E1,1E1,4E0,5.7E1,4E0,2E0,2E0,4E0,2E1,2E0,4E0,1E0,2E0,4E0,3E0,8E0],"tree_param":{"num_deleted":"0","num_feature":"7","num_nodes":"93","size_leaf_vector":"1"}},{"base_weights":[1.5863568E-2,-3.025738E-1,4.3881316E0,5.2141744E-1,-7.458916E-1,3.5336614E0,9.859983E0,-5.1409077E-2,1.7848369E0,-9.157045E-1,-2.808696E-1,4.5348663E0,8.263587E-1,1.3082335E1,-4.9012834E-1,-6.327172E-1,1.9899312E-1,3.0291307E0,1.6463828E0,-1.1249937E0,-8.114721E-1,1.1137506E-1,-4.7752738E-1,7.485173E0,3.8277729E0,4.6546197E0,2.6982754E-1,1.5228752E1,4.4457107E0,-3.0004832E-1,1.8328047E-1,-3.9135224E-1,-8.608385E-1,8.944063E-1,-3.4709055E-2,4.0971704E0,1.3708894E0,-7.8939265E-1,-1.165114E0,1.1687286E0,-8.2398856E-1,-2.783378E-1,4.8459163E-1,9.1366374E-1,-5.305224E-1,2.5702972E0,9.685581E0,2.1611953E0,4.8476872E0,1.1769809E-1,1.7833825E0,2.2326918E0,-7.2509587E-1,5.7334714E0,9.454944E0,3.569303E-1,1.5403308E0,4.726124E-3,7.775009E-2,-1.6653243E-1,2.5343895E-1,-1.289824E-1,-2.9374284E-1,6.454469E-1,1.6500516E-1,1.6697712E-1,-1.591073E-1,1.693085E0,1.9196673E-1,5.768535E-1,2.1198288E-1,-1.7582973E-2,-3.0626962E-1,-3.5451084E-1,-2.5521627E-1,4.249943E-1,6.374571E-2,-9.885481E-2,-2.603889E-1,2.5299028E-2,-3.0899027E-1,1.00202315E-1,6.850165E-1,-1.7901778E-1,7.7197057E-1,-5.491429E-2,-1.8717894E-1,1.2504808E0,-1.2512934E-1,3.0442095E0,8.2943034E-1,1.5411191E0,3.3482757E-1,1.6836275E0,4.2639175E-1,-9.291561E-2,1.4511137E0,-2.6020935E-1,2.967011E-1,-2.6406974E-1,3.5094078E0],"categories":[],"categories_nodes":[],"categories_segments":[],"categories_sizes":[],"default_left":[1,0,0,0,1,0,0,0,0,1,0,0,0,0,0,0,0,0,0,0,0,0,0,0,0,0,0,0,0,0,0,0,0,0,0,0,0,0,0,0,0,0,0,0,0,0,0,0,0,0,0,0,0,0,0,0,0,0,0,0,0,0,0,0,0,0,0,0,0,0,0,0,0,0,0,0,0,0,0,0,0,0,0,0,0,0,0,0,0,0,0,0,0,0,0,0,0,0,0,0,0],"id":1,"left_children":[1,3,5,7,9,11,13,15,17,19,21,23,25,27,29,31,33,-1,35,37,39,41,43,45,47,49,51,53,55,-1,57,59,61,63,65,67,69,71,73,75,77,79,81,83,85,87,89,91,93,-1,-1,95,97,-1,99,-1,-1,-1,-1,-1,-1,-1,-1,-1,-1,-1,-1,-1,-1,-1,-1,-1,-1,-1,-1,-1,-1,-1,-1,-1,-1,-1,-1,-1,-1,-1,-1,-1,-1,-1,-1,-1,-1,-1,-1,-1,-1,-1,-1,-1,-1],"loss_changes":[2.6661777E3,6.5243146E2,5.7297754E2,4.5241684E2,9.142322E1,3.0525708E2,5.733911E2,6.286262E1,2.0779529E2,1.7629639E1,2.4120232E1,1.4449829E2,6.692154E1,1.7328882E2,1.9006126E0,6.8209686E0,4.9111954E1,0E0,1.2469214E2,2.8502808E0,1.5115265E1,1.5406846E1,1.5819775E1,1.3732617E2,1.0680707E2,1.9661003E1,5.8253002E1,4.3487305E1,2.8610153E0,0E0,3.4056194E-2,1.3626679E1,2.9435043E0,3.1719002E1,6.6823616E1,9.797217E1,6.2805573E1,5.5231285E0,2.8814697E-1,6.472659E-1,1.2064697E1,1.426164E1,1.3864303E1,2.158831E1,6.409584E0,3.0381218E1,3.9040527E0,8.134909E1,1.02027405E2,0E0,0E0,6.7711494E1,5.735076E0,0E0,1.4939288E2,0E0,0E0,0E0,0E0,0E0,0E0,0E0,0E0,0E0,0E0,0E0,0E0,0E0,0E0,0E0,0E0,0E0,0E0,0E0,0E0,0E0,0E0,0E0,0E0,0E0,0E0,0E0,0E0,0E0,0E0,0E0,0E0,0E0,0E0,0E0,0E0,0E0,0E0,0E0,0E0,0E0,0E0,0E0,0E0,0E0,0E0],"parents":[2147483647,0,0,1,1,2,2,3,3,4,4,5,5,6,6,7,7,8,8,9,9,10,10,11,11,12,12,13,13,14,14,15,15,16,16,18,18,19,19,20,20,21,21,22,22,23,23,24,24,25,25,26,26,27,27,28,28,30,30,31,31,32,32,33,33,34,34,35,35,36,36,37,37,38,38,39,39,40,40,41,41,42,42,43,43,44,44,45,45,46,46,47,47,48,48,51,51,52,52,54,54],"right_children":[2,4,6,8,10,12,14,16,18,20,22,24,26,28,30,32,34,-1,36,38,40,42,44,46,48,50,52,54,56,-1,58,60,62,64,66,68,70,72,74,76,78,80,82,84,86,88,90,92,94,-1,-1,96,98,-1,100,-1,-1,-1,-1,-1,-1,-1,-1,-1,-1,-1,-1,-1,-1,-1,-1,-1,-1,-1,-1,-1,-1,-1,-1,-1,-1,-1,-1,-1,-1,-1,-1,-1,-1,-1,-1,-1,-1,-1,-1,-1,-1,-1,-1,-1,-1],"split_conditions":[6.75E0,1.9428308E2,1.823E1,2.33E0,1.63E0,2.4648829E1,2.836471E1,8.5E-1,4.3E-1,6.3E-1,2.0431387E1,1.1367109E1,5.4320836E0,1.385E1,8.98E0,9.8E-1,1.5281989E1,3.0291307E0,1.0948973E1,2.1646928E2,7.2805495E0,1.79E0,1.9671442E2,4.787993E1,5E-1,2.33E0,2E-1,1.5782622E1,2.129E1,-3.0004832E-1,3.754E1,8.8E0,1.405845E1,4.500017E1,1.6999999E0,1.0407083E1,2.7E0,3E-1,1.5938334E1,9.3E-1,2.0489803E2,2.6225006E2,1.9483284E1,1.9549692E2,2.1221461E2,1.282E1,1.67E1,5.0527596E1,1.62E1,1.1769809E-1,1.7833825E0,2.6313265E1,4.0908737E1,5.7334714E0,7.43E0,3.569303E-1,1.5403308E0,4.726124E-3,7.775009E-2,-1.6653243E-1,2.5343895E-1,-1.289824E-1,-2.9374284E-1,6.454469E-1,1.6500516E-1,1.6697712E-1,-1.591073E-1,1.693085E0,1.9196673E-1,5.768535E-1,2.1198288E-1,-1.7582973E-2,-3.0626962E-1,-3.5451084E-1,-2.5521627E-1,4.249943E-1,6.374571E-2,-9.885481E-2,-2.603889E-1,2.5299028E-2,-3.0899027E-1,1.00202315E-1,6.850165E-1,-1.7901778E-1,7.7197057E-1,-5.491429E-2,-1.8717894E-1,1.2504808E0,-1.2512934E-1,3.0442095E0,8.2943034E-1,1.5411191E0,3.3482757E-1,1.6836275E0,4.2639175E-1,-9.291561E-2,1.4511137E0,-2.6020935E-1,2.967011E-1,-2.6406974E-1,3.5094078E0],"split_indices":[0,6,0,0,0,5,5,0,1,0,5,5,3,2,1,2,5,0,5,6,5,1,6,6,4,1,4,5,0,0,1,4,5,6,4,3,1,4,3,1,6,6,5,6,6,0,1,6,0,0,0,5,5,0,1,0,0,0,0,0,0,0,0,0,0,0,0,0,0,0,0,0,0,0,0,0,0,0,0,0,0,0,0,0,0,0,0,0,0,0,0,0,0,0,0,0,0,0,0,0,0],"split_type":[0,0,0,0,0,0,0,0,0,0,0,0,0,0,0,0,0,0,0,0,0,0,0,0,0,0,0,0,0,0,0,0,0,0,0,0,0,0,0,0,0,0,0,0,0,0,0,0,0,0,0,0,0,0,0,0,0,0,0,0,0,0,0,0,0,0,0,0,0,0,0,0,0,0,0,0,0,0,0,0,0,0,0,0,0,0,0,0,0,0,0,0,0,0,0,0,0,0,0,0,0],"sum_hessian":[1.913E3,1.784E3,1.29E2,6.24E2,1.16E3,1.13E2,1.6E1,4.3E2,1.94E2,8.49E2,3.11E2,8.2E1,3.1E1,1.2E1,4E0,1.29E2,3.01E2,2E0,1.92E2,2.79E2,5.7E2,1.04E2,2.07E2,1.4E1,6.8E1,3E0,2.8E1,9E0,3E0,2E0,2E0,6.4E1,6.5E1,7.5E1,2.26E2,1.8E1,1.74E2,3.2E1,2.47E2,3E0,5.67E2,5.1E1,5.3E1,7E0,2E2,5E0,9E0,2.7E1,4.1E1,1E0,2E0,9E0,1.9E1,4E0,5E0,1E0,2E0,1E0,1E0,5.7E1,7E0,1.5E1,5E1,1.5E1,6E1,1.03E2,1.23E2,1.2E1,6E0,9.4E1,8E1,8E0,2.4E1,2.32E2,1.5E1,2E0,1E0,4.7E1,5.2E2,3.5E1,1.6E1,5E1,3E0,4E0,3E0,4.3E1,1.57E2,3E0,2E0,8E0,1E0,6E0,2.1E1,3.3E1,8E0,5E0,4E0,1.8E1,1E0,1E0,4E0],"tree_param":{"num_deleted":"0","num_feature":"7","num_nodes":"101","size_leaf_vector":"1"}},{"base_weights":[2.6346384E-2,-2.5009918E-1,2.7748547E0,3.6231613E-1,-5.3045183E-1,2.2491024E0,7.5289583E0,4.6037745E-2,1.5500224E0,-6.983827E-1,-3.630364E-1,3.0695467E0,4.5150355E-1,9.994255E0,-3.8660428E-1,-3.075589E-1,4.2298827E-1,9.504828E-1,4.041236E0,2.991343E-1,-7.1248704E-1,9.8428375E-1,-3.922067E-1,3.57065E0,1.1460289E0,1.7388821E0,-2.4332935E-1,1.1971256E1,4.4368024E0,-2.4003865E-1,1.5578835E-1,1.0129408E0,-4.4915217E-1,4.019047E0,3.5145578E-1,3.6032588E0,6.2720937E-1,3.018233E0,2.9362433E0,-7.4611753E-1,1.7922285E0,6.1196053E-1,-7.203386E-1,1.5837606E0,-2.9163134E-1,-1.9893675E-1,-5.1670647E-1,2.9271798E0,5.0236306E0,2.56981E0,-5.4515593E-2,1.1067042E0,1.8728861E0,-5.608277E-1,7.009247E-1,4.357438E0,7.023468E0,1.5121056E0,3.0339074E-1,4.0171985E-3,6.608756E-2,-5.1709786E-2,9.32632E-1,-2.990083E-1,-9.385998E-2,1.0715053E-1,2.2507024E0,6.0232818E-2,5.495475E-1,3.0180873E-2,1.7764788E0,6.277783E-1,6.902691E-2,3.3913213E-1,1.2932854E0,-1.1191678E-2,-3.273591E-1,1.0006392E0,4.979859E-2,2.2756799E-1,2.5824346E-2,-1.959025E-1,-2.516735E-1,1.24917254E-1,6.2941414E-1,-1.10092804E-1,1.4620901E-3,-9.178132E-2,4.2844534E-2,-8.596541E-2,-1.9864269E-1,1.1437708E0,5.5670357E-1,1.7029823E0,5.2905172E-2,1.1946986E0,2.1869701E-1,-2.5403094E-1,1.5367182E0,5.63794E-1,-1.8688938E-1,1.4768435E-1,-2.5050297E-1,8.1701607E-1,3.2308087E-2,-2.244593E-1,2.7460303E0],"categories":[],"categories_nodes":[],"categories_segments":[],"categories_sizes":[],"default_left":[1,0,0,0,1,0,0,0,0,0,0,0,0,0,0,0,0,0,0,0,0,0,0,0,0,0,0,0,0,0,0,0,0,0,0,0,0,0,0,0,0,0,0,0,0,0,0,0,0,0,0,0,0,0,0,0,0,0,0,0,0,0,0,0,0,0,0,0,0,0,0,0,0,0,0,0,0,0,0,0,0,0,0,0,0,0,0,0,0,0,0,0,0,0,0,0,0,0,0,0,0,0,0,0,0,0,0],"id":2,"left_children":[1,3,5,7,9,11,13,15,17,19,21,23,25,27,29,31,33,35,37,39,41,43,45,47,49,51,53,55,57,-1,59,61,63,65,67,69,71,-1,73,75,77,79,81,83,85,87,89,91,93,95,97,99,-1,101,103,-1,105,-1,-1,-1,-1,-1,-1,-1,-1,-1,-1,-1,-1,-1,-1,-1,-1,-1,-1,-1,-1,-1,-1,-1,-1,-1,-1,-1,-1,-1,-1,-1,-1,-1,-1,-1,-1,-1,-1,-1,-1,-1,-1,-1,-1,-1,-1,-1,-1,-1,-1],"loss_changes":[1.454976E3,2.9893674E2,4.2047583E2,2.0540689E2,3.331485E1,2.3311206E2,3.3560535E2,5.7843987E1,1.6792072E2,8.584381E0,2.3967064E1,1.0097095E2,4.604328E1,8.971802E1,1.2461141E0,4.2337112E1,5.2606827E1,7.835179E1,1.1679321E2,1.5383148E1,6.5450134E0,1.04053335E1,1.40457E1,6.570056E1,4.1163597E1,4.434363E1,1.0586267E1,1.1694824E1,5.239975E0,0E0,2.4605595E-2,5.518834E1,1.4836456E1,4.8341995E1,4.580596E1,8.060762E1,4.8982826E1,0E0,4.4775757E1,1.4268713E0,9.484972E0,2.430768E-1,4.114563E0,4.5296535E0,1.1348882E-1,8.527416E0,1.1760056E1,5.1744263E1,7.812799E1,2.5699036E1,6.175748E1,2.3888826E1,0E0,7.918395E0,1.0504794E1,0E0,8.961548E1,0E0,0E0,0E0,0E0,0E0,0E0,0E0,0E0,0E0,0E0,0E0,0E0,0E0,0E0,0E0,0E0,0E0,0E0,0E0,0E0,0E0,0E0,0E0,0E0,0E0,0E0,0E0,0E0,0E0,0E0,0E0,0E0,0E0,0E0,0E0,0E0,0E0,0E0,0E0,0E0,0E0,0E0,0E0,0E0,0E0,0E0,0E0,0E0,0E0,0E0],"parents":[2147483647,0,0,1,1,2,2,3,3,4,4,5,5,6,6,7,7,8,8,9,9,10,10,11,11,12,12,13,13,14,14,15,15,16,16,17,17,18,18,19,19,20,20,21,21,22,22,23,23,24,24,25,25,26,26,27,27,28,28,30,30,31,31,32,32,33,33,34,34,35,35,36,36,38,38,39,39,40,40,41,41,42,42,43,43,44,44,45,45,46,46,47,47,48,48,49,49,50,50,51,51,53,53,54,54,56,56],"right_children":[2,4,6,8,10,12,14,16,18,20,22,24,26,28,30,32,34,36,38,40,42,44,46,48,50,52,54,56,58,-1,60,62,64,66,68,70,72,-1,74,76,78,80,82,84,86,88,90,92,94,96,98,100,-1,102,104,-1,106,-1,-1,-1,-1,-1,-1,-1,-1,-1,-1,-1,-1,-1,-1,-1,-1,-1,-1,-1,-1,-1,-1,-1,-1,-1,-1,-1,-1,-1,-1,-1,-1,-1,-1,-1,-1,-1,-1,-1,-1,-1,-1,-1,-1,-1,-1,-1,-1,-1,-1],"split_conditions":[5.42E0,1.8508539E2,1.823E1,2.74E0,1.04E0,1.9671442E2,2.836471E1,1.23E0,4.6E0,1.9037138E2,1.000256E1,2.4648829E1,6E-1,9.68E0,8.98E0,1.1525623E1,1.25E0,1.0685391E1,4.7000003E0,5.799999E0,9.299225E0,2.8633335E0,2.3006226E1,1.3000002E0,5E-1,5E-1,2.5843854E2,1.5782622E1,1.0684167E1,-2.4003865E-1,3.754E1,9.3E-1,4.500017E1,9.3E-1,2.9882166E1,9.299225E0,1.8E0,3.018233E0,1.28E0,3.9675E0,6.8E-1,1.04E0,1.6000001E0,-8.366664E-1,1.9E0,2.84E0,2.224069E2,5.7E0,1.62E1,8.04875E0,7.17E0,1.06175E1,1.8728861E0,8.215417E0,2.95E0,4.357438E0,7.43E0,1.5121056E0,3.0339074E-1,4.0171985E-3,6.608756E-2,-5.1709786E-2,9.32632E-1,-2.990083E-1,-9.385998E-2,1.0715053E-1,2.2507024E0,6.0232818E-2,5.495475E-1,3.0180873E-2,1.7764788E0,6.277783E-1,6.902691E-2,3.3913213E-1,1.2932854E0,-1.1191678E-2,-3.273591E-1,1.0006392E0,4.979859E-2,2.2756799E-1,2.5824346E-2,-1.959025E-1,-2.516735E-1,1.24917254E-1,6.2941414E-1,-1.10092804E-1,1.4620901E-3,-9.178132E-2,4.2844534E-2,-8.596541E-2,-1.9864269E-1,1.1437708E0,5.5670357E-1,1.7029823E0,5.2905172E-2,1.1946986E0,2.1869701E-1,-2.5403094E-1,1.5367182E0,5.63794E-1,-1.8688938E-1,1.4768435E-1,-2.5050297E-1,8.1701607E-1,3.2308087E-2,-2.244593E-1,2.7460303E0],"split_indices":[0,6,0,0,0,6,5,0,4,6,5,5,4,2,1,5,0,5,4,4,5,3,5,4,4,4,6,5,3,0,1,0,6,1,5,5,1,0,2,3,0,1,4,3,0,0,6,1,0,3,2,3,0,3,1,0,1,0,0,0,0,0,0,0,0,0,0,0,0,0,0,0,0,0,0,0,0,0,0,0,0,0,0,0,0,0,0,0,0,0,0,0,0,0,0,0,0,0,0,0,0,0,0,0,0,0,0],"split_type":[0,0,0,0,0,0,0,0,0,0,0,0,0,0,0,0,0,0,0,0,0,0,0,0,0,0,0,0,0,0,0,0,0,0,0,0,0,0,0,0,0,0,0,0,0,0,0,0,0,0,0,0,0,0,0,0,0,0,0,0,0,0,0,0,0,0,0,0,0,0,0,0,0,0,0,0,0,0,0,0,0,0,0,0,0,0,0,0,0,0,0,0,0,0,0,0,0,0,0,0,0,0,0,0,0,0,0],"sum_hessian":[1.913E3,1.739E3,1.74E2,5.46E2,1.193E3,1.58E2,1.6E1,4.32E2,1.14E2,5.94E2,5.99E2,1.08E2,5E1,1.2E1,4E0,2.23E2,2.09E2,9.3E1,2.1E1,8E0,5.86E2,1.2E1,5.87E2,8.5E1,2.3E1,1.7E1,3.3E1,8E0,4E0,2E0,2E0,2.1E1,2.02E2,3E0,2.06E2,9E0,8.4E1,2E0,1.9E1,5E0,3E0,3E0,5.83E2,8E0,4E0,2.31E2,3.56E2,6.1E1,2.4E1,1E1,1.3E1,1.6E1,1E0,2.5E1,8E0,4E0,4E0,3E0,1E0,1E0,1E0,1.4E1,7E0,3.9E1,1.63E2,2E0,1E0,1.88E2,1.8E1,4E0,5E0,1.7E1,6.7E1,9E0,1E1,2E0,3E0,1E0,2E0,2E0,1E0,3.76E2,2.07E2,3E0,5E0,3E0,1E0,1.76E2,5.5E1,1.39E2,2.17E2,3.2E1,2.9E1,2.1E1,3E0,5E0,5E0,1.2E1,1E0,1.1E1,5E0,5E0,2E1,1E0,7E0,1E0,3E0],"tree_param":{"num_deleted":"0","num_feature":"7","num_nodes":"107","size_leaf_vector":"1"}},{"base_weights":[3.3653002E-2,-1.3595948E-1,2.5261245E0,-2.7545112E-1,6.4847505E-1,6.33703E0,1.9326607E0,7.967077E-2,-4.0373436E-1,1.2423666E0,8.388825E-2,1.0131646E1,3.0470958E0,2.6185353E0,2.4331293E-1,-3.1938294E-1,3.638919E-1,1.2451131E0,-4.182251E-1,7.88873E-1,3.250218E0,9.356627E-1,3.9615855E-2,3.273459E0,8.178526E-1,5.021194E-1,1.398018E0,1.2553388E0,4.0983276E0,2.6488988E0,-9.6882135E-2,-4.5150992E-1,4.2468134E-1,3.90733E0,2.7068275E-1,1.4602401E0,3.017997E-1,-5.768548E-1,-3.6246666E-1,2.6814065E0,5.917309E-1,5.797435E0,1.335392E0,2.7900755E-1,-3.9208153E-1,1.4156591E0,-4.7280592E-1,2.6797122E-1,2.0958848E0,2.7327223E0,6.601811E0,1.5919532E0,-5.808433E-3,4.569607E-1,-1.0447123E0,-1.4239343E-1,4.285153E-1,1.0191613E0,1.0626263E-2,2.5861065E0,-1.8128133E-1,-3.6112905E-1,1.20098E-1,1.825075E-1,-1.542311E-1,-1.3932702E-1,-1.9578277E-1,-6.497322E-2,-1.3682723E-1,1.13204926E-1,1.4729981E0,5.8510816E-1,1.0988982E-1,-2.3322302E-1,1.9843057E0,-1.4564432E-1,7.80975E-1,1.1888097E-1,-2.4611497E-1,6.1639525E-2,-1.6398145E-1,5.212106E-1,6.757951E-2,3.720863E-1,-3.174675E-1,7.9353064E-1,5.71366E-2,1.1402293E0,-1.6699134E-1,2.33444E0,1.4070705E-1,-6.437116E-2,6.1757363E-2,4.504785E-1,-8.3262645E-2,-3.752713E-1,-2.3369718E-2],"categories":[],"categories_nodes":[],"categories_segments":[],"categories_sizes":[],"default_left":[1,1,0,0,0,0,0,0,0,0,0,0,0,0,0,0,0,0,1,0,0,0,0,0,0,0,0,0,0,0,0,0,0,0,0,0,0,0,0,0,0,0,0,0,0,0,0,0,0,0,0,0,0,0,0,0,0,0,0,0,0,0,0,0,0,0,0,0,0,0,0,0,0,0,0,0,0,0,0,0,0,0,0,0,0,0,0,0,0,0,0,0,0,0,0,0,0],"id":3,"left_children":[1,3,5,7,9,11,13,15,17,19,21,23,25,27,29,31,33,35,37,39,41,-1,43,-1,-1,45,-1,47,49,51,53,55,57,59,61,-1,63,65,67,69,71,73,75,77,79,81,-1,83,85,87,89,-1,91,93,95,-1,-1,-1,-1,-1,-1,-1,-1,-1,-1,-1,-1,-1,-1,-1,-1,-1,-1,-1,-1,-1,-1,-1,-1,-1,-1,-1,-1,-1,-1,-1,-1,-1,-1,-1,-1,-1,-1,-1,-1,-1,-1],"loss_changes":[8.0949506E2,1.963724E2,2.63672E2,6.9414246E1,9.076297E1,1.688725E2,1.23341675E2,4.6051117E1,2.725705E1,1.17628296E2,1.8687704E1,1.0681091E1,3.870965E1,1.4816602E2,2.6444422E1,1.6806301E1,7.72189E1,3.270115E1,9.608795E0,3.9081017E1,1.093176E2,0E0,1.4474318E1,0E0,0E0,1.1723418E1,0E0,3.346541E1,1.0503479E2,2.8251549E1,1.57009115E1,6.9406776E0,2.9963902E1,1.3278874E2,4.482939E1,0E0,2.563859E0,2.1413422E0,1.1156036E1,4.9495117E1,2.9913376E1,5.885312E1,3.5892944E1,1.1927631E1,4.7290516E0,1.1404772E0,0E0,2.710215E1,2.2519104E1,8.994504E1,8.316522E1,0E0,1.7673475E-1,1.4995206E1,2.095396E0,0E0,0E0,0E0,0E0,0E0,0E0,0E0,0E0,0E0,0E0,0E0,0E0,0E0,0E0,0E0,0E0,0E0,0E0,0E0,0E0,0E0,0E0,0E0,0E0,0E0,0E0,0E0,0E0,0E0,0E0,0E0,0E0,0E0,0E0,0E0,0E0,0E0,0E0,0E0,0E0,0E0,0E0],"parents":[2147483647,0,0,1,1,2,2,3,3,4,4,5,5,6,6,7,7,8,8,9,9,10,10,11,11,12,12,13,13,14,14,15,15,16,16,17,17,18,18,19,19,20,20,22,22,25,25,27,27,28,28,29,29,30,30,31,31,32,32,33,33,34,34,36,36,37,37,38,38,39,39,40,40,41,41,42,42,43,43,44,44,45,45,47,47,48,48,49,49,50,50,52,52,53,53,54,54],"right_children":[2,4,6,8,10,12,14,16,18,20,22,24,26,28,30,32,34,36,38,40,42,-1,44,-1,-1,46,-1,48,50,52,54,56,58,60,62,-1,64,66,68,70,72,74,76,78,80,82,-1,84,86,88,90,-1,92,94,96,-1,-1,-1,-1,-1,-1,-1,-1,-1,-1,-1,-1,-1,-1,-1,-1,-1,-1,-1,-1,-1,-1,-1,-1,-1,-1,-1,-1,-1,-1,-1,-1,-1,-1,-1,-1,-1,-1,-1,-1,-1,-1],"split_conditions":[7.17E0,2.9E0,1.0948973E1,1.7352354E2,1.8190665E2,9.319583E0,1.94987E2,1.04E0,9.299225E0,4.6E0,3.2E-1,7.43E0,4.787993E1,3.1E0,7.43E0,2.6E0,1.08E0,5.9E-1,6.3E-1,1.0685391E1,8.300002E0,9.356627E-1,3.25E0,3.273459E0,8.178526E-1,8.98E0,1.398018E0,1.032E1,1.3112137E2,4.15E0,1.177375E1,1.9796665E1,7.8E-1,1.6E0,3.4315132E1,1.4602401E0,1.42E0,2.4277138E2,4E-1,1.024578E1,1.58E0,3.04E0,1.64E0,8.8E0,3.25E0,8.98E0,-4.7280592E-1,3.36E0,2.8211803E1,7.885268E1,2.836471E1,1.5919532E0,6.75E0,2.2333607E2,1.5334167E1,-1.4239343E-1,4.285153E-1,1.0191613E0,1.0626263E-2,2.5861065E0,-1.8128133E-1,-3.6112905E-1,1.20098E-1,1.825075E-1,-1.542311E-1,-1.3932702E-1,-1.9578277E-1,-6.497322E-2,-1.3682723E-1,1.13204926E-1,1.4729981E0,5.8510816E-1,1.0988982E-1,-2.3322302E-1,1.9843057E0,-1.4564432E-1,7.80975E-1,1.1888097E-1,-2.4611497E-1,6.1639525E-2,-1.6398145E-1,5.212106E-1,6.757951E-2,3.720863E-1,-3.174675E-1,7.9353064E-1,5.71366E-2,1.1402293E0,-1.6699134E-1,2.33444E0,1.4070705E-1,-6.437116E-2,6.1757363E-2,4.504785E-1,-8.3262645E-2,-3.752713E-1,-2.3369718E-2],"split_indices":[0,0,5,6,6,3,6,0,5,4,1,1,6,2,0,1,0,1,0,5,4,0,1,0,0,1,0,0,6,1,3,3,2,2,6,0,2,6,4,5,1,0,2,4,0,0,0,1,5,6,5,0,1,6,3,0,0,0,0,0,0,0,0,0,0,0,0,0,0,0,0,0,0,0,0,0,0,0,0,0,0,0,0,0,0,0,0,0,0,0,0,0,0,0,0,0,0],"split_type":[0,0,0,0,0,0,0,0,0,0,0,0,0,0,0,0,0,0,0,0,0,0,0,0,0,0,0,0,0,0,0,0,0,0,0,0,0,0,0,0,0,0,0,0,0,0,0,0,0,0,0,0,0,0,0,0,0,0,0,0,0,0,0,0,0,0,0,0,0,0,0,0,0,0,0,0,0,0,0,0,0,0,0,0,0,0,0,0,0,0,0,0,0,0,0,0,0],"sum_hessian":[1.913E3,1.792E3,1.21E2,1.522E3,2.7E2,1.5E1,1.06E2,4.04E2,1.118E3,1.31E2,1.39E2,6E0,9E0,7.5E1,3.1E1,1.68E2,2.36E2,9E0,1.109E3,1.08E2,2.3E1,1E0,1.38E2,5E0,1E0,4E0,5E0,4E1,3.5E1,3E0,2.8E1,1.43E2,2.5E1,5E0,2.31E2,1E0,8E0,2.86E2,8.23E2,9E0,9.9E1,9E0,1.4E1,8.9E1,4.9E1,3E0,1E0,1.9E1,2.1E1,2.4E1,1.1E1,1E0,2E0,1.8E1,1E1,1.42E2,1E0,2E0,2.3E1,2E0,3E0,1.8E1,2.13E2,6E0,2E0,1.18E2,1.68E2,3.23E2,5E2,5E0,4E0,1.3E1,8.6E1,1E0,8E0,6E0,8E0,8.1E1,8E0,1E1,3.9E1,2E0,1E0,1.1E1,8E0,1.6E1,5E0,1.8E1,6E0,9E0,2E0,1E0,1E0,7E0,1.1E1,8E0,2E0],"tree_param":{"num_deleted":"0","num_feature":"7","num_nodes":"97","size_leaf_vector":"1"}},{"base_weights":[3.469707E-2,-9.405285E-2,1.8022656E0,-2.5674477E-1,2.3673879E-1,4.7862535E0,1.3714303E0,3.5415617E-1,-2.8146726E-1,6.630314E-1,-7.7407934E-2,7.6766257E0,2.2843673E0,1.0842193E0,3.213889E0,-5.611245E-1,6.166948E-1,-1.3446124E-1,-3.6140013E-1,1.5342672E0,4.3755108E-1,1.9160543E-1,-2.2501343E-1,2.4550943E0,6.9517475E-1,2.9028383E-1,1.0696127E0,1.632447E0,4.1960776E-1,4.5778484E0,-4.2960024E-1,-5.0694898E-2,-1.4417026E0,-1.0896632E-2,1.2797579E0,-7.403149E-1,-7.9024106E-2,-4.742811E-1,-3.2694557E-1,6.1133516E-1,4.1850424E0,2.1632294E-1,1.5113026E0,6.7368835E-2,1.3144737E0,-8.202964E-1,-1.6790754E-1,1.0326631E0,-4.01885E-1,4.5780456E-1,2.1915214E0,2.280137E0,-2.1222444E-1,-1.6574174E-1,5.1461277E0,-2.347418E-1,6.647229E-2,-8.9256294E-2,1.3795668E-1,-4.931162E-1,-1.2534729E-1,-9.648613E-2,3.9372107E-1,6.733521E-1,1.9685678E-2,-1.1023702E-1,-3.410443E-1,4.0372975E-2,-8.732049E-2,2.2946668E-3,-1.5510964E-1,1.8334249E-1,-9.9883355E-2,3.0050066E-1,-3.9484286E-1,-1.7470014E-1,1.3892555E0,-6.6355385E-2,2.4772295E-1,1.5313835E0,2.586123E-1,1.9216406E-1,-1.5521146E-2,1.0354638E0,6.5583415E-2,-6.382576E-2,-3.470903E-1,1.09164596E-1,-6.7532726E-2,3.7477022E-1,5.744255E-2,4.7202864E-1,-1.4897926E-1,7.726592E-1,-6.653384E-2,-3.2928765E-1,1.0584049E0,8.752294E-2,-5.26963E-1,2.0732555E0,8.4535116E-1,-5.1558497E-3,3.506838E-2],"categories":[],"categories_nodes":[],"categories_segments":[],"categories_sizes":[],"default_left":[1,1,0,0,0,0,0,0,0,0,0,0,0,0,0,0,0,0,0,0,0,0,0,0,0,0,0,0,0,0,0,0,0,0,0,0,0,0,0,0,0,0,0,0,0,0,0,0,0,0,0,0,0,0,0,0,0,0,0,0,0,0,0,0,0,0,0,0,0,0,0,0,0,0,0,0,0,0,0,0,0,0,0,0,0,0,0,0,0,0,0,0,0,0,0,0,0,0,0,0,0,0,0],"id":4,"left_children":[1,3,5,7,9,11,13,15,17,19,21,23,25,27,29,31,33,35,37,39,41,43,45,-1,-1,47,-1,49,51,53,55,57,59,61,63,65,67,69,71,73,75,77,79,81,83,85,87,89,-1,91,93,95,97,-1,99,-1,101,-1,-1,-1,-1,-1,-1,-1,-1,-1,-1,-1,-1,-1,-1,-1,-1,-1,-1,-1,-1,-1,-1,-1,-1,-1,-1,-1,-1,-1,-1,-1,-1,-1,-1,-1,-1,-1,-1,-1,-1,-1,-1,-1,-1,-1,-1],"loss_changes":[4.3574677E2,9.612435E1,1.6056494E2,1.817797E1,7.8929276E1,9.816589E1,5.73705E1,1.163998E1,1.3476364E1,4.8440308E1,1.3543782E1,5.7647705E-2,2.450941E1,3.611522E1,7.651021E1,4.871117E0,1.5410857E1,1.3611319E1,2.7424393E0,1.22212296E2,4.7181877E1,1.6791107E1,7.3409834E0,0E0,0E0,7.433395E0,0E0,3.5115906E1,5.573439E1,3.49131E1,9.2726445E-1,1.144954E0,1.4058113E-1,8.645712E0,2.0936829E1,4.6087646E0,1.6978672E1,3.547676E0,3.4336815E0,3.0660358E1,3.0326126E1,4.4709175E1,7.492155E1,7.5427227E0,2.7348692E1,3.6401587E0,6.2265882E0,4.8951006E-1,0E0,2.101169E1,3.4860184E1,5.4452923E1,2.8530775E1,0E0,2.1614227E1,0E0,1.4663728E-2,0E0,0E0,0E0,0E0,0E0,0E0,0E0,0E0,0E0,0E0,0E0,0E0,0E0,0E0,0E0,0E0,0E0,0E0,0E0,0E0,0E0,0E0,0E0,0E0,0E0,0E0,0E0,0E0,0E0,0E0,0E0,0E0,0E0,0E0,0E0,0E0,0E0,0E0,0E0,0E0,0E0,0E0,0E0,0E0,0E0,0E0],"parents":[2147483647,0,0,1,1,2,2,3,3,4,4,5,5,6,6,7,7,8,8,9,9,10,10,11,11,12,12,13,13,14,14,15,15,16,16,17,17,18,18,19,19,20,20,21,21,22,22,25,25,27,27,28,28,29,29,30,30,31,31,32,32,33,33,34,34,35,35,36,36,37,37,38,38,39,39,40,40,41,41,42,42,43,43,44,44,45,45,46,46,47,47,49,49,50,50,51,51,52,52,54,54,56,56],"right_children":[2,4,6,8,10,12,14,16,18,20,22,24,26,28,30,32,34,36,38,40,42,44,46,-1,-1,48,-1,50,52,54,56,58,60,62,64,66,68,70,72,74,76,78,80,82,84,86,88,90,-1,92,94,96,98,-1,100,-1,102,-1,-1,-1,-1,-1,-1,-1,-1,-1,-1,-1,-1,-1,-1,-1,-1,-1,-1,-1,-1,-1,-1,-1,-1,-1,-1,-1,-1,-1,-1,-1,-1,-1,-1,-1,-1,-1,-1,-1,-1,-1,-1,-1,-1,-1,-1],"split_conditions":[6.75E0,1.67E0,1.0948973E1,1.1525623E1,1.7670554E2,9.319583E0,1.823E1,5.9E-1,2.1054633E2,1.35515E1,3E-1,7.43E0,8.714677E0,2.0833395E1,2.836471E1,6.2E-1,9E-1,3.4315132E1,5.221667E0,2.6000001E0,1.3292032E2,4.8E0,1.9123029E2,2.4550943E0,6.9517475E-1,5E0,1.0696127E0,2E-1,6.748749E0,7.43E0,8.98E0,9.3E-1,1.17E0,3.5E0,1.8343777E2,8.1E-1,1.05E0,2.2768747E2,5.305E0,1.3009903E1,5.6E-1,1.1421666E1,1.9E0,5.4883327E0,8.8E-1,2.25E0,1.4512064E1,1.282E1,-4.01885E-1,8.98E0,2.4254884E2,5.277514E1,3.6E0,-1.6574174E-1,1.62E1,-2.347418E-1,3.754E1,-8.9256294E-2,1.3795668E-1,-4.931162E-1,-1.2534729E-1,-9.648613E-2,3.9372107E-1,6.733521E-1,1.9685678E-2,-1.1023702E-1,-3.410443E-1,4.0372975E-2,-8.732049E-2,2.2946668E-3,-1.5510964E-1,1.8334249E-1,-9.9883355E-2,3.0050066E-1,-3.9484286E-1,-1.7470014E-1,1.3892555E0,-6.6355385E-2,2.4772295E-1,1.5313835E0,2.586123E-1,1.9216406E-1,-1.5521146E-2,1.0354638E0,6.5583415E-2,-6.382576E-2,-3.470903E-1,1.09164596E-1,-6.7532726E-2,3.7477022E-1,5.744255E-2,4.7202864E-1,-1.4897926E-1,7.726592E-1,-6.653384E-2,-3.2928765E-1,1.0584049E0,8.752294E-2,-5.26963E-1,2.0732555E0,8.4535116E-1,-5.1558497E-3,3.506838E-2],"split_indices":[0,0,5,5,6,3,0,2,6,5,4,1,5,5,5,1,0,6,3,4,6,0,6,0,0,2,0,4,3,1,1,0,0,1,6,0,1,6,3,5,2,3,0,3,1,0,5,0,0,0,6,6,4,0,1,0,1,0,0,0,0,0,0,0,0,0,0,0,0,0,0,0,0,0,0,0,0,0,0,0,0,0,0,0,0,0,0,0,0,0,0,0,0,0,0,0,0,0,0,0,0,0,0],"split_type":[0,0,0,0,0,0,0,0,0,0,0,0,0,0,0,0,0,0,0,0,0,0,0,0,0,0,0,0,0,0,0,0,0,0,0,0,0,0,0,0,0,0,0,0,0,0,0,0,0,0,0,0,0,0,0,0,0,0,0,0,0,0,0,0,0,0,0,0,0,0,0,0,0,0,0,0,0,0,0,0,0,0,0,0,0,0,0,0,0,0,0,0,0,0,0,0,0,0,0,0,0,0,0],"sum_hessian":[1.913E3,1.784E3,1.29E2,1.196E3,5.88E2,1.5E1,1.14E2,4.6E1,1.15E3,2.49E2,3.39E2,6E0,9E0,1E2,1.4E1,1E1,3.6E1,4.06E2,7.44E2,5E1,1.99E2,1.2E2,2.19E2,5E0,1E0,4E0,5E0,5.4E1,4.6E1,1E1,4E0,7E0,3E0,1.9E1,1.7E1,3.3E1,3.73E2,1.71E2,5.73E2,3.8E1,1.2E1,1.66E2,3.3E1,1.09E2,1.1E1,1.8E1,2.01E2,3E0,1E0,1.8E1,3.6E1,1.1E1,3.5E1,1E0,9E0,2E0,2E0,5E0,2E0,2E0,1E0,1.6E1,3E0,9E0,8E0,1.8E1,1.5E1,1.86E2,1.87E2,1.4E1,1.57E2,3E0,5.7E2,3.2E1,6E0,1E0,1.1E1,9.7E1,6.9E1,4E0,2.9E1,1.8E1,9.1E1,3E0,8E0,7E0,1.1E1,1.9E1,1.82E2,2E0,1E0,8E0,1E1,3.1E1,5E0,3E0,8E0,2.7E1,8E0,4E0,5E0,1E0,1E0],"tree_param":{"num_deleted":"0","num_feature":"7","num_nodes":"103","size_leaf_vector":"1"}},{"base_weights":[3.0541854E-2,-5.688854E-2,1.5075849E0,-1.4170393E-1,3.9496714E-1,1.1139683E0,3.5259109E0,9.2998356E-2,-1.8677048E-1,1.7787697E0,2.8983223E-1,1.6580769E0,1.5301895E-1,4.742224E0,-3.4168598E-1,-1.4957926E-2,8.707822E-1,-8.436021E-2,-3.1342494E-1,2.3681078E0,-4.6286583E-1,9.7630364E-1,9.465689E-2,-1.4947581E-1,1.9091033E0,1.2563095E0,-1.2826866E-1,6.952477E0,7.47527E-1,-1.8779345E-1,5.6501467E-2,-1.0396406E-1,1.389751E0,2.4422865E0,2.863119E-1,3.267805E-1,-1.705137E-1,-4.1399348E-1,-2.0742695E-1,8.894033E-1,3.7356367E0,2.1143861E-1,-4.4287154E-1,-1.3254577E-1,2.208692E0,4.5257264E-1,-2.378582E-1,9.9280745E-1,-1.1163604E0,2.6438842E0,7.3351705E-1,-2.837844E-1,1.929104E0,-7.9435354E-1,4.209421E-1,2.507816E0,2.759105E0,-4.3824795E-3,2.9808141E-2,2.9989252E-2,-1.3763176E-1,-1.4204952E-1,1.339695E0,-5.2290436E-2,8.522956E-1,2.206472E-2,3.8356444E-1,4.149569E-2,1.4240429E0,-5.72823E-2,1.0855395E-1,-1.3021618E-1,2.4728557E-1,2.8272007E-2,-9.369097E-2,-7.143234E-2,5.517101E-1,-1.4849518E-1,1.323217E0,-2.531751E-1,2.189808E-1,8.2251173E-1,1.6003355E-1,2.3297575E-1,-1.5358484E-1,-1.5121515E-1,1.6505997E-1,-2.5809038E-2,-5.602802E-1,5.164678E-1,1.1882306E0,4.398066E-1,-8.238404E-1,2.7381422E-2,-1.550844E-1,6.681306E-1,1.10566884E-1,-3.2147115E-1,1.46068E-1,1.117601E0,-9.5162936E-2,-1.408805E-1,1.3824778E0],"categories":[],"categories_nodes":[],"categories_segments":[],"categories_sizes":[],"default_left":[1,1,0,0,0,0,0,0,0,0,0,0,0,0,0,0,0,0,0,0,0,0,0,0,0,0,0,0,0,0,0,0,0,0,0,0,0,0,0,0,0,0,0,0,0,0,0,0,0,0,0,0,0,0,0,0,0,0,0,0,0,0,0,0,0,0,0,0,0,0,0,0,0,0,0,0,0,0,0,0,0,0,0,0,0,0,0,0,0,0,0,0,0,0,0,0,0,0,0,0,0,0,0],"id":5,"left_children":[1,3,5,7,9,11,13,15,17,19,21,23,25,27,29,31,33,35,37,39,41,43,45,47,49,51,53,55,-1,-1,57,59,61,63,65,67,69,71,73,75,77,-1,-1,79,81,83,85,-1,87,89,91,93,95,97,99,-1,101,-1,-1,-1,-1,-1,-1,-1,-1,-1,-1,-1,-1,-1,-1,-1,-1,-1,-1,-1,-1,-1,-1,-1,-1,-1,-1,-1,-1,-1,-1,-1,-1,-1,-1,-1,-1,-1,-1,-1,-1,-1,-1,-1,-1,-1,-1],"loss_changes":[2.4725679E2,6.934633E1,8.107805E1,1.612648E1,4.1093437E1,4.7326614E1,8.15919E1,2.066882E1,1.6550137E1,2.751773E1,3.5680855E1,2.6602478E1,1.0712771E1,4.7339447E1,6.0137653E-1,2.7275496E1,2.6855673E1,2.5133938E1,6.0010223E0,2.9032257E1,6.9568253E0,8.091821E1,2.4981237E1,3.0448782E1,4.211438E1,7.8006153E0,1.0577365E1,1.233374E1,0E0,0E0,1.0594561E-2,1.4878731E1,7.661964E1,8.841026E0,4.7615166E0,1.018031E2,6.4416466E0,7.6111794E0,8.887989E0,1.0074356E1,2.5031517E1,0E0,0E0,2.0249434E1,2.353946E1,3.1961874E1,2.3142801E1,0E0,5.257509E0,3.0833755E1,5.7552E1,3.0953062E-1,1.5043869E0,5.139125E0,4.020804E1,0E0,2.0075176E1,0E0,0E0,0E0,0E0,0E0,0E0,0E0,0E0,0E0,0E0,0E0,0E0,0E0,0E0,0E0,0E0,0E0,0E0,0E0,0E0,0E0,0E0,0E0,0E0,0E0,0E0,0E0,0E0,0E0,0E0,0E0,0E0,0E0,0E0,0E0,0E0,0E0,0E0,0E0,0E0,0E0,0E0,0E0,0E0,0E0,0E0],"parents":[2147483647,0,0,1,1,2,2,3,3,4,4,5,5,6,6,7,7,8,8,9,9,10,10,11,11,12,12,13,13,14,14,15,15,16,16,17,17,18,18,19,19,20,20,21,21,22,22,23,23,24,24,25,25,26,26,27,27,30,30,31,31,32,32,33,33,34,34,35,35,36,36,37,37,38,38,39,39,40,40,43,43,44,44,45,45,46,46,48,48,49,49,50,50,51,51,52,52,53,53,54,54,56,56],"right_children":[2,4,6,8,10,12,14,16,18,20,22,24,26,28,30,32,34,36,38,40,42,44,46,48,50,52,54,56,-1,-1,58,60,62,64,66,68,70,72,74,76,78,-1,-1,80,82,84,86,-1,88,90,92,94,96,98,100,-1,102,-1,-1,-1,-1,-1,-1,-1,-1,-1,-1,-1,-1,-1,-1,-1,-1,-1,-1,-1,-1,-1,-1,-1,-1,-1,-1,-1,-1,-1,-1,-1,-1,-1,-1,-1,-1,-1,-1,-1,-1,-1,-1,-1,-1,-1,-1],"split_conditions":[7.94E0,2.9E0,1.823E1,1.5158522E1,1.0685391E1,1.645458E2,2.836471E1,1.5334167E1,1.5E0,4.8E0,6.0412354E1,4.934167E0,1.7414476E1,5.09E0,8.98E0,1.4986553E1,1.557375E1,1.6801793E2,2.8856194E1,2.8633335E0,4.03E0,1.1923749E1,1.074875E1,8.98E0,1.33966675E1,9.627915E0,2.6313265E1,2E-1,7.47527E-1,-1.8779345E-1,3.754E1,1.3363711E1,1.074875E1,5E-1,4.3E0,1.5768744E2,4.1718082E1,1.8398748E1,1.9671442E2,7.9036193E0,5.6E-1,2.1143861E-1,-4.4287154E-1,2.1485697E1,6.53E0,2.4000734E2,2.4525587E2,9.9280745E-1,2.47E0,2.9E0,5.9E0,1.113E1,1.201E1,2.4960893E2,1E-1,2.507816E0,7.43E0,-4.3824795E-3,2.9808141E-2,2.9989252E-2,-1.3763176E-1,-1.4204952E-1,1.339695E0,-5.2290436E-2,8.522956E-1,2.206472E-2,3.8356444E-1,4.149569E-2,1.4240429E0,-5.72823E-2,1.0855395E-1,-1.3021618E-1,2.4728557E-1,2.8272007E-2,-9.369097E-2,-7.143234E-2,5.517101E-1,-1.4849518E-1,1.323217E0,-2.531751E-1,2.189808E-1,8.2251173E-1,1.6003355E-1,2.3297575E-1,-1.5358484E-1,-1.5121515E-1,1.6505997E-1,-2.5809038E-2,-5.602802E-1,5.164678E-1,1.1882306E0,4.398066E-1,-8.238404E-1,2.7381422E-2,-1.550844E-1,6.681306E-1,1.10566884E-1,-3.2147115E-1,1.46068E-1,1.117601E0,-9.5162936E-2,-1.408805E-1,1.3824778E0],"split_indices":[0,0,0,5,5,6,5,3,4,1,6,3,5,2,1,5,3,6,5,3,0,3,3,0,3,3,5,4,0,0,1,5,3,0,4,6,5,3,6,5,2,0,0,5,0,6,6,0,2,2,2,0,0,6,4,0,1,0,0,0,0,0,0,0,0,0,0,0,0,0,0,0,0,0,0,0,0,0,0,0,0,0,0,0,0,0,0,0,0,0,0,0,0,0,0,0,0,0,0,0,0,0,0],"split_type":[0,0,0,0,0,0,0,0,0,0,0,0,0,0,0,0,0,0,0,0,0,0,0,0,0,0,0,0,0,0,0,0,0,0,0,0,0,0,0,0,0,0,0,0,0,0,0,0,0,0,0,0,0,0,0,0,0,0,0,0,0,0,0,0,0,0,0,0,0,0,0,0,0,0,0,0,0,0,0,0,0,0,0,0,0,0,0,0,0,0,0,0,0,0,0,0,0,0,0,0,0,0,0],"sum_hessian":[1.913E3,1.807E3,1.06E2,1.522E3,2.85E2,9E1,1.6E1,2.45E2,1.277E3,1.9E1,2.66E2,5.7E1,3.3E1,1.2E1,4E0,2.16E2,2.9E1,7.07E2,5.7E2,1.5E1,4E0,5.8E1,2.08E2,7E0,5E1,6E0,2.7E1,5E0,7E0,2E0,2E0,2.04E2,1.2E1,7E0,2.2E1,1.22E2,5.85E2,2.91E2,2.79E2,8E0,7E0,2E0,2E0,3.1E1,2.7E1,1E2,1.08E2,1E0,6E0,3E1,2E1,2E0,4E0,1.2E1,1.5E1,3E0,2E0,1E0,1E0,1.3E2,7.4E1,8E0,4E0,1E0,6E0,1.9E1,3E0,1.18E2,4E0,5.64E2,2.1E1,2.87E2,4E0,7.2E1,2.07E2,4E0,4E0,1E0,6E0,1.7E1,1.4E1,2E1,7E0,7.5E1,2.5E1,8.1E1,2.7E1,3E0,3E0,1.9E1,1.1E1,1.7E1,3E0,1E0,1E0,3E0,1E0,1E1,2E0,2E0,1.3E1,1E0,1E0],"tree_param":{"num_deleted":"0","num_feature":"7","num_nodes":"103","size_leaf_vector":"1"}},{"base_weights":[2.8635947E-2,-3.6321286E-2,1.1259634E0,-8.7362655E-2,3.699153E-1,8.152218E-1,2.7231123E0,-7.958032E-2,-1.4603161E0,1.6611563E0,2.7962032E-1,1.1855053E0,1.2849613E-1,3.6654754E0,-2.716537E-1,-8.943646E-2,9.011508E-1,-5.3050625E-1,-7.643652E-2,3.3373904E0,1.9633615E-1,1.5434456E0,2.0083311E-1,1.4576341E0,-1.344783E-1,-3.9623263E-1,3.1744912E-1,5.491636E0,1.8376706E0,-1.5023473E-1,4.8026245E-2,-2.793818E-1,-4.131634E-2,3.0738482E0,1.6330925E-1,-1.1828814E-1,1.248776E0,3.652395E-1,-6.5983415E-1,5.0523096E-1,1.2430823E0,-5.4405063E-1,3.134215E-1,9.650126E-1,3.071689E0,6.178735E-1,-8.5088843E-1,1.1514417E0,-3.815915E-2,1.9435574E0,2.345239E0,6.7159736E-1,8.7701905E-1,-3.7251236E-3,2.5336934E-2,4.4470698E-1,-9.0219185E-2,6.923624E-2,-3.5776597E-2,1.3013973E0,-1.077869E-1,-1.18884906E-1,6.482133E-1,-5.3696398E-2,-2.205896E-1,-2.578014E-1,3.053611E-1,9.2102116E-1,-2.504003E-1,1.300423E-1,-1.9132051E-1,5.4729015E-1,4.2482615E-2,-1.5816626E-1,1.3461548E0,-7.658159E-1,1.2764414E-1,6.0014206E-1,-1.2298996E-1,2.1021487E-1,-5.7511047E-2,-1.19748406E-1,1.175106E0,-1.5208405E-1,4.52197E-1],"categories":[],"categories_nodes":[],"categories_segments":[],"categories_sizes":[],"default_left":[1,1,0,1,0,0,0,1,0,0,0,0,0,0,0,0,0,0,0,0,0,0,0,0,0,0,0,0,0,0,0,0,0,0,0,0,0,0,0,0,0,0,0,0,0,0,0,0,0,0,0,0,0,0,0,0,0,0,0,0,0,0,0,0,0,0,0,0,0,0,0,0,0,0,0,0,0,0,0,0,0,0,0,0,0],"id":6,"left_children":[1,3,5,7,9,11,13,15,17,19,21,23,25,27,29,31,33,-1,-1,35,37,39,41,43,45,-1,47,49,51,-1,53,55,57,59,61,-1,-1,-1,63,65,-1,67,69,71,73,-1,75,77,79,-1,81,-1,83,-1,-1,-1,-1,-1,-1,-1,-1,-1,-1,-1,-1,-1,-1,-1,-1,-1,-1,-1,-1,-1,-1,-1,-1,-1,-1,-1,-1,-1,-1,-1,-1],"loss_changes":[1.3646959E2,3.7520966E1,5.0884247E1,1.7054218E1,2.3087214E1,2.2987427E1,4.8972397E1,1.553688E1,2.8915825E0,3.1264702E1,1.8608946E1,2.1389153E1,9.456138E0,3.3300415E1,3.9029002E-1,1.4466523E1,2.5147717E1,0E0,0E0,2.01175E1,7.797406E0,2.7601315E1,1.5266266E1,3.5996574E1,1.9042759E1,0E0,8.941177E0,3.4371796E0,1.1183243E0,0E0,7.654589E-3,1.2481314E1,2.6855E1,1.8918503E1,1.538675E1,0E0,0E0,0E0,4.9824476E-2,7.1704807E0,0E0,2.777029E1,1.820412E1,2.7335758E1,5.8402313E1,0E0,2.0635614E1,1.2751295E1,2.6302323E0,0E0,1.4504311E1,0E0,4.253411E0,0E0,0E0,0E0,0E0,0E0,0E0,0E0,0E0,0E0,0E0,0E0,0E0,0E0,0E0,0E0,0E0,0E0,0E0,0E0,0E0,0E0,0E0,0E0,0E0,0E0,0E0,0E0,0E0,0E0,0E0,0E0,0E0],"parents":[2147483647,0,0,1,1,2,2,3,3,4,4,5,5,6,6,7,7,8,8,9,9,10,10,11,11,12,12,13,13,14,14,15,15,16,16,19,19,20,20,21,21,22,22,23,23,24,24,26,26,27,27,28,28,30,30,31,31,32,32,33,33,34,34,38,38,39,39,41,41,42,42,43,43,44,44,46,46,47,47,48,48,50,50,52,52],"right_children":[2,4,6,8,10,12,14,16,18,20,22,24,26,28,30,32,34,-1,-1,36,38,40,42,44,46,-1,48,50,52,-1,54,56,58,60,62,-1,-1,-1,64,66,-1,68,70,72,74,-1,76,78,80,-1,82,-1,84,-1,-1,-1,-1,-1,-1,-1,-1,-1,-1,-1,-1,-1,-1,-1,-1,-1,-1,-1,-1,-1,-1,-1,-1,-1,-1,-1,-1,-1,-1,-1,-1],"split_conditions":[7.94E0,3.54E0,1.823E1,3.5E0,7.8E-1,1.7057536E2,2.836471E1,3.34E0,2.2505037E1,1.9671442E2,2.7091665E0,6E0,1.7889828E2,5.09E0,8.98E0,6.2E-1,6.3800006E0,-5.3050625E-1,-7.643652E-2,3.95E0,2.1599998E1,1.3000001E0,6.182083E0,1.5999999E0,1.4417988E1,-3.9623263E-1,2.0256635E2,2E-1,1.385E1,-1.5023473E-1,3.754E1,8.714677E0,9.2E-1,1.42E0,1.4552917E1,-1.1828814E-1,1.248776E0,3.652395E-1,3.2E-1,8.5E-1,1.2430823E0,3.58E0,9.68E0,1.6375053E1,5.4538624E1,6.178735E-1,9.700001E0,9.39E0,1.405845E1,1.9435574E0,7.43E0,6.7159736E-1,2.129E1,-3.7251236E-3,2.5336934E-2,4.4470698E-1,-9.0219185E-2,6.923624E-2,-3.5776597E-2,1.3013973E0,-1.077869E-1,-1.18884906E-1,6.482133E-1,-5.3696398E-2,-2.205896E-1,-2.578014E-1,3.053611E-1,9.2102116E-1,-2.504003E-1,1.300423E-1,-1.9132051E-1,5.4729015E-1,4.2482615E-2,-1.5816626E-1,1.3461548E0,-7.658159E-1,1.2764414E-1,6.0014206E-1,-1.2298996E-1,2.1021487E-1,-5.7511047E-2,-1.19748406E-1,1.175106E0,-1.5208405E-1,4.52197E-1],"split_indices":[0,0,0,0,1,6,5,0,5,6,3,4,6,2,1,2,3,0,0,0,5,4,3,4,5,0,6,4,2,0,1,5,2,2,3,0,0,0,2,2,0,0,1,5,6,0,4,1,5,0,1,0,0,0,0,0,0,0,0,0,0,0,0,0,0,0,0,0,0,0,0,0,0,0,0,0,0,0,0,0,0,0,0,0,0],"split_type":[0,0,0,0,0,0,0,0,0,0,0,0,0,0,0,0,0,0,0,0,0,0,0,0,0,0,0,0,0,0,0,0,0,0,0,0,0,0,0,0,0,0,0,0,0,0,0,0,0,0,0,0,0,0,0,0,0,0,0,0,0,0,0,0,0,0,0,0,0,0,0,0,0,0,0,0,0,0,0,0,0,0,0,0,0],"sum_hessian":[1.913E3,1.807E3,1.06E2,1.606E3,2.01E2,9E1,1.6E1,1.598E3,8E0,1.2E1,1.89E2,5.8E1,3.2E1,1.2E1,4E0,1.583E3,1.5E1,6E0,2E0,5E0,7E0,1E1,1.79E2,4.8E1,1E1,3E0,2.9E1,5E0,7E0,2E0,2E0,3.19E2,1.264E3,3E0,1.2E1,1E0,4E0,3E0,4E0,8E0,2E0,2.3E1,1.56E2,3.8E1,1E1,2E0,8E0,8E0,2.1E1,3E0,2E0,4E0,3E0,1E0,1E0,3E0,3.16E2,2.81E2,9.83E2,2E0,1E0,1E1,2E0,1E0,3E0,2E0,6E0,1E0,2.2E1,1.39E2,1.7E1,1.8E1,2E1,3E0,7E0,3E0,5E0,5E0,3E0,3E0,1.8E1,1E0,1E0,1E0,2E0],"tree_param":{"num_deleted":"0","num_feature":"7","num_nodes":"85","size_leaf_vector":"1"}},{"base_weights":[2.550936E-2,6.62691E-3,2.1321788E0,-6.0217984E-2,3.7448007E-1,3.2749052E0,4.3724853E-1,-1.4774458E-1,2.1286616E-2,6.6496056E-1,7.381585E-3,1.5062568E0,1.8093753E0,9.1125804E-1,-2.645755E-1,1.3657098E0,-1.5736784E-1,7.233368E-1,-4.3469697E-4,1.2606802E0,3.414E-1,2.8225425E-1,-2.0444442E-1,-2.332278E-1,8.019187E-1,4.014436E-1,1.8061812E-1,-1.201878E-1,2.1536388E-2,-7.452434E-2,1.0689969E0,-2.5949627E-1,-7.4049026E-2,4.736222E0,-3.9157532E-2,1.1804325E-2,-1.0896593E0,4.4862562E-1,2.2116442E0,-1.1336566E0,4.5599052E-1,-3.162083E-1,8.314108E-1,-4.363665E-1,2.1543351E-1,-1.0178615E-1,-3.1663657E-3,-1.2927139E-1,2.1054955E-1,-2.3195648E-1,1.24827914E-1,-8.0279216E-2,3.8030726E-1,5.4280028E-2,-4.463221E-2,1.9870182E0,-1.3879435E-1,2.2895555E-1,-6.1803255E-2,-1.3382377E-1,1.1318842E-2,-3.9409038E-1,-6.1149217E-2,-1.2201986E-2,7.7270997E-1,4.1361263E-1,1.1740233E0,2.2561398E-1,-4.5314342E-1,1.1558508E0,1.0420576E-1,1.3769504E-1,-1.3935938E-1,1.7645106E-1,1.1828086E0,5.738017E-2,-1.8196999E-1,1.7693052E-2,6.424961E-1],"categories":[],"categories_nodes":[],"categories_segments":[],"categories_sizes":[],"default_left":[1,1,0,1,0,0,0,0,0,0,0,0,0,0,0,0,1,0,0,0,0,0,0,0,0,0,0,0,0,0,0,0,0,0,0,0,0,0,0,0,0,0,0,0,0,0,0,0,0,0,0,0,0,0,0,0,0,0,0,0,0,0,0,0,0,0,0,0,0,0,0,0,0,0,0,0,0,0,0],"id":7,"left_children":[1,3,5,7,9,11,13,15,17,19,21,-1,23,25,27,29,31,33,35,37,39,41,43,45,-1,-1,47,-1,-1,49,-1,51,53,55,57,59,61,63,65,67,69,71,73,75,77,-1,-1,-1,-1,-1,-1,-1,-1,-1,-1,-1,-1,-1,-1,-1,-1,-1,-1,-1,-1,-1,-1,-1,-1,-1,-1,-1,-1,-1,-1,-1,-1,-1,-1],"loss_changes":[7.6123024E1,4.6692673E1,3.1494362E1,1.1467194E1,3.1132488E1,1.6502808E1,2.9024663E0,1.1502291E1,1.2703108E1,3.098809E1,7.6269784E0,0E0,1.297262E1,1.3178115E0,2.1180975E-1,1.6090942E1,6.541395E0,7.6680504E1,1.0797678E1,4.302517E1,1.860288E1,1.8995928E1,7.3000517E0,6.7268714E-2,0E0,0E0,1.2586247E0,0E0,0E0,1.6928248E0,0E0,4.6199055E0,8.143735E0,4.2308952E1,3.1024423E0,9.525259E0,1.5178738E0,3.340956E1,3.1458557E1,6.8205366E0,3.5564365E1,3.4326162E0,2.0384752E1,5.243536E0,8.010681E0,0E0,0E0,0E0,0E0,0E0,0E0,0E0,0E0,0E0,0E0,0E0,0E0,0E0,0E0,0E0,0E0,0E0,0E0,0E0,0E0,0E0,0E0,0E0,0E0,0E0,0E0,0E0,0E0,0E0,0E0,0E0,0E0,0E0,0E0],"parents":[2147483647,0,0,1,1,2,2,3,3,4,4,5,5,6,6,7,7,8,8,9,9,10,10,12,12,13,13,14,14,15,15,16,16,17,17,18,18,19,19,20,20,21,21,22,22,23,23,26,26,29,29,31,31,32,32,33,33,34,34,35,35,36,36,37,37,38,38,39,39,40,40,41,41,42,42,43,43,44,44],"right_children":[2,4,6,8,10,12,14,16,18,20,22,-1,24,26,28,30,32,34,36,38,40,42,44,46,-1,-1,48,-1,-1,50,-1,52,54,56,58,60,62,64,66,68,70,72,74,76,78,-1,-1,-1,-1,-1,-1,-1,-1,-1,-1,-1,-1,-1,-1,-1,-1,-1,-1,-1,-1,-1,-1,-1,-1,-1,-1,-1,-1,-1,-1,-1,-1,-1,-1],"split_conditions":[1.823E1,3.54E0,1.0463333E1,1.04E0,1.7352354E2,2E-1,1.8440998E1,8.714677E0,1.08E0,3.04E0,6E-1,1.5062568E0,4.15E0,9.68E0,8.98E0,8.8E-1,7.8E-1,5.277514E1,3.5E0,1.0000001E0,3.25E0,4.8E0,1.2557082E1,2.129E1,8.019187E-1,4.014436E-1,2.129E1,-1.201878E-1,2.1536388E-2,5E-1,1.0689969E0,1.9796665E1,1.7313717E1,7.1E-1,5.2E-1,4.3E-1,2.2505037E1,1.0409395E2,2.5E0,6.8862495E0,3.36E0,1.2261157E1,5E-1,3.95E0,2.9007788E2,-1.0178615E-1,-3.1663657E-3,-1.2927139E-1,2.1054955E-1,-2.3195648E-1,1.24827914E-1,-8.0279216E-2,3.8030726E-1,5.4280028E-2,-4.463221E-2,1.9870182E0,-1.3879435E-1,2.2895555E-1,-6.1803255E-2,-1.3382377E-1,1.1318842E-2,-3.9409038E-1,-6.1149217E-2,-1.2201986E-2,7.7270997E-1,4.1361263E-1,1.1740233E0,2.2561398E-1,-4.5314342E-1,1.1558508E0,1.0420576E-1,1.3769504E-1,-1.3935938E-1,1.7645106E-1,1.1828086E0,5.738017E-2,-1.8196999E-1,1.7693052E-2,6.424961E-1],"split_indices":[0,0,3,0,6,4,5,5,0,1,4,0,2,2,1,0,1,6,0,4,1,0,3,0,0,0,0,0,0,0,0,3,5,1,2,2,5,6,2,3,1,5,4,0,6,0,0,0,0,0,0,0,0,0,0,0,0,0,0,0,0,0,0,0,0,0,0,0,0,0,0,0,0,0,0,0,0,0,0],"split_type":[0,0,0,0,0,0,0,0,0,0,0,0,0,0,0,0,0,0,0,0,0,0,0,0,0,0,0,0,0,0,0,0,0,0,0,0,0,0,0,0,0,0,0,0,0,0,0,0,0,0,0,0,0,0,0,0,0,0,0,0,0,0,0,0,0,0,0,0,0,0,0,0,0,0,0,0,0,0,0],"sum_hessian":[1.913E3,1.897E3,1.6E1,1.606E3,2.91E2,9E0,7E0,7.74E2,8.32E2,1.62E2,1.29E2,3E0,6E0,4E0,3E0,4E0,7.7E2,2.4E1,8.08E2,5.6E1,1.06E2,5.6E1,7.3E1,2E0,4E0,2E0,2E0,2E0,1E0,3E0,1E0,3.45E2,4.25E2,3E0,2.1E1,8E2,8E0,3.1E1,2.5E1,7E0,9.9E1,2.7E1,2.9E1,4.7E1,2.6E1,1E0,1E0,1E0,1E0,1E0,2E0,3.44E2,1E0,9.6E1,3.29E2,2E0,1E0,3E0,1.8E1,4.2E1,7.58E2,6E0,2E0,2.6E1,5E0,1.8E1,7E0,1E0,6E0,2E0,9.7E1,4E0,2.3E1,2.8E1,1E0,1E1,3.7E1,2.5E1,1E0],"tree_param":{"num_deleted":"0","num_feature":"7","num_nodes":"79","size_leaf_vector":"1"}},{"base_weights":[2.3379186E-2,-1.4761547E-2,6.6763216E-1,-5.3149547E-2,1.7310014E-1,1.7443868E0,4.8678318E-1,1.6039338E-2,-1.291251E-1,3.027719E-1,-1.9862811E-1,1.1103421E0,1.1731354E0,-3.9474994E-2,7.907197E-1,-5.407879E-1,4.267463E-2,-1.16254486E-1,-5.118679E-1,1.618143E-1,9.817249E-1,3.81468E-1,-3.4961256E-1,-3.9636046E-1,1.8240278E0,6.3025856E-1,-6.366326E-1,2.5350113E0,5.454223E-1,-6.191038E-1,6.859169E-2,4.3692183E-1,2.8416887E-3,-2.1195945E-1,-7.343304E-2,-7.747055E-1,-2.0637465E-1,3.1765154E-1,-4.4970042E-1,6.411263E-1,3.1695707E0,7.8713524E-1,-4.934445E-1,-6.89127E-1,-8.323373E-2,2.575296E-1,-2.754391E-1,2.1447518E0,1.4029884E-1,-1.9143018E-1,1.3819185E0,-2.6375458E-1,-1.400576E0,1.0274109E0,2.0718865E-1,2.6083612E0,2.7619198E-1,-7.864142E-2,-2.2421663E-1,-5.935477E-2,9.365062E-2,-1.8050575E-1,2.5308794E-1,2.0878728E-2,-4.147952E-2,5.899885E-2,-7.794152E-2,-3.3122256E-2,4.7005203E-2,3.5170093E-2,-2.5993454E-1,-1.6391832E-1,1.1367955E-1,-4.0742338E-1,1.1516634E-1,-2.0306422E-1,5.1220423E-1,7.406523E-1,2.4427767E-3,1.1890783E0,-9.786666E-4,2.7358675E-1,-8.788371E-2,-3.602748E-2,-1.9502942E-1,-2.3273589E-1,2.4760091E-1,2.2974537E-1,-1.1504815E-1,-9.404469E-3,1.2529278E-1,1.08270265E-1,7.14573E-1,4.3722716E-1,-2.6122043E-1,6.2371314E-1,1.22522935E-1,-1.4309047E-1,6.462708E-2,-5.074045E-1,-1.6380632E-1,1.4001167E-1,-4.677678E-2,9.745296E-1,-8.879886E-2,-2.071121E-1,2.7997953E-1],"categories":[],"categories_nodes":[],"categories_segments":[],"categories_sizes":[],"default_left":[1,1,0,0,0,0,0,0,0,0,0,0,0,0,0,0,0,0,0,0,0,0,0,0,0,0,0,0,0,0,0,0,0,0,0,0,0,0,0,0,0,0,0,0,0,0,0,0,0,0,0,0,0,0,0,0,0,0,0,0,0,0,0,0,0,0,0,0,0,0,0,0,0,0,0,0,0,0,0,0,0,0,0,0,0,0,0,0,0,0,0,0,0,0,0,0,0,0,0,0,0,0,0,0,0,0,0],"id":8,"left_children":[1,3,5,7,9,11,13,15,17,19,21,23,-1,25,27,29,31,33,35,37,39,41,43,45,47,49,51,53,55,57,59,61,63,65,67,69,71,73,75,77,79,81,83,85,87,89,-1,91,-1,93,95,97,99,-1,101,103,105,-1,-1,-1,-1,-1,-1,-1,-1,-1,-1,-1,-1,-1,-1,-1,-1,-1,-1,-1,-1,-1,-1,-1,-1,-1,-1,-1,-1,-1,-1,-1,-1,-1,-1,-1,-1,-1,-1,-1,-1,-1,-1,-1,-1,-1,-1,-1,-1,-1,-1],"loss_changes":[4.7041203E1,1.3047836E1,1.9986961E1,7.8975806E0,1.4858353E1,1.625879E1,1.4906475E1,1.1695275E1,3.4676075E0,2.1661562E1,7.1402054E0,1.470203E1,0E0,1.4399021E1,2.386169E1,1.7605343E0,1.18081875E1,2.8286037E0,1.6869078E0,1.8249233E1,2.7029823E1,6.4221044E0,5.7307673E0,1.9423462E0,2.9121437E0,1.0764259E1,5.042889E0,1.3787739E1,2.8716095E1,1.2694674E0,3.8625678E-1,2.9653648E1,6.4525275E0,4.2349596E0,4.109867E0,1.083528E0,2.5952353E0,1.7392433E1,2.026718E1,4.047187E1,1.2609459E1,1.8849502E0,2.72851E-1,4.3150682E0,9.72633E0,1.5185164E-1,0E0,2.1017532E0,0E0,1.1349697E1,5.258814E0,1.5330926E0,5.673733E-1,0E0,3.5547045E-1,1.2115494E1,3.1129307E1,0E0,0E0,0E0,0E0,0E0,0E0,0E0,0E0,0E0,0E0,0E0,0E0,0E0,0E0,0E0,0E0,0E0,0E0,0E0,0E0,0E0,0E0,0E0,0E0,0E0,0E0,0E0,0E0,0E0,0E0,0E0,0E0,0E0,0E0,0E0,0E0,0E0,0E0,0E0,0E0,0E0,0E0,0E0,0E0,0E0,0E0,0E0,0E0,0E0,0E0],"parents":[2147483647,0,0,1,1,2,2,3,3,4,4,5,5,6,6,7,7,8,8,9,9,10,10,11,11,13,13,14,14,15,15,16,16,17,17,18,18,19,19,20,20,21,21,22,22,23,23,24,24,25,25,26,26,27,27,28,28,29,29,30,30,31,31,32,32,33,33,34,34,35,35,36,36,37,37,38,38,39,39,40,40,41,41,42,42,43,43,44,44,45,45,47,47,49,49,50,50,51,51,52,52,54,54,55,55,56,56],"right_children":[2,4,6,8,10,12,14,16,18,20,22,24,-1,26,28,30,32,34,36,38,40,42,44,46,48,50,52,54,56,58,60,62,64,66,68,70,72,74,76,78,80,82,84,86,88,90,-1,92,-1,94,96,98,100,-1,102,104,106,-1,-1,-1,-1,-1,-1,-1,-1,-1,-1,-1,-1,-1,-1,-1,-1,-1,-1,-1,-1,-1,-1,-1,-1,-1,-1,-1,-1,-1,-1,-1,-1,-1,-1,-1,-1,-1,-1,-1,-1,-1,-1,-1,-1,-1,-1,-1,-1,-1,-1],"split_conditions":[7.94E0,2.74E0,1.0948973E1,2.2836334E2,2.5922499E1,1.67E1,2.16E0,2.7091665E0,2.39E0,3.8999994E0,3E-1,8.714677E0,1.1731354E0,9.8E-1,8.98E0,2.031801E2,4.5591674E0,6.082083E0,1.0515416E1,6.35E0,2.3166216E1,1.83E0,2.1E0,1.282E1,1.113E1,6.7E-1,1.7E0,1.94987E2,2.42E0,1.3363711E1,7.8E-1,6.748563E1,1.2655002E1,1.3246826E1,1.63E0,1.2738099E1,1.72E0,5E-1,2.5385744E1,1.35515E1,2.02E0,5.68E0,8.294582E0,1.5515414E1,3.3000002E0,8.98E0,-2.754391E-1,8.69E0,1.4029884E-1,9.8E-1,9.0000004E-1,1.201E1,1.7889828E2,1.0274109E0,8.69E0,1.385E1,8.98E0,-7.864142E-2,-2.2421663E-1,-5.935477E-2,9.365062E-2,-1.8050575E-1,2.5308794E-1,2.0878728E-2,-4.147952E-2,5.899885E-2,-7.794152E-2,-3.3122256E-2,4.7005203E-2,3.5170093E-2,-2.5993454E-1,-1.6391832E-1,1.1367955E-1,-4.0742338E-1,1.1516634E-1,-2.0306422E-1,5.1220423E-1,7.406523E-1,2.4427767E-3,1.1890783E0,-9.786666E-4,2.7358675E-1,-8.788371E-2,-3.602748E-2,-1.9502942E-1,-2.3273589E-1,2.4760091E-1,2.2974537E-1,-1.1504815E-1,-9.404469E-3,1.2529278E-1,1.08270265E-1,7.14573E-1,4.3722716E-1,-2.6122043E-1,6.2371314E-1,1.22522935E-1,-1.4309047E-1,6.462708E-2,-5.074045E-1,-1.6380632E-1,1.4001167E-1,-4.677678E-2,9.745296E-1,-8.879886E-2,-2.071121E-1,2.7997953E-1],"split_indices":[0,0,5,6,5,0,2,3,0,4,4,5,0,2,0,6,3,3,3,1,5,2,4,0,2,2,2,6,2,5,0,6,3,5,0,5,1,2,5,5,1,0,3,3,4,0,0,0,0,1,4,0,6,0,0,0,1,0,0,0,0,0,0,0,0,0,0,0,0,0,0,0,0,0,0,0,0,0,0,0,0,0,0,0,0,0,0,0,0,0,0,0,0,0,0,0,0,0,0,0,0,0,0,0,0,0,0],"split_type":[0,0,0,0,0,0,0,0,0,0,0,0,0,0,0,0,0,0,0,0,0,0,0,0,0,0,0,0,0,0,0,0,0,0,0,0,0,0,0,0,0,0,0,0,0,0,0,0,0,0,0,0,0,0,0,0,0,0,0,0,0,0,0,0,0,0,0,0,0,0,0,0,0,0,0,0,0,0,0,0,0,0,0,0,0,0,0,0,0,0,0,0,0,0,0,0,0,0,0,0,0,0,0,0,0,0,0],"sum_hessian":[1.913E3,1.807E3,1.06E2,1.501E3,3.06E2,1.4E1,9.2E1,7.86E2,7.15E2,2.27E2,7.9E1,1.2E1,2E0,3.4E1,5.8E1,3.5E1,7.51E2,6.93E2,2.2E1,1.89E2,3.8E1,1.6E1,6.3E1,4E0,8E0,1.6E1,1.8E1,6E0,5.2E1,3.1E1,4E0,6.8E1,6.83E2,2.13E2,4.8E2,1.1E1,1.1E1,1.51E2,3.8E1,3.4E1,4E0,1.1E1,5E0,2.7E1,3.6E1,2E0,2E0,6E0,2E0,8E0,8E0,1.3E1,5E0,4E0,2E0,5E0,4.7E1,9E0,2.2E1,2E0,2E0,1.9E1,4.9E1,4.64E2,2.19E2,2.2E1,1.91E2,4.14E2,6.6E1,1E0,1E1,7E0,4E0,5E0,1.46E2,3.5E1,3E0,8E0,2.6E1,3E0,1E0,1E1,1E0,2E0,3E0,2.6E1,1E0,9E0,2.7E1,1E0,1E0,1E0,5E0,2E0,6E0,4E0,4E0,9E0,4E0,3E0,2E0,1E0,1E0,4E0,1E0,1.9E1,2.8E1],"tree_param":{"num_deleted":"0","num_feature":"7","num_nodes":"107","size_leaf_vector":"1"}},{"base_weights":[1.9377029E-2,7.3119123E-3,1.3652719E0,2.3623514E-1,-2.7398894E-2,2.1308527E0,2.3763698E-1,-4.139033E-1,4.913662E-1,-3.709423E-2,1.0312195E0,8.215177E-1,3.2758842E0,3.060096E-1,-1.9852579E-2,-6.1283845E-1,2.540578E-1,-4.423497E-1,6.309701E-1,-5.100389E-1,-1.9065186E-2,-1.2820397E-1,2.791722E0,4.984556E-1,-1.3862491E-2,1.0997176E0,2.5747806E-1,1.5246592E-1,-3.3272544E-1,-7.3032856E-2,-8.324245E-1,-6.115047E-2,1.2937722E0,-7.5765806E-1,2.8297427E-1,8.269367E-1,1.4011735E-1,-8.9083564E-1,1.4127907E-1,3.8989228E-1,-4.7926363E-2,2.2689205E-1,-4.4387004E-1,1.4542311E0,5.520055E-1,-6.6759825E-2,9.1822244E-2,-1.4545052E-1,-2.0912211E-2,-1.3717401E-1,3.8699213E-1,-1.0226129E-1,-3.5903022E-1,6.2185794E-2,-8.651657E-2,1.0927889E-1,4.4465634E-1,-2.8126696E-1,-8.147545E-2,-5.694112E-2,2.4096097E-1,3.5229787E-2,3.0884025E-1,1.21916264E-1,-6.373728E-1,-1.8602175E-1,-4.0915084E-1,-2.6264513E-1,3.438806E-1,6.9049484E-1,7.480792E-2,-1.15693085E-1,-5.6319595E-3,7.631922E-3,-1.5436457E-1,1.0125197E-2,2.140521E-1],"categories":[],"categories_nodes":[],"categories_segments":[],"categories_sizes":[],"default_left":[1,0,0,0,1,0,0,0,0,0,0,0,0,0,0,0,0,0,0,0,0,0,0,0,0,0,0,0,0,0,0,0,0,0,0,0,0,0,0,0,0,0,0,0,0,0,0,0,0,0,0,0,0,0,0,0,0,0,0,0,0,0,0,0,0,0,0,0,0,0,0,0,0,0,0,0,0],"id":9,"left_children":[1,3,5,7,9,11,13,15,17,19,21,23,25,-1,27,29,31,33,35,37,39,41,43,-1,45,-1,-1,-1,47,49,51,53,55,57,59,61,63,65,67,69,71,-1,73,-1,75,-1,-1,-1,-1,-1,-1,-1,-1,-1,-1,-1,-1,-1,-1,-1,-1,-1,-1,-1,-1,-1,-1,-1,-1,-1,-1,-1,-1,-1,-1,-1,-1],"loss_changes":[3.1070272E1,1.5088189E1,1.4169659E1,4.1671005E1,1.6963034E1,1.2301098E1,1.6319185E0,9.590245E0,2.3742188E1,1.3931498E1,3.097543E1,4.233354E0,1.5662994E0,0E0,1.325634E0,6.4585667E0,5.650467E0,5.7032146E0,1.4986076E1,1.5007041E1,1.8620203E1,3.1278021E0,2.4949505E1,0E0,3.3515656E-1,0E0,0E0,0E0,1.6624129E-1,9.492497E0,6.576721E0,9.1376466E-1,1.6062975E-1,1.2319183E0,2.1200733E0,1.5973106E1,2.8602335E1,4.0210266E0,2.450577E1,2.7367134E1,1.4495222E1,0E0,2.7845085E-1,0E0,3.1071436E-1,0E0,0E0,0E0,0E0,0E0,0E0,0E0,0E0,0E0,0E0,0E0,0E0,0E0,0E0,0E0,0E0,0E0,0E0,0E0,0E0,0E0,0E0,0E0,0E0,0E0,0E0,0E0,0E0,0E0,0E0,0E0,0E0],"parents":[2147483647,0,0,1,1,2,2,3,3,4,4,5,5,6,6,7,7,8,8,9,9,10,10,11,11,12,12,14,14,15,15,16,16,17,17,18,18,19,19,20,20,21,21,22,22,24,24,28,28,29,29,30,30,31,31,32,32,33,33,34,34,35,35,36,36,37,37,38,38,39,39,40,40,42,42,44,44],"right_children":[2,4,6,8,10,12,14,16,18,20,22,24,26,-1,28,30,32,34,36,38,40,42,44,-1,46,-1,-1,-1,48,50,52,54,56,58,60,62,64,66,68,70,72,-1,74,-1,76,-1,-1,-1,-1,-1,-1,-1,-1,-1,-1,-1,-1,-1,-1,-1,-1,-1,-1,-1,-1,-1,-1,-1,-1,-1,-1,-1,-1,-1,-1,-1,-1],"split_conditions":[1.823E1,6.264315E1,1.0463333E1,7.138334E0,1.385E1,7.5466657E0,3.8099712E1,5E0,6.7E-1,7.290585E1,2.96E0,3.640416E1,1.62E1,3.060096E-1,1.5281989E1,3E-1,6.021666E0,6.2E0,3.85E0,9E-1,1.2313894E1,1.25E0,1.62E1,4.984556E-1,4.15E0,1.0997176E0,2.5747806E-1,1.5246592E-1,2.129E1,3.25E0,1.49E0,8.5E-1,6.8E-1,6.2E-1,1.02612505E1,1.02E0,1.282E1,6.901664E1,1.94E0,8.372277E1,1.10189575E2,2.2689205E-1,3.8675E0,1.4542311E0,1.67E1,-6.6759825E-2,9.1822244E-2,-1.4545052E-1,-2.0912211E-2,-1.3717401E-1,3.8699213E-1,-1.0226129E-1,-3.5903022E-1,6.2185794E-2,-8.651657E-2,1.0927889E-1,4.4465634E-1,-2.8126696E-1,-8.147545E-2,-5.694112E-2,2.4096097E-1,3.5229787E-2,3.0884025E-1,1.21916264E-1,-6.373728E-1,-1.8602175E-1,-4.0915084E-1,-2.6264513E-1,3.438806E-1,6.9049484E-1,7.480792E-2,-1.15693085E-1,-5.6319595E-3,7.631922E-3,-1.5436457E-1,1.0125197E-2,2.140521E-1],"split_indices":[0,6,3,3,0,3,6,4,2,6,2,6,1,0,5,4,3,4,2,4,5,1,0,0,2,0,0,0,0,0,0,0,1,2,3,0,0,6,1,6,6,0,3,0,0,0,0,0,0,0,0,0,0,0,0,0,0,0,0,0,0,0,0,0,0,0,0,0,0,0,0,0,0,0,0,0,0],"split_type":[0,0,0,0,0,0,0,0,0,0,0,0,0,0,0,0,0,0,0,0,0,0,0,0,0,0,0,0,0,0,0,0,0,0,0,0,0,0,0,0,0,0,0,0,0,0,0,0,0,0,0,0,0,0,0,0,0,0,0,0,0,0,0,0,0,0,0,0,0,0,0,0,0,0,0,0,0],"sum_hessian":[1.913E3,1.897E3,1.6E1,2.49E2,1.648E3,9E0,7E0,7E1,1.79E2,1.634E3,1.4E1,5E0,4E0,1E0,6E0,5.4E1,1.6E1,2.3E1,1.56E2,5.9E1,1.575E3,9E0,5E0,2E0,3E0,3E0,1E0,2E0,4E0,1.6E1,3.8E1,1.3E1,3E0,1.6E1,7E0,1.11E2,4.5E1,3.7E1,2.2E1,1.03E2,1.472E3,2E0,7E0,2E0,3E0,2E0,1E0,2E0,2E0,1.3E1,3E0,1.7E1,2.1E1,6E0,7E0,1E0,2E0,1.1E1,5E0,4E0,3E0,2.5E1,8.6E1,4.1E1,4E0,2.5E1,1.2E1,1.1E1,1.1E1,6E0,9.7E1,1.16E2,1.356E3,1E0,6E0,1E0,2E0],"tree_param":{"num_deleted":"0","num_feature":"7","num_nodes":"77","size_leaf_vector":"1"}},{"base_weights":[1.5669169E-2,6.0965354E-3,1.0835037E0,-3.085187E-2,1.4587086E-1,1.6796683E0,2.0286004E-1,2.868345E-2,-8.483271E-2,6.6947365E-1,9.656218E-2,6.6231555E-1,2.564558E0,2.601082E-1,-1.5882036E-2,1.64782E-1,-5.827348E-2,-4.3541722E-2,-1.5406471E-1,3.113086E0,4.1946393E-1,-9.123863E-1,1.2471125E-1,5.031132E-1,1.2396107E-1,8.5228115E-1,2.1885625E-1,1.21972755E-1,-2.6618037E-1,-7.9100346E-4,9.419775E-1,-8.246699E-2,1.1014255E0,-9.743571E-2,8.980177E-2,2.4048304E-2,-2.2191073E-1,-5.3253222E-2,1.454142E0,-6.176542E-1,6.825548E-1,-1.094355E0,1.08799845E-1,4.1782156E-1,4.3370016E-2,-5.3407863E-2,1.1538839E-1,-1.1636041E-1,-5.5765916E-2,3.3346895E-2,-1.4372802E-1,1.0444763E0,8.5057676E-2,5.5924598E-2,-5.6247182E-2,-1.2102121E-1,7.15791E-1,-4.1714825E-2,2.2757728E-2,1.114928E-1,-2.7171595E-2,-9.952271E-3,2.2631885E-1,-1.6114004E-2,-8.037568E-2,-2.4691454E-1,9.2206694E-2,1.0658551E-1,5.958093E-1,-3.9086738E-1,8.6090185E-2,1.6532733E0,8.3488576E-2,-1.9606727E-1,3.6190294E-2,-4.5405016E-3,-2.0554163E-2],"categories":[],"categories_nodes":[],"categories_segments":[],"categories_sizes":[],"default_left":[1,1,0,0,0,0,0,0,1,0,0,0,0,0,0,0,1,0,0,0,0,0,0,0,0,0,0,0,0,0,0,0,0,0,0,0,0,0,0,0,0,0,0,0,0,0,0,0,0,0,0,0,0,0,0,0,0,0,0,0,0,0,0,0,0,0,0,0,0,0,0,0,0,0,0,0,0],"id":10,"left_children":[1,3,5,7,9,11,13,15,17,19,21,23,25,-1,27,29,31,33,35,37,39,41,43,-1,45,-1,-1,-1,47,49,51,53,55,57,59,61,63,-1,-1,65,67,69,-1,71,73,-1,-1,-1,75,-1,-1,-1,-1,-1,-1,-1,-1,-1,-1,-1,-1,-1,-1,-1,-1,-1,-1,-1,-1,-1,-1,-1,-1,-1,-1,-1,-1],"loss_changes":[1.955828E1,9.806606E0,8.584408E0,4.8295107E0,1.0185166E1,7.3039017E0,1.1760207E0,8.471421E0,2.2459145E0,1.9465687E1,1.0451737E1,3.0698135E0,4.6330643E-1,0E0,8.48406E-1,3.5903187E1,1.2351824E1,3.5660243E0,3.5581088E0,1.7978634E1,9.152986E0,2.717082E0,8.445772E0,0E0,4.620643E-1,0E0,0E0,0E0,1.0639441E-1,1.2422071E1,8.0951225E1,1.2149477E1,1.8359692E1,2.556186E0,7.3033085E0,3.452E0,1.6339006E0,0E0,0E0,1.5829105E0,1.038569E1,2.9663887E0,0E0,5.318408E1,1.5102326E1,0E0,0E0,0E0,5.16925E-4,0E0,0E0,0E0,0E0,0E0,0E0,0E0,0E0,0E0,0E0,0E0,0E0,0E0,0E0,0E0,0E0,0E0,0E0,0E0,0E0,0E0,0E0,0E0,0E0,0E0,0E0,0E0,0E0],"parents":[2147483647,0,0,1,1,2,2,3,3,4,4,5,5,6,6,7,7,8,8,9,9,10,10,11,11,12,12,14,14,15,15,16,16,17,17,18,18,19,19,20,20,21,21,22,22,24,24,28,28,29,29,30,30,31,31,32,32,33,33,34,34,35,35,36,36,39,39,40,40,41,41,43,43,44,44,48,48],"right_children":[2,4,6,8,10,12,14,16,18,20,22,24,26,-1,28,30,32,34,36,38,40,42,44,-1,46,-1,-1,-1,48,50,52,54,56,58,60,62,64,-1,-1,66,68,70,-1,72,74,-1,-1,-1,76,-1,-1,-1,-1,-1,-1,-1,-1,-1,-1,-1,-1,-1,-1,-1,-1,-1,-1,-1,-1,-1,-1,-1,-1,-1,-1,-1,-1],"split_conditions":[1.823E1,2.74E0,1.0463333E1,2.224069E2,1.0948973E1,7.5466657E0,3.8099712E1,7E-1,1.23E0,3.1E0,1.1709688E1,3.1E0,1.62E1,2.601082E-1,1.5281989E1,2.5603062E1,1.201E1,1.08E0,8.1E-1,2.95E0,3.95E0,1.667375E1,6.0412354E1,5.031132E-1,4.15E0,8.5228115E-1,2.1885625E-1,1.21972755E-1,2.129E1,3.1E0,1.6801793E2,7.77821E1,9.627915E0,3.3233284E1,2.2218153E1,4.2406715E1,1.8E1,-5.3253222E-2,1.454142E0,3.13E0,1.024578E1,7.94E0,1.08799845E-1,2.79E0,7.290585E1,-5.3407863E-2,1.1538839E-1,-1.1636041E-1,4.03E0,3.3346895E-2,-1.4372802E-1,1.0444763E0,8.5057676E-2,5.5924598E-2,-5.6247182E-2,-1.2102121E-1,7.15791E-1,-4.1714825E-2,2.2757728E-2,1.114928E-1,-2.7171595E-2,-9.952271E-3,2.2631885E-1,-1.6114004E-2,-8.037568E-2,-2.4691454E-1,9.2206694E-2,1.0658551E-1,5.958093E-1,-3.9086738E-1,8.6090185E-2,1.6532733E0,8.3488576E-2,-1.9606727E-1,3.6190294E-2,-4.5405016E-3,-2.0554163E-2],"split_indices":[0,0,3,6,5,3,6,4,1,0,5,1,1,0,5,5,2,0,0,0,0,3,6,0,2,0,0,0,0,2,6,6,3,5,5,5,5,0,0,1,5,0,0,0,6,0,0,0,1,0,0,0,0,0,0,0,0,0,0,0,0,0,0,0,0,0,0,0,0,0,0,0,0,0,0,0,0],"split_type":[0,0,0,0,0,0,0,0,0,0,0,0,0,0,0,0,0,0,0,0,0,0,0,0,0,0,0,0,0,0,0,0,0,0,0,0,0,0,0,0,0,0,0,0,0,0,0,0,0,0,0,0,0,0,0,0,0,0,0,0,0,0,0,0,0,0,0,0,0,0,0,0,0,0,0,0,0],"sum_hessian":[1.913E3,1.897E3,1.6E1,1.501E3,3.96E2,9E0,7E0,7.14E2,7.87E2,3.3E1,3.63E2,5E0,4E0,1E0,6E0,2.78E2,4.36E2,4.94E2,2.93E2,2E0,3.1E1,9E0,3.54E2,1E0,4E0,3E0,1E0,2E0,4E0,2.3E2,4.8E1,4.28E2,8E0,3.52E2,1.42E2,8.1E1,2.12E2,1E0,1E0,6E0,2.5E1,8E0,1E0,7.6E1,2.78E2,2E0,2E0,2E0,2E0,1.87E2,4.3E1,9E0,3.9E1,1.2E2,3.08E2,4E0,4E0,2.84E2,6.8E1,5.5E1,8.7E1,7.6E1,5E0,4.6E1,1.66E2,5E0,1E0,2.1E1,4E0,7E0,1E0,1E0,7.5E1,2.7E1,2.51E2,1E0,1E0],"tree_param":{"num_deleted":"0","num_feature":"7","num_nodes":"77","size_leaf_vector":"1"}},{"base_weights":[1.4628396E-2,6.9695474E-3,8.688559E-1,-1.135722E-1,3.4106385E-2,6.4315224E-1,5.559352E-1,-2.692784E-1,-1.06466606E-1,8.7420866E-2,-4.06362E-2,2.6721594E-1,4.865221E-1,-1.24121614E-1,1.0737498E-1,1.6144228E-1,-7.6681204E-2,-5.569761E-2,3.3571705E-1,6.773248E-1,9.687E-3,-2.7687344E-1,-9.079718E-2,2.8082788E-1,-7.744956E-2,-5.288124E-1,2.3716936E-1,7.5405437E-1,-1.8980703E-1,-4.084608E-2,-3.9456934E-1,1.9418712E0,2.8429175E-2,3.075268E-1,1.037854E-1,-1.0002151E-1,1.5534258E-1,-1.1532193E-1,1.0180429E-1,-3.321761E-2,2.0699333E-2,-1.3000563E-1,3.160269E-2,-1.1263154E-1,-4.1708973E-1,6.27737E-2,3.730099E-1,1.2279262E-1,5.469943E-1,-1.5116186E-1,6.250672E-3,-3.9020546E-3,-6.1167624E-2,-1.9455616E-1,7.736575E-2,9.835286E-1,1.2106274E-1,3.7088022E-1,-6.820465E-2,-3.8594261E-3,5.0562862E-2,1.1713522E-1,-3.5580363E-2],"categories":[],"categories_nodes":[],"categories_segments":[],"categories_sizes":[],"default_left":[1,1,0,0,0,0,0,0,1,0,0,0,0,0,0,0,0,0,0,0,0,0,1,0,0,0,0,0,0,0,0,0,0,0,0,0,0,0,0,0,0,0,0,0,0,0,0,0,0,0,0,0,0,0,0,0,0,0,0,0,0,0,0],"id":11,"left_children":[1,3,5,7,9,-1,11,-1,13,15,17,19,-1,21,23,25,27,29,31,33,35,37,39,-1,41,43,45,47,49,51,53,55,57,-1,59,-1,61,-1,-1,-1,-1,-1,-1,-1,-1,-1,-1,-1,-1,-1,-1,-1,-1,-1,-1,-1,-1,-1,-1,-1,-1,-1,-1],"loss_changes":[1.2516098E1,6.212463E0,5.590638E0,1.8486948E0,6.1800895E0,0E0,4.182423E0,0E0,1.3233824E0,1.1005474E1,3.680491E0,1.3664324E0,0E0,1.6088691E0,4.2080197E0,3.2742508E1,2.6644821E1,3.114262E0,1.22835865E1,8.908937E-1,5.015514E-1,3.9075003E0,8.515117E-1,0E0,1.5419402E0,7.670065E0,1.5558308E1,1.1786877E1,1.6483253E1,2.707176E0,4.4752297E0,6.901272E0,7.0777097E0,0E0,2.4830166E-2,0E0,4.9715286E-1,0E0,0E0,0E0,0E0,0E0,0E0,0E0,0E0,0E0,0E0,0E0,0E0,0E0,0E0,0E0,0E0,0E0,0E0,0E0,0E0,0E0,0E0,0E0,0E0,0E0,0E0],"parents":[2147483647,0,0,1,1,2,2,3,3,4,4,6,6,8,8,9,9,10,10,11,11,13,13,14,14,15,15,16,16,17,17,18,18,19,19,20,20,21,21,22,22,24,24,25,25,26,26,27,27,28,28,29,29,30,30,31,31,32,32,34,34,36,36],"right_children":[2,4,6,8,10,-1,12,-1,14,16,18,20,-1,22,24,26,28,30,32,34,36,38,40,-1,42,44,46,48,50,52,54,56,58,-1,60,-1,62,-1,-1,-1,-1,-1,-1,-1,-1,-1,-1,-1,-1,-1,-1,-1,-1,-1,-1,-1,-1,-1,-1,-1,-1,-1,-1],"split_conditions":[1.823E1,6.3E-1,9.746631E0,9.299225E0,2.2473967E2,6.4315224E-1,5.399999E0,-2.692784E-1,2.66E0,1.2655002E1,6.35E0,1E-1,4.865221E-1,1.9123029E2,1.2313894E1,4.500017E1,4.864458E1,4.34E0,9.4E-1,2.129E1,7E-1,7.1E0,2.08E0,2.8082788E-1,2.081972E2,4.22E0,1.2421665E1,4.5E0,1.4527917E1,2.7851395E2,3.95E0,7.43E0,6.53E0,3.075268E-1,3.754E1,-1.0002151E-1,2.5264202E1,-1.1532193E-1,1.0180429E-1,-3.321761E-2,2.0699333E-2,-1.3000563E-1,3.160269E-2,-1.1263154E-1,-4.1708973E-1,6.27737E-2,3.730099E-1,1.2279262E-1,5.469943E-1,-1.5116186E-1,6.250672E-3,-3.9020546E-3,-6.1167624E-2,-1.9455616E-1,7.736575E-2,9.835286E-1,1.2106274E-1,3.7088022E-1,-6.820465E-2,-3.8594261E-3,5.0562862E-2,1.1713522E-1,-3.5580363E-2],"split_indices":[0,0,5,5,6,0,4,0,1,3,0,4,0,6,5,6,6,0,2,0,4,4,2,0,6,0,3,4,3,6,2,0,0,0,0,0,5,0,0,0,0,0,0,0,0,0,0,0,0,0,0,0,0,0,0,0,0,0,0,0,0,0,0],"split_type":[0,0,0,0,0,0,0,0,0,0,0,0,0,0,0,0,0,0,0,0,0,0,0,0,0,0,0,0,0,0,0,0,0,0,0,0,0,0,0,0,0,0,0,0,0,0,0,0,0,0,0,0,0,0,0,0,0,0,0,0,0,0,0],"sum_hessian":[1.913E3,1.897E3,1.6E1,3.48E2,1.549E3,2E0,1.4E1,2E0,3.46E2,9.04E2,6.45E2,1.2E1,2E0,3.2E2,2.6E1,6.23E2,2.81E2,6.21E2,2.4E1,4E0,8E0,5.6E1,2.64E2,4E0,2.2E1,6.1E1,5.62E2,3.3E1,2.48E2,5.96E2,2.5E1,3E0,2.1E1,2E0,2E0,2E0,6E0,4.8E1,8E0,2.35E2,2.9E1,7E0,1.5E1,5.3E1,8E0,5.48E2,1.4E1,2.6E1,7E0,9.9E1,1.49E2,5.1E2,8.6E1,1.8E1,7E0,1E0,2E0,3E0,1.8E1,1E0,1E0,3E0,3E0],"tree_param":{"num_deleted":"0","num_feature":"7","num_nodes":"63","size_leaf_vector":"1"}},{"base_weights":[1.18117165E-2,-5.528656E-3,3.04705E-1,-1.9400642E-3,-7.226327E-1,5.5181766E-1,-3.4983907E-2,-5.4640193E-3,6.999341E-1,-1.4405624E0,1.3982354E-1,1.5496315E-2,9.137781E-1,6.599507E-1,-3.5964125E-1,1.5702657E-2,-1.0514571E-1,8.725428E-1,-3.4657434E-1,-4.7941166E-1,-1.2159852E-1,-6.034164E-2,1.3025342E-1,-6.9712955E-1,3.147337E-1,1.4608227E0,-2.0852137E-1,1.3315521E0,-5.693769E-1,7.384311E-2,-9.9887556E-1,-3.614431E-2,1.5857093E-1,-1.9373593E-1,2.8921342E-1,-1.820803E-1,2.0288372E-1,-5.416452E-1,-2.808669E-1,1.7344285E0,-1.7948014E-1,1.6785772E0,-1.0203259E-1,2.3376979E-1,-6.210238E-1,7.784106E-1,-1.3516146E-1,-3.02129E-1,2.0404184E-1,-2.6305956E-1,2.0706446E0,-1.3924828E0,2.348612E-1,1.0057516E-2,-4.1202836E-2,9.6595E-2,-3.4566753E-2,-1.2997814E-1,-1.8616948E-2,8.3016646E-1,5.915756E-2,1.6008997E-2,7.528868E-2,-8.357477E-3,-9.551759E-2,6.73473E-1,-4.6124626E-2,-2.4292174E-1,1.4196417E-1,9.314782E-1,3.8698405E-1,-8.606878E-3,-3.5075117E-2,9.5399946E-2,-4.074154E-2,-2.732445E-1,2.0690847E-2,1.1348856E-1,-2.1669729E-2,1.8908131E-1,-2.6665202E-1,6.280761E-2,8.6898255E-1,-4.8581803E-1,-9.696801E-2,1.5901302E-1,-9.76028E-2],"categories":[],"categories_nodes":[],"categories_segments":[],"categories_sizes":[],"default_left":[1,0,0,0,0,0,0,1,0,0,1,0,0,0,0,0,0,0,0,0,0,0,0,0,0,0,0,0,0,0,0,0,0,0,0,0,0,0,0,0,0,0,0,0,0,0,0,0,0,0,0,0,0,0,0,0,0,0,0,0,0,0,0,0,0,0,0,0,0,0,0,0,0,0,0,0,0,0,0,0,0,0,0,0,0,0,0],"id":12,"left_children":[1,3,5,7,9,11,13,15,17,19,21,23,25,27,29,31,33,-1,35,-1,-1,-1,-1,37,39,41,43,45,47,49,51,53,55,57,59,-1,61,-1,63,65,67,69,71,73,75,-1,-1,-1,77,79,81,83,85,-1,-1,-1,-1,-1,-1,-1,-1,-1,-1,-1,-1,-1,-1,-1,-1,-1,-1,-1,-1,-1,-1,-1,-1,-1,-1,-1,-1,-1,-1,-1,-1,-1,-1],"loss_changes":[9.722659E0,4.6512933E0,9.001037E0,4.4558964E0,5.774072E0,1.2021721E1,1.06156645E1,3.7826457E0,2.180932E1,1.6739273E-1,5.89149E-1,5.7637615E0,2.3020685E1,1.3142429E1,8.940899E0,1.0961108E1,1.1026047E1,0E0,1.1245353E0,0E0,0E0,0E0,0E0,3.1838322E0,1.364232E1,8.679234E0,2.5169768E0,2.3679485E1,2.236734E0,1.3999258E1,6.6399374E0,7.661375E0,1.7665148E1,8.079009E0,1.2680077E1,0E0,8.173972E-3,0E0,5.7589293E-2,5.16455E0,6.5536737E0,8.189911E0,1.0123849E-3,2.6109108E-1,1.4624963E0,0E0,0E0,0E0,1.7175034E-1,1.0622728E1,4.0056334E0,1.9028263E0,8.338945E-1,0E0,0E0,0E0,0E0,0E0,0E0,0E0,0E0,0E0,0E0,0E0,0E0,0E0,0E0,0E0,0E0,0E0,0E0,0E0,0E0,0E0,0E0,0E0,0E0,0E0,0E0,0E0,0E0,0E0,0E0,0E0,0E0,0E0,0E0],"parents":[2147483647,0,0,1,1,2,2,3,3,4,4,5,5,6,6,7,7,8,8,9,9,10,10,11,11,12,12,13,13,14,14,15,15,16,16,18,18,23,23,24,24,25,25,26,26,27,27,28,28,29,29,30,30,31,31,32,32,33,33,34,34,36,36,38,38,39,39,40,40,41,41,42,42,43,43,44,44,48,48,49,49,50,50,51,51,52,52],"right_children":[2,4,6,8,10,12,14,16,18,20,22,24,26,28,30,32,34,-1,36,-1,-1,-1,-1,38,40,42,44,46,48,50,52,54,56,58,60,-1,62,-1,64,66,68,70,72,74,76,-1,-1,-1,78,80,82,84,86,-1,-1,-1,-1,-1,-1,-1,-1,-1,-1,-1,-1,-1,-1,-1,-1,-1,-1,-1,-1,-1,-1,-1,-1,-1,-1,-1,-1,-1,-1,-1,-1,-1,-1],"split_conditions":[7.94E0,7.43E0,1.1615415E1,7.17E0,2.4E0,4.22E0,9.68E0,3.1E0,4.15E0,2.0497883E1,5.42E0,6.021666E0,1.113E1,1.8E1,5E0,1.52E0,4.6999993E0,8.725428E-1,1.4017501E1,-4.7941166E-1,-1.2159852E-1,-6.034164E-2,1.3025342E-1,1.2074766E1,6.805E0,2.0256635E2,2.0771093E1,1.557375E1,2.16E0,3.04E0,1.62E1,9.2E-1,2.5809765E1,1.1980823E2,4.3E-1,-1.820803E-1,7.17E0,-5.416452E-1,1.28E0,1E-1,8.461251E0,5.7E0,1.032E1,2.129E1,1.823E1,7.784106E-1,-1.3516146E-1,-3.02129E-1,8.69E0,7.290585E1,1.282E1,1.5438333E1,1.62E1,1.0057516E-2,-4.1202836E-2,9.6595E-2,-3.4566753E-2,-1.2997814E-1,-1.8616948E-2,8.3016646E-1,5.915756E-2,1.6008997E-2,7.528868E-2,-8.357477E-3,-9.551759E-2,6.73473E-1,-4.6124626E-2,-2.4292174E-1,1.4196417E-1,9.314782E-1,3.8698405E-1,-8.606878E-3,-3.5075117E-2,9.5399946E-2,-4.074154E-2,-2.732445E-1,2.0690847E-2,1.1348856E-1,-2.1669729E-2,1.8908131E-1,-2.6665202E-1,6.280761E-2,8.6898255E-1,-4.8581803E-1,-9.696801E-2,1.5901302E-1,-9.76028E-2],"split_indices":[0,0,3,0,2,1,0,2,1,5,2,3,2,5,2,2,4,0,3,0,0,0,0,5,3,6,5,3,2,2,0,2,5,6,1,0,1,0,2,4,3,1,0,2,0,0,0,0,0,6,0,3,1,0,0,0,0,0,0,0,0,0,0,0,0,0,0,0,0,0,0,0,0,0,0,0,0,0,0,0,0,0,0,0,0,0,0],"split_type":[0,0,0,0,0,0,0,0,0,0,0,0,0,0,0,0,0,0,0,0,0,0,0,0,0,0,0,0,0,0,0,0,0,0,0,0,0,0,0,0,0,0,0,0,0,0,0,0,0,0,0,0,0,0,0,0,0,0,0,0,0,0,0,0,0,0,0,0,0,0,0,0,0,0,0,0,0,0,0,0,0,0,0,0,0,0,0],"sum_hessian":[1.913E3,1.807E3,1.06E2,1.799E3,8E0,6.1E1,4.5E1,1.791E3,8E0,4E0,4E0,2.5E1,3.6E1,1.4E1,3.1E1,1.478E3,3.13E2,2E0,6E0,3E0,1E0,2E0,2E0,7E0,1.8E1,2.4E1,1.2E1,9E0,5E0,1.9E1,1.2E1,1.085E3,3.93E2,2.56E2,5.7E1,4E0,2E0,1E0,6E0,4E0,1.4E1,2.1E1,3E0,6E0,6E0,5E0,4E0,3E0,2E0,1.7E1,2E0,9E0,3E0,6.43E2,4.42E2,2.46E2,1.47E2,9E1,1.66E2,1E0,5.6E1,1E0,1E0,1E0,5E0,3E0,1E0,7E0,7E0,3E0,1.8E1,1E0,2E0,5E0,1E0,4E0,2E0,1E0,1E0,7E0,1E1,1E0,1E0,7E0,2E0,2E0,1E0],"tree_param":{"num_deleted":"0","num_feature":"7","num_nodes":"87","size_leaf_vector":"1"}},{"base_weights":[9.702787E-3,2.6896307E-1,-2.196485E-3,-7.4274294E-2,7.286761E-1,-6.998622E-1,2.4047156E-3,4.4540042E-1,-3.6427024E-1,2.228657E-1,2.2213442E0,2.5178015E-2,-3.1965888E-1,-1.05666816E-1,2.6855646E-2,-3.9415333E-1,1.1564587E0,-9.683263E-1,-4.568449E-2,1.0180585E0,-4.028048E-2,1.3002095E0,4.4266197E-1,3.0610349E-2,-4.2337187E-2,-6.830558E-2,-6.111347E-1,1.027251E0,2.0741621E-2,-4.421236E-1,-7.498618E-2,1.9748528E0,-5.6905963E-2,-5.925465E-3,-1.0612086E0,-3.0147335E-1,8.8429224E-1,1.10339604E-1,3.6138088E-1,-8.5932815E-1,2.5116462E-1,-1.16337836E-1,4.207143E-1,-1.0417358E-1,2.1691713E0,-1.2253169E0,1.7027476E-1,1.139147E0,-3.066016E-1,2.1824087E-1,-1.0361034E-2,-9.51158E-2,1.3024266E-1,1.0538809E0,9.827313E-2,-1.529586E-1,1.2450563E-1,-4.1537434E-1,-1.8445905E-1,1.0412157E-1,-1.5346885E-1,3.6808577E-1,7.406037E-2,-3.307127E-1,5.3386405E-2,2.7836528E-1,-8.529761E-3,-1.8786399E-2,-1.8598524E-1,8.3279216E-1,-3.8705744E-2,-5.1194817E-1,-1.1385846E-1,2.7956593E-1,-1.19417556E-1,-3.98196E-2,-1.4825514E-1,1.0671948E-2,1.6566056E-1,-1.52706E-1,1.6030845E-3],"categories":[],"categories_nodes":[],"categories_segments":[],"categories_sizes":[],"default_left":[0,0,0,0,0,0,0,0,0,0,0,0,0,0,0,0,0,0,0,0,0,0,0,0,0,0,0,0,0,0,0,0,0,0,0,0,0,0,0,0,0,0,0,0,0,0,0,0,0,0,0,0,0,0,0,0,0,0,0,0,0,0,0,0,0,0,0,0,0,0,0,0,0,0,0,0,0,0,0,0,0],"id":13,"left_children":[1,3,5,7,9,11,13,15,17,19,21,23,-1,25,27,29,31,33,35,37,39,-1,41,-1,-1,43,45,47,49,-1,51,53,55,-1,57,59,61,-1,-1,63,65,-1,-1,67,69,71,73,-1,75,77,79,-1,-1,-1,-1,-1,-1,-1,-1,-1,-1,-1,-1,-1,-1,-1,-1,-1,-1,-1,-1,-1,-1,-1,-1,-1,-1,-1,-1,-1,-1],"loss_changes":[5.9052973E0,1.3308538E1,5.8793755E0,7.5467205E0,2.6685192E1,3.2083106E0,4.812096E0,1.1201312E1,6.1139593E0,5.9000635E0,3.1901688E1,7.830643E-2,0E0,6.303583E0,9.061608E0,2.990622E0,1.0042486E1,9.482031E-1,5.4998994E0,4.0606403E-1,5.4673963E0,0E0,5.325852E0,0E0,0E0,2.542567E1,1.124698E1,3.441603E1,9.075104E0,0E0,1.1235893E0,1.40511265E1,1.2804081E0,0E0,5.920296E-1,2.630095E0,7.892051E-1,0E0,0E0,1.708827E0,3.242933E0,0E0,0E0,6.605006E0,7.3308907E0,4.6429996E0,5.132287E0,0E0,1.6270995E-1,1.2242136E1,1.0003243E1,0E0,0E0,0E0,0E0,0E0,0E0,0E0,0E0,0E0,0E0,0E0,0E0,0E0,0E0,0E0,0E0,0E0,0E0,0E0,0E0,0E0,0E0,0E0,0E0,0E0,0E0,0E0,0E0,0E0,0E0],"parents":[2147483647,0,0,1,1,2,2,3,3,4,4,5,5,6,6,7,7,8,8,9,9,10,10,11,11,13,13,14,14,15,15,16,16,17,17,18,18,19,19,20,20,22,22,25,25,26,26,27,27,28,28,30,30,31,31,32,32,34,34,35,35,36,36,39,39,40,40,43,43,44,44,45,45,46,46,48,48,49,49,50,50],"right_children":[2,4,6,8,10,12,14,16,18,20,22,24,-1,26,28,30,32,34,36,38,40,-1,42,-1,-1,44,46,48,50,-1,52,54,56,-1,58,60,62,-1,-1,64,66,-1,-1,68,70,72,74,-1,76,78,80,-1,-1,-1,-1,-1,-1,-1,-1,-1,-1,-1,-1,-1,-1,-1,-1,-1,-1,-1,-1,-1,-1,-1,-1,-1,-1,-1,-1,-1,-1],"split_conditions":[1.0948973E1,2.1E0,1.1725089E1,7.1E-1,1.0495713E1,7.1E-1,5.221667E0,5.6E-1,1.1294899E2,1.88E0,1.0407083E1,6.5E-1,-3.1965888E-1,4.22E0,5.305E0,2.5E-1,3E-1,5.9E-1,3.8E0,2.8633335E0,8.714677E0,1.3002095E0,8.69E0,3.0610349E-2,-4.2337187E-2,3.54E0,1.2427379E2,7.5E-1,6.540989E1,-4.421236E-1,7.5E-1,1.08E0,1.5999999E0,-5.925465E-3,9.746631E0,8.8E-1,1.9289069E2,1.10339604E-1,3.6138088E-1,1.282E1,6.805E0,-1.16337836E-1,4.207143E-1,2.39E0,4.49875E0,1.113E1,2.0964433E2,1.139147E0,2.4104578E2,2.0497883E1,7.290585E1,-9.51158E-2,1.3024266E-1,1.0538809E0,9.827313E-2,-1.529586E-1,1.2450563E-1,-4.1537434E-1,-1.8445905E-1,1.0412157E-1,-1.5346885E-1,3.6808577E-1,7.406037E-2,-3.307127E-1,5.3386405E-2,2.7836528E-1,-8.529761E-3,-1.8786399E-2,-1.8598524E-1,8.3279216E-1,-3.8705744E-2,-5.1194817E-1,-1.1385846E-1,2.7956593E-1,-1.19417556E-1,-3.98196E-2,-1.4825514E-1,1.0671948E-2,1.6566056E-1,-1.52706E-1,1.6030845E-3],"split_indices":[5,1,6,1,5,0,3,1,6,2,3,0,0,0,3,1,4,0,0,3,5,0,0,0,0,0,6,2,6,0,0,0,4,0,5,0,6,0,0,1,3,0,0,0,3,0,6,0,6,5,6,0,0,0,0,0,0,0,0,0,0,0,0,0,0,0,0,0,0,0,0,0,0,0,0,0,0,0,0,0,0],"split_type":[0,0,0,0,0,0,0,0,0,0,0,0,0,0,0,0,0,0,0,0,0,0,0,0,0,0,0,0,0,0,0,0,0,0,0,0,0,0,0,0,0,0,0,0,0,0,0,0,0,0,0,0,0,0,0,0,0,0,0,0,0,0,0,0,0,0,0,0,0,0,0,0,0,0,0,0,0,0,0,0,0],"sum_hessian":[1.913E3,8.3E1,1.83E3,4.8E1,3.5E1,1.1E1,1.819E3,1.7E1,3.1E1,2.7E1,8E0,4E0,7E0,3.35E2,1.484E3,8E0,9E0,1E1,2.1E1,6E0,2.1E1,3E0,5E0,3E0,1E0,3.13E2,2.2E1,8E0,1.476E3,1E0,7E0,5E0,4E0,1E0,9E0,1.7E1,4E0,2E0,4E0,5E0,1.6E1,3E0,2E0,3.09E2,4E0,1.2E1,1E1,2E0,6E0,2E2,1.276E3,5E0,2E0,2E0,3E0,2E0,2E0,4E0,5E0,4E0,1.3E1,2E0,2E0,4E0,1E0,4E0,1.2E1,2.87E2,2.2E1,3E0,1E0,7E0,5E0,4E0,6E0,4E0,2E0,1.3E2,7E1,3.8E1,1.238E3],"tree_param":{"num_deleted":"0","num_feature":"7","num_nodes":"81","size_leaf_vector":"1"}},{"base_weights":[8.537564E-3,-4.1885804E-3,2.2349393E-1,-1.1201587E-3,-6.1740756E-1,3.108031E-1,-3.327224E-1,9.694769E-3,-1.6736491E-1,-1.131692E0,2.0358454E-2,2.1279345E-1,1.6964773E0,-5.442112E-1,3.942181E-1,4.2250443E-2,-6.053667E-2,-5.901788E-1,-8.373035E-2,-3.725849E-1,-1.0359922E-1,-6.4999685E-2,7.5178914E-2,3.6920628E-1,-3.3747044E-1,-1.8659726E-2,2.0606523E0,-1.3809643E0,-7.141352E-2,-4.6268525E-4,4.2890114E-1,2.3820378E-1,-1.27088E-1,-3.2700282E-1,-1.0620303E0,1.4969751E-1,-2.550893E-1,5.602913E-1,3.163142E-2,1.5015937E-1,-1.26452E0,7.4536395E-1,5.4761413E-2,-2.179908E-1,-6.250849E-1,2.535347E-1,-2.6715183E-1,-2.0459918E-3,6.6106534E-1,4.777569E-1,3.1353492E-2,-2.760561E-3,2.7710432E-1,-9.328525E-2,-9.7525325E-3,-1.4301625E-1,9.928922E-2,-4.4146487E-1,-1.4681499E-1,-3.1749138E-3,3.821334E-1,1.098253E-1,-1.11323364E-1,3.6907604E-1,1.1317113E-1,2.0131178E-1,-4.5768835E-2,-2.3720144E-1,1.1185614E-1,-4.6787047E-1,-1.0537992E-1,-9.6953996E-2,-1.14187E-3,-1.0630161E-2,-1.3363184E-1],"categories":[],"categories_nodes":[],"categories_segments":[],"categories_sizes":[],"default_left":[1,0,0,0,0,0,0,1,0,0,1,0,0,0,0,0,0,0,0,0,0,0,0,0,0,0,0,0,0,0,0,0,0,0,0,0,0,0,0,0,0,0,0,0,0,0,0,0,0,0,0,0,0,0,0,0,0,0,0,0,0,0,0,0,0,0,0,0,0,0,0,0,0,0,0],"id":14,"left_children":[1,3,5,7,9,11,13,15,17,19,21,23,25,27,-1,29,31,33,35,-1,-1,-1,-1,37,39,-1,41,43,45,47,49,51,53,55,57,59,61,63,65,67,69,-1,-1,71,-1,-1,73,-1,-1,-1,-1,-1,-1,-1,-1,-1,-1,-1,-1,-1,-1,-1,-1,-1,-1,-1,-1,-1,-1,-1,-1,-1,-1,-1,-1],"loss_changes":[5.2368097E0,3.4012673E0,5.2996287E0,3.2378879E0,2.9749777E0,1.2269277E1,5.9392667E0,3.8689141E0,3.840388E0,4.6286583E-3,3.2715523E-1,7.6986094E0,3.9709702E0,5.439989E0,0E0,1.9091608E1,1.0686794E1,1.8879528E0,3.758182E0,0E0,0E0,0E0,0E0,4.433157E0,9.23102E0,0E0,3.5270824E0,3.6316195E0,2.0197728E0,1.461506E1,4.3242233E1,1.6628414E1,7.6239533E0,1.4384005E0,6.8690825E-1,7.22021E0,4.0264935E0,4.9320345E0,3.1645312E0,3.2280538E0,1.3383522E0,0E0,0E0,6.635958E-2,0E0,0E0,3.5602838E-1,0E0,0E0,0E0,0E0,0E0,0E0,0E0,0E0,0E0,0E0,0E0,0E0,0E0,0E0,0E0,0E0,0E0,0E0,0E0,0E0,0E0,0E0,0E0,0E0,0E0,0E0,0E0,0E0],"parents":[2147483647,0,0,1,1,2,2,3,3,4,4,5,5,6,6,7,7,8,8,9,9,10,10,11,11,12,12,13,13,15,15,16,16,17,17,18,18,23,23,24,24,26,26,27,27,28,28,29,29,30,30,31,31,32,32,33,33,34,34,35,35,36,36,37,37,38,38,39,39,40,40,43,43,46,46],"right_children":[2,4,6,8,10,12,14,16,18,20,22,24,26,28,-1,30,32,34,36,-1,-1,-1,-1,38,40,-1,42,44,46,48,50,52,54,56,58,60,62,64,66,68,70,-1,-1,72,-1,-1,74,-1,-1,-1,-1,-1,-1,-1,-1,-1,-1,-1,-1,-1,-1,-1,-1,-1,-1,-1,-1,-1,-1,-1,-1,-1,-1,-1,-1],"split_conditions":[7.94E0,7.43E0,7.1000004E0,1.07E1,2.4E0,5.399999E0,1.5938334E1,1.83E0,5.5E-1,2.0497883E1,5.42E0,1.33966675E1,7.17E0,9.700001E0,3.942181E-1,1.58E0,1.4417988E1,1.218E1,1.12E0,-3.725849E-1,-1.0359922E-1,-6.4999685E-2,7.5178914E-2,2.4703976E1,9.0000004E-1,-1.8659726E-2,2.129E1,1.0407083E1,8.69E0,7.17E0,7.77821E1,1.5999999E0,1.645458E2,2.66E0,1.3715416E1,1.67E0,1.945333E1,9.38E0,7.3E-1,1.391125E1,2.3000002E0,7.4536395E-1,5.4761413E-2,1.201E1,-6.250849E-1,2.535347E-1,1.5617529E1,-2.0459918E-3,6.6106534E-1,4.777569E-1,3.1353492E-2,-2.760561E-3,2.7710432E-1,-9.328525E-2,-9.7525325E-3,-1.4301625E-1,9.928922E-2,-4.4146487E-1,-1.4681499E-1,-3.1749138E-3,3.821334E-1,1.098253E-1,-1.11323364E-1,3.6907604E-1,1.1317113E-1,2.0131178E-1,-4.5768835E-2,-2.3720144E-1,1.1185614E-1,-4.6787047E-1,-1.0537992E-1,-9.6953996E-2,-1.14187E-3,-1.0630161E-2,-1.3363184E-1],"split_indices":[0,0,4,4,2,4,3,2,2,5,2,3,1,4,0,2,5,3,1,0,0,0,0,5,4,0,0,3,0,0,6,4,6,0,3,0,5,0,2,3,4,0,0,0,0,0,5,0,0,0,0,0,0,0,0,0,0,0,0,0,0,0,0,0,0,0,0,0,0,0,0,0,0,0,0],"split_type":[0,0,0,0,0,0,0,0,0,0,0,0,0,0,0,0,0,0,0,0,0,0,0,0,0,0,0,0,0,0,0,0,0,0,0,0,0,0,0,0,0,0,0,0,0,0,0,0,0,0,0,0,0,0,0,0,0,0,0,0,0,0,0,0,0,0,0,0,0,0,0,0,0,0,0],"sum_hessian":[1.913E3,1.807E3,1.06E2,1.799E3,8E0,9.2E1,1.4E1,1.69E3,1.09E2,4E0,4E0,8.7E1,5E0,1.3E1,1E0,1.155E3,5.35E2,1.7E1,9.2E1,3E0,1E0,2E0,2E0,6.8E1,1.9E1,1E0,4E0,4E0,9E0,1.041E3,1.14E2,9.7E1,4.38E2,1.2E1,5E0,3.9E1,5.3E1,4.3E1,2.5E1,1.3E1,6E0,3E0,1E0,2E0,2E0,1E0,8E0,1.039E3,2E0,2.4E1,9E1,7.2E1,2.5E1,1.48E2,2.9E2,1E1,2E0,2E0,3E0,3.5E1,4E0,8E0,4.5E1,8E0,3.5E1,5E0,2E1,2E0,1.1E1,4E0,2E0,1E0,1E0,4E0,4E0],"tree_param":{"num_deleted":"0","num_feature":"7","num_nodes":"75","size_leaf_vector":"1"}},{"base_weights":[6.561389E-3,-1.5635418E-2,8.727094E-2,2.831289E-2,-6.937745E-2,-5.650537E-2,1.7035004E-1,4.638196E-2,-3.6999318E-1,2.1306133E-1,-1.13119006E-1,2.2121256E-2,-1.1752156E0,6.1403817E-1,3.2643523E-2,1.7935397E-2,4.681703E-1,-2.768711E-2,-6.131791E-1,-1.8988132E-2,1.4906896E0,-2.1837042E-1,-3.6324248E-2,1.8221613E0,-1.6334357E-2,-1.3418826E0,-1.0170956E-1,1.8773717E0,-1.277296E-1,3.979804E-1,-1.3317566E-1,-7.590993E-2,9.068432E-2,9.018901E-1,9.518004E-2,-2.2574015E-1,2.7173683E-1,1.18616305E-1,-8.492786E-1,5.53082E-1,-1.21165045E-1,1.3375443E0,-1.4227483E-1,-2.6065335E-1,7.1248615E-1,6.0341954E-1,-4.8298053E-2,6.6247535E-1,1.5749732E-1,-1.2476461E-1,5.453845E-1,-4.2799214E-1,-1.12286694E-1,2.3160538E-1,2.7396734E0,-3.513577E-1,9.767112E-1,-7.9850644E-1,6.12182E-1,7.1638876E-1,-1.9052607E-1,-2.6573217E-2,3.9397675E-1,1.1649383E-1,-4.9572713E-3,6.28835E-2,5.866433E-1,-2.4057206E-2,4.7499993E-1,2.0577735E-1,-1.304534E-1,-9.5971875E-2,8.109062E-2,-3.8678107E-1,-1.0914323E-1,2.5436176E-2,4.405424E-1,-1.8239206E-1,2.1865065E-3,1.4464468E-1,-7.95682E-2,-8.936649E-2,1.5943083E-1,-5.024417E-2,5.405827E-1,-5.965269E-2,3.86381E-4,-1.8717028E-2,-3.8672587E-1,3.219966E-1,1.701467E-2,7.0676416E-1,-2.1356541E-1,2.1038175E-2,9.4349355E-1,-1.6296372E-1,1.9034983E-1,6.836692E-2,5.69753E-1,-3.7317193E-1,5.4171022E-2,3.284335E-1,8.157007E-2,-1.652183E-1,7.313899E-1,-2.843413E-2,-2.0626126E-1],"categories":[],"categories_nodes":[],"categories_segments":[],"categories_sizes":[],"default_left":[1,0,0,0,0,0,0,0,0,0,0,0,0,0,0,0,0,0,0,0,0,0,0,0,0,0,0,0,0,0,0,0,0,0,0,0,0,0,0,0,0,0,0,0,0,0,0,0,0,0,0,0,0,0,0,0,0,0,0,0,0,0,0,0,0,0,0,0,0,0,0,0,0,0,0,0,0,0,0,0,0,0,0,0,0,0,0,0,0,0,0,0,0,0,0,0,0,0,0,0,0,0,0,0,0,0,0],"id":15,"left_children":[1,3,5,7,9,11,13,15,17,19,21,23,25,27,29,31,33,35,37,39,41,43,45,47,49,51,-1,53,55,57,59,61,63,65,67,69,-1,71,73,75,77,-1,79,81,83,-1,85,-1,-1,87,89,-1,-1,91,93,95,97,99,101,103,105,-1,-1,-1,-1,-1,-1,-1,-1,-1,-1,-1,-1,-1,-1,-1,-1,-1,-1,-1,-1,-1,-1,-1,-1,-1,-1,-1,-1,-1,-1,-1,-1,-1,-1,-1,-1,-1,-1,-1,-1,-1,-1,-1,-1,-1,-1],"loss_changes":[3.4302847E0,3.5494952E0,4.942832E0,5.969097E0,8.375616E0,1.339598E1,1.5987826E1,9.494358E0,2.9798074E0,2.7007345E1,4.7285633E0,9.92846E0,9.387007E-1,5.8340004E1,1.2229553E1,5.0794535E0,8.00282E0,3.1625187E0,3.7290463E0,4.6262975E0,6.84825E1,9.907468E0,8.433619E0,3.4315968E-1,8.655976E0,1.2211323E-1,0E0,3.200586E1,1.0222536E1,1.6635067E1,6.908969E0,5.835412E0,1.3376001E1,1.6365757E1,7.4343657E0,2.9671345E0,0E0,4.8557705E-1,2.948577E0,5.019575E0,4.194089E0,0E0,8.956236E-1,7.148243E0,1.0847328E1,0E0,2.530852E0,0E0,0E0,8.561829E0,5.8728185E0,0E0,0E0,1.9715208E1,1.6009163E1,6.7754707E0,4.4025297E0,4.585419E0,8.570139E0,2.0975605E1,6.1686893E0,0E0,0E0,0E0,0E0,0E0,0E0,0E0,0E0,0E0,0E0,0E0,0E0,0E0,0E0,0E0,0E0,0E0,0E0,0E0,0E0,0E0,0E0,0E0,0E0,0E0,0E0,0E0,0E0,0E0,0E0,0E0,0E0,0E0,0E0,0E0,0E0,0E0,0E0,0E0,0E0,0E0,0E0,0E0,0E0,0E0,0E0],"parents":[2147483647,0,0,1,1,2,2,3,3,4,4,5,5,6,6,7,7,8,8,9,9,10,10,11,11,12,12,13,13,14,14,15,15,16,16,17,17,18,18,19,19,20,20,21,21,22,22,23,23,24,24,25,25,27,27,28,28,29,29,30,30,31,31,32,32,33,33,34,34,35,35,37,37,38,38,39,39,40,40,42,42,43,43,44,44,46,46,49,49,50,50,53,53,54,54,55,55,56,56,57,57,58,58,59,59,60,60],"right_children":[2,4,6,8,10,12,14,16,18,20,22,24,26,28,30,32,34,36,38,40,42,44,46,48,50,52,-1,54,56,58,60,62,64,66,68,70,-1,72,74,76,78,-1,80,82,84,-1,86,-1,-1,88,90,-1,-1,92,94,96,98,100,102,104,106,-1,-1,-1,-1,-1,-1,-1,-1,-1,-1,-1,-1,-1,-1,-1,-1,-1,-1,-1,-1,-1,-1,-1,-1,-1,-1,-1,-1,-1,-1,-1,-1,-1,-1,-1,-1,-1,-1,-1,-1,-1,-1,-1,-1,-1,-1],"split_conditions":[2.74E0,1.17E0,1.7339897E1,2.13E0,8E-1,1.6854767E1,2.0037485E1,1.7E0,9.061249E0,7.3E-1,2.0043648E2,4.3E-1,5.9E0,3.04E0,7.815417E0,7.8E-1,4E-1,8.588333E0,1.5546833E1,1.4512064E1,1.4985867E2,1.113E1,2.0107237E2,4.03E0,1.113E1,2.6694754E2,-1.0170956E-1,1.29E0,5.399999E0,4.787993E1,5.0527596E1,1.9796665E1,1.9428308E2,8.1E-1,4.1924156E1,1.5340767E2,2.7173683E-1,2.21E0,1.8792757E2,2.02E0,2.0753844E2,1.3375443E0,3.8E-1,3.8986523E1,9.627915E0,6.0341954E-1,5.857083E0,6.6247535E-1,1.5749732E-1,9.68E0,7.43E0,-4.2799214E-1,-1.12286694E-1,1.8161278E1,1.7447933E1,2.3627435E2,6.53E0,5.57375E0,2.6178707E1,4.5956997E1,6E0,-2.6573217E-2,3.9397675E-1,1.1649383E-1,-4.9572713E-3,6.28835E-2,5.866433E-1,-2.4057206E-2,4.7499993E-1,2.0577735E-1,-1.304534E-1,-9.5971875E-2,8.109062E-2,-3.8678107E-1,-1.0914323E-1,2.5436176E-2,4.405424E-1,-1.8239206E-1,2.1865065E-3,1.4464468E-1,-7.95682E-2,-8.936649E-2,1.5943083E-1,-5.024417E-2,5.405827E-1,-5.965269E-2,3.86381E-4,-1.8717028E-2,-3.8672587E-1,3.219966E-1,1.701467E-2,7.0676416E-1,-2.1356541E-1,2.1038175E-2,9.4349355E-1,-1.6296372E-1,1.9034983E-1,6.836692E-2,5.69753E-1,-3.7317193E-1,5.4171022E-2,3.284335E-1,8.157007E-2,-1.652183E-1,7.313899E-1,-2.843413E-2,-2.0626126E-1],"split_indices":[0,1,5,0,2,5,5,0,3,2,6,1,1,1,3,2,4,3,5,5,6,2,6,0,0,6,0,1,4,6,6,3,6,1,5,6,0,0,6,0,6,0,0,5,3,0,3,0,0,0,1,0,0,5,5,6,0,3,5,6,4,0,0,0,0,0,0,0,0,0,0,0,0,0,0,0,0,0,0,0,0,0,0,0,0,0,0,0,0,0,0,0,0,0,0,0,0,0,0,0,0,0,0,0,0,0,0],"split_type":[0,0,0,0,0,0,0,0,0,0,0,0,0,0,0,0,0,0,0,0,0,0,0,0,0,0,0,0,0,0,0,0,0,0,0,0,0,0,0,0,0,0,0,0,0,0,0,0,0,0,0,0,0,0,0,0,0,0,0,0,0,0,0,0,0,0,0,0,0,0,0,0,0,0,0,0,0,0,0,0,0,0,0,0,0,0,0,0,0,0,0,0,0,0,0,0,0,0,0,0,0,0,0,0,0,0,0],"sum_hessian":[1.913E3,1.501E3,4.12E2,8.26E2,6.75E2,1.51E2,2.61E2,7.91E2,3.5E1,9E1,5.85E2,1.42E2,9E0,6.1E1,2E2,7.42E2,4.9E1,1.5E1,2E1,7.7E1,1.3E1,2.46E2,3.39E2,2E0,1.4E2,7E0,2E0,2.2E1,3.9E1,6.2E1,1.38E2,3.24E2,4.18E2,2.2E1,2.7E1,1.3E1,2E0,5E0,1.5E1,1.1E1,6.6E1,4E0,9E0,2.36E2,1E1,1E0,3.38E2,1E0,1E0,1.18E2,2.2E1,6E0,1E0,8E0,1.4E1,3.3E1,6E0,9E0,5.3E1,8E0,1.3E2,3.22E2,2E0,1.1E2,3.08E2,1.4E1,8E0,2.5E1,2E0,2E0,1.1E1,1E0,4E0,7E0,8E0,8E0,3E0,1.3E1,5.3E1,1E0,8E0,2.26E2,1E1,6E0,4E0,8.3E1,2.55E2,1.13E2,5E0,1E1,1.2E1,2E0,6E0,2E0,1.2E1,2.8E1,5E0,4E0,2E0,6E0,3E0,2.1E1,3.2E1,5E0,3E0,1.1E2,2E1],"tree_param":{"num_deleted":"0","num_feature":"7","num_nodes":"107","size_leaf_vector":"1"}},{"base_weights":[8.180154E-3,2.1919506E-2,-9.055502E-2,5.596206E-3,1.8848868E-1,1.5414819E-1,-1.7582135E-1,2.1655496E-2,-1.4142059E-1,2.449342E-2,1.0074852E0,-1.0128437E-1,3.7394807E-1,6.2739766E-1,-2.183102E-1,1.497294E-2,5.27213E-1,-3.967127E-1,1.3243305E-2,6.95897E-2,-4.1050217E-1,-4.1038242E-1,1.3824712E0,-2.2023344E-1,3.0401748E-1,6.510562E-1,-1.9854228E-3,3.3040354E-1,2.0686637E-1,-2.506766E-1,6.865735E-1,2.34761E-1,2.7320487E-3,1.2521445E0,-1.7794664E-1,-7.946411E-2,-6.795876E-1,1.7622472E-1,-1.641983E-1,-1.0775505E-1,4.2690736E-1,3.7725008E-1,-9.9545896E-1,1.9427308E0,6.279386E-1,3.398815E-1,-3.5604087E-1,-3.1447366E-2,1.16888575E-1,2.9746866E-1,1.9026424E0,-1.3441508E-1,2.7780446E-1,1.3413662E-1,-5.472899E-2,-5.505863E-1,-1.8339798E-1,5.8081234E-1,4.9471747E-2,-8.719802E-3,1.6963592E-1,-3.4343965E-2,1.3944494E-2,-1.3512847E-1,4.5638087E-1,-8.57206E-2,5.064161E-2,-5.6796636E-2,4.3300533E-1,-2.2438812E-1,1.954834E-1,-7.4105784E-2,1.09401815E-1,-2.2384936E-1,-1.747478E-2,-2.2607043E-2,-2.8397676E-1,3.0868375E-1,4.269214E-2,-4.513524E-1,-1.4762095E-1,9.004252E-1,2.7269801E-1,-4.4389363E-2,2.9448193E-1,-1.7894156E-2,1.878349E-1,-1.3305584E-1,-6.71912E-3,-4.7399398E-2,1.5565872E-1,7.286183E-1,4.865803E-2,-1.08234E-1,4.3046962E-2,-3.0569276E-1,-9.7088866E-2,-1.5549862E-1,-3.585937E-2,-8.450948E-2,1.0924535E-1],"categories":[],"categories_nodes":[],"categories_segments":[],"categories_sizes":[],"default_left":[0,0,0,0,0,0,0,0,0,0,0,0,0,0,1,0,0,0,0,0,0,0,0,0,0,0,0,0,0,0,0,0,0,0,0,0,0,0,0,0,0,0,0,0,0,0,0,0,0,0,0,0,0,0,0,0,0,0,0,0,0,0,0,0,0,0,0,0,0,0,0,0,0,0,0,0,0,0,0,0,0,0,0,0,0,0,0,0,0,0,0,0,0,0,0,0,0,0,0,0,0],"id":16,"left_children":[1,3,5,7,9,11,13,15,17,19,21,23,25,27,29,31,33,35,37,39,-1,41,43,45,47,49,51,-1,53,55,57,59,61,63,65,67,69,71,73,75,77,-1,79,81,83,85,87,-1,-1,89,91,93,-1,-1,-1,95,97,-1,99,-1,-1,-1,-1,-1,-1,-1,-1,-1,-1,-1,-1,-1,-1,-1,-1,-1,-1,-1,-1,-1,-1,-1,-1,-1,-1,-1,-1,-1,-1,-1,-1,-1,-1,-1,-1,-1,-1,-1,-1,-1,-1],"loss_changes":[2.5984356E0,4.5695148E0,4.9094996E0,3.6200922E0,2.0122055E1,3.4626622E0,6.075214E0,4.6610785E0,5.967409E0,8.009486E0,1.3859358E1,1.4650528E0,3.4390416E0,1.5659561E0,5.033889E0,3.671757E0,9.424278E0,5.0612717E0,2.7763057E0,7.840315E0,0E0,7.1068234E0,7.234764E0,1.8705704E0,2.858525E-1,7.8423834E0,1.9678916E0,0E0,6.427523E-1,3.147603E0,4.6804485E0,6.2981114E0,6.64092E0,4.8090696E0,4.2199302E-1,4.957474E0,3.2179127E0,4.0780544E0,2.7928395E0,2.184338E0,6.8785257E0,0E0,5.40926E-1,9.310173E0,2.8893623E0,6.091413E-1,5.4461336E-1,0E0,0E0,1.6953785E0,3.2685747E0,9.324795E-1,0E0,0E0,0E0,2.7530508E0,2.7830386E0,0E0,6.236427E-1,0E0,0E0,0E0,0E0,0E0,0E0,0E0,0E0,0E0,0E0,0E0,0E0,0E0,0E0,0E0,0E0,0E0,0E0,0E0,0E0,0E0,0E0,0E0,0E0,0E0,0E0,0E0,0E0,0E0,0E0,0E0,0E0,0E0,0E0,0E0,0E0,0E0,0E0,0E0,0E0,0E0,0E0],"parents":[2147483647,0,0,1,1,2,2,3,3,4,4,5,5,6,6,7,7,8,8,9,9,10,10,11,11,12,12,13,13,14,14,15,15,16,16,17,17,18,18,19,19,21,21,22,22,23,23,24,24,25,25,26,26,28,28,29,29,30,30,31,31,32,32,33,33,34,34,35,35,36,36,37,37,38,38,39,39,40,40,42,42,43,43,44,44,45,45,46,46,49,49,50,50,51,51,55,55,56,56,58,58],"right_children":[2,4,6,8,10,12,14,16,18,20,22,24,26,28,30,32,34,36,38,40,-1,42,44,46,48,50,52,-1,54,56,58,60,62,64,66,68,70,72,74,76,78,-1,80,82,84,86,88,-1,-1,90,92,94,-1,-1,-1,96,98,-1,100,-1,-1,-1,-1,-1,-1,-1,-1,-1,-1,-1,-1,-1,-1,-1,-1,-1,-1,-1,-1,-1,-1,-1,-1,-1,-1,-1,-1,-1,-1,-1,-1,-1,-1,-1,-1,-1,-1,-1,-1,-1,-1],"split_conditions":[7.1000004E0,4.6E0,8.1E-1,3E0,3.04E0,7.8E-1,4.3891315E1,2.8999999E0,1.8045312E2,2.66E0,1.33E0,1.55E0,1.07E1,2.32451E1,1.113E1,1.0948973E1,1.8045312E2,5.4044613E1,9.4383335E0,1.1805E1,-4.1050217E-1,1.7884428E1,6E0,5.2E-1,4.3E-1,9.599999E0,3.04E0,3.3040354E-1,7E-1,8.1E0,1.63E0,2.1E0,1.7339897E1,3.8675E0,1.2796668E1,2.899062E1,1.8398748E1,3.5E0,2.0107237E2,1.1515416E1,1.4144737E2,3.7725008E-1,5E0,3.71E0,3.85E0,8.099999E0,3.5008957E1,-3.1447366E-2,1.16888575E-1,5.2E-1,5.9E-1,2.8056913E1,2.7780446E-1,1.3413662E-1,-5.472899E-2,1.7889828E2,6E-1,5.8081234E-1,5.2E-1,-8.719802E-3,1.6963592E-1,-3.4343965E-2,1.3944494E-2,-1.3512847E-1,4.5638087E-1,-8.57206E-2,5.064161E-2,-5.6796636E-2,4.3300533E-1,-2.2438812E-1,1.954834E-1,-7.4105784E-2,1.09401815E-1,-2.2384936E-1,-1.747478E-2,-2.2607043E-2,-2.8397676E-1,3.0868375E-1,4.269214E-2,-4.513524E-1,-1.4762095E-1,9.004252E-1,2.7269801E-1,-4.4389363E-2,2.9448193E-1,-1.7894156E-2,1.878349E-1,-1.3305584E-1,-6.71912E-3,-4.7399398E-2,1.5565872E-1,7.286183E-1,4.865803E-2,-1.08234E-1,4.3046962E-2,-3.0569276E-1,-9.7088866E-2,-1.5549862E-1,-3.585937E-2,-8.450948E-2,1.0924535E-1],"split_indices":[4,4,1,4,0,2,6,4,6,0,2,0,4,5,2,5,6,6,3,3,0,5,4,0,1,4,2,0,0,4,1,1,5,3,3,5,3,4,6,3,6,0,4,2,0,4,5,0,0,1,1,5,0,0,0,6,2,0,0,0,0,0,0,0,0,0,0,0,0,0,0,0,0,0,0,0,0,0,0,0,0,0,0,0,0,0,0,0,0,0,0,0,0,0,0,0,0,0,0,0,0],"split_type":[0,0,0,0,0,0,0,0,0,0,0,0,0,0,0,0,0,0,0,0,0,0,0,0,0,0,0,0,0,0,0,0,0,0,0,0,0,0,0,0,0,0,0,0,0,0,0,0,0,0,0,0,0,0,0,0,0,0,0,0,0,0,0,0,0,0,0,0,0,0,0,0,0,0,0,0,0,0,0,0,0,0,0,0,0,0,0,0,0,0,0,0,0,0,0,0,0,0,0,0,0],"sum_hessian":[1.913E3,1.68E3,2.33E2,1.531E3,1.49E2,6E1,1.73E2,1.381E3,1.5E2,1.25E2,2.4E1,2.8E1,3.2E1,8E0,1.65E2,1.364E3,1.7E1,5.6E1,9.4E1,1.22E2,3E0,5E0,1.9E1,2.2E1,6E0,1.8E1,1.4E1,3E0,5E0,1.6E2,5E0,7.1E1,1.293E3,8E0,9E0,2.7E1,2.9E1,4.9E1,4.5E1,8.2E1,4E1,1E0,4E0,1E1,9E0,4E0,1.8E1,1E0,5E0,1.5E1,3E0,1.3E1,1E0,3E0,2E0,2.8E1,1.32E2,1E0,4E0,4E1,3.1E1,3.51E2,9.42E2,1E0,7E0,7E0,2E0,2.6E1,1E0,2.8E1,1E0,1.5E1,3.4E1,6E0,3.9E1,8E1,2E0,1.2E1,2.8E1,1E0,3E0,4E0,6E0,3E0,6E0,2E0,2E0,1.4E1,4E0,5E0,1E1,2E0,1E0,7E0,6E0,8E0,2E1,2E1,1.12E2,2E0,2E0],"tree_param":{"num_deleted":"0","num_feature":"7","num_nodes":"101","size_leaf_vector":"1"}},{"base_weights":[7.3137395E-3,-6.619735E-2,2.3691809E-2,-1.8627068E-1,-3.2650743E-2,-4.3765944E-1,2.7835548E-2,-2.4759765E-1,7.9632126E-2,1.654763E-1,-5.408937E-2,-1.1938572E0,-1.2289121E-1,9.4455086E-2,-2.017676E-4,-2.8444433E-1,3.5779026E-1,2.1997268E-1,-1.4487393E-1,5.4353166E-2,1.0363437E0,-2.3260926E-1,-3.6549605E-2,-4.099598E-1,-1.013747E-1,6.1466463E-2,-1.06924124E-1,2.3161992E-1,-1.0087883E-2,-2.4023138E-1,2.1554105E-2,-1.5184088E-2,-3.6020952E-1,1.4768568E-1,-6.8543497E-3,9.5698796E-2,-2.6954752E-1,4.3236238E-1,-6.1767258E-2,4.0057918E-1,6.577553E-2,-2.8365076E-1,-4.9223468E-2,-7.229442E-2,9.1432944E-2,1.008049E-1,-2.4586419E-2,1.5442929E-1,1.6750801E0,-4.0384474E-1,5.367007E-3,-6.731256E-1,-6.6057414E-2,3.079603E-1,-1.1883899E-2,4.648589E-2,-6.2237184E-2,-8.677298E-2,-1.7602913E-1,-3.0982642E-2,-1.4794102E-1,-9.710018E-3,1.5953447E-1,7.9595394E-2,-4.803629E-2,-1.1150165E-1,-4.1450296E-2,-8.545807E-2,4.194299E-2,-4.9377292E-2,-3.2845812E-3,4.1337732E-2,-6.390942E-2,1.3499505E-2,3.690295E-2,2.5561005E-3,-1.361999E-2,3.4059208E-2,3.6222506E-1,-9.457133E-2,9.163495E-1,-1.1915529E-1,1.2170365E-2,-2.2710411E-1,2.1361135E-1,2.8709742E-1,-3.3894204E-2,2.4712217E-1,1.4809486E-2,-4.811108E-2,6.2047937E-3],"categories":[],"categories_nodes":[],"categories_segments":[],"categories_sizes":[],"default_left":[1,0,0,0,0,0,0,0,0,0,0,0,0,0,0,0,0,0,0,0,0,1,0,0,0,0,0,0,0,0,0,0,0,0,0,0,0,0,0,0,0,0,0,0,0,0,0,0,0,0,0,0,0,0,0,0,0,0,0,0,0,0,0,0,0,0,0,0,0,0,0,0,0,0,0,0,0,0,0,0,0,0,0,0,0,0,0,0,0,0,0],"id":17,"left_children":[1,3,5,7,9,11,13,15,17,19,21,23,25,27,29,31,33,-1,35,37,39,41,43,-1,-1,45,-1,47,49,51,53,55,57,-1,-1,-1,59,61,63,-1,-1,65,67,69,71,73,75,77,79,-1,81,83,85,87,89,-1,-1,-1,-1,-1,-1,-1,-1,-1,-1,-1,-1,-1,-1,-1,-1,-1,-1,-1,-1,-1,-1,-1,-1,-1,-1,-1,-1,-1,-1,-1,-1,-1,-1,-1,-1],"loss_changes":[2.3059664E0,1.3997089E0,3.0059342E0,1.2590497E0,1.1727853E0,3.1856644E0,2.9007635E0,1.4847763E0,2.3073192E0,2.5565565E0,7.6803505E-1,1.2942696E-1,4.9547577E-1,6.598562E0,5.7181053E0,1.198163E0,2.1602386E-1,0E0,7.7997243E-1,1.1240705E0,4.3997693E-1,1.9196403E-1,1.04507E0,0E0,0E0,2.6174732E-2,0E0,2.1914219E1,5.417179E0,6.8168364E0,9.618819E0,4.9012518E-1,5.698571E-1,0E0,0E0,0E0,3.2083744E-1,2.944299E-1,6.858837E-1,0E0,0E0,1.6634262E-1,3.0708566E-1,1.0060351E0,7.3509467E-1,6.606616E-4,2.4540299E-3,8.045405E0,2.8417698E1,0E0,3.700354E0,3.5601864E0,3.2764378E0,1.3964065E1,4.355436E0,0E0,0E0,0E0,0E0,0E0,0E0,0E0,0E0,0E0,0E0,0E0,0E0,0E0,0E0,0E0,0E0,0E0,0E0,0E0,0E0,0E0,0E0,0E0,0E0,0E0,0E0,0E0,0E0,0E0,0E0,0E0,0E0,0E0,0E0,0E0,0E0],"parents":[2147483647,0,0,1,1,2,2,3,3,4,4,5,5,6,6,7,7,8,8,9,9,10,10,11,11,12,12,13,13,14,14,15,15,16,16,18,18,19,19,20,20,21,21,22,22,25,25,27,27,28,28,29,29,30,30,31,31,32,32,36,36,37,37,38,38,41,41,42,42,43,43,44,44,45,45,46,46,47,47,48,48,50,50,51,51,52,52,53,53,54,54],"right_children":[2,4,6,8,10,12,14,16,18,20,22,24,26,28,30,32,34,-1,36,38,40,42,44,-1,-1,46,-1,48,50,52,54,56,58,-1,-1,-1,60,62,64,-1,-1,66,68,70,72,74,76,78,80,-1,82,84,86,88,90,-1,-1,-1,-1,-1,-1,-1,-1,-1,-1,-1,-1,-1,-1,-1,-1,-1,-1,-1,-1,-1,-1,-1,-1,-1,-1,-1,-1,-1,-1,-1,-1,-1,-1,-1,-1],"split_conditions":[6.3E-1,1.9977423E2,3E-1,7.1E0,2.1646928E2,5.8747715E1,9.8E-1,1.73175E1,4.5E-1,1.98E0,2.2333607E2,1.33E0,1.02E0,2.1370783E1,6.3E-1,3.8099712E1,5E-1,2.1997268E-1,1.933639E1,5.5E-1,3.5E-1,1.9E0,3.388019E1,-4.099598E-1,-1.013747E-1,6.659167E0,-1.06924124E-1,2.0969805E1,2.2207256E1,1.8792757E2,9E-1,6.182083E0,1.45E0,1.4768568E-1,-6.8543497E-3,9.5698796E-2,1.23E0,7E-1,1.8556595E1,4.0057918E-1,6.577553E-2,1.0157084E1,4.3E-1,4.3E-1,2.96E0,3E-1,8.5E-1,9.4E-1,6.9925E0,-4.0384474E-1,4.0987496E0,1.5825832E1,7.1E-1,1.5340767E2,1.2E0,4.648589E-2,-6.2237184E-2,-8.677298E-2,-1.7602913E-1,-3.0982642E-2,-1.4794102E-1,-9.710018E-3,1.5953447E-1,7.9595394E-2,-4.803629E-2,-1.1150165E-1,-4.1450296E-2,-8.545807E-2,4.194299E-2,-4.9377292E-2,-3.2845812E-3,4.1337732E-2,-6.390942E-2,1.3499505E-2,3.690295E-2,2.5561005E-3,-1.361999E-2,3.4059208E-2,3.6222506E-1,-9.457133E-2,9.163495E-1,-1.1915529E-1,1.2170365E-2,-2.2710411E-1,2.1361135E-1,2.8709742E-1,-3.3894204E-2,2.4712217E-1,1.4809486E-2,-4.811108E-2,6.2047937E-3],"split_indices":[0,6,1,4,6,6,1,3,0,2,6,0,2,5,2,6,0,0,5,2,0,2,5,0,0,3,0,5,6,6,2,3,2,0,0,0,2,1,5,0,0,3,0,0,2,4,0,1,3,0,3,3,0,6,2,0,0,0,0,0,0,0,0,0,0,0,0,0,0,0,0,0,0,0,0,0,0,0,0,0,0,0,0,0,0,0,0,0,0,0,0],"split_type":[0,0,0,0,0,0,0,0,0,0,0,0,0,0,0,0,0,0,0,0,0,0,0,0,0,0,0,0,0,0,0,0,0,0,0,0,0,0,0,0,0,0,0,0,0,0,0,0,0,0,0,0,0,0,0,0,0,0,0,0,0,0,0,0,0,0,0,0,0,0,0,0,0,0,0,0,0,0,0,0,0,0,0,0,0,0,0,0,0,0,0],"sum_hessian":[1.913E3,3.48E2,1.565E3,7.5E1,2.73E2,1.3E1,1.552E3,6.1E1,1.4E1,2.6E1,2.47E2,3E0,1E1,4.59E2,1.093E3,5.8E1,3E0,3E0,1.1E1,2.4E1,2E0,2.1E1,2.26E2,2E0,1E0,6E0,4E0,1.98E2,2.61E2,9E1,1.003E3,1.3E1,4.5E1,2E0,1E0,2E0,9E0,5E0,1.9E1,1E0,1E0,1.6E1,5E0,1.77E2,4.9E1,4E0,2E0,1.89E2,9E0,2E0,2.59E2,2.5E1,6.5E1,1.04E2,8.99E2,7E0,6E0,3.6E1,9E0,6E0,3E0,1E0,4E0,4E0,1.5E1,9E0,7E0,2E0,3E0,7E1,1.07E2,4.3E1,6E0,2E0,2E0,1E0,1E0,1.83E2,6E0,4E0,5E0,2E1,2.39E2,2.4E1,1E0,2E0,6.3E1,3.4E1,7E1,1.61E2,7.38E2],"tree_param":{"num_deleted":"0","num_feature":"7","num_nodes":"91","size_leaf_vector":"1"}},{"base_weights":[5.622813E-3,2.066039E-2,-6.258406E-2,-8.690086E-2,3.661816E-2,-2.840446E-1,-2.8531674E-2,1.8301912E-1,-2.2725533E-1,4.1536224E-1,2.1325342E-2,7.481321E-2,-3.2963246E-1,-4.7094986E-2,4.651461E-1,-7.17609E-2,1.3056515E0,-5.5901384E-1,-3.2773563E-3,8.652977E-2,1.1066233E0,6.430039E-2,-6.0868826E-2,6.5498315E-2,-5.152598E-2,-5.646449E-1,-2.4589005E-1,1.738769E-1,-8.402988E-2,4.5660684E-1,2.0725617E-1,-2.1321882E-1,1.4703368E0,1.3191273E0,-6.1489426E-2,-5.923299E-1,1.8101063E-1,8.5338205E-1,-1.3595307E-1,-3.3518437E-1,1.2586763E0,2.5663645E0,-1.7183188E-1,2.1942985E-1,-3.5789302E-3,-2.945112E-1,-2.3664998E-2,8.579154E-3,-2.6329828E-2,-1.8591894E-2,-1.8408343E-1,-1.1251757E-1,-4.3216386E-1,6.349285E-2,1.206652E0,-9.7321115E-2,1.042722E0,-8.5404605E-2,4.5875567E-1,-1.43175E-1,6.7324065E-2,-2.9536986E-1,6.990612E-1,-9.7300544E-2,7.986699E-2,-1.9939621E-1,2.5495445E-2,-4.2176273E-2,3.7310824E-1,1.05722584E-1,-9.6351005E-2,-1.5188773E-1,3.7784407E-1,8.928193E-1,2.9250288E-2,1.3913488E0,3.3087137E-1,-3.0752793E-1,2.659344E-1,4.7671508E-2,7.2306263E-1,-1.0793292E-1,1.2510437E-2,-1.0308482E-1,4.051326E-1,1.7283055E-1,-1.0829555E-2,-8.036996E-2,4.6212997E-2,3.9088853E-2,-1.4696807E-1,-8.460946E-3,2.077999E-1,-5.104927E-2,8.005652E-1,-6.996741E-2,-5.5294707E-3,4.5782828E-1,1.1396635E-2,2.6167414E-1,3.5672918E-2],"categories":[],"categories_nodes":[],"categories_segments":[],"categories_sizes":[],"default_left":[0,0,0,0,0,0,0,0,0,0,0,0,0,0,0,0,0,0,0,0,0,0,0,0,0,0,0,0,0,0,0,0,0,0,0,0,0,0,0,0,0,0,0,0,0,0,0,0,0,0,0,0,0,0,0,0,0,0,0,0,0,0,0,0,0,0,0,0,0,0,0,0,0,0,0,0,0,0,0,0,0,0,0,0,0,0,0,0,0,0,0,0,0,0,0,0,0,0,0,0,0],"id":18,"left_children":[1,3,5,7,9,11,13,15,17,19,21,23,25,27,29,31,33,35,37,39,41,43,45,-1,47,49,51,53,55,-1,57,59,61,-1,63,65,-1,67,69,71,73,75,77,79,81,83,85,-1,-1,-1,-1,87,89,91,93,95,97,-1,99,-1,-1,-1,-1,-1,-1,-1,-1,-1,-1,-1,-1,-1,-1,-1,-1,-1,-1,-1,-1,-1,-1,-1,-1,-1,-1,-1,-1,-1,-1,-1,-1,-1,-1,-1,-1,-1,-1,-1,-1,-1,-1],"loss_changes":[1.9644179E0,2.6962733E0,2.6011715E0,7.73214E0,7.9088926E0,7.7720094E-1,2.7803588E0,2.0115396E1,9.955252E0,1.1951627E1,4.6488857E0,1.20038584E-1,6.680598E-1,2.3896286E0,2.6826875E0,1.2965735E1,5.5214012E1,2.4485989E0,9.32231E0,1.8711388E1,3.2166615E1,9.098776E0,3.9219909E0,0E0,1.4124551E-2,2.0811391E-1,7.463757E-1,4.711466E0,3.8454592E0,0E0,1.3678215E0,6.346726E0,1.2848694E1,0E0,9.4772434E-1,2.6527538E0,0E0,4.4423895E0,6.535335E0,8.277742E0,1.9651714E1,1.913697E1,9.938582E0,3.4489895E1,9.724517E0,5.4720936E0,2.9365654E0,0E0,0E0,0E0,0E0,8.696449E-1,4.8594952E-1,2.2695503E0,8.505154E0,2.654602E0,1.3990059E0,0E0,8.799449E-1,0E0,0E0,0E0,0E0,0E0,0E0,0E0,0E0,0E0,0E0,0E0,0E0,0E0,0E0,0E0,0E0,0E0,0E0,0E0,0E0,0E0,0E0,0E0,0E0,0E0,0E0,0E0,0E0,0E0,0E0,0E0,0E0,0E0,0E0,0E0,0E0,0E0,0E0,0E0,0E0,0E0,0E0],"parents":[2147483647,0,0,1,1,2,2,3,3,4,4,5,5,6,6,7,7,8,8,9,9,10,10,11,11,12,12,13,13,14,14,15,15,16,16,17,17,18,18,19,19,20,20,21,21,22,22,24,24,25,25,26,26,27,27,28,28,30,30,31,31,32,32,34,34,35,35,37,37,38,38,39,39,40,40,41,41,42,42,43,43,44,44,45,45,46,46,51,51,52,52,53,53,54,54,55,55,56,56,58,58],"right_children":[2,4,6,8,10,12,14,16,18,20,22,24,26,28,30,32,34,36,38,40,42,44,46,-1,48,50,52,54,56,-1,58,60,62,-1,64,66,-1,68,70,72,74,76,78,80,82,84,86,-1,-1,-1,-1,88,90,92,94,96,98,-1,100,-1,-1,-1,-1,-1,-1,-1,-1,-1,-1,-1,-1,-1,-1,-1,-1,-1,-1,-1,-1,-1,-1,-1,-1,-1,-1,-1,-1,-1,-1,-1,-1,-1,-1,-1,-1,-1,-1,-1,-1,-1,-1],"split_conditions":[2.5771848E2,5.5918583E1,2.602633E2,3E-1,6.264315E1,1.4565548E1,5.15E0,2.0497883E1,3.0999997E0,1.259875E1,1.1923749E1,8.2E-1,8.2E-1,4.7E-1,2.95E0,2E-1,2.2629229E1,1.5938334E1,1.4154915E1,6.1521004E1,2.21E0,2.0211363E1,9.9092026E1,6.5498315E-2,5.9E-1,-1.31375E0,1.71E0,4.3E-1,4.1718082E1,4.5660684E-1,3.71E0,4.45E0,7.9237494E0,1.3191273E0,1.94E0,1.282E1,1.8101063E-1,1.243434E1,9.3E-1,9.68E0,9.5841675E0,5.8747715E1,4.22E0,1.9959719E1,1.27954346E2,1.282E1,1.0673935E2,8.579154E-3,-2.6329828E-2,-1.8591894E-2,-1.8408343E-1,1.12E0,2.5799265E2,3.2336575E2,7.1E-1,2E-1,8.1E-1,-8.5404605E-2,2.8435355E2,-1.43175E-1,6.7324065E-2,-2.9536986E-1,6.990612E-1,-9.7300544E-2,7.986699E-2,-1.9939621E-1,2.5495445E-2,-4.2176273E-2,3.7310824E-1,1.05722584E-1,-9.6351005E-2,-1.5188773E-1,3.7784407E-1,8.928193E-1,2.9250288E-2,1.3913488E0,3.3087137E-1,-3.0752793E-1,2.659344E-1,4.7671508E-2,7.2306263E-1,-1.0793292E-1,1.2510437E-2,-1.0308482E-1,4.051326E-1,1.7283055E-1,-1.0829555E-2,-8.036996E-2,4.6212997E-2,3.9088853E-2,-1.4696807E-1,-8.460946E-3,2.077999E-1,-5.104927E-2,8.005652E-1,-6.996741E-2,-5.5294707E-3,4.5782828E-1,1.1396635E-2,2.6167414E-1,3.5672918E-2],"split_indices":[6,6,6,4,6,5,0,5,4,3,3,2,2,2,1,4,5,3,5,6,2,5,6,0,0,3,2,2,5,0,1,0,3,0,1,1,0,5,0,0,3,6,1,5,6,0,6,0,0,0,0,2,6,6,0,4,0,0,6,0,0,0,0,0,0,0,0,0,0,0,0,0,0,0,0,0,0,0,0,0,0,0,0,0,0,0,0,0,0,0,0,0,0,0,0,0,0,0,0,0,0],"split_type":[0,0,0,0,0,0,0,0,0,0,0,0,0,0,0,0,0,0,0,0,0,0,0,0,0,0,0,0,0,0,0,0,0,0,0,0,0,0,0,0,0,0,0,0,0,0,0,0,0,0,0,0,0,0,0,0,0,0,0,0,0,0,0,0,0,0,0,0,0,0,0,0,0,0,0,0,0,0,0,0,0,0,0,0,0,0,0,0,0,0,0,0,0,0,0,0,0,0,0,0,0],"sum_hessian":[1.913E3,1.568E3,3.45E2,2.02E2,1.366E3,4.5E1,3E2,6.9E1,1.33E2,5.2E1,1.314E3,5E0,4E1,2.9E2,1E1,5.7E1,1.2E1,5.3E1,8E1,3.6E1,1.6E1,8.63E2,4.51E2,2E0,3E0,9E0,3.1E1,4.1E1,2.49E2,1E0,9E0,5.3E1,4E0,3E0,9E0,5.2E1,1E0,1E1,7E1,2.7E1,9E0,7E0,9E0,2.62E2,6.01E2,6.1E1,3.9E2,1E0,2E0,1E0,8E0,1.9E1,1.2E1,3.8E1,3E0,2.47E2,2E0,3E0,6E0,3.3E1,2E1,1E0,3E0,5E0,4E0,4.7E1,5E0,3E0,7E0,1.9E1,5.1E1,2.5E1,2E0,3E0,6E0,2E0,5E0,5E0,4E0,2.56E2,6E0,6.7E1,5.34E2,6E1,1E0,7E0,3.83E2,1.2E1,7E0,1E0,1.1E1,3.4E1,4E0,2E0,1E0,9E1,1.57E2,1E0,1E0,2E0,4E0],"tree_param":{"num_deleted":"0","num_feature":"7","num_nodes":"101","size_leaf_vector":"1"}},{"base_weights":[7.9376E-3,5.3143892E-2,-1.1514799E-2,2.9291412E-2,1.7430086E0,-8.870854E-1,-5.5856854E-3,-2.2151047E-1,7.939012E-2,1.7249103E0,3.492383E-1,-2.7868012E-1,-3.9542207E-1,6.5058625E-1,-9.546252E-3,-1.1476397E-2,-4.4499293E-1,2.8626156E0,4.9675647E-2,-1.4184205E-1,7.726177E-1,-1.3457713E-1,6.014414E-2,1.9836067E0,-1.2435499E-1,-4.6726084E-1,-6.408731E-3,-8.936183E-2,3.715548E-1,-8.578513E-1,-9.441528E-2,3.5656806E-2,1.0556526E0,-1.1174217E-1,2.055059E-1,-6.2433746E-2,1.0698284E0,5.352788E-2,8.390952E-1,8.109896E-2,-1.1678398E-1,1.168078E0,-1.1013688E0,3.478628E-1,-1.0760719E-2,-1.0000127E-1,4.45288E-2,-2.8421646E-2,-3.0955032E-1,-9.285784E-2,1.6010252E-1,-5.6159608E-2,1.3340943E-1,4.48751E-1,2.0528218E-2,3.6292636E-1,9.750753E-2,4.520264E-1,7.360869E-2,-4.7024712E-1,-1.8042663E-1,-3.2597642E-2,4.1218266E-1,-4.6779342E-2,-2.6023257E-4],"categories":[],"categories_nodes":[],"categories_segments":[],"categories_sizes":[],"default_left":[0,0,0,0,0,0,0,0,0,0,0,0,0,0,0,0,0,0,0,0,0,0,0,0,0,0,0,0,0,0,0,0,0,0,0,0,0,0,0,0,0,0,0,0,0,0,0,0,0,0,0,0,0,0,0,0,0,0,0,0,0,0,0,0,0],"id":19,"left_children":[1,3,5,7,9,11,13,15,17,-1,19,21,-1,23,25,27,29,31,33,-1,35,-1,-1,37,39,41,43,45,-1,47,49,-1,-1,51,53,-1,55,-1,-1,-1,-1,57,59,61,63,-1,-1,-1,-1,-1,-1,-1,-1,-1,-1,-1,-1,-1,-1,-1,-1,-1,-1,-1,-1],"loss_changes":[1.6837277E0,2.3166048E1,6.9462724E0,7.1669865E0,4.266725E1,1.9926186E0,3.4652302E0,4.4540915E0,3.914129E1,0E0,2.8015578E0,4.970051E-1,0E0,8.510771E0,1.8983873E0,4.9784856E0,6.576997E0,8.584393E0,1.1870393E1,0E0,1.6800623E0,0E0,0E0,3.9058218E0,7.3260504E-1,1.0619316E1,2.032733E0,2.8342097E0,0E0,2.6903868E0,3.6780207E0,0E0,0E0,9.824239E0,4.2348026E1,0E0,2.3669243E-2,0E0,0E0,0E0,0E0,5.6780577E-1,6.88529E-1,7.6441293E0,1.8683752E0,0E0,0E0,0E0,0E0,0E0,0E0,0E0,0E0,0E0,0E0,0E0,0E0,0E0,0E0,0E0,0E0,0E0,0E0,0E0,0E0],"parents":[2147483647,0,0,1,1,2,2,3,3,4,4,5,5,6,6,7,7,8,8,10,10,11,11,13,13,14,14,15,15,16,16,17,17,18,18,20,20,23,23,24,24,25,25,26,26,27,27,29,29,30,30,33,33,34,34,36,36,41,41,42,42,43,43,44,44],"right_children":[2,4,6,8,10,12,14,16,18,-1,20,22,-1,24,26,28,30,32,34,-1,36,-1,-1,38,40,42,44,46,-1,48,50,-1,-1,52,54,-1,56,-1,-1,-1,-1,58,60,62,64,-1,-1,-1,-1,-1,-1,-1,-1,-1,-1,-1,-1,-1,-1,-1,-1,-1,-1,-1,-1],"split_conditions":[1.6199576E2,1.5768744E2,