{"learner":{"attributes":{"scikit_learn":"{\"_estimator_type\": \"regressor\"}"},"feature_names":["lagged_aq_1_day","lagged_aq_2_days","lagged_aq_3_days","weather_temperature_2m_mean","weather_precipitation_sum","weather_wind_speed_10m_max","weather_wind_direction_10m_dominant"],"feature_types":["float","float","float","float","float","float","float"],"gradient_booster":{"model":{"gbtree_model_param":{"num_parallel_tree":"1","num_trees":"100"},"iteration_indptr":[0,1,2,3,4,5,6,7,8,9,10,11,12,13,14,15,16,17,18,19,20,21,22,23,24,25,26,27,28,29,30,31,32,33,34,35,36,37,38,39,40,41,42,43,44,45,46,47,48,49,50,51,52,53,54,55,56,57,58,59,60,61,62,63,64,65,66,67,68,69,70,71,72,73,74,75,76,77,78,79,80,81,82,83,84,85,86,87,88,89,90,91,92,93,94,95,96,97,98,99,100],"tree_info":[0,0,0,0,0,0,0,0,0,0,0,0,0,0,0,0,0,0,0,0,0,0,0,0,0,0,0,0,0,0,0,0,0,0,0,0,0,0,0,0,0,0,0,0,0,0,0,0,0,0,0,0,0,0,0,0,0,0,0,0,0,0,0,0,0,0,0,0,0,0,0,0,0,0,0,0,0,0,0,0,0,0,0,0,0,0,0,0,0,0,0,0,0,0,0,0,0,0,0,0],"trees":[{"base_weights":[1.0243876E-7,-2.9674525E0,1.881714E1,-6.531297E0,1.5721594E0,1.4874941E1,4.3689575E1,-3.592446E0,-7.337472E0,1.10250435E1,-4.6064964E-1,2.5425585E1,1.2072965E1,4.7095943E1,2.1622343E1,-1.7601785E-1,-5.3490133E0,-4.375181E0,-8.094855E0,8.634784E0,1.7990234E1,4.277312E0,-2.5413704E0,2.0275784E1,3.426922E1,1.6765644E1,5.789711E0,1.4725755E1,2.056536E0,1.1463602E1,4.026143E0,-1.0183057E0,9.956581E0,-5.5903196E0,1.0188453E1,-2.411818E0,-6.141661E0,-8.827542E0,-5.9965267E0,1.925912E1,7.461276E0,2.3507313E1,1.1906193E1,8.139848E0,7.486891E-1,2.1163738E0,-4.1451797E0,2.275896E1,8.917936E0,3.6794117E1,6.855119E0,1.1817874E1,2.0862085E1,1.1485123E1,7.139026E-1,2.9565358E0,-9.4346434E-1,8.149961E-1,-8.2183105E-1,5.1360273E-1,4.7136025E0,-2.4992123E0,-1.3167238E0,3.792402E0,7.9240185E-1,-3.0913496E-1,-1.2078663E0,-3.222634E-1,-2.0227218E0,-2.3398638E0,-2.9312274E0,-1.0928054E0,-2.3655157E0,3.9367034E0,7.567843E0,2.4687958E0,8.4675896E-1,7.9300923E0,1.3386028E0,4.6644607E0,1.4753809E0,2.1089556E0,4.4991503E0,-8.276474E-1,1.0252925E0,-1.7937182E-1,1.499733E0,-9.403133E-1,-2.0687594E0,7.1272297E0,1.4565358E0,2.9242034E0,3.424018E-1,2.592402E0,1.1363425E1,4.242402E0,-1.1575983E0,3.9426882E0,-1.8521572E0,6.5556154E0,9.678429E-1,6.8441176E0,2.7970703E0,1.1795235E0,-1.404949E0],"categories":[],"categories_nodes":[],"categories_segments":[],"categories_sizes":[],"default_left":[1,1,0,0,0,0,0,0,0,0,0,0,0,0,0,0,0,0,0,0,0,0,0,0,0,0,0,0,0,0,0,0,0,0,0,0,0,0,0,0,0,0,0,0,0,0,0,0,0,0,0,0,0,0,0,0,0,0,0,0,0,0,0,0,0,0,0,0,0,0,0,0,0,0,0,0,0,0,0,0,0,0,0,0,0,0,0,0,0,0,0,0,0,0,0,0,0,0,0,0,0,0,0,0,0],"id":0,"left_children":[1,3,5,7,9,11,13,15,17,19,21,23,25,27,29,31,33,35,37,39,41,43,45,47,49,51,53,-1,-1,-1,55,57,59,61,63,65,67,69,71,73,75,77,79,81,83,85,87,89,91,93,95,97,99,101,103,-1,-1,-1,-1,-1,-1,-1,-1,-1,-1,-1,-1,-1,-1,-1,-1,-1,-1,-1,-1,-1,-1,-1,-1,-1,-1,-1,-1,-1,-1,-1,-1,-1,-1,-1,-1,-1,-1,-1,-1,-1,-1,-1,-1,-1,-1,-1,-1,-1,-1],"loss_changes":[1.3937406E5,3.489105E4,3.2687836E4,2.835668E3,1.8240977E4,8.414027E3,2.439461E3,1.5713694E3,2.0892656E3,2.641625E3,7.7201196E3,2.0832852E3,6.8319727E3,2.7864453E3,2.1814734E3,7.782497E2,7.05583E2,6.614949E2,1.1047344E3,1.4397051E3,1.1298965E3,3.2513403E3,4.0725256E3,9.5338086E2,1.2013477E3,2.4694023E3,2.9405002E3,0E0,0E0,0E0,2.3999182E2,5.4742377E2,3.0525812E2,5.263452E2,2.2146576E1,2.0547919E2,3.0326978E2,4.6290234E2,8.514448E2,1.0839307E2,3.9005176E2,1.0524404E3,4.834629E2,7.6229395E2,1.1889635E3,1.0984264E3,1.1044478E3,4.7457812E2,4.692462E1,2.525E2,2.887555E2,1.5823418E3,1.1865469E3,9.626904E2,9.735929E2,0E0,0E0,0E0,0E0,0E0,0E0,0E0,0E0,0E0,0E0,0E0,0E0,0E0,0E0,0E0,0E0,0E0,0E0,0E0,0E0,0E0,0E0,0E0,0E0,0E0,0E0,0E0,0E0,0E0,0E0,0E0,0E0,0E0,0E0,0E0,0E0,0E0,0E0,0E0,0E0,0E0,0E0,0E0,0E0,0E0,0E0,0E0,0E0,0E0,0E0],"parents":[2147483647,0,0,1,1,2,2,3,3,4,4,5,5,6,6,7,7,8,8,9,9,10,10,11,11,12,12,13,13,14,14,15,15,16,16,17,17,18,18,19,19,20,20,21,21,22,22,23,23,24,24,25,25,26,26,30,30,31,31,32,32,33,33,34,34,35,35,36,36,37,37,38,38,39,39,40,40,41,41,42,42,43,43,44,44,45,45,46,46,47,47,48,48,49,49,50,50,51,51,52,52,53,53,54,54],"right_children":[2,4,6,8,10,12,14,16,18,20,22,24,26,28,30,32,34,36,38,40,42,44,46,48,50,52,54,-1,-1,-1,56,58,60,62,64,66,68,70,72,74,76,78,80,82,84,86,88,90,92,94,96,98,100,102,104,-1,-1,-1,-1,-1,-1,-1,-1,-1,-1,-1,-1,-1,-1,-1,-1,-1,-1,-1,-1,-1,-1,-1,-1,-1,-1,-1,-1,-1,-1,-1,-1,-1,-1,-1,-1,-1,-1,-1,-1,-1,-1,-1,-1,-1,-1,-1,-1,-1,-1],"split_conditions":[3.8E1,2E1,6.7E1,1.7300618E2,1.4773164E1,1.3363711E1,2.5277023E1,6E-1,6.313333E0,3.1E1,1.6382771E2,4.3E1,8E-1,6.6000004E0,1.3292032E2,2.5212852E1,1.7034164E1,6E-1,1.7E1,8.7791663E-1,1.0373748E1,1.0000001E0,1E-1,3.2E1,1.3039754E1,4.5E1,1.6541759E2,1.4725755E1,2.056536E0,1.1463602E1,8.994584E0,1.4386494E1,1.7E1,4.787993E1,1.3E1,2.4162947E1,1.6135872E1,8E-1,8E-1,2.7E1,2.4905428E2,1.3039754E1,3.5E1,1.2307873E2,7.2425E0,2.5E1,4.1999993E0,4.7999997E0,2.5E1,2.8508337E0,5.5E1,3.0633865E1,2.586035E2,2.2E1,2.9301876E1,2.9565358E0,-9.4346434E-1,8.149961E-1,-8.2183105E-1,5.1360273E-1,4.7136025E0,-2.4992123E0,-1.3167238E0,3.792402E0,7.9240185E-1,-3.0913496E-1,-1.2078663E0,-3.222634E-1,-2.0227218E0,-2.3398638E0,-2.9312274E0,-1.0928054E0,-2.3655157E0,3.9367034E0,7.567843E0,2.4687958E0,8.4675896E-1,7.9300923E0,1.3386028E0,4.6644607E0,1.4753809E0,2.1089556E0,4.4991503E0,-8.276474E-1,1.0252925E0,-1.7937182E-1,1.499733E0,-9.403133E-1,-2.0687594E0,7.1272297E0,1.4565358E0,2.9242034E0,3.424018E-1,2.592402E0,1.1363425E1,4.242402E0,-1.1575983E0,3.9426882E0,-1.8521572E0,6.5556154E0,9.678429E-1,6.8441176E0,2.7970703E0,1.1795235E0,-1.404949E0],"split_indices":[0,0,0,6,5,5,5,4,3,0,6,1,4,4,6,5,3,4,0,3,3,4,4,1,5,0,6,0,0,0,3,5,0,6,0,5,5,4,4,0,6,5,0,6,3,0,4,4,2,3,0,5,6,1,5,0,0,0,0,0,0,0,0,0,0,0,0,0,0,0,0,0,0,0,0,0,0,0,0,0,0,0,0,0,0,0,0,0,0,0,0,0,0,0,0,0,0,0,0,0,0,0,0,0,0],"split_type":[0,0,0,0,0,0,0,0,0,0,0,0,0,0,0,0,0,0,0,0,0,0,0,0,0,0,0,0,0,0,0,0,0,0,0,0,0,0,0,0,0,0,0,0,0,0,0,0,0,0,0,0,0,0,0,0,0,0,0,0,0,0,0,0,0,0,0,0,0,0,0,0,0,0,0,0,0,0,0,0,0,0,0,0,0,0,0,0,0,0,0,0,0,0,0,0,0,0,0,0,0,0,0,0,0],"sum_hessian":[2.494E3,2.155E3,3.39E2,1.207E3,9.48E2,2.94E2,4.5E1,2.61E2,9.46E2,1.67E2,7.81E2,6E1,2.34E2,3.8E1,7E0,8.9E1,1.72E2,1.94E2,7.52E2,1.26E2,4.1E1,2.38E2,5.43E2,4E1,2E1,1.33E2,1.01E2,3.6E1,2E0,3E0,4E0,8.3E1,6E0,1.7E2,2E0,9.3E1,1.01E2,5.55E2,1.97E2,1.1E1,1.15E2,2E1,2.1E1,1.13E2,1.25E2,1.39E2,4.04E2,3.2E1,8E0,1.8E1,2E0,6.2E1,7.1E1,4.7E1,5.4E1,2E0,2E0,2.6E1,5.7E1,3E0,3E0,5E1,1.2E2,1E0,1E0,5.1E1,4.2E1,1.1E1,9E1,2.7E2,2.85E2,8.9E1,1.08E2,7E0,4E0,9.8E1,1.7E1,1.7E1,3E0,1.3E1,8E0,9.9E1,1.4E1,5.4E1,7.1E1,7.2E1,6.7E1,2.97E2,1.07E2,3E1,2E0,7E0,1E0,1E0,1.7E1,1E0,1E0,5.8E1,4E0,6.7E1,4E0,6E0,4.1E1,3.4E1,2E1],"tree_param":{"num_deleted":"0","num_feature":"7","num_nodes":"105","size_leaf_vector":"1"}},{"base_weights":[4.2855207E-2,-2.740325E0,1.0366797E1,-4.577373E0,1.8707237E-1,7.9264426E0,2.8011778E1,-2.4918523E0,-5.149526E0,3.333597E0,-2.6452675E0,1.3805573E1,4.576946E0,3.0481771E1,6.9115944E0,5.44452E-1,-3.6453173E0,-3.4195673E0,-5.837987E0,1.3707838E1,2.811226E0,-1.7311393E-1,-3.7167995E0,2.1450592E1,1.14241905E1,7.9600987E0,1.3398201E0,2.5362701E1,4.439301E1,4.8638153E0,1.1091007E0,-2.2773361E0,3.2033973E0,-4.5602703E0,-3.126187E-1,3.4975165E-1,-3.9058685E0,-5.0166698E0,-6.8629575E0,2.0211126E1,5.6814556E0,4.355957E0,1.0892283E0,4.0831647E0,-2.6264398E0,-5.7275033E-1,-4.4515867E0,2.3808989E1,2.800704E0,9.634572E0,1.8280931E1,5.511815E0,1.3162633E1,5.6955457E0,-1.5010209E0,2.6178728E1,1.6452286E0,1.4984708E1,7.371282E0,1.8489215E0,-1.1343079E0,2.4302285E0,-1.0398831E0,-1.655798E-1,1.7878903E0,-1.447377E0,1.2051125E0,1.3088148E0,-6.337024E-1,-1.3217723E0,6.3556534E-1,-9.786989E-1,-1.7017016E0,-2.4330955E0,-1.2905763E0,-1.240563E0,-2.1630728E0,1.7018964E0,6.3957815E0,2.1345725E0,6.3312364E-1,3.5033896E0,1.1578432E0,7.840389E-1,-8.998807E-1,1.8991944E0,-7.8749025E-1,-9.840139E-1,8.246975E-1,-5.5674446E-1,3.711733E0,-1.1053339E0,-1.8885151E0,7.986325E0,2.1559217E0,4.2785068E0,2.3617878E0,5.7069263E0,-4.094067E-2,2.6137338E0,8.966159E-1,4.6787267E0,1.2009258E0,-2.6226896E-1,2.7499602E0,-5.488118E-1,2.7206311E0,8.063287E0,3.8459513E0,4.8835387E0,-1.5664617E0,-5.0862294E-1,-5.8531E-2],"categories":[],"categories_nodes":[],"categories_segments":[],"categories_sizes":[],"default_left":[1,1,0,0,0,0,0,0,0,0,0,0,0,0,0,0,0,0,0,0,0,0,0,0,0,0,0,0,0,0,0,0,1,0,0,0,0,0,0,0,0,0,0,0,0,0,0,0,0,0,0,0,0,0,0,0,0,0,0,0,0,0,0,0,0,0,0,0,0,0,0,0,0,0,0,0,0,0,0,0,0,0,0,0,0,0,0,0,0,0,0,0,0,0,0,0,0,0,0,0,0,0,0,0,0,0,0,0,0,0,0,0,0],"id":1,"left_children":[1,3,5,7,9,11,13,15,17,19,21,23,25,27,29,31,33,35,37,39,41,43,45,47,49,51,53,55,57,-1,59,61,63,65,67,69,71,73,75,77,79,81,83,85,87,89,91,93,-1,95,97,99,101,103,105,107,-1,-1,109,-1,111,-1,-1,-1,-1,-1,-1,-1,-1,-1,-1,-1,-1,-1,-1,-1,-1,-1,-1,-1,-1,-1,-1,-1,-1,-1,-1,-1,-1,-1,-1,-1,-1,-1,-1,-1,-1,-1,-1,-1,-1,-1,-1,-1,-1,-1,-1,-1,-1,-1,-1,-1,-1],"loss_changes":[7.171822E4,1.0573552E4,2.2599766E4,1.4285996E3,6.7730464E3,9.133039E3,3.124832E3,9.195796E2,1.1079219E3,1.9123782E3,1.0589536E3,2.831711E3,3.2638916E3,2.9331953E3,4.1377612E2,5.550128E2,5.779343E2,4.9994897E2,5.3464453E2,7.725354E2,9.103032E2,1.284653E3,6.419983E2,8.920293E2,1.4313652E3,1.7870918E3,1.9141333E3,5.7017773E2,2.5115156E3,0E0,7.5019554E1,4.7228156E2,3.966113E2,3.571858E2,3.6261633E2,2.7851196E2,2.5546191E2,8.0314746E2,2.5248145E2,2.4049316E1,3.1064941E1,6.1290576E2,1.0299425E3,6.9505634E2,2.8306323E2,9.198749E2,2.9641406E2,1.3045059E3,0E0,7.519131E2,3.5797852E2,7.895857E2,9.627383E2,1.3990338E3,3.428274E2,4.7564453E1,0E0,0E0,4.2149817E2,0E0,2.3041663E0,0E0,0E0,0E0,0E0,0E0,0E0,0E0,0E0,0E0,0E0,0E0,0E0,0E0,0E0,0E0,0E0,0E0,0E0,0E0,0E0,0E0,0E0,0E0,0E0,0E0,0E0,0E0,0E0,0E0,0E0,0E0,0E0,0E0,0E0,0E0,0E0,0E0,0E0,0E0,0E0,0E0,0E0,0E0,0E0,0E0,0E0,0E0,0E0,0E0,0E0,0E0,0E0],"parents":[2147483647,0,0,1,1,2,2,3,3,4,4,5,5,6,6,7,7,8,8,9,9,10,10,11,11,12,12,13,13,14,14,15,15,16,16,17,17,18,18,19,19,20,20,21,21,22,22,23,23,24,24,25,25,26,26,27,27,28,28,30,30,31,31,32,32,33,33,34,34,35,35,36,36,37,37,38,38,39,39,40,40,41,41,42,42,43,43,44,44,45,45,46,46,47,47,49,49,50,50,51,51,52,52,53,53,54,54,55,55,58,58,60,60],"right_children":[2,4,6,8,10,12,14,16,18,20,22,24,26,28,30,32,34,36,38,40,42,44,46,48,50,52,54,56,58,-1,60,62,64,66,68,70,72,74,76,78,80,82,84,86,88,90,92,94,-1,96,98,100,102,104,106,108,-1,-1,110,-1,112,-1,-1,-1,-1,-1,-1,-1,-1,-1,-1,-1,-1,-1,-1,-1,-1,-1,-1,-1,-1,-1,-1,-1,-1,-1,-1,-1,-1,-1,-1,-1,-1,-1,-1,-1,-1,-1,-1,-1,-1,-1,-1,-1,-1,-1,-1,-1,-1,-1,-1,-1,-1],"split_conditions":[3.1E1,2E1,6.3E1,1.7300618E2,2.1325253E1,1.6904673E1,2.8292084E1,3E-1,7.7966657E0,9.255571E0,3E-1,1.0739832E1,8E-1,8.2E1,5.1855083E1,6.706012E1,1.3292032E2,1.732083E0,1.3000002E0,4.3654165E0,4E-1,2.277E2,1.4054881E2,2.2636436E2,5E1,4.5E1,1.6930598E2,1.0300001E1,1.0702916E1,4.8638153E0,2.9301876E1,9.793059E0,1.7E1,1.5765418E1,1.4386494E1,-3.6666658E-2,3.7000003E0,1.1E1,1.7786331E1,2.1E1,8.000001E-1,1.2E1,2.3526459E2,9.700833E0,2.6726474E2,1.3844584E1,5.5E0,1.5830001E1,2.800704E0,2.4E1,1.73175E1,1.6930598E2,2.3986678E2,5.862857E1,1.8219582E1,2.5277023E1,1.6452286E0,1.4984708E1,8.8E1,1.8489215E0,3.6E1,2.4302285E0,-1.0398831E0,-1.655798E-1,1.7878903E0,-1.447377E0,1.2051125E0,1.3088148E0,-6.337024E-1,-1.3217723E0,6.3556534E-1,-9.786989E-1,-1.7017016E0,-2.4330955E0,-1.2905763E0,-1.240563E0,-2.1630728E0,1.7018964E0,6.3957815E0,2.1345725E0,6.3312364E-1,3.5033896E0,1.1578432E0,7.840389E-1,-8.998807E-1,1.8991944E0,-7.8749025E-1,-9.840139E-1,8.246975E-1,-5.5674446E-1,3.711733E0,-1.1053339E0,-1.8885151E0,7.986325E0,2.1559217E0,4.2785068E0,2.3617878E0,5.7069263E0,-4.094067E-2,2.6137338E0,8.966159E-1,4.6787267E0,1.2009258E0,-2.6226896E-1,2.7499602E0,-5.488118E-1,2.7206311E0,8.063287E0,3.8459513E0,4.8835387E0,-1.5664617E0,-5.0862294E-1,-5.8531E-2],"split_indices":[0,0,0,6,5,5,5,4,3,5,4,5,4,0,6,6,6,3,4,3,4,6,6,6,0,0,6,4,3,0,5,5,2,3,5,3,4,0,5,0,4,1,6,3,6,3,4,3,0,1,3,6,6,6,3,5,0,0,0,0,2,0,0,0,0,0,0,0,0,0,0,0,0,0,0,0,0,0,0,0,0,0,0,0,0,0,0,0,0,0,0,0,0,0,0,0,0,0,0,0,0,0,0,0,0,0,0,0,0,0,0,0,0],"split_type":[0,0,0,0,0,0,0,0,0,0,0,0,0,0,0,0,0,0,0,0,0,0,0,0,0,0,0,0,0,0,0,0,0,0,0,0,0,0,0,0,0,0,0,0,0,0,0,0,0,0,0,0,0,0,0,0,0,0,0,0,0,0,0,0,0,0,0,0,0,0,0,0,0,0,0,0,0,0,0,0,0,0,0,0,0,0,0,0,0,0,0,0,0,0,0,0,0,0,0,0,0,0,0,0,0,0,0,0,0,0,0,0,0],"sum_hessian":[2.494E3,1.965E3,5.29E2,1.207E3,7.58E2,4.66E2,6.3E1,2.61E2,9.46E2,3.59E2,3.99E2,1.68E2,2.98E2,5.6E1,7E0,7.2E1,1.89E2,2.71E2,6.75E2,1.6E1,3.43E2,1.21E2,2.78E2,3.8E1,1.3E2,1.45E2,1.53E2,4.3E1,1.3E1,2E0,5E0,3.5E1,3.7E1,1.48E2,4.1E1,3.1E1,2.4E2,3.78E2,2.97E2,8E0,8E0,1.8E2,1.63E2,4.4E1,7.7E1,5.3E1,2.25E2,3.1E1,7E0,1.05E2,2.5E1,1E2,4.5E1,6E1,9.3E1,4.1E1,2E0,1.1E1,2E0,1E0,4E0,3E0,3.2E1,1.6E1,2.1E1,1.44E2,4E0,1.1E1,3E1,8E0,2.3E1,1.78E2,6.2E1,6.9E1,3.09E2,3.5E1,2.62E2,1E0,7E0,5E0,3E0,1E1,1.7E2,1.19E2,4.4E1,3.3E1,1.1E1,6.9E1,8E0,4.9E1,4E0,1.61E2,6.4E1,2.6E1,5E0,2.7E1,7.8E1,2.4E1,1E0,4.3E1,5.7E1,3.5E1,1E1,2.1E1,3.9E1,9.1E1,2E0,3.8E1,3E0,1E0,1E0,2E0,2E0],"tree_param":{"num_deleted":"0","num_feature":"7","num_nodes":"113","size_leaf_vector":"1"}},{"base_weights":[6.477882E-2,-1.2872417E0,1.125766E1,-2.689047E0,2.1702216E0,8.816809E0,2.2898811E1,-7.853147E-1,-3.3548467E0,6.3476605E0,4.3020812E-1,1.162381E1,4.346626E0,2.6349604E1,1.4781725E1,-2.0819333E0,1.5912778E0,-1.940901E0,-4.023855E0,9.548829E0,3.910575E0,2.6522436E0,-7.043073E-1,1.2421829E1,1.3536035E0,7.4984674E0,8.738041E-1,1.9774662E1,3.8179516E1,7.62112E-1,1.9391418E1,2.1454315E-1,-2.8070025E0,3.356479E0,-1.3903545E0,-6.5281075E-1,-3.2323525E0,-4.6285834E0,-3.0709157E0,1.1543358E1,5.13224E0,2.6474822E0,1.6150444E1,2.9381618E0,-8.804237E0,1.4272304E0,-2.3019698E0,1.4915157E1,9.814116E0,2.5401573E0,-1.1679927E0,9.9206085E0,5.868316E-1,2.6015434E0,-5.0878906E0,2.1782305E1,8.59222E0,4.308134E1,3.7144434E0,-1.4821242E0,3.5358326E0,2.064692E1,8.3713704E-1,-4.2450702E-1,2.2589142E0,-8.79127E-1,3.318597E0,1.5370089E0,5.750889E-2,1.9704983E0,-6.952768E-1,-4.6930605E-1,4.2392623E-1,-1.2641905E-1,-1.1034422E0,-1.4942393E0,-8.2662654E-1,-1.0842916E0,-4.5844135E-1,2.2102616E0,4.0127144E0,5.800096E-1,2.8828166E0,3.0237818E0,4.2633936E-1,5.3175416E0,2.9673043E-1,7.0353216E-1,3.0818822E0,-5.5143046E-1,-3.1540744E0,-1.422812E0,7.978335E-1,-4.8814967E-1,-1.8163875E0,3.9656208E0,6.7752953E0,-1.1006228E0,3.090113E0,-1.139643E0,1.6079735E0,1.4129672E0,4.8620577E0,2.956561E0,-1.3882403E0,1.7893757E0,-6.167845E-1,-3.2786276E0,1.8824454E-1,6.9736567E0,2.0153131E0,-7.595444E-2,3.2600603E0,3.2932894E0,1.3829805E1,1.9987274E0,6.9042954E0],"categories":[],"categories_nodes":[],"categories_segments":[],"categories_sizes":[],"default_left":[1,1,0,0,0,0,0,0,0,0,0,0,0,0,0,0,0,0,1,0,0,0,0,0,0,0,0,0,0,0,0,0,0,0,0,0,0,1,0,0,0,0,0,0,0,0,0,0,0,0,0,0,0,0,0,0,0,0,0,0,0,0,0,0,0,0,0,0,0,0,0,0,0,0,0,0,0,0,0,0,0,0,0,0,0,0,0,0,0,0,0,0,0,0,0,0,0,0,0,0,0,0,0,0,0,0,0,0,0,0,0,0,0,0,0,0,0],"id":2,"left_children":[1,3,5,7,9,11,13,15,17,19,21,23,25,27,29,31,33,35,37,39,41,43,45,47,49,51,53,55,57,59,61,63,65,67,69,71,73,75,77,79,81,83,85,87,89,91,93,95,97,-1,99,101,103,105,107,109,111,113,-1,-1,-1,115,-1,-1,-1,-1,-1,-1,-1,-1,-1,-1,-1,-1,-1,-1,-1,-1,-1,-1,-1,-1,-1,-1,-1,-1,-1,-1,-1,-1,-1,-1,-1,-1,-1,-1,-1,-1,-1,-1,-1,-1,-1,-1,-1,-1,-1,-1,-1,-1,-1,-1,-1,-1,-1,-1,-1],"loss_changes":[3.7771336E4,1.0799418E4,7.4415547E3,2.0063584E3,4.6711074E3,2.7601855E3,8.989863E2,1.2729049E3,1.1027246E3,1.4371455E3,1.1488928E3,1.1060117E3,9.56677E2,1.6562227E3,1.01924E3,4.4518518E2,7.730912E2,6.2835864E2,4.4449707E2,6.542871E2,1.6423918E3,5.303135E2,1.0317396E3,6.793613E2,2.0720317E2,7.642622E2,4.561473E2,3.0674805E2,7.3116504E2,3.7255136E2,1.924956E2,7.854909E2,3.7989563E2,5.134635E2,4.2109888E2,3.6189307E2,2.3528406E2,3.0625684E2,2.5603564E2,3.222915E2,3.6811115E2,8.9707446E2,2.2121265E2,6.327477E2,2.8305084E1,1.00096204E3,4.2823718E2,5.211006E2,4.639414E2,0E0,1.7492479E2,1.0373672E3,6.7386957E2,5.448164E2,3.40685E2,2.4061328E2,1.0335208E2,2.690537E2,0E0,0E0,0E0,2.1084424E2,0E0,0E0,0E0,0E0,0E0,0E0,0E0,0E0,0E0,0E0,0E0,0E0,0E0,0E0,0E0,0E0,0E0,0E0,0E0,0E0,0E0,0E0,0E0,0E0,0E0,0E0,0E0,0E0,0E0,0E0,0E0,0E0,0E0,0E0,0E0,0E0,0E0,0E0,0E0,0E0,0E0,0E0,0E0,0E0,0E0,0E0,0E0,0E0,0E0,0E0,0E0,0E0,0E0,0E0,0E0],"parents":[2147483647,0,0,1,1,2,2,3,3,4,4,5,5,6,6,7,7,8,8,9,9,10,10,11,11,12,12,13,13,14,14,15,15,16,16,17,17,18,18,19,19,20,20,21,21,22,22,23,23,24,24,25,25,26,26,27,27,28,28,29,29,30,30,31,31,32,32,33,33,34,34,35,35,36,36,37,37,38,38,39,39,40,40,41,41,42,42,43,43,44,44,45,45,46,46,47,47,48,48,50,50,51,51,52,52,53,53,54,54,55,55,56,56,57,57,61,61],"right_children":[2,4,6,8,10,12,14,16,18,20,22,24,26,28,30,32,34,36,38,40,42,44,46,48,50,52,54,56,58,60,62,64,66,68,70,72,74,76,78,80,82,84,86,88,90,92,94,96,98,-1,100,102,104,106,108,110,112,114,-1,-1,-1,116,-1,-1,-1,-1,-1,-1,-1,-1,-1,-1,-1,-1,-1,-1,-1,-1,-1,-1,-1,-1,-1,-1,-1,-1,-1,-1,-1,-1,-1,-1,-1,-1,-1,-1,-1,-1,-1,-1,-1,-1,-1,-1,-1,-1,-1,-1,-1,-1,-1,-1,-1,-1,-1,-1,-1],"split_conditions":[4.1E1,2.4E1,6.7E1,1.8572354E2,1.6595179E1,2.0957443E1,1.0502915E1,1.9E1,7.7966657E0,8.425834E0,3E-1,2.6857187E2,8.105E0,8.4E1,1.0959167E1,1.4512064E1,2.6E0,6E-1,1.7E1,1.405845E1,1.7575834E1,6.2E1,1.9428308E2,9.648749E0,1.35515E1,2.8999999E0,2.2840765E2,2.4330782E2,7E1,1.05E2,1.5765418E1,1.4251749E2,1.8219582E1,2.4E1,1.448972E1,2E1,1.811841E1,2.2E1,3.1950888E1,2.7E1,1.5459054E1,4.787993E1,3.3E1,5E1,3.9E1,2.6E1,3.5E1,8.2175E0,1.5E1,2.5401573E0,6.3E1,5.2E1,4.4E1,1.0000001E0,5.2E1,2.6999998E0,7.1E1,5.534167E0,3.7144434E0,-1.4821242E0,3.5358326E0,4.995393E1,8.3713704E-1,-4.2450702E-1,2.2589142E0,-8.79127E-1,3.318597E0,1.5370089E0,5.750889E-2,1.9704983E0,-6.952768E-1,-4.6930605E-1,4.2392623E-1,-1.2641905E-1,-1.1034422E0,-1.4942393E0,-8.2662654E-1,-1.0842916E0,-4.5844135E-1,2.2102616E0,4.0127144E0,5.800096E-1,2.8828166E0,3.0237818E0,4.2633936E-1,5.3175416E0,2.9673043E-1,7.0353216E-1,3.0818822E0,-5.5143046E-1,-3.1540744E0,-1.422812E0,7.978335E-1,-4.8814967E-1,-1.8163875E0,3.9656208E0,6.7752953E0,-1.1006228E0,3.090113E0,-1.139643E0,1.6079735E0,1.4129672E0,4.8620577E0,2.956561E0,-1.3882403E0,1.7893757E0,-6.167845E-1,-3.2786276E0,1.8824454E-1,6.9736567E0,2.0153131E0,-7.595444E-2,3.2600603E0,3.2932894E0,1.3829805E1,1.9987274E0,6.9042954E0],"split_indices":[0,0,0,6,5,5,3,0,3,3,4,6,3,0,3,5,4,4,0,5,3,1,6,3,5,4,6,6,2,0,3,6,3,1,5,0,5,1,5,0,5,6,0,2,2,0,1,3,1,0,0,0,0,4,0,4,0,3,0,0,0,6,0,0,0,0,0,0,0,0,0,0,0,0,0,0,0,0,0,0,0,0,0,0,0,0,0,0,0,0,0,0,0,0,0,0,0,0,0,0,0,0,0,0,0,0,0,0,0,0,0,0,0,0,0,0,0],"split_type":[0,0,0,0,0,0,0,0,0,0,0,0,0,0,0,0,0,0,0,0,0,0,0,0,0,0,0,0,0,0,0,0,0,0,0,0,0,0,0,0,0,0,0,0,0,0,0,0,0,0,0,0,0,0,0,0,0,0,0,0,0,0,0,0,0,0,0,0,0,0,0,0,0,0,0,0,0,0,0,0,0,0,0,0,0,0,0,0,0,0,0,0,0,0,0,0,0,0,0,0,0,0,0,0,0,0,0,0,0,0,0,0,0,0,0,0,0],"sum_hessian":[2.494E3,2.226E3,2.68E2,1.584E3,6.42E2,2.23E2,4.5E1,4.11E2,1.173E3,1.88E2,4.54E2,1.36E2,8.7E1,3E1,1.5E1,2.66E2,1.45E2,3.78E2,7.95E2,8E1,1.08E2,1.53E2,3.01E2,1.26E2,1E1,4.5E1,4.2E1,2.1E1,9E0,4E0,1.1E1,6.4E1,2.02E2,9.1E1,5.4E1,1.9E2,1.88E2,4.84E2,3.11E2,5.4E1,2.6E1,9.9E1,9E0,1.5E2,3E0,1.29E2,1.72E2,6.2E1,6.4E1,2E0,8E0,3.3E1,1.2E1,3.3E1,9E0,1.7E1,4E0,7E0,2E0,3E0,1E0,1E1,1E0,5.3E1,1.1E1,2.01E2,1E0,5.8E1,3.3E1,5E0,4.9E1,1.32E2,5.8E1,2.6E1,1.62E2,4.06E2,7.8E1,2.29E2,8.2E1,1.8E1,3.6E1,1.6E1,1E1,1.3E1,8.6E1,8E0,1E0,1.4E2,1E1,1E0,2E0,2.1E1,1.08E2,1.47E2,2.5E1,5.3E1,9E0,2E0,6.2E1,6E0,2E0,1.9E1,1.4E1,4E0,8E0,1.9E1,1.4E1,4E0,5E0,1.5E1,2E0,1E0,3E0,1E0,6E0,2E0,8E0],"tree_param":{"num_deleted":"0","num_feature":"7","num_nodes":"117","size_leaf_vector":"1"}},{"base_weights":[7.916262E-2,-8.930289E-1,8.127458E0,-1.8084931E0,1.7402848E0,6.2684817E0,1.7003178E1,2.1093494E-1,-2.2437162E0,5.5888257E0,7.2369456E-1,8.251549E0,3.1099741E0,1.0514156E1,1.9803862E1,4.5413127E0,-4.6916717E-1,-1.1501648E0,-2.7707534E0,8.126167E0,2.6418304E0,1.9887961E0,-8.212772E-1,8.714749E0,-3.069117E-1,4.3646097E0,-2.3867173E0,1.4418485E1,1.6038609E0,2.4510761E1,1.0308704E1,3.7228212E0,5.469372E0,-3.0899823E0,5.990168E-1,8.3012456E-1,-1.9115534E0,-2.383688E0,-4.445414E0,-3.7557697E-1,8.853021E0,-1.5911474E0,4.972931E0,2.215045E0,-7.6188703E0,5.185127E-1,-2.192421E0,6.788648E0,1.0479626E1,-2.2797992E0,1.1223502E0,1.6045334E1,3.4415476E0,-7.1982017E0,2.1791792E-1,6.0178585E0,2.041603E1,-7.378394E-1,8.877513E-1,1.3850367E0,2.5314825E1,-1.0899578E0,1.3460403E1,4.110125E0,8.439631E-1,-9.974501E-1,5.553373E-1,9.891386E-2,3.0199296E0,7.469351E-1,-5.0279003E-1,-1.014152E0,-2.9093197E-1,-7.452548E-1,1.839867E0,3.0408514E-1,-1.415868E0,1.8329933E0,-1.5437546E0,7.520395E-2,2.9466424E0,-1.143868E0,1.3796095E0,1.6498272E0,-2.0971248E0,3.5026565E-1,1.2348025E0,-4.6871597E-1,-2.555307E0,6.83939E-1,-5.3702587E-1,-1.585976E0,-2.6724392E-1,1.2116731E0,2.3509822E0,3.5069153E0,7.357478E-2,1.060163E0,-1.2447929E0,9.4699347E-1,5.5435038E0,1.6107471E0,-2.4988835E-1,-2.4075656E0,-4.594677E-1,2.2517922E0,-5.970872E-1,5.2799726E-1,1.9552304E0,8.32834E0,1.1451657E0,-6.456128E-2,-2.6746646E-1,9.138467E0,5.6407547E0,4.34613E0,6.330197E-1],"categories":[],"categories_nodes":[],"categories_segments":[],"categories_sizes":[],"default_left":[1,1,0,0,0,0,0,0,0,0,0,0,0,0,0,0,0,0,0,0,0,0,0,0,0,0,0,0,0,0,0,0,0,0,0,0,1,0,0,0,0,0,0,0,0,0,0,0,0,0,0,0,0,0,0,0,0,0,0,0,0,0,0,0,0,0,0,0,0,0,0,0,0,0,0,0,0,0,0,0,0,0,0,0,0,0,0,0,0,0,0,0,0,0,0,0,0,0,0,0,0,0,0,0,0,0,0,0,0,0,0,0,0,0,0,0,0],"id":3,"left_children":[1,3,5,7,9,11,13,15,17,19,21,23,25,27,29,31,33,35,37,39,41,43,45,47,49,51,53,55,57,59,61,63,-1,65,67,69,71,73,75,77,79,81,83,85,87,89,91,93,95,97,-1,99,101,103,105,107,109,111,-1,-1,113,-1,115,-1,-1,-1,-1,-1,-1,-1,-1,-1,-1,-1,-1,-1,-1,-1,-1,-1,-1,-1,-1,-1,-1,-1,-1,-1,-1,-1,-1,-1,-1,-1,-1,-1,-1,-1,-1,-1,-1,-1,-1,-1,-1,-1,-1,-1,-1,-1,-1,-1,-1,-1,-1,-1,-1],"loss_changes":[1.9529344E4,5.371786E3,4.3318516E3,1.4532974E3,2.245579E3,1.3773682E3,6.277676E2,8.6798975E2,7.8063916E2,8.758362E2,8.929064E2,5.457842E2,6.1729553E2,5.334945E2,1.1328018E3,3.803319E2,7.157266E2,6.710365E2,5.838052E2,3.9881396E2,5.7036E2,5.624807E2,3.79568E2,3.7076953E2,7.242035E1,7.210858E2,2.1461533E2,4.3135352E2,2.1225769E1,2.0304688E2,5.76192E2,3.1541125E2,0E0,9.2026184E1,4.6071027E2,5.199208E2,4.4080322E2,6.545703E2,2.6069824E2,2.1706815E2,4.8940332E2,3.0633182E2,2.7149225E2,4.8504065E2,1.9354187E1,4.3102133E2,4.060845E2,1.5565332E2,8.145117E2,7.98755E1,0E0,9.846216E1,5.64764E2,1.5827362E1,2.0806165E2,1.2921295E0,6.255493E2,4.9144983E-2,0E0,0E0,6.407129E1,0E0,8.596484E1,0E0,0E0,0E0,0E0,0E0,0E0,0E0,0E0,0E0,0E0,0E0,0E0,0E0,0E0,0E0,0E0,0E0,0E0,0E0,0E0,0E0,0E0,0E0,0E0,0E0,0E0,0E0,0E0,0E0,0E0,0E0,0E0,0E0,0E0,0E0,0E0,0E0,0E0,0E0,0E0,0E0,0E0,0E0,0E0,0E0,0E0,0E0,0E0,0E0,0E0,0E0,0E0,0E0,0E0],"parents":[2147483647,0,0,1,1,2,2,3,3,4,4,5,5,6,6,7,7,8,8,9,9,10,10,11,11,12,12,13,13,14,14,15,15,16,16,17,17,18,18,19,19,20,20,21,21,22,22,23,23,24,24,25,25,26,26,27,27,28,28,29,29,30,30,31,31,33,33,34,34,35,35,36,36,37,37,38,38,39,39,40,40,41,41,42,42,43,43,44,44,45,45,46,46,47,47,48,48,49,49,51,51,52,52,53,53,54,54,55,55,56,56,57,57,60,60,62,62],"right_children":[2,4,6,8,10,12,14,16,18,20,22,24,26,28,30,32,34,36,38,40,42,44,46,48,50,52,54,56,58,60,62,64,-1,66,68,70,72,74,76,78,80,82,84,86,88,90,92,94,96,98,-1,100,102,104,106,108,110,112,-1,-1,114,-1,116,-1,-1,-1,-1,-1,-1,-1,-1,-1,-1,-1,-1,-1,-1,-1,-1,-1,-1,-1,-1,-1,-1,-1,-1,-1,-1,-1,-1,-1,-1,-1,-1,-1,-1,-1,-1,-1,-1,-1,-1,-1,-1,-1,-1,-1,-1,-1,-1,-1,-1,-1,-1,-1,-1],"split_conditions":[4.1E1,2.5E1,6.7E1,1.5978486E1,1.4830076E1,2.0957443E1,3.8E1,4.057083E0,3E-1,1.0373748E1,1.1000001E0,2.809291E2,1.1190415E1,1.6541759E2,7.2E1,1.5905319E1,1.4E1,2.2153653E2,2.5424586E2,7.8312706E1,1.3569583E1,6.2E1,2.6E1,4.8E1,3.223523E2,1.4E1,4.5E1,7.922528E1,2.1E1,3E1,7.6E1,8.161764E0,5.469372E0,1.746125E1,1.746125E1,1.16175E1,1.4E1,6.5E1,2.1570835E0,1.7E1,1.1E1,1.448972E1,1.39E1,2.9E1,3.9E1,2.9131096E1,2.2E1,5.9605423E1,7.700001E0,1.35515E1,1.1223502E0,4.5E1,2.1214532E2,3.2E1,5E1,6.8E1,9.134167E0,7.1E1,8.877513E-1,1.3850367E0,5E1,-1.0899578E0,2.0833395E1,4.110125E0,8.439631E-1,-9.974501E-1,5.553373E-1,9.891386E-2,3.0199296E0,7.469351E-1,-5.0279003E-1,-1.014152E0,-2.9093197E-1,-7.452548E-1,1.839867E0,3.0408514E-1,-1.415868E0,1.8329933E0,-1.5437546E0,7.520395E-2,2.9466424E0,-1.143868E0,1.3796095E0,1.6498272E0,-2.0971248E0,3.5026565E-1,1.2348025E0,-4.6871597E-1,-2.555307E0,6.83939E-1,-5.3702587E-1,-1.585976E0,-2.6724392E-1,1.2116731E0,2.3509822E0,3.5069153E0,7.357478E-2,1.060163E0,-1.2447929E0,9.4699347E-1,5.5435038E0,1.6107471E0,-2.4988835E-1,-2.4075656E0,-4.594677E-1,2.2517922E0,-5.970872E-1,5.2799726E-1,1.9552304E0,8.32834E0,1.1451657E0,-6.456128E-2,-2.6746646E-1,9.138467E0,5.6407547E0,4.34613E0,6.330197E-1],"split_indices":[0,0,0,5,5,5,2,3,4,3,4,6,3,6,2,5,0,6,6,6,3,1,1,0,6,2,0,6,2,1,2,5,0,3,3,3,0,2,3,1,2,5,4,2,2,5,2,6,4,5,0,0,6,1,0,0,3,0,0,0,2,0,5,0,0,0,0,0,0,0,0,0,0,0,0,0,0,0,0,0,0,0,0,0,0,0,0,0,0,0,0,0,0,0,0,0,0,0,0,0,0,0,0,0,0,0,0,0,0,0,0,0,0,0,0,0,0],"split_type":[0,0,0,0,0,0,0,0,0,0,0,0,0,0,0,0,0,0,0,0,0,0,0,0,0,0,0,0,0,0,0,0,0,0,0,0,0,0,0,0,0,0,0,0,0,0,0,0,0,0,0,0,0,0,0,0,0,0,0,0,0,0,0,0,0,0,0,0,0,0,0,0,0,0,0,0,0,0,0,0,0,0,0,0,0,0,0,0,0,0,0,0,0,0,0,0,0,0,0,0,0,0,0,0,0,0,0,0,0,0,0,0,0,0,0,0,0],"sum_hessian":[2.494E3,2.226E3,2.68E2,1.652E3,5.74E2,2.23E2,4.5E1,2.93E2,1.359E3,1.19E2,4.55E2,1.36E2,8.7E1,1.5E1,3E1,3.9E1,2.54E2,4.43E2,9.16E2,6.3E1,5.6E1,2.5E2,2.05E2,1.29E2,7E0,7.1E1,1.6E1,1E1,5E0,1.9E1,1.1E1,3.8E1,1E0,7.3E1,1.81E2,1.23E2,3.2E2,7.46E2,1.7E2,5E0,5.8E1,2E1,3.6E1,2.45E2,5E0,1.04E2,1.01E2,6.4E1,6.5E1,5E0,2E0,4E0,6.7E1,5E0,1.1E1,5E0,5E0,2E0,3E0,1E0,1.8E1,2E0,9E0,2E0,3.6E1,7E1,3E0,1.77E2,4E0,7.4E1,4.9E1,1.24E2,1.96E2,7.38E2,8E0,8E0,1.62E2,2E0,3E0,6E0,5.2E1,1.5E1,5E0,3.5E1,1E0,1.59E2,8.6E1,1E0,4E0,5.9E1,4.5E1,2.9E1,7.2E1,1.9E1,4.5E1,5.8E1,7E0,1E0,4E0,1E0,3E0,4.6E1,2.1E1,4E0,1E0,2E0,9E0,1E0,4E0,3E0,2E0,1E0,1E0,8E0,1E1,8E0,1E0],"tree_param":{"num_deleted":"0","num_feature":"7","num_nodes":"117","size_leaf_vector":"1"}},{"base_weights":[7.916614E-2,-9.7259784E-1,3.980466E0,-1.9256439E0,-2.0173381E-1,3.1537704E0,1.2610179E1,-1.965377E0,7.2573156E0,7.8904414E-1,-1.0179164E0,7.862762E0,2.3405364E0,1.00768795E1,1.76808E1,-8.8591135E-1,-2.2432764E0,9.725204E0,-2.195263E-2,2.4565516E0,-3.6994535E-2,8.563308E0,-1.113304E0,5.499445E0,1.4515893E1,4.025127E0,1.0831596E0,1.1227262E1,1.3892902E0,2.2323814E1,4.8586073E0,-9.879749E-1,5.499183E0,-2.06729E0,-4.524825E0,8.780474E-1,3.4982948E0,2.9869177E0,-6.9504814E0,-5.4410086E0,1.4888406E-1,3.2040298E0,5.3039546E0,-5.330602E-1,-1.9386802E0,8.2868636E-1,7.2746425E0,4.0015883E0,1.825204E1,4.660323E0,-1.8446822E0,3.2542386E0,-5.5701786E-1,9.067982E0,1.799317E1,1.0671977E0,-1.0924276E0,2.9001926E1,2.9535956E0,-2.606725E0,3.2113214E0,-3.535834E-2,-5.7202214E-1,4.2395812E-1,2.0506744E0,-9.178599E-2,-6.829986E-1,-1.4540244E0,9.2549376E-2,2.1462758E0,6.506472E-1,1.045023E-1,-2.3719132E0,4.552852E-1,-2.4720588E0,2.4217328E-1,-3.8599262E-1,1.3995341E0,-3.960457E-1,-2.162311E-1,1.5900856E0,-2.528748E-1,-9.082606E-1,-5.4903924E-1,2.7788012E0,2.7266035E0,-2.6724932E-1,-3.107357E-1,2.8152673E0,7.383354E0,2.019355E0,3.8138704E0,1.2288532E0,3.659159E-1,-1.7482948E0,7.975176E-1,5.2010536E0,-7.4456865E-1,2.0611036E-1,3.520302E0,1.7727574E0,5.9036565E0,1.4347126E0,1.4285259E0,9.869284E0,-2.2734661E-1,-9.456797E-1],"categories":[],"categories_nodes":[],"categories_segments":[],"categories_sizes":[],"default_left":[1,1,0,1,0,0,0,0,0,0,0,0,0,0,0,0,0,0,0,0,0,0,0,0,0,0,0,0,0,0,0,0,0,0,0,0,0,0,0,0,0,0,0,0,0,0,0,0,0,0,0,0,0,0,0,0,0,0,0,0,0,0,0,0,0,0,0,0,0,0,0,0,0,0,0,0,0,0,0,0,0,0,0,0,0,0,0,0,0,0,0,0,0,0,0,0,0,0,0,0,0,0,0,0,0,0,0],"id":4,"left_children":[1,3,5,7,9,11,13,15,17,19,21,23,25,27,29,31,33,35,-1,37,39,41,43,45,47,49,51,53,55,57,59,61,63,65,67,-1,-1,69,71,73,75,77,-1,79,81,83,85,87,89,91,93,95,97,99,101,-1,-1,103,-1,105,-1,-1,-1,-1,-1,-1,-1,-1,-1,-1,-1,-1,-1,-1,-1,-1,-1,-1,-1,-1,-1,-1,-1,-1,-1,-1,-1,-1,-1,-1,-1,-1,-1,-1,-1,-1,-1,-1,-1,-1,-1,-1,-1,-1,-1,-1,-1],"loss_changes":[1.0241472E4,1.4439706E3,3.7413281E3,3.3498193E2,8.8062067E2,1.8389102E3,4.127212E2,2.6079785E2,7.3075E1,6.7778436E2,5.551494E2,1.0365356E3,8.746787E2,3.1420557E2,7.250083E2,1.2338809E2,2.701045E2,5.3507996E0,0E0,8.339955E2,3.3229196E2,2.3650168E2,2.8248688E2,4.4171362E2,6.340571E2,6.685381E2,8.5288086E2,2.6051343E2,6.748758E1,5.4779443E2,2.4610751E2,1.4287335E2,6.7215195E0,2.3826904E2,7.773718E1,0E0,0E0,5.129204E2,6.5546326E1,2.2676892E2,3.0346848E2,3.92097E1,0E0,3.859677E2,2.8857123E2,3.7574265E2,5.857825E2,1.7240616E2,7.867529E2,6.747788E2,2.2680551E2,8.181926E2,3.29772E2,1.327987E2,3.9503662E1,0E0,0E0,4.0994238E2,0E0,6.370983E-1,0E0,0E0,0E0,0E0,0E0,0E0,0E0,0E0,0E0,0E0,0E0,0E0,0E0,0E0,0E0,0E0,0E0,0E0,0E0,0E0,0E0,0E0,0E0,0E0,0E0,0E0,0E0,0E0,0E0,0E0,0E0,0E0,0E0,0E0,0E0,0E0,0E0,0E0,0E0,0E0,0E0,0E0,0E0,0E0,0E0,0E0,0E0],"parents":[2147483647,0,0,1,1,2,2,3,3,4,4,5,5,6,6,7,7,8,8,9,9,10,10,11,11,12,12,13,13,14,14,15,15,16,16,17,17,19,19,20,20,21,21,22,22,23,23,24,24,25,25,26,26,27,27,28,28,29,29,30,30,31,31,32,32,33,33,34,34,37,37,38,38,39,39,40,40,41,41,43,43,44,44,45,45,46,46,47,47,48,48,49,49,50,50,51,51,52,52,53,53,54,54,57,57,59,59],"right_children":[2,4,6,8,10,12,14,16,18,20,22,24,26,28,30,32,34,36,-1,38,40,42,44,46,48,50,52,54,56,58,60,62,64,66,68,-1,-1,70,72,74,76,78,-1,80,82,84,86,88,90,92,94,96,98,100,102,-1,-1,104,-1,106,-1,-1,-1,-1,-1,-1,-1,-1,-1,-1,-1,-1,-1,-1,-1,-1,-1,-1,-1,-1,-1,-1,-1,-1,-1,-1,-1,-1,-1,-1,-1,-1,-1,-1,-1,-1,-1,-1,-1,-1,-1,-1,-1,-1,-1,-1,-1],"split_conditions":[3.1E1,1.7E1,6.7E1,5.7E1,2.1122588E2,1.2287555E1,8.4E1,6.3570824E0,5.8E1,3E-1,-6.616667E-1,4.4E1,3E-1,2.5277023E1,1.0502915E1,5.3E1,2.7737848E2,3.2E1,-2.195263E-2,3E1,1.7789217E1,2.5E1,1.0000001E0,1.9E1,8.78872E0,2.5903317E2,1.7084431E2,2.1986542E1,9.8425E0,4.9E1,7.4E1,2.50064E1,1.3E1,1.4578888E1,3.5E1,8.780474E-1,3.4982948E0,1.5E1,1.2E1,4.2258334E0,5.6000004E0,2.5E1,5.3039546E0,4.2406715E1,9.3550005E0,1.1659777E1,3.8E1,2E-1,5.4E1,1.4E1,2.3265303E1,6.3E1,2.221923E2,1.35515E1,7.2E1,1.0671977E0,-1.0924276E0,5.534167E0,2.9535956E0,8.9E1,3.2113214E0,-3.535834E-2,-5.7202214E-1,4.2395812E-1,2.0506744E0,-9.178599E-2,-6.829986E-1,-1.4540244E0,9.2549376E-2,2.1462758E0,6.506472E-1,1.045023E-1,-2.3719132E0,4.552852E-1,-2.4720588E0,2.4217328E-1,-3.8599262E-1,1.3995341E0,-3.960457E-1,-2.162311E-1,1.5900856E0,-2.528748E-1,-9.082606E-1,-5.4903924E-1,2.7788012E0,2.7266035E0,-2.6724932E-1,-3.107357E-1,2.8152673E0,7.383354E0,2.019355E0,3.8138704E0,1.2288532E0,3.659159E-1,-1.7482948E0,7.975176E-1,5.2010536E0,-7.4456865E-1,2.0611036E-1,3.520302E0,1.7727574E0,5.9036565E0,1.4347126E0,1.4285259E0,9.869284E0,-2.2734661E-1,-9.456797E-1],"split_indices":[0,0,0,1,6,5,0,3,1,4,3,1,4,5,3,2,6,2,0,0,6,1,4,2,5,6,6,5,3,2,2,5,0,5,2,0,0,1,2,3,4,2,0,5,3,5,1,4,1,2,5,0,6,5,0,0,0,3,0,0,0,0,0,0,0,0,0,0,0,0,0,0,0,0,0,0,0,0,0,0,0,0,0,0,0,0,0,0,0,0,0,0,0,0,0,0,0,0,0,0,0,0,0,0,0,0,0],"split_type":[0,0,0,0,0,0,0,0,0,0,0,0,0,0,0,0,0,0,0,0,0,0,0,0,0,0,0,0,0,0,0,0,0,0,0,0,0,0,0,0,0,0,0,0,0,0,0,0,0,0,0,0,0,0,0,0,0,0,0,0,0,0,0,0,0,0,0,0,0,0,0,0,0,0,0,0,0,0,0,0,0,0,0,0,0,0,0,0,0,0,0,0,0,0,0,0,0,0,0,0,0,0,0,0,0,0,0],"sum_hessian":[2.494E3,1.965E3,5.29E2,8.78E2,1.087E3,4.84E2,4.5E1,8.75E2,3E0,4.91E2,5.96E2,7E1,4.14E2,3.2E1,1.3E1,1.8E2,6.95E2,2E0,1E0,1.62E2,3.29E2,5E0,5.91E2,5.3E1,1.7E1,1.76E2,2.38E2,2.8E1,4E0,9E0,4E0,1.78E2,2E0,6.47E2,4.8E1,1E0,1E0,1.54E2,8E0,1E1,3.19E2,4E0,1E0,3.48E2,2.43E2,1.5E1,3.8E1,5E0,1.2E1,1.59E2,1.7E1,1.02E2,1.36E2,2.3E1,5E0,3E0,1E0,5E0,4E0,2E0,2E0,9.2E1,8.6E1,1E0,1E0,6.9E1,5.78E2,4.5E1,3E0,2.4E1,1.3E2,1E0,7E0,3E0,7E0,2.19E2,1E2,3E0,1E0,3.38E2,1E1,1.22E2,1.21E2,1.2E1,3E0,3.1E1,7E0,3E0,2E0,7E0,5E0,9E0,1.5E2,1E1,7E0,9.9E1,3E0,5.3E1,8.3E1,1.1E1,1.2E1,4E0,1E0,1E0,4E0,1E0,1E0],"tree_param":{"num_deleted":"0","num_feature":"7","num_nodes":"107","size_leaf_vector":"1"}},{"base_weights":[8.090187E-2,-3.2603E-1,5.7921686E0,-8.784148E-1,1.2090002E0,4.0268254E0,9.281738E0,-1.7809253E0,-5.020782E-1,2.5070944E0,-4.4669688E-1,5.2985616E0,-1.1246141E0,1.1840456E1,3.3643475E0,-1.86453E0,5.4690156E0,1.4434575E0,-7.659962E-1,4.164036E0,1.7778138E0,1.6319369E0,-1.8899285E0,6.4169583E0,-1.8194013E0,-7.1157565E0,3.235103E0,1.9371223E1,9.823087E0,-4.782506E0,6.0336275E0,1.9508213E-1,-2.044442E0,-2.6844597E-1,2.5214574E0,8.814554E-1,4.9118977E0,-3.704061E-1,-1.8146673E0,-4.601545E-2,5.280507E0,1.0595088E1,1.5087513E0,-4.3397298E-1,4.3955245E0,-1.3610182E0,-5.1698155E0,8.535913E0,4.190553E0,-3.8571062E0,1.8775952E0,4.58195E0,-3.8350873E0,8.046741E0,-3.3211136E-1,-1.2737057E0,7.2044973E0,7.435304E0,4.2998037E0,-2.47958E-1,-1.6694609E0,-9.546742E-1,7.8347936E0,6.395398E-1,-7.1941364E-1,-5.4843307E-1,-1.110749E0,-1.8964978E-1,6.884909E-2,-8.281176E-2,8.701471E-1,2.0075667E0,1.9506513E-1,-1.1144525E0,-7.346578E-2,-6.102049E-1,1.0418929E0,1.0066638E0,-6.2516534E-1,4.8508886E-1,1.8598944E0,5.9728765E-1,4.9651337E0,1.1588155E0,2.5168213E-1,1.3546721E0,-5.2745926E-1,2.2380862E0,3.0597493E-1,-4.316585E-2,-1.0254039E0,1.3384496E-1,-1.7261158E0,2.1625047E0,5.505006E0,-5.6983453E-1,1.4759948E0,-2.042706E0,-7.8702554E-2,2.2276046E0,3.4771043E-1,-1.9082195E-1,2.9731555E0,1.0329272E0,-5.707832E-1,3.025389E0,1.0885042E0,1.1543553E0,3.3541286E0],"categories":[],"categories_nodes":[],"categories_segments":[],"categories_sizes":[],"default_left":[1,1,0,1,0,0,0,0,0,0,0,0,0,0,0,0,0,0,0,0,0,0,0,0,0,0,0,0,0,0,0,0,0,0,0,0,0,0,0,0,0,0,0,0,0,0,0,0,0,0,0,0,0,0,0,0,0,0,0,0,0,0,0,0,0,0,0,0,0,0,0,0,0,0,0,0,0,0,0,0,0,0,0,0,0,0,0,0,0,0,0,0,0,0,0,0,0,0,0,0,0,0,0,0,0,0,0,0,0],"id":5,"left_children":[1,3,5,7,9,11,13,15,17,19,21,23,25,27,29,31,33,35,37,39,41,43,45,47,49,51,53,55,57,59,61,63,65,67,-1,69,71,73,75,77,79,81,83,85,87,89,91,93,95,97,-1,99,-1,101,103,-1,-1,105,-1,-1,-1,-1,107,-1,-1,-1,-1,-1,-1,-1,-1,-1,-1,-1,-1,-1,-1,-1,-1,-1,-1,-1,-1,-1,-1,-1,-1,-1,-1,-1,-1,-1,-1,-1,-1,-1,-1,-1,-1,-1,-1,-1,-1,-1,-1,-1,-1,-1,-1],"loss_changes":[5.800509E3,1.9767327E3,9.8523193E2,5.812621E2,1.3272078E3,7.397013E2,7.92916E2,3.1568616E2,6.229082E2,4.1069507E2,8.190706E2,7.281389E2,6.23773E2,3.8702393E2,4.2028802E2,1.8530261E2,1.03321945E2,2.7831464E2,4.419663E2,4.9378503E2,5.5813464E2,6.413517E2,2.7226117E2,3.3220654E2,2.3812918E2,7.2158435E2,2.4297041E2,8.696599E2,2.3800586E2,1.0875549E1,2.5732275E2,2.110205E2,1.5787E2,6.884154E-1,0E0,2.9526538E2,1.473638E2,3.248505E2,3.45737E2,1.664271E2,2.694624E2,3.2573346E2,3.6886365E2,4.3396945E2,4.8897223E2,3.5001694E2,7.470911E1,3.758523E2,1.870343E2,1.1493947E2,0E0,3.03246E1,0E0,1.0340082E2,5.9911423E1,0E0,0E0,1.953844E2,0E0,0E0,0E0,0E0,1.17045654E2,0E0,0E0,0E0,0E0,0E0,0E0,0E0,0E0,0E0,0E0,0E0,0E0,0E0,0E0,0E0,0E0,0E0,0E0,0E0,0E0,0E0,0E0,0E0,0E0,0E0,0E0,0E0,0E0,0E0,0E0,0E0,0E0,0E0,0E0,0E0,0E0,0E0,0E0,0E0,0E0,0E0,0E0,0E0,0E0,0E0,0E0],"parents":[2147483647,0,0,1,1,2,2,3,3,4,4,5,5,6,6,7,7,8,8,9,9,10,10,11,11,12,12,13,13,14,14,15,15,16,16,17,17,18,18,19,19,20,20,21,21,22,22,23,23,24,24,25,25,26,26,27,27,28,28,29,29,30,30,31,31,32,32,33,33,35,35,36,36,37,37,38,38,39,39,40,40,41,41,42,42,43,43,44,44,45,45,46,46,47,47,48,48,49,49,51,51,53,53,54,54,57,57,62,62],"right_children":[2,4,6,8,10,12,14,16,18,20,22,24,26,28,30,32,34,36,38,40,42,44,46,48,50,52,54,56,58,60,62,64,66,68,-1,70,72,74,76,78,80,82,84,86,88,90,92,94,96,98,-1,100,-1,102,104,-1,-1,106,-1,-1,-1,-1,108,-1,-1,-1,-1,-1,-1,-1,-1,-1,-1,-1,-1,-1,-1,-1,-1,-1,-1,-1,-1,-1,-1,-1,-1,-1,-1,-1,-1,-1,-1,-1,-1,-1,-1,-1,-1,-1,-1,-1,-1,-1,-1,-1,-1,-1,-1],"split_conditions":[4.8E1,2.6E1,4.7E1,1.4E1,2.0833395E1,5.4E1,7.2E1,1.8786251E1,1.4512064E1,2.3E1,1.9428308E2,7.700001E0,7E-1,4.9E1,6.3E1,4.4654164E0,1.1E1,2.8E1,3.7000003E0,1.3E1,-6.616667E-1,1.0495875E2,6.6000004E0,8.204999E0,4.5E1,3E1,1.3292032E2,5.3E1,7.3E1,5.3E1,7.6E1,2.50064E1,2.7426135E2,7E0,2.5214574E0,1.3415417E1,1.1050834E1,4.787993E1,5.3E1,1.5028557E2,1.1659777E1,2.2E1,1.224E1,2.4E1,1.6382771E2,9.775834E0,5.384167E0,7.8675003E0,9.244583E0,5.2E1,1.8775952E0,5.8E1,-3.8350873E0,5.7E1,6.5E1,-1.2737057E0,7.2044973E0,1E-1,4.2998037E0,-2.47958E-1,-1.6694609E0,-9.546742E-1,9.627915E0,6.395398E-1,-7.1941364E-1,-5.4843307E-1,-1.110749E0,-1.8964978E-1,6.884909E-2,-8.281176E-2,8.701471E-1,2.0075667E0,1.9506513E-1,-1.1144525E0,-7.346578E-2,-6.102049E-1,1.0418929E0,1.0066638E0,-6.2516534E-1,4.8508886E-1,1.8598944E0,5.9728765E-1,4.9651337E0,1.1588155E0,2.5168213E-1,1.3546721E0,-5.2745926E-1,2.2380862E0,3.0597493E-1,-4.316585E-2,-1.0254039E0,1.3384496E-1,-1.7261158E0,2.1625047E0,5.505006E0,-5.6983453E-1,1.4759948E0,-2.042706E0,-7.8702554E-2,2.2276046E0,3.4771043E-1,-1.9082195E-1,2.9731555E0,1.0329272E0,-5.707832E-1,3.025389E0,1.0885042E0,1.1543553E0,3.3541286E0],"split_indices":[0,0,2,0,5,1,2,3,5,1,6,4,4,2,0,3,2,1,4,2,3,6,4,3,1,2,6,0,1,0,2,5,6,0,0,3,3,6,2,6,5,2,5,1,6,3,3,3,3,0,0,0,0,0,0,0,0,4,0,0,0,0,3,0,0,0,0,0,0,0,0,0,0,0,0,0,0,0,0,0,0,0,0,0,0,0,0,0,0,0,0,0,0,0,0,0,0,0,0,0,0,0,0,0,0,0,0,0,0],"split_type":[0,0,0,0,0,0,0,0,0,0,0,0,0,0,0,0,0,0,0,0,0,0,0,0,0,0,0,0,0,0,0,0,0,0,0,0,0,0,0,0,0,0,0,0,0,0,0,0,0,0,0,0,0,0,0,0,0,0,0,0,0,0,0,0,0,0,0,0,0,0,0,0,0,0,0,0,0,0,0,0,0,0,0,0,0,0,0,0,0,0,0,0,0,0,0,0,0,0,0,0,0,0,0,0,0,0,0,0,0],"sum_hessian":[2.494E3,2.329E3,1.65E2,1.713E3,6.16E2,1.11E2,5.4E1,5.03E2,1.21E3,3.45E2,2.71E2,8.9E1,2.2E1,3.7E1,1.7E1,4.98E2,5E0,1.44E2,1.066E3,1.04E2,2.41E2,1.11E2,1.6E2,7.7E1,1.2E1,9E0,1.3E1,6E0,3.1E1,4E0,1.3E1,4E1,4.58E2,2E0,3E0,1.25E2,1.9E1,7.75E2,2.91E2,2.2E1,8.2E1,6E0,2.35E2,6.4E1,4.7E1,1.39E2,2.1E1,3.8E1,3.9E1,1E1,2E0,3E0,6E0,5E0,8E0,1E0,5E0,2.2E1,9E0,1E0,3E0,2E0,1.1E1,2.3E1,1.7E1,4.07E2,5.1E1,1E0,1E0,8E1,4.5E1,1.3E1,6E0,2.7E1,7.48E2,2.8E2,1.1E1,8E0,1.4E1,1.7E1,6.5E1,3E0,3E0,5.1E1,1.84E2,1.3E1,5.1E1,2.4E1,2.3E1,8.8E1,5.1E1,2E0,1.9E1,3.5E1,3E0,4E0,3.5E1,5E0,5E0,1E0,2E0,1E0,4E0,2E0,6E0,1.2E1,1E1,6E0,5E0],"tree_param":{"num_deleted":"0","num_feature":"7","num_nodes":"109","size_leaf_vector":"1"}},{"base_weights":[7.2503105E-2,-3.0718037E-1,3.4532063E0,3.7666054E0,-3.8659254E-1,2.59436E0,7.2429447E0,5.537269E0,-7.454854E-1,-7.164588E-1,4.2495713E-1,2.9130251E0,-3.9746451E0,5.5845747E0,1.0634606E1,3.6444895E0,4.395248E0,1.6123912E0,-3.7650735E0,1.0399481E-2,-9.6414715E-1,2.58856E-1,5.5362344E0,6.0364294E0,2.405787E0,4.3362668E-1,-4.7374773E0,9.322878E0,4.408549E0,1.3502387E1,2.7721245E0,6.295509E0,-1.939106E-1,-3.7590066E-1,1.1083975E0,-2.6444563E-1,-1.6347829E0,-2.218292E-1,5.9702425E0,-7.991455E-1,-2.3852837E0,3.683703E-1,-6.436449E0,9.492622E0,6.3058436E-1,-2.5755138E0,8.110758E0,3.31809E0,-9.114809E-2,-5.5256534E0,-3.95772E-1,1.0557305E1,2.8744698E-1,1.8405961E0,7.9764256E0,1.7874264E1,5.555658E0,-1.7072309E0,1.8982316E0,2.2796474E0,-1.988133E0,-6.074786E-1,8.3235013E-1,3.2993203E-1,-5.1788235E-1,1.9371644E-1,-3.1271696E-1,1.4761859E-1,-3.8188174E-1,2.9490833E0,6.913899E-1,1.2879355E-2,-3.2099432E-1,-4.107366E-2,-8.9081126E-1,-1.6677858E0,1.4298314E-1,-2.2911265E0,-1.112518E0,3.889675E0,1.3312676E0,7.861942E-1,-9.0290153E-1,1.2967707E0,-1.4458933E0,3.734254E0,1.0378512E0,1.1429243E0,-6.5049195E-1,-4.8500636E-1,1.5145496E0,-4.7441941E-1,-1.775839E0,3.6706862E0,3.2486E-1,-1.05138175E-1,1.506223E0,3.6550922E0,7.3194206E-1,7.682734E-1,6.1274257E0,4.6839982E-1,1.8491719E0,-1.0762711E-1,-6.606268E-1],"categories":[],"categories_nodes":[],"categories_segments":[],"categories_sizes":[],"default_left":[1,0,0,0,1,0,0,0,0,0,0,0,0,0,0,0,0,0,0,0,0,0,0,0,0,0,0,0,0,0,0,0,0,0,0,0,0,0,0,0,0,0,0,0,0,0,0,0,0,0,0,0,0,0,0,0,0,0,0,0,0,0,0,0,0,0,0,0,0,0,0,0,0,0,0,0,0,0,0,0,0,0,0,0,0,0,0,0,0,0,0,0,0,0,0,0,0,0,0,0,0,0,0,0,0],"id":6,"left_children":[1,3,5,7,9,11,13,15,17,19,21,23,25,27,29,31,-1,33,35,37,39,41,43,45,47,-1,49,51,53,55,57,59,61,63,-1,65,-1,67,69,71,73,75,77,79,81,83,85,87,89,91,-1,93,-1,95,97,99,101,103,-1,-1,-1,-1,-1,-1,-1,-1,-1,-1,-1,-1,-1,-1,-1,-1,-1,-1,-1,-1,-1,-1,-1,-1,-1,-1,-1,-1,-1,-1,-1,-1,-1,-1,-1,-1,-1,-1,-1,-1,-1,-1,-1,-1,-1,-1,-1],"loss_changes":[3.2036355E3,7.274085E2,8.014197E2,3.4767194E2,5.897862E2,4.4489404E2,1.9934326E2,4.8135388E2,9.862838E1,2.8194373E2,5.393729E2,2.9917078E2,4.8193695E1,1.0397888E2,2.7823987E2,2.7596393E2,0E0,3.4510056E1,3.3933563E1,5.535589E2,2.719779E2,4.5550812E2,3.8218726E2,5.032174E2,3.9211182E2,0E0,1.6957886E1,6.216394E1,2.3269635E2,2.4811792E2,9.042996E1,3.1983417E2,7.084073E1,1.1862069E1,0E0,2.797271E0,0E0,2.895219E2,1.8958551E2,2.3905719E2,1.5849615E2,3.9339026E2,4.4327393E0,1.3558081E2,8.033067E1,1.13714424E2,4.0070752E2,3.481366E2,3.7667636E2,1.5119476E0,0E0,8.215698E1,0E0,1.2021355E2,2.2650555E2,1.8203308E2,2.5238037E0,1.211896E0,0E0,0E0,0E0,0E0,0E0,0E0,0E0,0E0,0E0,0E0,0E0,0E0,0E0,0E0,0E0,0E0,0E0,0E0,0E0,0E0,0E0,0E0,0E0,0E0,0E0,0E0,0E0,0E0,0E0,0E0,0E0,0E0,0E0,0E0,0E0,0E0,0E0,0E0,0E0,0E0,0E0,0E0,0E0,0E0,0E0,0E0,0E0],"parents":[2147483647,0,0,1,1,2,2,3,3,4,4,5,5,6,6,7,7,8,8,9,9,10,10,11,11,12,12,13,13,14,14,15,15,17,17,18,18,19,19,20,20,21,21,22,22,23,23,24,24,26,26,27,27,28,28,29,29,30,30,31,31,32,32,33,33,35,35,37,37,38,38,39,39,40,40,41,41,42,42,43,43,44,44,45,45,46,46,47,47,48,48,49,49,51,51,53,53,54,54,55,55,56,56,57,57],"right_children":[2,4,6,8,10,12,14,16,18,20,22,24,26,28,30,32,-1,34,36,38,40,42,44,46,48,-1,50,52,54,56,58,60,62,64,-1,66,-1,68,70,72,74,76,78,80,82,84,86,88,90,92,-1,94,-1,96,98,100,102,104,-1,-1,-1,-1,-1,-1,-1,-1,-1,-1,-1,-1,-1,-1,-1,-1,-1,-1,-1,-1,-1,-1,-1,-1,-1,-1,-1,-1,-1,-1,-1,-1,-1,-1,-1,-1,-1,-1,-1,-1,-1,-1,-1,-1,-1,-1,-1],"split_conditions":[4.2E1,9.793059E0,6.7E1,1.1E0,2.4E1,3.5256573E1,8.4E1,9.648067E0,8.78872E0,1.8572354E2,1.7702915E1,1.0948973E1,2.4E1,5.7695827E0,1.0502915E1,8.78872E0,4.395248E0,1.3112137E2,1.2807083E1,1.6596666E1,1.5830001E1,6.4E1,2.1E1,1.7E1,5E1,4.3362668E-1,6E1,1.8000001E0,7.2E1,4.9E1,7.4E1,4.1E1,2.3615802E2,8.161764E0,1.1083975E0,8E0,-1.6347829E0,1.1109166E1,1.4251749E2,1E-1,1.8057508E1,1.7789217E1,1.6541759E2,1.9083395E1,2.046941E1,9E0,1E-1,2.9195534E1,6.8E1,6.748749E0,-3.95772E-1,7.2E1,2.8744698E-1,1.0902916E1,7.2E1,5.534167E0,9.2E1,8.9E1,1.8982316E0,2.2796474E0,-1.988133E0,-6.074786E-1,8.3235013E-1,3.2993203E-1,-5.1788235E-1,1.9371644E-1,-3.1271696E-1,1.4761859E-1,-3.8188174E-1,2.9490833E0,6.913899E-1,1.2879355E-2,-3.2099432E-1,-4.107366E-2,-8.9081126E-1,-1.6677858E0,1.4298314E-1,-2.2911265E0,-1.112518E0,3.889675E0,1.3312676E0,7.861942E-1,-9.0290153E-1,1.2967707E0,-1.4458933E0,3.734254E0,1.0378512E0,1.1429243E0,-6.5049195E-1,-4.8500636E-1,1.5145496E0,-4.7441941E-1,-1.775839E0,3.6706862E0,3.2486E-1,-1.05138175E-1,1.506223E0,3.6550922E0,7.3194206E-1,7.682734E-1,6.1274257E0,4.6839982E-1,1.8491719E0,-1.0762711E-1,-6.606268E-1],"split_indices":[0,5,0,4,0,5,0,5,5,6,3,5,1,3,3,5,0,6,3,3,3,1,2,2,1,0,0,4,1,2,2,0,6,5,0,0,0,3,6,4,5,6,6,5,5,2,4,5,1,3,0,0,0,3,2,3,0,0,0,0,0,0,0,0,0,0,0,0,0,0,0,0,0,0,0,0,0,0,0,0,0,0,0,0,0,0,0,0,0,0,0,0,0,0,0,0,0,0,0,0,0,0,0,0,0],"split_type":[0,0,0,0,0,0,0,0,0,0,0,0,0,0,0,0,0,0,0,0,0,0,0,0,0,0,0,0,0,0,0,0,0,0,0,0,0,0,0,0,0,0,0,0,0,0,0,0,0,0,0,0,0,0,0,0,0,0,0,0,0,0,0,0,0,0,0,0,0,0,0,0,0,0,0,0,0,0,0,0,0,0,0,0,0,0,0,0,0,0,0,0,0,0,0,0,0,0,0,0,0,0,0,0,0],"sum_hessian":[2.494E3,2.243E3,2.51E2,4.2E1,2.201E3,2.06E2,4.5E1,3E1,1.2E1,1.565E3,6.36E2,1.97E2,9E0,3.2E1,1.3E1,2.6E1,4E0,7E0,5E0,3.98E2,1.167E3,6.17E2,1.9E1,2.6E1,1.71E2,1E0,8E0,6E0,2.6E1,9E0,4E0,1.5E1,1.1E1,4E0,3E0,2E0,3E0,3.84E2,1.4E1,1.047E3,1.2E2,6.08E2,9E0,1E1,9E0,5E0,2.1E1,1.25E2,4.6E1,6E0,2E0,5E0,1E0,1.6E1,1E1,5E0,4E0,2E0,2E0,1.4E1,1E0,7E0,4E0,2E0,2E0,1E0,1E0,2.29E2,1.55E2,6E0,8E0,2.55E2,7.92E2,2.5E1,9.5E1,1E1,5.98E2,5E0,4E0,5E0,5E0,6E0,3E0,1E0,4E0,1E1,1.1E1,1.15E2,1E1,3.6E1,1E1,1E0,5E0,4E0,1E0,1E1,6E0,5E0,5E0,1E0,4E0,1E0,3E0,1E0,1E0],"tree_param":{"num_deleted":"0","num_feature":"7","num_nodes":"105","size_leaf_vector":"1"}},{"base_weights":[6.3083716E-2,-1.4137556E-1,3.6952202E0,1.1664826E0,-3.7548015E-1,3.1408494E0,8.183027E0,7.9467833E-1,5.369956E0,-4.2120552E-1,3.964536E0,7.499172E0,2.3982308E0,1.0372997E1,2.166483E0,3.0841517E0,2.4497318E-1,1.0728287E1,9.565295E-1,-2.3920779E-1,-1.4466535E0,5.70331E0,-1.3329511E0,1.6935086E0,1.1393786E1,4.7823553E0,1.3202825E0,1.3661267E1,4.3524733E0,-1.4511458E0,1.5185853E0,5.015117E0,1.2328552E0,3.9169517E-1,-6.2271686E0,3.9155798E0,1.8023848E1,5.943879E0,-1.035261E0,3.1742272E-1,-6.980941E-1,-1.6859642E0,2.3829184E0,-1.306708E0,6.7980776E0,-1.7455043E0,2.364334E0,-9.460994E-2,2.1315508E0,-7.2102934E-2,1.2713172E1,2.5654316E0,1.233345E1,-4.2166305E0,2.3706481E0,6.5303254E-1,4.656843E0,3.9813998E-1,1.4331076E0,-9.148293E-2,-5.6153274E-1,2.5880303E0,5.7823163E-1,1.277159E-1,2.1539826E0,-1.6424073E-1,3.6621857E-1,-1.4463186E-1,-2.183928E0,-4.0384418E-1,2.8541532E0,6.013877E0,1.1867719E0,-5.972595E-2,3.0316656E0,9.9756235E-1,-8.0277675E-1,-7.3584354E-1,1.3980132E-1,-2.5231177E-1,5.3042483E-1,-4.6886486E-1,-1.8894123E0,1.7918868E0,-8.553744E-1,-2.7580692E-2,-5.604379E-1,-5.1806547E-2,2.2042723E0,1.6990434E-1,1.163744E0,-5.858334E-1,9.1016203E-1,4.3462086E0,1.3007022E0,-2.616011E-1,2.4457583E0,9.4488806E-1,5.5301733E0,-1.6989672E0,1.7543839E0,1.9949031E0,4.8407277E-1],"categories":[],"categories_nodes":[],"categories_segments":[],"categories_sizes":[],"default_left":[1,0,0,0,0,0,0,0,0,0,0,0,0,0,0,0,0,0,0,0,0,0,0,0,0,0,0,0,0,0,0,0,0,0,0,0,0,0,0,0,0,0,0,0,0,0,0,0,0,0,0,0,0,0,0,0,0,0,0,0,0,0,0,0,0,0,0,0,0,0,0,0,0,0,0,0,0,0,0,0,0,0,0,0,0,0,0,0,0,0,0,0,0,0,0,0,0,0,0,0,0,0,0],"id":7,"left_children":[1,3,5,7,9,11,13,15,17,19,21,23,25,27,29,31,33,35,37,39,41,43,45,47,49,51,53,55,57,59,-1,61,63,65,67,69,71,73,75,77,79,81,83,85,87,-1,89,91,-1,-1,93,95,97,99,101,-1,-1,-1,-1,-1,-1,-1,-1,-1,-1,-1,-1,-1,-1,-1,-1,-1,-1,-1,-1,-1,-1,-1,-1,-1,-1,-1,-1,-1,-1,-1,-1,-1,-1,-1,-1,-1,-1,-1,-1,-1,-1,-1,-1,-1,-1,-1,-1],"loss_changes":[1.8533693E3,7.239309E2,3.0519043E2,5.5680273E2,3.995598E2,3.704038E2,1.619917E2,4.1581964E2,6.7554736E2,3.7011288E2,2.0103598E2,3.6508838E2,2.6096204E2,1.3851074E2,5.9719265E1,2.2260364E2,2.5693338E2,5.755591E2,1.7502731E2,4.3113226E2,2.780384E2,1.3167255E2,1.1325926E2,7.808575E1,1.5655444E2,5.040459E2,4.3454834E2,9.448364E1,8.232117E-2,8.755965E-1,0E0,3.2907245E2,1.6014691E2,2.054397E2,3.277362E1,2.4845932E2,9.1405396E1,1.2983693E2,1.0190068E2,3.151985E2,3.2757526E2,1.5023749E2,3.5526572E2,1.8742394E0,5.4894592E1,0E0,8.697502E0,4.6617214E1,0E0,0E0,7.095703E1,5.064463E2,3.341189E2,2.0783038E2,1.9012137E2,0E0,0E0,0E0,0E0,0E0,0E0,0E0,0E0,0E0,0E0,0E0,0E0,0E0,0E0,0E0,0E0,0E0,0E0,0E0,0E0,0E0,0E0,0E0,0E0,0E0,0E0,0E0,0E0,0E0,0E0,0E0,0E0,0E0,0E0,0E0,0E0,0E0,0E0,0E0,0E0,0E0,0E0,0E0,0E0,0E0,0E0,0E0,0E0],"parents":[2147483647,0,0,1,1,2,2,3,3,4,4,5,5,6,6,7,7,8,8,9,9,10,10,11,11,12,12,13,13,14,14,15,15,16,16,17,17,18,18,19,19,20,20,21,21,22,22,23,23,24,24,25,25,26,26,27,27,28,28,29,29,31,31,32,32,33,33,34,34,35,35,36,36,37,37,38,38,39,39,40,40,41,41,42,42,43,43,44,44,46,46,47,47,50,50,51,51,52,52,53,53,54,54],"right_children":[2,4,6,8,10,12,14,16,18,20,22,24,26,28,30,32,34,36,38,40,42,44,46,48,50,52,54,56,58,60,-1,62,64,66,68,70,72,74,76,78,80,82,84,86,88,-1,90,92,-1,-1,94,96,98,100,102,-1,-1,-1,-1,-1,-1,-1,-1,-1,-1,-1,-1,-1,-1,-1,-1,-1,-1,-1,-1,-1,-1,-1,-1,-1,-1,-1,-1,-1,-1,-1,-1,-1,-1,-1,-1,-1,-1,-1,-1,-1,-1,-1,-1,-1,-1,-1,-1],"split_conditions":[5.2E1,1.4773164E1,8.4E1,4.2E1,1.9463333E1,2.8E1,1.0502915E1,4.057083E0,1.0739832E1,6.6000004E0,2.1E1,1.4386494E1,7.408967E1,4.9E1,7.4E1,2.0931316E2,4.1E1,1.0028439E1,4.3E1,2.2291463E2,4.7E1,9E0,1.9E1,4.7E1,3.1333333E-1,6.588257E1,1.08100624E2,5.534167E0,9.2E1,8.9E1,1.5185853E0,1.1792404E1,1.4277983E1,2E1,2.1E1,2.8E1,1.002375E1,1.4145756E1,2.7E1,3.2763847E1,4.0780228E1,4.2E1,1.4901514E2,7E0,1E1,-1.7455043E0,4E1,3.3000002E0,2.1315508E0,-7.2102934E-2,8.105E0,1.1915417E1,5.5E1,1.4157082E1,1.1043261E1,6.5303254E-1,4.656843E0,3.9813998E-1,1.4331076E0,-9.148293E-2,-5.6153274E-1,2.5880303E0,5.7823163E-1,1.277159E-1,2.1539826E0,-1.6424073E-1,3.6621857E-1,-1.4463186E-1,-2.183928E0,-4.0384418E-1,2.8541532E0,6.013877E0,1.1867719E0,-5.972595E-2,3.0316656E0,9.9756235E-1,-8.0277675E-1,-7.3584354E-1,1.3980132E-1,-2.5231177E-1,5.3042483E-1,-4.6886486E-1,-1.8894123E0,1.7918868E0,-8.553744E-1,-2.7580692E-2,-5.604379E-1,-5.1806547E-2,2.2042723E0,1.6990434E-1,1.163744E0,-5.858334E-1,9.1016203E-1,4.3462086E0,1.3007022E0,-2.616011E-1,2.4457583E0,9.4488806E-1,5.5301733E0,-1.6989672E0,1.7543839E0,1.9949031E0,4.8407277E-1],"split_indices":[0,5,0,1,3,1,3,3,5,4,2,5,6,2,2,6,1,5,1,6,2,2,0,2,3,6,6,3,0,0,0,5,5,0,0,2,3,5,2,6,5,2,6,0,1,0,0,4,0,0,3,3,1,3,5,0,0,0,0,0,0,0,0,0,0,0,0,0,0,0,0,0,0,0,0,0,0,0,0,0,0,0,0,0,0,0,0,0,0,0,0,0,0,0,0,0,0,0,0,0,0,0,0],"split_type":[0,0,0,0,0,0,0,0,0,0,0,0,0,0,0,0,0,0,0,0,0,0,0,0,0,0,0,0,0,0,0,0,0,0,0,0,0,0,0,0,0,0,0,0,0,0,0,0,0,0,0,0,0,0,0,0,0,0,0,0,0,0,0,0,0,0,0,0,0,0,0,0,0,0,0,0,0,0,0,0,0,0,0,0,0,0,0,0,0,0,0,0,0,0,0,0,0,0,0,0,0,0,0],"sum_hessian":[2.494E3,2.362E3,1.32E2,3.58E2,2.004E3,1.19E2,1.3E1,3.3E2,2.8E1,1.984E3,2E1,1.6E1,1.03E2,9E0,4E0,6.3E1,2.67E2,1.2E1,1.6E1,1.686E3,2.98E2,1.5E1,5E0,7E0,9E0,3.1E1,7.2E1,5E0,4E0,2E0,2E0,3E1,3.3E1,2.62E2,5E0,7E0,5E0,4E0,1.2E1,7.62E2,9.24E2,2.81E2,1.7E1,2E0,1.3E1,2E0,3E0,6E0,1E0,1E0,8E0,2.5E1,6E0,1.1E1,6.1E1,1E0,4E0,1E0,3E0,1E0,1E0,1.3E1,1.7E1,3E1,3E0,1.23E2,1.39E2,1E0,4E0,4E0,3E0,4E0,1E0,2E0,2E0,3E0,9E0,3.8E1,7.24E2,8.74E2,5E1,2.75E2,6E0,1E1,7E0,1E0,1E0,1E0,1.2E1,2E0,1E0,4E0,2E0,6E0,2E0,1.6E1,9E0,3E0,3E0,1E1,1E0,8E0,5.3E1],"tree_param":{"num_deleted":"0","num_feature":"7","num_nodes":"103","size_leaf_vector":"1"}},{"base_weights":[6.130604E-2,-9.2381455E-2,2.791398E0,1.8840466E0,-1.9247942E-1,3.6869893E0,9.5808697E-1,2.9019473E0,-1.1995227E0,-1.5605882E0,-7.848745E-2,2.5899568E0,7.870286E0,-1.3953272E0,3.2698452E0,-1.9946964E0,3.3610764E0,-2.0715663E0,2.1146135E0,-4.772474E0,-1.4365889E0,4.751541E-1,-3.8826847E-1,3.147125E0,1.843797E0,3.6186564E0,1.0909724E1,-3.293179E0,3.413074E0,-4.3497977E-1,5.2747507E0,1.3539553E0,-4.274678E0,6.369681E0,2.4958804E0,-1.151825E0,-5.8880634E0,-2.0756326E0,-1.9696295E0,-5.962805E-1,-1.8293991E0,3.1301054E-1,3.1187332E0,2.8520218E-1,-6.6609186E-1,-1.0130706E0,2.6873755E0,6.458582E0,1.1222633E0,1.2597544E1,8.316895E-1,1.3192227E0,-4.611751E0,6.267275E0,-2.9439545E-1,-3.6166031E0,2.8336396E0,6.6211886E0,-2.3180645E0,-5.1843833E-2,8.901389E-1,-2.4442464E-1,-1.4807922E0,3.7478292E0,1.2495754E0,4.5483634E-1,2.0968924E0,-7.801458E-1,7.592696E-1,-2.215778E0,1.5508462E-2,-7.156094E-1,-1.0836368E-1,1.3359327E0,-3.9163586E-1,-6.9402456E-1,-1.1911209E-1,1.8995576E-1,-5.471201E-1,2.0311644E0,2.111802E-1,-4.286313E-2,9.2113966E-1,-1.609284E-1,-6.985738E-1,2.0516482E-1,-1.4649434E0,2.6860037E0,5.026311E-1,8.692128E-1,2.57133E0,5.7457495E-2,5.96748E-1,4.2558403E0,1.5663545E0,-1.996819E0,-1.3078184E-1,3.925827E-1,2.2451882E0,-6.885575E-1,8.561989E-1,1.7417508E-1,-1.4433137E0,2.1515828E-1,1.2016616E0,3.923666E0,1.497942E0,-8.805605E-1,-1.6256848E-1],"categories":[],"categories_nodes":[],"categories_segments":[],"categories_sizes":[],"default_left":[1,0,0,0,0,0,0,0,0,0,0,0,0,0,0,0,0,0,0,0,0,1,0,0,0,0,0,0,0,0,0,0,0,0,0,0,0,0,0,0,0,0,0,0,0,0,0,0,0,0,0,0,0,0,0,0,0,0,0,0,0,0,0,0,0,0,0,0,0,0,0,0,0,0,0,0,0,0,0,0,0,0,0,0,0,0,0,0,0,0,0,0,0,0,0,0,0,0,0,0,0,0,0,0,0,0,0,0,0],"id":8,"left_children":[1,3,5,7,9,11,13,15,17,19,21,23,25,27,29,31,33,35,-1,37,39,41,43,-1,45,47,49,51,53,55,57,59,61,63,65,67,69,-1,71,73,75,77,79,81,83,85,87,89,91,93,-1,-1,95,97,99,101,103,105,107,-1,-1,-1,-1,-1,-1,-1,-1,-1,-1,-1,-1,-1,-1,-1,-1,-1,-1,-1,-1,-1,-1,-1,-1,-1,-1,-1,-1,-1,-1,-1,-1,-1,-1,-1,-1,-1,-1,-1,-1,-1,-1,-1,-1,-1,-1,-1,-1,-1,-1],"loss_changes":[1.0471125E3,4.678501E2,2.1483972E2,3.6130045E2,3.507727E2,3.8805627E2,2.4938611E2,2.0004883E2,2.2319366E2,6.2044983E1,3.565774E2,4.0509824E2,1.9312769E2,2.2112943E2,1.7313434E2,6.686665E1,1.8974158E2,8.799313E1,0E0,2.2467072E1,5.4362885E1,3.1878873E2,2.4960214E2,0E0,1.6419196E2,5.6557907E1,1.0242078E2,1.9266992E2,7.591809E1,1.03843796E2,1.6869717E2,1.0364531E1,7.4185944E0,1.7742883E2,2.6677948E2,1.2928699E2,4.486653E1,0E0,1.813077E0,2.0276215E2,7.8115906E1,4.8278415E2,3.7442517E2,4.6544092E2,2.022439E2,1.08416855E2,3.147195E2,5.2587585E0,4.4601493E0,1.9675903E1,0E0,0E0,1.25148285E2,1.4338974E1,3.1747625E1,2.7859703E1,9.528549E0,7.1370056E1,1.6978493E0,0E0,0E0,0E0,0E0,0E0,0E0,0E0,0E0,0E0,0E0,0E0,0E0,0E0,0E0,0E0,0E0,0E0,0E0,0E0,0E0,0E0,0E0,0E0,0E0,0E0,0E0,0E0,0E0,0E0,0E0,0E0,0E0,0E0,0E0,0E0,0E0,0E0,0E0,0E0,0E0,0E0,0E0,0E0,0E0,0E0,0E0,0E0,0E0,0E0,0E0],"parents":[2147483647,0,0,1,1,2,2,3,3,4,4,5,5,6,6,7,7,8,8,9,9,10,10,11,11,12,12,13,13,14,14,15,15,16,16,17,17,19,19,20,20,21,21,22,22,24,24,25,25,26,26,27,27,28,28,29,29,30,30,31,31,32,32,33,33,34,34,35,35,36,36,38,38,39,39,40,40,41,41,42,42,43,43,44,44,45,45,46,46,47,47,48,48,49,49,52,52,53,53,54,54,55,55,56,56,57,57,58,58],"right_children":[2,4,6,8,10,12,14,16,18,20,22,24,26,28,30,32,34,36,-1,38,40,42,44,-1,46,48,50,52,54,56,58,60,62,64,66,68,70,-1,72,74,76,78,80,82,84,86,88,90,92,94,-1,-1,96,98,100,102,104,106,108,-1,-1,-1,-1,-1,-1,-1,-1,-1,-1,-1,-1,-1,-1,-1,-1,-1,-1,-1,-1,-1,-1,-1,-1,-1,-1,-1,-1,-1,-1,-1,-1,-1,-1,-1,-1,-1,-1,-1,-1,-1,-1,-1,-1,-1,-1,-1,-1,-1,-1],"split_conditions":[5.2E1,2.1570835E0,1.0502915E1,2.3469128E1,1.1E1,9.3133335E0,1.3032083E1,1.08100624E2,3.7E1,5E0,3E-1,2.5E1,5.3E1,6.4E1,2.8E1,8.7791663E-1,1.9981155E2,3.1E1,2.1146135E0,2E-1,2.1807027E2,4.8E1,1.6382771E2,3.147125E0,4.938334E0,2.1E1,7.9E1,1.7E1,1E-1,1.3000002E0,2.2010748E2,1.6E1,2.2E1,1.6E1,3.4E1,2.631835E2,3.1E1,-2.0756326E0,1.0184167E1,8E0,1.7E1,3.3E1,5.3E1,1.5071667E1,4.1E1,4.8E1,5.42375E0,9.898749E0,3.9E1,2.0256635E2,8.316895E-1,1.3192227E0,1.8572354E2,5.5E1,1.05E2,5.3E1,5.3E1,5.3E1,5.8E1,-5.1843833E-2,8.901389E-1,-2.4442464E-1,-1.4807922E0,3.7478292E0,1.2495754E0,4.5483634E-1,2.0968924E0,-7.801458E-1,7.592696E-1,-2.215778E0,1.5508462E-2,-7.156094E-1,-1.0836368E-1,1.3359327E0,-3.9163586E-1,-6.9402456E-1,-1.1911209E-1,1.8995576E-1,-5.471201E-1,2.0311644E0,2.111802E-1,-4.286313E-2,9.2113966E-1,-1.609284E-1,-6.985738E-1,2.0516482E-1,-1.4649434E0,2.6860037E0,5.026311E-1,8.692128E-1,2.57133E0,5.7457495E-2,5.96748E-1,4.2558403E0,1.5663545E0,-1.996819E0,-1.3078184E-1,3.925827E-1,2.2451882E0,-6.885575E-1,8.561989E-1,1.7417508E-1,-1.4433137E0,2.1515828E-1,1.2016616E0,3.923666E0,1.497942E0,-8.805605E-1,-1.6256848E-1],"split_indices":[0,3,3,5,0,3,3,6,0,0,4,1,1,2,2,3,6,0,0,4,6,2,6,0,3,2,2,2,4,4,6,1,0,2,2,6,1,0,3,0,1,2,2,3,2,2,3,3,2,6,0,0,6,0,0,0,0,0,0,0,0,0,0,0,0,0,0,0,0,0,0,0,0,0,0,0,0,0,0,0,0,0,0,0,0,0,0,0,0,0,0,0,0,0,0,0,0,0,0,0,0,0,0,0,0,0,0,0,0],"split_type":[0,0,0,0,0,0,0,0,0,0,0,0,0,0,0,0,0,0,0,0,0,0,0,0,0,0,0,0,0,0,0,0,0,0,0,0,0,0,0,0,0,0,0,0,0,0,0,0,0,0,0,0,0,0,0,0,0,0,0,0,0,0,0,0,0,0,0,0,0,0,0,0,0,0,0,0,0,0,0,0,0,0,0,0,0,0,0,0,0,0,0,0,0,0,0,0,0,0,0,0,0,0,0,0,0,0,0,0,0],"sum_hessian":[2.494E3,2.362E3,1.32E2,1.13E2,2.249E3,8.8E1,4.4E1,8.5E1,2.8E1,1.72E2,2.077E3,7.1E1,1.7E1,2.2E1,2.2E1,7E0,7.8E1,2.6E1,2E0,5E0,1.67E2,7.45E2,1.332E3,5E0,6.6E1,8E0,9E0,1.6E1,6E0,8E0,1.4E1,3E0,4E0,1.6E1,6.2E1,2.2E1,4E0,2E0,3E0,5.4E1,1.13E2,7.03E2,4.2E1,3.89E2,9.43E2,1.5E1,5.1E1,3E0,5E0,7E0,2E0,2E0,1.4E1,3E0,3E0,4E0,4E0,1.2E1,2E0,2E0,1E0,1E0,3E0,3E0,1.3E1,5.2E1,1E1,1.6E1,6E0,3E0,1E0,2E0,1E0,6E0,4.8E1,8.4E1,2.9E1,6.12E2,9.1E1,1.6E1,2.6E1,3.38E2,5.1E1,8.76E2,6.7E1,1.1E1,4E0,6E0,4.5E1,2E0,1E0,3E0,2E0,5E0,2E0,9E0,5E0,1E0,2E0,2E0,1E0,1E0,3E0,2E0,2E0,1E0,1.1E1,1E0,1E0],"tree_param":{"num_deleted":"0","num_feature":"7","num_nodes":"109","size_leaf_vector":"1"}},{"base_weights":[5.4152235E-2,-2.0581044E-1,1.1955129E0,2.9633477E0,-2.3400441E-1,1.7904806E0,4.670362E-2,6.2927747E0,7.742362E-1,-6.617917E-1,-1.383301E-2,4.730348E0,1.1815689E0,-2.9787464E0,7.161032E-1,8.273496E0,-8.3873236E-1,-1.0934271E0,2.8241374E0,-7.2937787E-1,2.8879998E0,2.71669E-1,-6.25879E-1,9.781414E0,2.9704928E0,1.5650226E0,-3.3830917E0,-7.274853E0,-6.8175566E-1,2.9692357E0,-1.04265206E-1,1.0904121E1,6.024487E-1,1.5234232E-1,-6.1975193E-1,1.0001681E0,3.609251E-1,-5.1858265E-2,-1.0880375E0,-4.5071098E-1,3.8228278E0,7.243416E-1,-3.6903697E-1,-8.2616705E-1,3.6869009E0,-1.2666327E0,1.1300217E1,-1.5783405E0,3.9832253E0,8.6624664E-1,3.3042483E0,-6.0809746E0,5.899845E-1,-1.3680382E-1,-7.9818344E0,-1.6334522E0,2.610072E0,9.429264E0,3.70408E-1,-4.016815E0,5.4906774E-1,7.6600575E-1,3.8509781E0,-5.4197885E-2,1.7270222E-1,1.6213175E-2,-1.8464235E0,-1.0705463E0,-2.2173502E-1,1.3900315E0,-6.4249164E-1,-2.9255292E-1,2.8138268E-1,-9.1622674E-1,-2.8192848E-2,-8.8180786E-1,-1.6638222E-1,1.3800928E-1,2.7458878E0,-6.5170556E-1,3.8167446E0,8.046722E-1,-1.4013412E0,1.9905636E0,4.2138407E-1,4.270841E-1,-1.4852884E0,2.5437791E0,6.7427754E-1,7.398362E-1,-2.1246529E0,9.411394E-1,-6.2254775E-1,-6.9109637E-1,-2.7825234E0,-6.746227E-1,7.193028E-1,3.2315817E0,-3.9822036E-1,-1.1952183E0,3.3348066E-1,1.1785908E0,-1.9622716E0,1.1967353E-2,2.1485143E0],"categories":[],"categories_nodes":[],"categories_segments":[],"categories_sizes":[],"default_left":[0,0,0,0,1,0,0,0,0,0,0,0,0,0,0,0,0,0,0,0,0,0,0,0,0,0,0,0,0,0,0,0,0,0,0,0,0,0,0,0,0,0,0,0,0,0,0,0,0,0,0,0,0,0,0,0,0,0,0,0,0,0,0,0,0,0,0,0,0,0,0,0,0,0,0,0,0,0,0,0,0,0,0,0,0,0,0,0,0,0,0,0,0,0,0,0,0,0,0,0,0,0,0,0,0],"id":9,"left_children":[1,3,5,7,9,11,13,15,17,19,21,23,25,27,29,31,-1,33,35,37,39,41,43,45,47,49,51,53,55,57,59,61,-1,63,-1,-1,-1,65,67,-1,69,71,73,75,77,-1,79,81,83,85,87,89,91,-1,93,95,-1,97,99,101,103,-1,-1,-1,-1,-1,-1,-1,-1,-1,-1,-1,-1,-1,-1,-1,-1,-1,-1,-1,-1,-1,-1,-1,-1,-1,-1,-1,-1,-1,-1,-1,-1,-1,-1,-1,-1,-1,-1,-1,-1,-1,-1,-1,-1],"loss_changes":[7.405404E2,1.823443E2,3.163789E2,1.2632065E2,1.8987091E2,5.403973E2,3.2414548E2,1.4914398E2,4.903029E1,1.6644943E2,2.329242E2,4.3317993E2,4.498801E2,2.812158E2,2.424498E2,7.6993256E1,0E0,8.794528E0,9.470978E-1,1.6348178E2,5.9098434E1,2.639046E2,3.6929645E2,3.242024E2,1.9055698E2,2.8274E2,2.1796556E2,4.4568054E1,1.9278766E2,5.8410486E2,2.5015668E2,3.177414E1,0E0,6.678822E-1,0E0,0E0,0E0,1.5156894E2,3.7817395E2,0E0,6.3106598E1,1.9440338E2,2.781473E2,2.3135605E2,3.3091626E2,0E0,2.5757654E2,1.1794601E2,2.163487E2,5.5500024E2,3.4731238E2,1.2015387E2,6.760664E1,0E0,4.472284E1,5.2517704E1,0E0,1.5872577E2,8.834387E1,3.0646722E2,2.8254266E2,0E0,0E0,0E0,0E0,0E0,0E0,0E0,0E0,0E0,0E0,0E0,0E0,0E0,0E0,0E0,0E0,0E0,0E0,0E0,0E0,0E0,0E0,0E0,0E0,0E0,0E0,0E0,0E0,0E0,0E0,0E0,0E0,0E0,0E0,0E0,0E0,0E0,0E0,0E0,0E0,0E0,0E0,0E0,0E0],"parents":[2147483647,0,0,1,1,2,2,3,3,4,4,5,5,6,6,7,7,8,8,9,9,10,10,11,11,12,12,13,13,14,14,15,15,17,17,18,18,19,19,20,20,21,21,22,22,23,23,24,24,25,25,26,26,27,27,28,28,29,29,30,30,31,31,33,33,37,37,38,38,40,40,41,41,42,42,43,43,44,44,46,46,47,47,48,48,49,49,50,50,51,51,52,52,54,54,55,55,57,57,58,58,59,59,60,60],"right_children":[2,4,6,8,10,12,14,16,18,20,22,24,26,28,30,32,-1,34,36,38,40,42,44,46,48,50,52,54,56,58,60,62,-1,64,-1,-1,-1,66,68,-1,70,72,74,76,78,-1,80,82,84,86,88,90,92,-1,94,96,-1,98,100,102,104,-1,-1,-1,-1,-1,-1,-1,-1,-1,-1,-1,-1,-1,-1,-1,-1,-1,-1,-1,-1,-1,-1,-1,-1,-1,-1,-1,-1,-1,-1,-1,-1,-1,-1,-1,-1,-1,-1,-1,-1,-1,-1,-1,-1],"split_conditions":[3.3E1,8.78872E0,1.1361251E1,3.33625E0,1.6E1,1.257426E1,1.23675E1,3E1,8.494584E0,1.8786251E1,2.4330782E2,3.9E1,7.7999997E0,1.5459054E1,2.7E1,2.3900804E2,-8.3873236E-1,5.721668E0,1.7E1,8.773748E0,9E0,1.1050834E1,4.0780228E1,1E1,4.2E1,5.3E1,3.4E1,2.6E1,7.6E1,1.4238334E1,3.1E1,1.4054881E2,6.024487E-1,1.9E1,-6.1975193E-1,1.0001681E0,3.609251E-1,3.4425998E2,9.775834E0,-4.5071098E-1,1.5E1,4.787993E1,1.15841675E1,2.4633893E2,8.869583E0,-1.2666327E0,6.841667E-1,2.2E1,5.3E1,6E1,5.6E1,1.9E1,1.3647958E2,-1.3680382E-1,1.1536248E1,2.6459389E1,2.610072E0,2.7E0,1.5E1,3.5E1,1.39E1,7.6600575E-1,3.8509781E0,-5.4197885E-2,1.7270222E-1,1.6213175E-2,-1.8464235E0,-1.0705463E0,-2.2173502E-1,1.3900315E0,-6.4249164E-1,-2.9255292E-1,2.8138268E-1,-9.1622674E-1,-2.8192848E-2,-8.8180786E-1,-1.6638222E-1,1.3800928E-1,2.7458878E0,-6.5170556E-1,3.8167446E0,8.046722E-1,-1.4013412E0,1.9905636E0,4.2138407E-1,4.270841E-1,-1.4852884E0,2.5437791E0,6.7427754E-1,7.398362E-1,-2.1246529E0,9.411394E-1,-6.2254775E-1,-6.9109637E-1,-2.7825234E0,-6.746227E-1,7.193028E-1,3.2315817E0,-3.9822036E-1,-1.1952183E0,3.3348066E-1,1.1785908E0,-1.9622716E0,1.1967353E-2,2.1485143E0],"split_indices":[0,5,3,3,2,5,3,0,3,3,6,0,4,5,1,6,0,3,0,3,2,3,5,2,0,0,2,1,2,3,1,6,0,1,0,0,0,6,3,0,2,6,3,6,3,0,3,1,0,1,0,1,6,0,3,5,0,4,1,0,4,0,0,0,0,0,0,0,0,0,0,0,0,0,0,0,0,0,0,0,0,0,0,0,0,0,0,0,0,0,0,0,0,0,0,0,0,0,0,0,0,0,0,0,0],"split_type":[0,0,0,0,0,0,0,0,0,0,0,0,0,0,0,0,0,0,0,0,0,0,0,0,0,0,0,0,0,0,0,0,0,0,0,0,0,0,0,0,0,0,0,0,0,0,0,0,0,0,0,0,0,0,0,0,0,0,0,0,0,0,0,0,0,0,0,0,0,0,0,0,0,0,0,0,0,0,0,0,0,0,0,0,0,0,0,0,0,0,0,0,0,0,0,0,0,0,0,0,0,0,0,0,0],"sum_hessian":[2.494E3,2.032E3,4.62E2,1.7E1,2.015E3,3.04E2,1.58E2,6E0,1.1E1,6.84E2,1.331E3,5.1E1,2.53E2,2.8E1,1.3E2,5E0,1E0,6E0,5E0,6.72E2,1.2E1,9.08E2,4.23E2,1.2E1,3.9E1,2.34E2,1.9E1,9E0,1.9E1,3.4E1,9.6E1,3E0,2E0,3E0,3E0,3E0,2E0,2.33E2,4.39E2,2E0,1E1,5.32E2,3.76E2,4.05E2,1.8E1,1E0,1.1E1,7E0,3.2E1,1.68E2,6.6E1,1.1E1,8E0,1E0,8E0,1.8E1,1E0,9E0,2.5E1,1.3E1,8.3E1,1E0,2E0,2E0,1E0,2.3E2,3E0,5.3E1,3.86E2,9E0,1E0,5.9E1,4.73E2,3.4E1,3.42E2,4.5E1,3.6E2,1.2E1,6E0,1E0,1E1,3E0,4E0,1.5E1,1.7E1,1.54E2,1.4E1,1E1,5.6E1,1E0,1E1,4E0,4E0,2E0,6E0,1.6E1,2E0,8E0,1E0,3E0,2.2E1,3E0,1E1,7.8E1,5E0],"tree_param":{"num_deleted":"0","num_feature":"7","num_nodes":"105","size_leaf_vector":"1"}},{"base_weights":[4.2112794E-2,-1.4966668E-2,3.081299E0,5.8065407E-2,-1.2776558E0,2.6021268E0,9.082059E0,3.5670054E-1,-2.6811382E-1,-1.6214752E0,1.1840117E0,2.9570827E0,-1.3877551E-1,3.4223661E0,6.6456074E-1,7.522299E-1,-3.4718013E-1,-2.8671017E0,-2.2013597E-1,-2.4622636E0,-7.6767546E-1,3.3790686E0,-3.4034376E0,4.4453425E0,1.9458437E0,-3.5194495E-1,7.549645E-1,1.5150492E0,2.4042556E-1,1.5304359E0,-7.227812E-1,-1.6572089E0,-1.8496016E0,1.0952657E0,-3.0470276E-1,-8.0431676E-1,-3.576161E0,1.41759E0,-1.6645849E0,-2.5042727E0,7.9392085E0,-4.2908928E-1,-1.9903709E0,5.212821E0,-3.621788E-1,1.2762436E0,1.9292489E0,3.4057042E-1,1.2641526E0,1.5952178E0,3.8568396E-2,2.9267618E-2,1.4543015E0,-4.6720717E-2,-5.710821E-1,-7.904903E-1,-7.1000373E-3,5.55176E-1,-1.1682162E0,-3.7672785E-1,-3.457421E-2,-6.379317E-1,8.6976093E-1,8.403849E-1,-1.2142681E0,-6.43096E-1,1.3442851E0,-1.0625137E0,-1.2631156E-1,-1.1516407E0,3.295708E-2,7.996976E-1,3.3683872E0,7.380785E-1,1.8488456E0,-3.627966E-1,1.9981614E-1,-2.7881104E-1,5.368493E-1],"categories":[],"categories_nodes":[],"categories_segments":[],"categories_sizes":[],"default_left":[1,0,0,0,0,0,0,0,0,0,0,0,0,0,0,0,0,0,0,0,0,0,0,0,0,0,0,0,0,0,0,0,0,0,0,0,0,0,0,0,0,0,0,0,0,0,0,0,0,0,0,0,0,0,0,0,0,0,0,0,0,0,0,0,0,0,0,0,0,0,0,0,0,0,0,0,0,0,0],"id":10,"left_children":[1,3,5,7,9,11,13,15,17,19,21,23,25,-1,-1,27,29,31,33,35,37,39,41,43,45,-1,-1,47,49,51,53,55,-1,57,59,61,63,65,67,69,71,-1,-1,73,75,77,-1,-1,-1,-1,-1,-1,-1,-1,-1,-1,-1,-1,-1,-1,-1,-1,-1,-1,-1,-1,-1,-1,-1,-1,-1,-1,-1,-1,-1,-1,-1,-1,-1],"loss_changes":[4.3286652E2,2.2600537E2,1.0863559E2,2.2579129E2,1.1533331E2,4.3217957E1,2.2642593E1,3.3713177E2,1.3752963E2,8.281784E1,1.8268556E2,5.0044525E1,1.943188E1,0E0,0E0,3.022068E2,3.0858847E2,6.9593E1,1.2147329E2,1.060838E2,1.19958786E2,3.418283E2,2.8763443E1,5.7233032E1,6.687137E1,0E0,0E0,3.140039E2,2.6340433E2,3.4651E2,2.4343137E2,2.5492992E1,0E0,2.5592976E2,1.8436249E2,1.2857762E2,1.165596E2,2.059743E2,9.888349E1,2.1353512E1,9.1473724E1,0E0,0E0,1.8831879E1,3.418654E0,2.7700027E1,0E0,0E0,0E0,0E0,0E0,0E0,0E0,0E0,0E0,0E0,0E0,0E0,0E0,0E0,0E0,0E0,0E0,0E0,0E0,0E0,0E0,0E0,0E0,0E0,0E0,0E0,0E0,0E0,0E0,0E0,0E0,0E0,0E0],"parents":[2147483647,0,0,1,1,2,2,3,3,4,4,5,5,6,6,7,7,8,8,9,9,10,10,11,11,12,12,15,15,16,16,17,17,18,18,19,19,20,20,21,21,22,22,23,23,24,24,27,27,28,28,29,29,30,30,31,31,33,33,34,34,35,35,36,36,37,37,38,38,39,39,40,40,43,43,44,44,45,45],"right_children":[2,4,6,8,10,12,14,16,18,20,22,24,26,-1,-1,28,30,32,34,36,38,40,42,44,46,-1,-1,48,50,52,54,56,-1,58,60,62,64,66,68,70,72,-1,-1,74,76,78,-1,-1,-1,-1,-1,-1,-1,-1,-1,-1,-1,-1,-1,-1,-1,-1,-1,-1,-1,-1,-1,-1,-1,-1,-1,-1,-1,-1,-1,-1,-1,-1,-1],"split_conditions":[6.7E1,1.1200001E1,1.15E2,2.2291463E2,3.8E1,2.4330782E2,1.32E2,1.2159165E1,8E0,2.8292084E1,4E1,5.5E1,9.4E1,3.4223661E0,6.6456074E-1,4E-1,5.0580162E1,1.9E1,1.4966673E0,1.8E1,1.3112137E2,2.8E1,1.002375E1,1.990693E2,2.0256635E2,-3.5194495E-1,7.549645E-1,2.7551172E1,9E0,1.6299694E1,2.5E1,2.5647577E2,-1.8496016E0,2.5959969E1,5.094583E0,1.5E1,1E1,2E1,2.2317665E2,1.9E1,3.2E1,-4.2908928E-1,-1.9903709E0,2.3E1,7.1E1,1.35515E1,1.9292489E0,3.4057042E-1,1.2641526E0,1.5952178E0,3.8568396E-2,2.9267618E-2,1.4543015E0,-4.6720717E-2,-5.710821E-1,-7.904903E-1,-7.1000373E-3,5.55176E-1,-1.1682162E0,-3.7672785E-1,-3.457421E-2,-6.379317E-1,8.6976093E-1,8.403849E-1,-1.2142681E0,-6.43096E-1,1.3442851E0,-1.0625137E0,-1.2631156E-1,-1.1516407E0,3.295708E-2,7.996976E-1,3.3683872E0,7.380785E-1,1.8488456E0,-3.627966E-1,1.9981614E-1,-2.7881104E-1,5.368493E-1],"split_indices":[0,4,0,6,0,6,0,3,0,5,1,1,1,0,0,4,6,1,3,1,6,2,3,6,6,0,0,5,1,5,2,6,0,5,3,1,2,0,6,2,1,0,0,2,0,5,0,0,0,0,0,0,0,0,0,0,0,0,0,0,0,0,0,0,0,0,0,0,0,0,0,0,0,0,0,0,0,0,0],"split_type":[0,0,0,0,0,0,0,0,0,0,0,0,0,0,0,0,0,0,0,0,0,0,0,0,0,0,0,0,0,0,0,0,0,0,0,0,0,0,0,0,0,0,0,0,0,0,0,0,0,0,0,0,0,0,0,0,0,0,0,0,0,0,0,0,0,0,0,0,0,0,0,0,0,0,0,0,0,0,0],"sum_hessian":[2.494E3,2.449E3,4.5E1,2.316E3,1.33E2,4.3E1,2E0,1.209E3,1.107E3,1.17E2,1.6E1,3.8E1,5E0,1E0,1E0,7.74E2,4.35E2,1.9E1,1.088E3,5.8E1,5.9E1,1.1E1,5E0,1.4E1,2.4E1,4E0,1E0,3.1E2,4.64E2,7.2E1,3.63E2,1.5E1,4E0,6.5E1,1.023E3,2.4E1,3.4E1,1.7E1,4.2E1,5E0,6E0,4E0,1E0,1.2E1,2E0,2.2E1,2E0,2.73E2,3.7E1,9E0,4.55E2,5.1E1,2.1E1,2.46E2,1.17E2,9E0,6E0,5.7E1,8E0,1.69E2,8.54E2,1.8E1,6E0,2E0,3.2E1,8E0,9E0,1.6E1,2.6E1,3E0,2E0,3E0,3E0,4E0,8E0,1E0,1E0,4E0,1.8E1],"tree_param":{"num_deleted":"0","num_feature":"7","num_nodes":"79","size_leaf_vector":"1"}},{"base_weights":[3.3300463E-2,-1.3583337E-1,6.591285E-1,-1.1154119E0,-7.4900165E-2,7.4202764E-1,-4.2314706E0,4.0188675E0,-1.4854009E0,2.2098827E0,-1.3175702E-1,1.2129953E0,1.1397876E-2,-5.5769477E0,-3.4661624E-1,-1.1472231E0,5.9321017E0,7.840118E-1,-2.0422018E0,1.1808594E0,8.701725E0,-4.5183244E0,-1.0728681E-1,1.1148236E0,7.135577E0,-1.0990193E0,1.1110284E0,-2.4287574E0,-6.8805844E-1,-1.1256409E-2,-5.0499403E-1,2.3278985E0,8.760339E0,-1.3864548E0,4.0731807E0,-1.3972641E0,-4.0026126E0,-3.1672332E0,2.7357981E0,4.0169253E0,-4.4955063E-1,-1.6873729E0,-1.4528022E0,-1.4895457E-2,-8.212293E-1,5.698553E-1,2.2753572E0,2.8813033E0,6.864853E-1,6.1309147E0,-1.5304539E0,3.885299E0,-1.7594327E-1,8.0263466E-1,1.9278719E-1,7.677558E-1,3.1743968E0,-5.7337385E-1,8.153747E-1,4.578711E-1,1.5276841E0,-7.119013E-1,2.5592142E-1,-1.8174962E0,2.9228318E-1,-1.7445859E0,-2.4699146E-1,1.838408E0,2.1998481E-1,-4.528453E-1,2.5054753E-1,5.866685E-1,-9.7223324E-1,2.58204E-2,-2.5815758E-1,-3.3935374E-1,4.1042516E-1,2.8547275E-1,-9.0054834E-1,1.7910492E0,3.0900645E-1,2.0867665E0,3.0090752E-1,-5.293177E-1,1.939718E0,2.9170008E0,1.5729336E-1,5.702599E-1,-3.96322E-1],"categories":[],"categories_nodes":[],"categories_segments":[],"categories_sizes":[],"default_left":[0,0,0,0,0,0,0,0,0,0,0,0,0,0,0,0,0,0,0,0,0,0,0,0,0,0,0,0,0,0,0,0,0,0,0,0,0,0,0,0,0,0,0,0,0,0,0,0,0,0,0,0,1,0,0,0,0,0,0,0,0,0,0,0,0,0,0,0,0,0,0,0,0,0,0,0,0,0,0,0,0,0,0,0,0,0,0,0,0],"id":11,"left_children":[1,3,5,7,9,11,13,15,17,19,21,23,25,27,-1,29,31,33,35,37,39,41,43,45,47,49,51,-1,-1,-1,-1,53,55,57,59,61,63,65,67,-1,69,-1,71,73,75,77,79,-1,-1,81,83,85,87,-1,-1,-1,-1,-1,-1,-1,-1,-1,-1,-1,-1,-1,-1,-1,-1,-1,-1,-1,-1,-1,-1,-1,-1,-1,-1,-1,-1,-1,-1,-1,-1,-1,-1,-1,-1],"loss_changes":[2.64182E2,1.1720505E2,2.1842137E2,2.2442679E2,2.4074638E2,1.7995203E2,3.0805649E1,8.587697E1,1.3807108E2,2.9033606E2,1.93479E2,1.7693973E2,2.5275706E2,3.105574E1,0E0,1.7215407E0,4.0768066E1,1.6270596E2,1.0440515E2,2.791056E2,2.6342783E2,2.5741013E1,1.1858764E2,1.9729398E2,3.7856735E1,3.306651E2,3.7200598E2,0E0,0E0,0E0,0E0,6.2356377E-1,6.7970123E0,3.534973E1,1.5588272E1,1.4913907E2,2.2075415E2,6.3487556E1,1.992961E2,0E0,5.345777E0,0E0,3.0713821E1,1.3608075E2,1.4133443E2,2.9598416E2,4.5397815E2,0E0,0E0,1.8405273E1,1.947282E2,6.424137E2,1.7374281E2,0E0,0E0,0E0,0E0,0E0,0E0,0E0,0E0,0E0,0E0,0E0,0E0,0E0,0E0,0E0,0E0,0E0,0E0,0E0,0E0,0E0,0E0,0E0,0E0,0E0,0E0,0E0,0E0,0E0,0E0,0E0,0E0,0E0,0E0,0E0,0E0],"parents":[2147483647,0,0,1,1,2,2,3,3,4,4,5,5,6,6,7,7,8,8,9,9,10,10,11,11,12,12,13,13,15,15,16,16,17,17,18,18,19,19,20,20,21,21,22,22,23,23,24,24,25,25,26,26,31,31,32,32,33,33,34,34,35,35,36,36,37,37,38,38,40,40,42,42,43,43,44,44,45,45,46,46,49,49,50,50,51,51,52,52],"right_children":[2,4,6,8,10,12,14,16,18,20,22,24,26,28,-1,30,32,34,36,38,40,42,44,46,48,50,52,-1,-1,-1,-1,54,56,58,60,62,64,66,68,-1,70,-1,72,74,76,78,80,-1,-1,82,84,86,88,-1,-1,-1,-1,-1,-1,-1,-1,-1,-1,-1,-1,-1,-1,-1,-1,-1,-1,-1,-1,-1,-1,-1,-1,-1,-1,-1,-1,-1,-1,-1,-1,-1,-1,-1,-1],"split_conditions":[3.1E1,4.787993E1,1.6400002E1,1.0028439E1,5.3129993E1,2.0991426E1,3.6E1,1.2E1,4.680001E0,1.5702916E1,5.4214943E1,9.4E1,3.4E1,1.9E1,-3.4661624E-1,8E0,9.255571E0,3.6445835E0,2.9E1,1.6299694E1,2.3E1,2.8E1,1.5561249E1,1.7533146E1,4.9E1,1.2E1,4.2E1,-2.4287574E0,-6.8805844E-1,-1.1256409E-2,-5.0499403E-1,2.1E1,1.3E1,2.5721743E1,1.448972E1,2E1,3.6999996E0,8E-1,8E-1,4.0169253E0,2.6E1,-1.6873729E0,2.1E1,2.7426135E2,1.8786251E1,1.6981165E1,6.847305E1,2.8813033E0,6.864853E-1,5.1E1,5.8E1,6.3570824E0,3.1E1,8.0263466E-1,1.9278719E-1,7.677558E-1,3.1743968E0,-5.7337385E-1,8.153747E-1,4.578711E-1,1.5276841E0,-7.119013E-1,2.5592142E-1,-1.8174962E0,2.9228318E-1,-1.7445859E0,-2.4699146E-1,1.838408E0,2.1998481E-1,-4.528453E-1,2.5054753E-1,5.866685E-1,-9.7223324E-1,2.58204E-2,-2.5815758E-1,-3.3935374E-1,4.1042516E-1,2.8547275E-1,-9.0054834E-1,1.7910492E0,3.0900645E-1,2.0867665E0,3.0090752E-1,-5.293177E-1,1.939718E0,2.9170008E0,1.5729336E-1,5.702599E-1,-3.96322E-1],"split_indices":[0,6,4,5,6,5,0,0,3,3,6,0,1,2,0,0,5,3,1,5,0,2,3,5,2,2,1,0,0,0,0,0,0,5,5,0,4,4,4,0,0,0,1,6,3,5,6,0,0,0,0,3,2,0,0,0,0,0,0,0,0,0,0,0,0,0,0,0,0,0,0,0,0,0,0,0,0,0,0,0,0,0,0,0,0,0,0,0,0],"split_type":[0,0,0,0,0,0,0,0,0,0,0,0,0,0,0,0,0,0,0,0,0,0,0,0,0,0,0,0,0,0,0,0,0,0,0,0,0,0,0,0,0,0,0,0,0,0,0,0,0,0,0,0,0,0,0,0,0,0,0,0,0,0,0,0,0,0,0,0,0,0,0,0,0,0,0,0,0,0,0,0,0,0,0,0,0,0,0,0,0],"sum_hessian":[2.494E3,1.964E3,5.3E2,1.14E2,1.85E3,5.22E2,8E0,7E0,1.07E2,4.4E1,1.806E3,3.17E2,2.05E2,5E0,3E0,2E0,5E0,2.1E1,8.6E1,3.9E1,5E0,9E0,1.797E3,3.13E2,4E0,1.02E2,1.03E2,2E0,3E0,1E0,1E0,3E0,2E0,1.3E1,8E0,6.6E1,2E1,1E1,2.9E1,3E0,2E0,6E0,3E0,1.592E3,2.05E2,2.14E2,9.9E1,2E0,2E0,5E0,9.7E1,3.2E1,7.1E1,2E0,1E0,1E0,1E0,1.2E1,1E0,3E0,5E0,4.6E1,2E1,1.4E1,6E0,4E0,6E0,1E1,1.9E1,1E0,1E0,1E0,2E0,1.423E3,1.69E2,1.8E2,2.5E1,1.94E2,2E1,2.4E1,7.5E1,4E0,1E0,9.5E1,2E0,1.1E1,2.1E1,2.5E1,4.6E1],"tree_param":{"num_deleted":"0","num_feature":"7","num_nodes":"89","size_leaf_vector":"1"}},{"base_weights":[2.9302746E-2,3.2334208E-1,-2.1044081E-1,-2.4780126E-1,8.250622E-1,4.9420226E-1,-4.0337035E-1,1.9713832E0,-3.8627988E-1,7.0136313E0,7.39751E-1,1.8847457E-1,2.5040367E0,-1.5285559E0,-2.7934754E-1,1.0721816E0,1.0006537E1,-1.199976E0,-3.576977E-2,-9.869391E-1,8.955521E0,2.757872E-1,1.5418189E0,7.056142E-1,-1.778231E0,6.3022437E0,-4.1220498E-1,1.8770319E0,-1.7364361E0,-2.7286532E0,-2.1724166E-1,1.0861786E-1,5.6755643E0,4.0062838E0,4.9665844E-1,-1.9109524E0,3.3584842E-1,2.9364822E0,-4.6584648E-1,5.1677155E-1,3.4512558E0,1.1156214E0,-6.500403E-1,-1.4466096E0,2.314711E0,-2.3698637E0,1.0882939E0,1.3476545E0,-3.1298578E0,8.261284E0,3.065663E0,-4.4625587E0,1.6387347E0,-2.1959825E0,-2.575833E-3,-8.411149E-1,-2.4753249E0,8.371101E-1,-3.957224E-1,5.9522754E-1,-7.376163E-1,-2.9150793E-1,2.2740905E0,-7.080268E-1,4.0363586E-1,8.4866494E-1,-3.7628055E-1,1.340096E0,-3.1703886E-1,-2.0982997E-2,-3.7132654E-1,-3.1644344E-2,6.129879E-1,-3.2822987E-1,6.7902887E-1,9.1694146E-1,-8.4615964E-1,9.050074E-1,-4.7007352E-1,-4.3396297E-1,-1.6213527E0,1.5883754E0,2.2864592E-1,-1.0156333E0,9.1932344E-1,-2.4325562E0,-6.389407E-1,-4.2517662E-2,2.7632098E0,2.064007E0,-1.7968735E-1,-1.7429572E0,7.452799E-1,1.7159976E0,-4.1460562E-1,-7.1317077E-1,1.028956E0,1.8022076E0,-3.6133018E-1,-6.963057E-1,4.4516417E-1,-1.0955217E-2,1.1561136E0,-8.5121356E-2,-8.869304E-1],"categories":[],"categories_nodes":[],"categories_segments":[],"categories_sizes":[],"default_left":[0,1,0,0,0,0,0,0,0,0,0,0,0,0,0,0,0,0,0,0,0,0,0,0,0,0,0,0,0,0,0,0,0,0,0,1,0,0,0,0,0,0,0,0,0,0,0,0,0,0,0,0,0,0,0,0,0,0,0,0,0,0,0,0,0,0,0,0,0,0,0,0,0,0,0,0,0,0,0,0,0,0,0,0,0,0,0,0,0,0,0,0,0,0,0,0,0,0,0,0,0,0,0,0,0],"id":12,"left_children":[1,3,5,7,9,11,13,15,17,19,21,23,25,27,29,31,33,35,37,-1,39,41,43,45,47,49,51,-1,53,55,57,59,61,-1,-1,63,65,67,69,-1,-1,71,73,75,77,79,81,83,85,87,89,91,93,95,97,99,-1,101,103,-1,-1,-1,-1,-1,-1,-1,-1,-1,-1,-1,-1,-1,-1,-1,-1,-1,-1,-1,-1,-1,-1,-1,-1,-1,-1,-1,-1,-1,-1,-1,-1,-1,-1,-1,-1,-1,-1,-1,-1,-1,-1,-1,-1,-1,-1],"loss_changes":[1.7595065E2,3.214316E2,1.8712573E2,1.6209904E2,3.100004E2,1.8140881E2,1.5028558E2,2.1325314E2,1.411354E2,1.895268E2,2.1913177E2,2.636566E2,4.3458093E2,1.8403503E2,1.4756847E2,1.2801747E2,6.1762665E1,1.6334012E2,4.4493677E2,0E0,1.09223694E2,2.9230328E2,5.0225092E2,2.4384827E2,2.3236966E2,8.2463745E1,1.9837466E2,0E0,8.3657196E1,2.4323103E2,1.7929182E2,1.2525274E2,7.0672134E1,0E0,0E0,1.5235767E2,1.9383055E2,2.7363678E2,9.2816154E1,0E0,0E0,2.2337354E2,2.340582E2,2.8703064E2,4.733963E2,5.6626984E1,2.47012E2,1.4850925E2,1.7193018E2,8.108484E1,1.1594632E2,8.930882E1,2.0516066E2,9.278885E1,1.7336649E2,6.881875E1,0E0,3.6382407E2,2.3258398E2,0E0,0E0,0E0,0E0,0E0,0E0,0E0,0E0,0E0,0E0,0E0,0E0,0E0,0E0,0E0,0E0,0E0,0E0,0E0,0E0,0E0,0E0,0E0,0E0,0E0,0E0,0E0,0E0,0E0,0E0,0E0,0E0,0E0,0E0,0E0,0E0,0E0,0E0,0E0,0E0,0E0,0E0,0E0,0E0,0E0,0E0],"parents":[2147483647,0,0,1,1,2,2,3,3,4,4,5,5,6,6,7,7,8,8,9,9,10,10,11,11,12,12,13,13,14,14,15,15,16,16,17,17,18,18,20,20,21,21,22,22,23,23,24,24,25,25,26,26,28,28,29,29,30,30,31,31,32,32,35,35,36,36,37,37,38,38,41,41,42,42,43,43,44,44,45,45,46,46,47,47,48,48,49,49,50,50,51,51,52,52,53,53,54,54,55,55,57,57,58,58],"right_children":[2,4,6,8,10,12,14,16,18,20,22,24,26,28,30,32,34,36,38,-1,40,42,44,46,48,50,52,-1,54,56,58,60,62,-1,-1,64,66,68,70,-1,-1,72,74,76,78,80,82,84,86,88,90,92,94,96,98,100,-1,102,104,-1,-1,-1,-1,-1,-1,-1,-1,-1,-1,-1,-1,-1,-1,-1,-1,-1,-1,-1,-1,-1,-1,-1,-1,-1,-1,-1,-1,-1,-1,-1,-1,-1,-1,-1,-1,-1,-1,-1,-1,-1,-1,-1,-1,-1,-1],"split_conditions":[2.1325253E1,2.2E1,1E-1,2.1570835E0,1E1,3.6E1,2.2881956E1,1.8820834E0,1E-1,3.8846046E1,1.7447933E1,2.6E1,3.7E1,2.1570835E0,3.5620724E1,1.9228851E1,2.1E1,1.3611251E1,3E-1,-9.869391E-1,7.9175E0,1.002375E1,5.48E0,1E1,6.8924994E0,2.81169E1,2.2505037E1,1.8770319E0,3.1E1,2.9E1,1.6382771E2,1.5459054E1,8E0,4.0062838E0,4.9665844E-1,3.1E1,1.8265207E2,2.603544E2,1.811841E1,5.1677155E-1,3.4512558E0,2.3E1,4.7E1,2.5E1,4.4E1,1.8E1,1.1103762E2,2.3070834E0,1.7E1,2.1570835E0,5.5779166E0,1.1757084E1,3E1,1.53E1,4.9301426E1,2.7E1,-2.4753249E0,3.6E1,4.3E1,5.9522754E-1,-7.376163E-1,-2.9150793E-1,2.2740905E0,-7.080268E-1,4.0363586E-1,8.4866494E-1,-3.7628055E-1,1.340096E0,-3.1703886E-1,-2.0982997E-2,-3.7132654E-1,-3.1644344E-2,6.129879E-1,-3.2822987E-1,6.7902887E-1,9.1694146E-1,-8.4615964E-1,9.050074E-1,-4.7007352E-1,-4.3396297E-1,-1.6213527E0,1.5883754E0,2.2864592E-1,-1.0156333E0,9.1932344E-1,-2.4325562E0,-6.389407E-1,-4.2517662E-2,2.7632098E0,2.064007E0,-1.7968735E-1,-1.7429572E0,7.452799E-1,1.7159976E0,-4.1460562E-1,-7.1317077E-1,1.028956E0,1.8022076E0,-3.6133018E-1,-6.963057E-1,4.4516417E-1,-1.0955217E-2,1.1561136E0,-8.5121356E-2,-8.869304E-1],"split_indices":[5,0,4,3,1,1,5,3,4,6,5,1,0,3,6,5,0,3,4,0,3,3,3,2,3,5,5,0,1,0,6,5,1,0,0,1,6,6,5,0,0,2,2,0,2,0,6,3,2,3,3,3,2,4,6,2,0,0,0,0,0,0,0,0,0,0,0,0,0,0,0,0,0,0,0,0,0,0,0,0,0,0,0,0,0,0,0,0,0,0,0,0,0,0,0,0,0,0,0,0,0,0,0,0,0],"split_type":[0,0,0,0,0,0,0,0,0,0,0,0,0,0,0,0,0,0,0,0,0,0,0,0,0,0,0,0,0,0,0,0,0,0,0,0,0,0,0,0,0,0,0,0,0,0,0,0,0,0,0,0,0,0,0,0,0,0,0,0,0,0,0,0,0,0,0,0,0,0,0,0,0,0,0,0,0,0,0,0,0,0,0,0,0,0,0,0,0,0,0,0,0,0,0,0,0,0,0,0,0,0,0,0,0],"sum_hessian":[2.494E3,1.12E3,1.374E3,5.24E2,5.96E2,2.95E2,1.079E3,3E1,4.94E2,7E0,5.89E2,2.57E2,3.8E1,1.06E2,9.73E2,2.8E1,2E0,1.48E2,3.46E2,1E0,6E0,3.74E2,2.15E2,2.04E2,5.3E1,1.6E1,2.2E1,2E0,1.04E2,2.3E1,9.5E2,2.4E1,4E0,1E0,1E0,1.01E2,4.7E1,4.3E1,3.03E2,2E0,4E0,1.96E2,1.78E2,4.4E1,1.71E2,2.2E1,1.82E2,1.6E1,3.7E1,9E0,7E0,7E0,1.5E1,8.2E1,2.2E1,1.8E1,5E0,1.37E2,8.13E2,1.4E1,1E1,1E0,3E0,8.9E1,1.2E1,1.8E1,2.9E1,3.1E1,1.2E1,2.01E2,1.02E2,8.5E1,1.11E2,1.55E2,2.3E1,1E1,3.4E1,1.45E2,2.6E1,1.8E1,4E0,1.2E1,1.7E2,4E0,1.2E1,5E0,3.2E1,1E0,8E0,3E0,4E0,6E0,1E0,6E0,9E0,8E1,2E0,3E0,1.9E1,1.1E1,7E0,1.07E2,3E1,7.8E2,3.3E1],"tree_param":{"num_deleted":"0","num_feature":"7","num_nodes":"105","size_leaf_vector":"1"}},{"base_weights":[2.6180666E-2,1.3825015E0,-7.2370004E-3,4.308806E0,6.376413E-1,-1.4761208E-2,6.0998154E0,-3.950572E-1,5.9206553E0,-1.9438677E0,1.8337148E0,-3.784799E-2,1.719373E0,2.3848677E0,3.6004946E-1,5.038376E-1,-4.939146E-1,1.9185631E0,8.738617E0,1.1725788E0,-2.753246E0,6.250545E-1,4.671994E0,3.9294936E-2,-5.474574E-1,3.7429326E0,6.294399E-1,2.5532799E0,-9.304562E-2,3.1022375E0,3.49488E-1,-6.420422E-3,4.733118E-1,-1.4474388E0,-1.5988358E0,1.5596558E0,-2.0245721E0,1.771864E0,-1.7658742E-1,2.6782027E-2,5.2468166E0,-6.1897665E-1,5.18579E0,1.6211499E0,-5.1460123E-1,-2.8281106E-2,8.6140424E-1,9.4449204E-1,1.15229994E-1,-1.0677551E-1,-8.98722E-1,1.4575491E0,2.4657144E-1,-5.7650876E-1,4.9704438E-1,1.1445849E-2,-1.0057644E0,1.8966466E-1,1.8727239E0,3.7857108E-2,-3.365228E-1,-9.6360403E-1,2.7167187E0,3.824158E-2,-3.661231E-1,9.765837E-2,-9.064552E-1],"categories":[],"categories_nodes":[],"categories_segments":[],"categories_sizes":[],"default_left":[0,0,1,0,0,0,0,0,0,0,0,0,0,0,0,0,0,0,0,0,0,0,0,0,0,0,0,0,0,0,0,0,0,0,0,0,0,0,0,0,0,0,0,0,0,0,0,0,0,0,0,0,0,0,0,0,0,0,0,0,0,0,0,0,0,0,0],"id":13,"left_children":[1,3,5,7,9,11,13,15,17,19,21,23,25,-1,-1,-1,-1,27,29,31,33,35,37,39,41,43,45,47,-1,-1,-1,-1,-1,49,-1,51,-1,-1,53,55,57,59,61,-1,63,65,-1,-1,-1,-1,-1,-1,-1,-1,-1,-1,-1,-1,-1,-1,-1,-1,-1,-1,-1,-1,-1],"loss_changes":[1.1309607E2,1.2803378E2,1.12026E2,9.332201E1,1.5486057E2,9.751166E1,1.7648506E1,1.3148603E1,8.473407E1,4.358654E1,1.137173E2,9.449008E1,6.822147E1,0E0,0E0,0E0,0E0,7.8649178E0,4.8625E1,1.9686203E0,3.6018326E1,1.8281049E2,6.0885056E1,1.3591617E2,1.3278178E2,8.056555E1,3.25213E1,3.9536152E0,0E0,0E0,0E0,0E0,0E0,1.5833786E1,0E0,5.1982414E1,0E0,0E0,1.2782349E1,8.020704E1,1.9024857E1,1.17405334E2,1.5908307E2,0E0,1.9682925E0,2.00462E1,0E0,0E0,0E0,0E0,0E0,0E0,0E0,0E0,0E0,0E0,0E0,0E0,0E0,0E0,0E0,0E0,0E0,0E0,0E0,0E0,0E0],"parents":[2147483647,0,0,1,1,2,2,3,3,4,4,5,5,6,6,7,7,8,8,9,9,10,10,11,11,12,12,17,17,18,18,19,19,20,20,21,21,22,22,23,23,24,24,25,25,26,26,27,27,33,33,35,35,38,38,39,39,40,40,41,41,42,42,44,44,45,45],"right_children":[2,4,6,8,10,12,14,16,18,20,22,24,26,-1,-1,-1,-1,28,30,32,34,36,38,40,42,44,46,48,-1,-1,-1,-1,-1,50,-1,52,-1,-1,54,56,58,60,62,-1,64,66,-1,-1,-1,-1,-1,-1,-1,-1,-1,-1,-1,-1,-1,-1,-1,-1,-1,-1,-1,-1,-1],"split_conditions":[9.793059E0,1.4E1,1.15E2,1.3E1,2.7E1,4.793275E1,1.32E2,8.78872E0,1.3E1,4.9301426E1,9.255571E0,6.6000004E0,2.9E0,2.3848677E0,3.6004946E-1,5.038376E-1,-4.939146E-1,1.4055E1,1.8E1,8E0,1.2807083E1,4.1E1,4.8E1,4.609265E1,5.9E1,2.1E1,2.7E1,2E1,-9.304562E-2,3.1022375E0,3.49488E-1,-6.420422E-3,4.733118E-1,2.5E1,-1.5988358E0,3E1,-2.0245721E0,1.771864E0,7.4E1,4.5035984E1,1.6E1,1.8E1,1.4E1,1.6211499E0,2.1E1,2.6E1,8.6140424E-1,9.4449204E-1,1.15229994E-1,-1.0677551E-1,-8.98722E-1,1.4575491E0,2.4657144E-1,-5.7650876E-1,4.9704438E-1,1.1445849E-2,-1.0057644E0,1.8966466E-1,1.8727239E0,3.7857108E-2,-3.365228E-1,-9.6360403E-1,2.7167187E0,3.824158E-2,-3.661231E-1,9.765837E-2,-9.064552E-1],"split_indices":[5,1,0,0,0,5,0,5,1,6,5,4,4,0,0,0,0,3,2,0,3,2,1,5,2,2,0,0,0,0,0,0,0,0,0,0,0,0,0,5,0,1,0,0,0,0,0,0,0,0,0,0,0,0,0,0,0,0,0,0,0,0,0,0,0,0,0],"split_type":[0,0,0,0,0,0,0,0,0,0,0,0,0,0,0,0,0,0,0,0,0,0,0,0,0,0,0,0,0,0,0,0,0,0,0,0,0,0,0,0,0,0,0,0,0,0,0,0,0,0,0,0,0,0,0,0,0,0,0,0,0,0,0,0,0,0,0],"sum_hessian":[2.494E3,5.9E1,2.435E3,1.1E1,4.8E1,2.433E3,2E0,3E0,8E0,1.5E1,3.3E1,2.402E3,3.1E1,1E0,1E0,1E0,2E0,4E0,4E0,3E0,1.2E1,2.4E1,9E0,2.087E3,3.15E2,1E1,2.1E1,3E0,1E0,3E0,1E0,1E0,2E0,9E0,3E0,2.2E1,2E0,7E0,2E0,2.083E3,4E0,3.12E2,3E0,7E0,3E0,1.7E1,4E0,2E0,1E0,6E0,3E0,3E0,1.9E1,1E0,1E0,2.077E3,6E0,1E0,3E0,1.26E2,1.86E2,1E0,2E0,2E0,1E0,1.6E1,1E0],"tree_param":{"num_deleted":"0","num_feature":"7","num_nodes":"67","size_leaf_vector":"1"}},{"base_weights":[2.2445302E-2,7.311717E-3,2.366748E0,-1.0082262E-2,1.9511518E0,4.127982E0,8.951616E-2,4.38284E-1,-8.945328E-2,8.253432E-1,2.0432866E0,1.3390793E0,1.8273866E0,1.7138166E0,-1.2278274E0,1.5160073E-1,2.077441E0,1.0468379E-2,-5.169224E-1,1.657094E0,-1.2489078E0,1.9504167E-2,1.6413422E0,9.846783E-1,9.6914925E-2,-5.8958876E-1,2.583069E-1,-6.5115887E-1,6.5306264E-1,1.2533523E0,2.579582E0,-1.0209605E-1,1.6820049E0,-6.859229E-1,1.9144667E0,-3.0941623E-1,2.7578647E0,6.3429797E-1,3.3358384E-2,-1.3871613E-1,1.8232785E-1,-2.9072562E-1,1.6970799E0,1.3618758E0,9.118974E-2,6.944904E-1,-1.3828503E0,1.0986781E-2,-3.2645285E-1,1.4673351E-1,1.7361144E0,-5.8863074E-1,-1.179132E-1,1.2309507E0,-7.639422E-2,-3.0317053E-1,1.40727E-1,1.1030551E0,-2.7551404E-1],"categories":[],"categories_nodes":[],"categories_segments":[],"categories_sizes":[],"default_left":[1,0,0,0,0,0,0,1,0,0,0,0,0,0,0,0,0,0,0,0,0,0,0,0,0,0,0,0,0,0,0,0,0,0,0,0,0,0,0,0,0,0,0,0,0,0,0,0,0,0,0,0,0,0,0,0,0,0,0],"id":14,"left_children":[1,3,5,7,9,11,13,15,17,19,-1,21,-1,23,25,27,29,31,33,35,-1,-1,37,-1,39,-1,-1,41,43,45,-1,47,49,51,53,55,57,-1,-1,-1,-1,-1,-1,-1,-1,-1,-1,-1,-1,-1,-1,-1,-1,-1,-1,-1,-1,-1,-1],"loss_changes":[8.849957E1,8.387123E1,6.380229E1,8.754835E1,1.1474523E2,4.1122528E1,1.9222364E1,1.7355505E2,8.9276474E1,8.573105E1,0E0,1.8188028E0,0E0,9.82598E0,9.39447E0,1.2763211E2,2.847939E2,3.190954E2,1.6403195E2,3.7652832E1,0E0,0E0,2.6598415E0,0E0,1.1381693E0,0E0,0E0,2.5015414E2,2.6319083E2,3.2187564E2,0E0,2.1739552E2,5.211354E2,1.3789603E2,1.2448103E2,4.2950068E0,4.0539314E1,0E0,0E0,0E0,0E0,0E0,0E0,0E0,0E0,0E0,0E0,0E0,0E0,0E0,0E0,0E0,0E0,0E0,0E0,0E0,0E0,0E0,0E0],"parents":[2147483647,0,0,1,1,2,2,3,3,4,4,5,5,6,6,7,7,8,8,9,9,11,11,13,13,14,14,15,15,16,16,17,17,18,18,19,19,22,22,24,24,27,27,28,28,29,29,31,31,32,32,33,33,34,34,35,35,36,36],"right_children":[2,4,6,8,10,12,14,16,18,20,-1,22,-1,24,26,28,30,32,34,36,-1,-1,38,-1,40,-1,-1,42,44,46,-1,48,50,52,54,56,58,-1,-1,-1,-1,-1,-1,-1,-1,-1,-1,-1,-1,-1,-1,-1,-1,-1,-1,-1,-1,-1,-1],"split_conditions":[8.2E1,1.9463333E1,1.0000001E0,1.4512064E1,2.3494734E2,1.3104198E1,1.3292032E2,4E1,3.2E1,2.4E1,2.0432866E0,5.384167E0,1.8273866E0,9.1E1,1.05E2,1.1659777E1,1.5361252E1,2.9E1,1.614875E1,5E-1,-1.2489078E0,1.9504167E-2,2.2317665E2,9.846783E-1,9.4E1,-5.8958876E-1,2.583069E-1,4.7E1,1.1966954E1,1.3415417E1,2.579582E0,1.513625E1,3.9E1,3.5E1,1.73175E1,1.8E1,2.2291463E2,6.3429797E-1,3.3358384E-2,-1.3871613E-1,1.8232785E-1,-2.9072562E-1,1.6970799E0,1.3618758E0,9.118974E-2,6.944904E-1,-1.3828503E0,1.0986781E-2,-3.2645285E-1,1.4673351E-1,1.7361144E0,-5.8863074E-1,-1.179132E-1,1.2309507E0,-7.639422E-2,-3.0317053E-1,1.40727E-1,1.1030551E0,-2.7551404E-1],"split_indices":[0,3,4,5,6,5,6,2,2,2,0,3,0,0,0,5,3,2,3,4,0,0,6,0,0,0,0,1,5,3,0,3,1,2,3,1,6,0,0,0,0,0,0,0,0,0,0,0,0,0,0,0,0,0,0,0,0,0,0],"split_type":[0,0,0,0,0,0,0,0,0,0,0,0,0,0,0,0,0,0,0,0,0,0,0,0,0,0,0,0,0,0,0,0,0,0,0,0,0,0,0,0,0,0,0,0,0,0,0,0,0,0,0,0,0,0,0,0,0,0,0],"sum_hessian":[2.494E3,2.479E3,1.5E1,2.458E3,2.1E1,8E0,7E0,3.69E2,2.089E3,1.8E1,3E0,4E0,4E0,3E0,4E0,3.15E2,5.4E1,1.694E3,3.95E2,1.6E1,2E0,1E0,3E0,1E0,2E0,3E0,1E0,1.21E2,1.94E2,4.9E1,5E0,1.588E3,1.06E2,3.7E2,2.5E1,6E0,1E1,2E0,1E0,1E0,1E0,1.16E2,5E0,1.5E1,1.79E2,4.2E1,7E0,1.393E3,1.95E2,8.3E1,2.3E1,6.8E1,3.02E2,1.2E1,1.3E1,3E0,3E0,8E0,2E0],"tree_param":{"num_deleted":"0","num_feature":"7","num_nodes":"59","size_leaf_vector":"1"}},{"base_weights":[2.0295836E-2,-5.855179E-1,6.6807725E-2,1.0055751E0,-7.2747445E-1,-3.5258029E0,7.609819E-2,-1.1137491E0,2.9992025E0,-5.779885E-1,-2.419351E0,-5.1116657E0,-7.081538E-2,1.0505583E-1,-1.0718578E0,3.734293E-1,-1.6717135E0,-3.1318665E-3,4.0005026E0,-6.8004405E-1,2.0187037E0,-4.0383053E0,-4.5477512E-1,-1.7337638E0,-4.6635404E-1,9.1518745E-2,5.168465E0,1.5968585E-1,-2.18557E0,2.1293163E-3,1.6591388E-1,3.8151458E-2,-6.1707747E-1,1.826849E-2,-1.967783E-2,3.5753605E-1,1.2971666E0,-2.4853417E-1,-1.5928621E0,1.7133217E0,-1.0732067E0,-2.6750696E-1,-1.324238E0,6.2107575E-1,-1.2206551E0,5.137739E-2,1.0780474E0,1.8419099E0,4.684396E-2,1.1316627E0,-3.5928397E0,-5.16961E0,-1.2241595E0,-1.6091314E-1,1.1080232E0,-1.0884439E0,-1.5763296E-1,-5.928572E-1,3.8355333E-1,3.3838008E-2,-1.831376E-1,6.455996E-1,-2.3312496E-1,1.0270744E-1,1.438581E0,-1.8589603E0,3.2290995E-1,-1.8040624E-1,-1.7492281E0,-1.1119289E-1,-7.816514E-1],"categories":[],"categories_nodes":[],"categories_segments":[],"categories_sizes":[],"default_left":[0,0,0,0,0,0,0,0,0,0,0,0,0,0,0,0,0,0,0,0,0,0,0,0,0,0,0,0,0,0,0,0,0,0,0,0,0,0,0,0,0,0,0,0,0,0,0,0,0,0,0,0,0,0,0,0,0,0,0,0,0,0,0,0,0,0,0,0,0,0,0],"id":15,"left_children":[1,3,5,7,9,11,13,15,17,19,21,23,-1,25,27,29,31,33,35,37,39,41,43,-1,-1,45,47,49,51,-1,-1,-1,-1,-1,-1,-1,-1,53,55,-1,-1,-1,-1,-1,57,59,61,-1,-1,63,65,67,69,-1,-1,-1,-1,-1,-1,-1,-1,-1,-1,-1,-1,-1,-1,-1,-1,-1,-1],"loss_changes":[7.034208E1,4.0935696E1,7.7636284E1,6.671751E1,4.0079178E1,3.0095963E1,7.700157E1,7.2626066E0,2.4062439E1,4.165385E1,3.951075E1,5.1438904E-1,0E0,1.5423032E2,7.8529366E1,1.9347268E-1,4.4192867E0,1.5991788E-2,2.966385E-1,5.7505943E1,1.444068E2,4.3419113E0,1.606414E1,0E0,0E0,8.912517E1,2.8250137E1,1.06192184E2,7.9738174E1,0E0,0E0,0E0,0E0,0E0,0E0,0E0,0E0,1.1658181E2,1.0020116E2,0E0,0E0,0E0,0E0,0E0,1.3855832E1,8.807025E1,1.7699641E2,0E0,0E0,6.486745E1,7.961286E1,1.7635773E1,2.733031E1,0E0,0E0,0E0,0E0,0E0,0E0,0E0,0E0,0E0,0E0,0E0,0E0,0E0,0E0,0E0,0E0,0E0,0E0],"parents":[2147483647,0,0,1,1,2,2,3,3,4,4,5,5,6,6,7,7,8,8,9,9,10,10,11,11,13,13,14,14,15,15,16,16,17,17,18,18,19,19,20,20,21,21,22,22,25,25,26,26,27,27,28,28,37,37,38,38,44,44,45,45,46,46,49,49,50,50,51,51,52,52],"right_children":[2,4,6,8,10,12,14,16,18,20,22,24,-1,26,28,30,32,34,36,38,40,42,44,-1,-1,46,48,50,52,-1,-1,-1,-1,-1,-1,-1,-1,54,56,-1,-1,-1,-1,-1,58,60,62,-1,-1,64,66,68,70,-1,-1,-1,-1,-1,-1,-1,-1,-1,-1,-1,-1,-1,-1,-1,-1,-1,-1],"split_conditions":[1.1E1,1.3684735E1,6E0,1.2287555E1,2.5E1,1.4E1,1.53E1,1.2E1,1.1E1,2.4E1,2.2840765E2,1.8E1,-7.081538E-2,1.4699999E1,1.435086E2,8E0,8E0,6E0,9E0,2.9427662E1,1E1,4E0,2.0008356E1,-1.7337638E0,-4.6635404E-1,4.1924156E1,3.3E1,2.8700003E1,2.0256635E2,2.1293163E-3,1.6591388E-1,3.8151458E-2,-6.1707747E-1,1.826849E-2,-1.967783E-2,3.5753605E-1,1.2971666E0,2E1,3.360557E1,1.7133217E0,-1.0732067E0,-2.6750696E-1,-1.324238E0,6.2107575E-1,3.2E1,3.5256573E1,9.1925E0,1.8419099E0,4.684396E-2,1.2715326E2,2E1,1.5E1,2.2E1,-1.6091314E-1,1.1080232E0,-1.0884439E0,-1.5763296E-1,-5.928572E-1,3.8355333E-1,3.3838008E-2,-1.831376E-1,6.455996E-1,-2.3312496E-1,1.0270744E-1,1.438581E0,-1.8589603E0,3.2290995E-1,-1.8040624E-1,-1.7492281E0,-1.1119289E-1,-7.816514E-1],"split_indices":[0,5,1,5,1,0,4,1,2,1,6,2,0,4,6,0,0,0,0,5,0,0,5,0,0,5,1,4,6,0,0,0,0,0,0,0,0,1,5,0,0,0,0,0,1,5,3,0,0,6,2,0,2,0,0,0,0,0,0,0,0,0,0,0,0,0,0,0,0,0,0],"split_type":[0,0,0,0,0,0,0,0,0,0,0,0,0,0,0,0,0,0,0,0,0,0,0,0,0,0,0,0,0,0,0,0,0,0,0,0,0,0,0,0,0,0,0,0,0,0,0,0,0,0,0,0,0,0,0,0,0,0,0,0,0,0,0,0,0,0,0,0,0,0,0],"sum_hessian":[2.494E3,1.77E2,2.317E3,1.4E1,1.63E2,5E0,2.312E3,7E0,7E0,1.51E2,1.2E1,3E0,2E0,2.256E3,5.6E1,2E0,5E0,2E0,5E0,1.46E2,5E0,6E0,6E0,2E0,1E0,2.251E3,5E0,2.7E1,2.9E1,1E0,1E0,1E0,4E0,1E0,1E0,1E0,4E0,1E2,4.6E1,3E0,2E0,1E0,5E0,1E0,5E0,2.164E3,8.7E1,4E0,1E0,2.2E1,5E0,6E0,2.3E1,9.4E1,6E0,1.5E1,3.1E1,4E0,1E0,1.981E3,1.83E2,5.5E1,3.2E1,1.9E1,3E0,3E0,2E0,1E0,5E0,1.5E1,8E0],"tree_param":{"num_deleted":"0","num_feature":"7","num_nodes":"71","size_leaf_vector":"1"}},{"base_weights":[1.3192137E-2,1.0148842E0,-1.14854975E-2,3.6206717E0,3.5602024E-1,-5.6407318E-2,6.2362975E-1,-8.139372E-2,4.863737E0,-1.3362043E0,1.14189E0,-2.9028874E-2,-2.7370424E0,2.3481858E0,-8.661167E-2,4.667951E-1,-3.437542E-1,7.757203E0,2.1241372E0,8.8281155E-1,-1.9161935E0,1.841E0,-1.8176771E0,-2.039382E0,-6.4782654E-3,-5.436117E0,-6.1362875E-1,-1.8674192E-1,4.0749846E0,-6.956058E-1,1.1657082E0,5.410824E-1,2.7421598E0,2.6030388E0,-4.0555574E-2,4.0576518E-1,8.261452E-2,-9.159872E-1,-1.1812983E0,-1.0239538E0,2.5083358E0,-1.7653229E0,9.8589784E-1,-3.200015E0,4.8539453E0,2.9112964E0,-1.961256E-2,-7.1051784E0,-1.1562309E0,-1.8866309E0,1.398146E0,3.256649E0,-1.2511302E0,5.1742373E0,1.1794246E0,8.5321754E-1,-2.0434835E0,2.463555E0,-7.728034E-1,1.3647881E-1,9.0790015E-1,-1.0199244E0,-7.867922E-2,2.9632017E-1,-4.8715144E-1,-7.3425984E-1,8.5345626E-1,6.836441E-1,-1.906952E-1,-2.7559714E-2,-1.7347453E0,-1.4114343E-1,2.0356739E0,3.7494447E0,-3.1430554E-1,-4.226215E-1,3.1243034E-3,-8.3867425E-1,-2.4809704E0,-4.904938E-2,-4.297928E-1,4.29023E-1,-9.115675E-1,7.573227E-1,6.117368E-2,-1.0124703E-1,1.7295716E0,-6.7373437E-1,1.0455981E-1,1.987718E0,2.0494252E-1,-1.3925973E-1,7.761491E-1,-1.2315733E-1,1.1632694E0,8.4838635E-1,-8.3346516E-1,-5.3699344E-1,8.861672E-1,-1.0472903E0,3.6900375E-2],"categories":[],"categories_nodes":[],"categories_segments":[],"categories_sizes":[],"default_left":[0,0,1,0,0,1,0,0,0,0,0,0,0,0,0,0,0,0,0,0,0,0,0,0,0,0,0,0,0,0,0,0,0,0,0,0,0,0,0,0,0,0,0,0,0,0,0,0,0,0,0,0,0,0,0,0,0,0,0,0,0,0,0,0,0,0,0,0,0,0,0,0,0,0,0,0,0,0,0,0,0,0,0,0,0,0,0,0,0,0,0,0,0,0,0,0,0,0,0,0,0],"id":16,"left_children":[1,3,5,7,9,11,13,15,17,19,21,23,25,27,29,-1,-1,31,33,35,37,39,41,43,45,47,49,51,53,55,57,-1,-1,59,-1,-1,-1,61,-1,63,65,-1,67,69,71,73,75,77,79,81,83,85,87,89,91,93,95,97,99,-1,-1,-1,-1,-1,-1,-1,-1,-1,-1,-1,-1,-1,-1,-1,-1,-1,-1,-1,-1,-1,-1,-1,-1,-1,-1,-1,-1,-1,-1,-1,-1,-1,-1,-1,-1,-1,-1,-1,-1,-1,-1],"loss_changes":[6.1686535E1,1.0172255E2,6.953555E1,5.5618805E1,6.668934E1,1.6695987E2,1.9740437E2,8.754568E0,5.486508E1,2.2283718E1,7.369447E1,1.0217116E2,1.2848308E2,2.0649454E2,8.851626E1,0E0,0E0,1.64572E1,6.843849E0,7.6886606E-1,2.2677647E1,5.610125E1,8.5611145E1,2.1554831E2,8.55172E1,6.321869E1,3.8491695E1,7.7376595E1,8.302011E1,1.6457825E2,9.7507706E1,0E0,0E0,3.169651E0,0E0,0E0,0E0,1.5345287E1,0E0,8.844599E0,4.5320892E1,0E0,1.1931157E1,1.7605617E2,4.433181E1,3.9263586E2,9.265511E1,1.2017212E1,8.633776E-1,3.8730835E1,7.5553694E0,4.7026802E1,2.624043E1,1.2584918E2,2.2025093E1,1.4300562E2,1.5818343E2,5.3257538E1,3.9388504E1,0E0,0E0,0E0,0E0,0E0,0E0,0E0,0E0,0E0,0E0,0E0,0E0,0E0,0E0,0E0,0E0,0E0,0E0,0E0,0E0,0E0,0E0,0E0,0E0,0E0,0E0,0E0,0E0,0E0,0E0,0E0,0E0,0E0,0E0,0E0,0E0,0E0,0E0,0E0,0E0,0E0,0E0],"parents":[2147483647,0,0,1,1,2,2,3,3,4,4,5,5,6,6,7,7,8,8,9,9,10,10,11,11,12,12,13,13,14,14,17,17,18,18,19,19,20,20,21,21,22,22,23,23,24,24,25,25,26,26,27,27,28,28,29,29,30,30,33,33,37,37,39,39,40,40,42,42,43,43,44,44,45,45,46,46,47,47,48,48,49,49,50,50,51,51,52,52,53,53,54,54,55,55,56,56,57,57,58,58],"right_children":[2,4,6,8,10,12,14,16,18,20,22,24,26,28,30,-1,-1,32,34,36,38,40,42,44,46,48,50,52,54,56,58,-1,-1,60,-1,-1,-1,62,-1,64,66,-1,68,70,72,74,76,78,80,82,84,86,88,90,92,94,96,98,100,-1,-1,-1,-1,-1,-1,-1,-1,-1,-1,-1,-1,-1,-1,-1,-1,-1,-1,-1,-1,-1,-1,-1,-1,-1,-1,-1,-1,-1,-1,-1,-1,-1,-1,-1,-1,-1,-1,-1,-1,-1,-1],"split_conditions":[9.793059E0,1.4E1,4.8E1,1.3E1,2.7E1,5.8E1,5.3E1,8.78872E0,1.8465822E2,4.9301426E1,4.2E1,1.0514218E1,2.1575987E1,2.4E1,5.1E1,4.667951E-1,-3.437542E-1,1.3E1,1.463625E1,2E1,1.2807083E1,1.5E1,8.161764E0,2.2000003E0,1.0739832E1,1.3000001E0,7.2E1,2E-1,1.2159165E1,2.4E1,7.3E1,5.410824E-1,2.7421598E0,9E0,-4.0555574E-2,4.0576518E-1,8.261452E-2,3.1333333E-1,-1.1812983E0,9E0,1.0960272E1,-1.7653229E0,3.9E1,2.5E1,1.7E1,1.002375E1,1.1659777E1,7.3487496E0,3.2E1,3.4E1,2.8292084E1,1.8E1,1.15841675E1,2.1423956E2,5.1E1,2.7551172E1,4.394584E0,1.0387107E1,6.3E1,1.3647881E-1,9.0790015E-1,-1.0199244E0,-7.867922E-2,2.9632017E-1,-4.8715144E-1,-7.3425984E-1,8.5345626E-1,6.836441E-1,-1.906952E-1,-2.7559714E-2,-1.7347453E0,-1.4114343E-1,2.0356739E0,3.7494447E0,-3.1430554E-1,-4.226215E-1,3.1243034E-3,-8.3867425E-1,-2.4809704E0,-4.904938E-2,-4.297928E-1,4.29023E-1,-9.115675E-1,7.573227E-1,6.117368E-2,-1.0124703E-1,1.7295716E0,-6.7373437E-1,1.0455981E-1,1.987718E0,2.0494252E-1,-1.3925973E-1,7.761491E-1,-1.2315733E-1,1.1632694E0,8.4838635E-1,-8.3346516E-1,-5.3699344E-1,8.861672E-1,-1.0472903E0,3.6900375E-2],"split_indices":[5,1,2,0,0,1,2,5,6,6,2,5,5,0,0,0,0,1,3,1,3,2,5,4,5,4,0,4,3,0,2,0,0,1,0,0,0,3,0,2,6,0,1,0,0,3,5,3,2,0,5,0,3,6,2,5,3,5,0,0,0,0,0,0,0,0,0,0,0,0,0,0,0,0,0,0,0,0,0,0,0,0,0,0,0,0,0,0,0,0,0,0,0,0,0,0,0,0,0,0,0],"split_type":[0,0,0,0,0,0,0,0,0,0,0,0,0,0,0,0,0,0,0,0,0,0,0,0,0,0,0,0,0,0,0,0,0,0,0,0,0,0,0,0,0,0,0,0,0,0,0,0,0,0,0,0,0,0,0,0,0,0,0,0,0,0,0,0,0,0,0,0,0,0,0,0,0,0,0,0,0,0,0,0,0,0,0,0,0,0,0,0,0,0,0,0,0,0,0,0,0,0,0,0,0],"sum_hessian":[2.494E3,5.9E1,2.435E3,1.1E1,4.8E1,2.275E3,1.6E2,3E0,8E0,1.5E1,3.3E1,2.253E3,2.2E1,4.6E1,1.14E2,1E0,2E0,3E0,5E0,3E0,1.2E1,2.7E1,6E0,2.4E1,2.229E3,9E0,1.3E1,1.9E1,2.7E1,7.7E1,3.7E1,1E0,2E0,4E0,1E0,1E0,2E0,9E0,3E0,5E0,2.2E1,2E0,4E0,2.1E1,3E0,9E0,2.22E3,6E0,3E0,8E0,5E0,4E0,1.5E1,1.9E1,8E0,3.6E1,4.1E1,2.2E1,1.5E1,1E0,3E0,1E0,8E0,1E0,4E0,1E0,2.1E1,2E0,2E0,1E1,1.1E1,1E0,2E0,2E0,7E0,4.6E1,2.174E3,2E0,4E0,1E0,2E0,2E0,6E0,2E0,3E0,2E0,2E0,9E0,6E0,1.4E1,5E0,4E0,4E0,2.6E1,1E1,5E0,3.6E1,2E0,2E1,3E0,1.2E1],"tree_param":{"num_deleted":"0","num_feature":"7","num_nodes":"101","size_leaf_vector":"1"}},{"base_weights":[1.13357445E-2,-6.2807775E-1,4.560935E-2,-1.0948511E0,1.2272671E0,5.535063E-2,-2.8362038E0,-5.0132614E-1,-3.2303364E0,5.496633E0,-5.099301E-2,-2.7580646E-1,1.3429251E-1,-1.4413973E0,-6.9420016E-1,6.295306E-1,-1.6761926E0,-6.5740025E-1,-4.1541E0,9.140771E-1,2.2678177E0,-1.1270413E0,1.0853311E0,4.8052844E-1,-5.040799E-1,1.7257127E-1,-1.4542831E0,8.5901004E-1,-6.048031E-1,-6.584631E-1,2.383437E0,-2.1101756E0,6.711814E-1,7.2122616E-1,-1.5683293E0,-4.546223E0,2.5916162E-1,-9.78138E-2,5.0914854E-1,4.9977526E-1,-2.628631E0,-7.339059E-1,1.9632597E0,-2.7693434E0,-4.361716E-1,4.504726E-1,2.164007E-2,1.4621058E0,-2.2239943E0,7.225199E-2,3.1430256E-1,-4.7082502E-1,9.8977035E-1,1.41745955E-2,1.4143127E0,6.4714625E-2,-8.868376E-1,6.639826E-1,-6.368108E-1,-4.6686605E-2,-8.7874883E-1,-1.6255007E0,-8.326426E-1,8.2118446E-1,-3.2255742E-1,4.8344633E-1,-1.221092E0,1.016857E0,-3.5354215E-1,1.9833568E0,3.4255815E-1,-1.2323073E0,7.9530075E-2,-1.4418557E-1,1.0285916E0,-1.3578248E-1,2.1160443E-1,9.906008E-2,-1.16351165E-1,-1.192328E-1,1.3052368E0,-1.3938421E0,-3.7335998E-1],"categories":[],"categories_nodes":[],"categories_segments":[],"categories_sizes":[],"default_left":[1,1,0,0,0,0,0,0,0,0,0,0,0,0,0,0,0,0,0,0,0,0,0,0,0,0,0,0,0,0,0,0,0,0,0,0,0,0,0,0,0,0,0,0,0,0,0,0,0,0,0,0,0,0,0,0,0,0,0,0,0,0,0,0,0,0,0,0,0,0,0,0,0,0,0,0,0,0,0,0,0,0,0],"id":17,"left_children":[1,3,5,7,9,11,13,15,17,19,21,23,25,-1,27,29,31,33,35,37,-1,39,-1,41,43,45,47,49,-1,51,53,55,57,-1,59,61,-1,-1,-1,63,65,67,69,71,73,75,77,79,81,-1,-1,-1,-1,-1,-1,-1,-1,-1,-1,-1,-1,-1,-1,-1,-1,-1,-1,-1,-1,-1,-1,-1,-1,-1,-1,-1,-1,-1,-1,-1,-1,-1,-1],"loss_changes":[5.470659E1,1.1132895E2,6.6660835E1,1.2766187E2,1.4217166E2,6.178483E1,3.0396088E1,1.0867227E2,4.955838E1,4.9806366E1,8.698048E1,7.879849E1,1.1627397E2,0E0,1.1997019E1,9.644826E1,4.216514E1,2.3291985E1,3.5409943E1,3.4667165E0,0E0,4.2841515E1,0E0,1.9231291E2,5.263263E1,7.8173836E1,1.042667E2,9.755945E-2,0E0,9.530984E1,9.7796455E1,6.7535614E1,3.4857147E1,0E0,1.1078914E1,8.125916E0,0E0,0E0,0E0,3.4659077E1,6.157511E1,1.1214998E2,1.7570561E2,4.1700348E1,6.0224518E1,1.5131284E2,1.5288327E2,5.5445656E1,7.9624054E1,0E0,0E0,0E0,0E0,0E0,0E0,0E0,0E0,0E0,0E0,0E0,0E0,0E0,0E0,0E0,0E0,0E0,0E0,0E0,0E0,0E0,0E0,0E0,0E0,0E0,0E0,0E0,0E0,0E0,0E0,0E0,0E0,0E0,0E0],"parents":[2147483647,0,0,1,1,2,2,3,3,4,4,5,5,6,6,7,7,8,8,9,9,10,10,11,11,12,12,14,14,15,15,16,16,17,17,18,18,19,19,21,21,23,23,24,24,25,25,26,26,27,27,29,29,30,30,31,31,32,32,34,34,35,35,39,39,40,40,41,41,42,42,43,43,44,44,45,45,46,46,47,47,48,48],"right_children":[2,4,6,8,10,12,14,16,18,20,22,24,26,-1,28,30,32,34,36,38,-1,40,-1,42,44,46,48,50,-1,52,54,56,58,-1,60,62,-1,-1,-1,64,66,68,70,72,74,76,78,80,82,-1,-1,-1,-1,-1,-1,-1,-1,-1,-1,-1,-1,-1,-1,-1,-1,-1,-1,-1,-1,-1,-1,-1,-1,-1,-1,-1,-1,-1,-1,-1,-1,-1,-1],"split_conditions":[1E1,1.9E1,2.8700003E1,3.219938E1,1.4E1,1.4E1,2E1,1.3E1,7.698749E0,8.425834E0,1.3098751E1,1E-1,3.0827313E2,-1.4413973E0,1.8E1,1.3E1,2.661323E1,9E0,1.6E1,1.2E1,2.2678177E0,2.2E1,1.0853311E0,2.2415602E1,1.1E1,1.9E1,1.405845E1,2.3E1,-6.048031E-1,2.6739542E1,9.590417E0,8E0,1.1277916E1,7.2122616E-1,2.1423956E2,1.6999999E0,2.5916162E-1,-9.78138E-2,5.0914854E-1,7.975832E0,1.4966673E0,4.31125E0,2.2057481E2,2.6999998E0,1.8786251E1,6.0050006E0,1.002375E1,3.1E0,6E-1,7.225199E-2,3.1430256E-1,-4.7082502E-1,9.8977035E-1,1.41745955E-2,1.4143127E0,6.4714625E-2,-8.868376E-1,6.639826E-1,-6.368108E-1,-4.6686605E-2,-8.7874883E-1,-1.6255007E0,-8.326426E-1,8.2118446E-1,-3.2255742E-1,4.8344633E-1,-1.221092E0,1.016857E0,-3.5354215E-1,1.9833568E0,3.4255815E-1,-1.2323073E0,7.9530075E-2,-1.4418557E-1,1.0285916E0,-1.3578248E-1,2.1160443E-1,9.906008E-2,-1.16351165E-1,-1.192328E-1,1.3052368E0,-1.3938421E0,-3.7335998E-1],"split_indices":[2,1,4,5,0,0,2,1,3,3,3,4,6,0,1,0,5,0,1,0,0,1,0,5,2,1,5,0,0,5,3,2,3,0,6,4,0,0,0,3,3,3,6,4,3,3,3,4,4,0,0,0,0,0,0,0,0,0,0,0,0,0,0,0,0,0,0,0,0,0,0,0,0,0,0,0,0,0,0,0,0,0,0],"split_type":[0,0,0,0,0,0,0,0,0,0,0,0,0,0,0,0,0,0,0,0,0,0,0,0,0,0,0,0,0,0,0,0,0,0,0,0,0,0,0,0,0,0,0,0,0,0,0,0,0,0,0,0,0,0,0,0,0,0,0,0,0,0,0,0,0,0,0,0,0,0,0,0,0,0,0,0,0,0,0,0,0,0,0],"sum_hessian":[2.494E3,1.26E2,2.368E3,1.01E2,2.5E1,2.361E3,7E0,8E1,2.1E1,5E0,2E1,4.54E2,1.907E3,3E0,4E0,4.1E1,3.9E1,6E0,1.5E1,2E0,3E0,1.6E1,4E0,1.05E2,3.49E2,1.863E3,4.4E1,2E0,2E0,2.4E1,1.7E1,3.3E1,6E0,1E0,5E0,1.4E1,1E0,1E0,1E0,8E0,8E0,5.8E1,4.7E1,9E0,3.4E2,6.55E2,1.208E3,9E0,3.5E1,1E0,1E0,2E1,4E0,9E0,8E0,9E0,2.4E1,4E0,2E0,3E0,2E0,8E0,6E0,3E0,5E0,2E0,6E0,5E0,5.3E1,6E0,4.1E1,6E0,3E0,3.37E2,3E0,1.44E2,5.11E2,6.89E2,5.19E2,6E0,3E0,9E0,2.6E1],"tree_param":{"num_deleted":"0","num_feature":"7","num_nodes":"83","size_leaf_vector":"1"}},{"base_weights":[9.062732E-3,1.8968102E-1,-1.3819702E-1,1.374401E-1,1.7603468E0,-2.9064276E0,-1.1374178E-1,-1.2038967E-2,8.4693617E-1,2.7238593E0,-3.5111933E0,-3.7381542E0,2.5044116E-1,3.067719E-1,-2.2707687E-1,1.3257618E-1,-9.329728E-1,-1.9320811E-1,1.4886763E0,1.0251682E0,6.762308E0,-1.5355322E0,-1.9779904E-1,1.0833035E-1,-4.2337494E0,1.8353891E-1,3.1463742E0,-1.4323443E0,-1.7302893E-1,2.854493E-4,1.7725202E0,6.958775E-1,-2.3255713E0,-3.6854608E0,4.8582804E-1,-1.5510894E-1,2.7612243E0,-3.4786568E0,1.8746747E0,8.096505E0,9.2113096E-1,-2.501098E-1,1.6110021E-1,-1.4784865E0,-3.6057264E-1,-3.72086E-1,7.875516E-1,4.920464E0,-1.144815E0,1.6562339E0,-1.7095422E0,-3.107927E-1,2.6262462E-1,-2.6124108E-1,5.5958375E-2,-1.655696E-1,1.2347909E0,-3.0172294E-1,7.120507E-1,-8.5974395E-1,5.848224E-1,-1.307993E0,-6.2576294E-2,5.4081625E-1,-2.936845E-1,-7.2154784E-1,1.969736E-1,3.987428E0,6.1464334E-1,-1.2604071E0,-1.9658346E-1,8.210716E-1,-3.5279192E-2,1.3307843E0,3.083524E0,2.5388498E-2,-1.4052883E0,1.2386439E0,6.304337E-3,6.713128E-1,1.725163E0,-1.0116904E0,-2.5495046E-1,-2.765298E-2,-2.3132472E-1,2.131173E-1,-2.7992585E-1],"categories":[],"categories_nodes":[],"categories_segments":[],"categories_sizes":[],"default_left":[0,0,0,0,0,0,0,0,0,0,0,0,0,0,0,0,0,0,1,0,0,0,0,0,0,0,0,0,0,1,0,0,0,0,0,0,0,0,0,0,0,0,0,0,0,0,0,0,0,0,0,0,0,0,0,0,0,0,0,0,0,0,0,0,0,0,0,0,0,0,0,0,0,0,0,0,0,0,0,0,0,0,0,0,0,0,0],"id":18,"left_children":[1,3,5,7,9,11,13,15,17,19,21,23,-1,25,27,29,31,33,35,37,39,-1,41,-1,43,45,47,49,51,53,55,57,59,61,63,65,67,69,71,73,-1,-1,-1,-1,-1,75,77,79,-1,-1,81,83,85,-1,-1,-1,-1,-1,-1,-1,-1,-1,-1,-1,-1,-1,-1,-1,-1,-1,-1,-1,-1,-1,-1,-1,-1,-1,-1,-1,-1,-1,-1,-1,-1,-1,-1],"loss_changes":[6.638773E1,9.17395E1,9.275385E1,1.1518573E2,1.9241505E2,4.0460808E1,6.507648E1,1.1972022E2,1.2644554E2,2.057299E2,3.0940239E1,2.1844543E1,0E0,1.00902985E2,6.978006E1,1.6856918E2,2.783551E2,1.749002E2,2.4516837E2,9.452001E1,1.9471344E1,0E0,1.8494749E0,0E0,1.3028229E1,9.392668E1,1.670003E2,9.809798E1,6.189942E1,1.16970726E2,3.1820676E2,1.6510396E2,1.5801508E2,2.7233017E1,1.2135988E2,9.654877E1,4.6789072E2,5.408764E0,3.467782E1,2.3275146E0,0E0,0E0,0E0,0E0,0E0,2.879357E2,3.4311414E2,9.40094E0,0E0,0E0,6.1460968E1,7.8719666E1,1.3344182E2,0E0,0E0,0E0,0E0,0E0,0E0,0E0,0E0,0E0,0E0,0E0,0E0,0E0,0E0,0E0,0E0,0E0,0E0,0E0,0E0,0E0,0E0,0E0,0E0,0E0,0E0,0E0,0E0,0E0,0E0,0E0,0E0,0E0,0E0],"parents":[2147483647,0,0,1,1,2,2,3,3,4,4,5,5,6,6,7,7,8,8,9,9,10,10,11,11,13,13,14,14,15,15,16,16,17,17,18,18,19,19,20,20,22,22,24,24,25,25,26,26,27,27,28,28,29,29,30,30,31,31,32,32,33,33,34,34,35,35,36,36,37,37,38,38,39,39,45,45,46,46,47,47,50,50,51,51,52,52],"right_children":[2,4,6,8,10,12,14,16,18,20,22,24,-1,26,28,30,32,34,36,38,40,-1,42,-1,44,46,48,50,52,54,56,58,60,62,64,66,68,70,72,74,-1,-1,-1,-1,-1,76,78,80,-1,-1,82,84,86,-1,-1,-1,-1,-1,-1,-1,-1,-1,-1,-1,-1,-1,-1,-1,-1,-1,-1,-1,-1,-1,-1,-1,-1,-1,-1,-1,-1,-1,-1,-1,-1,-1,-1],"split_conditions":[2.1325253E1,1.7702915E1,6.841667E-1,1.9576189E1,4.3E1,2.9E1,1E-1,1.8335276E1,8.425834E0,2.8E1,4.8E1,1.3E1,2.5044116E-1,2.7426135E2,2.1986542E1,1.7786331E1,2.1E1,1.3E1,2E1,1.1E1,1.9463333E1,-1.5355322E0,1.3E1,1.0833035E-1,1.7000002E0,2.6089443E1,1.9E1,8.7791663E-1,2.7E1,1.4E1,2.3E1,2.3708302E2,4.7E1,2.0991426E1,2.6E1,1.9914217E1,1.2E1,1.8786251E1,1.8218275E1,1.2783802E1,9.2113096E-1,-2.501098E-1,1.6110021E-1,-1.4784865E0,