{"learner":{"attributes":{"scikit_learn":"{\"_estimator_type\": \"regressor\"}"},"feature_names":["lagged_aq_1_day","lagged_aq_2_days","lagged_aq_3_days","weather_temperature_2m_mean","weather_precipitation_sum","weather_wind_speed_10m_max","weather_wind_direction_10m_dominant"],"feature_types":["float","float","float","float","float","float","float"],"gradient_booster":{"model":{"gbtree_model_param":{"num_parallel_tree":"1","num_trees":"100"},"iteration_indptr":[0,1,2,3,4,5,6,7,8,9,10,11,12,13,14,15,16,17,18,19,20,21,22,23,24,25,26,27,28,29,30,31,32,33,34,35,36,37,38,39,40,41,42,43,44,45,46,47,48,49,50,51,52,53,54,55,56,57,58,59,60,61,62,63,64,65,66,67,68,69,70,71,72,73,74,75,76,77,78,79,80,81,82,83,84,85,86,87,88,89,90,91,92,93,94,95,96,97,98,99,100],"tree_info":[0,0,0,0,0,0,0,0,0,0,0,0,0,0,0,0,0,0,0,0,0,0,0,0,0,0,0,0,0,0,0,0,0,0,0,0,0,0,0,0,0,0,0,0,0,0,0,0,0,0,0,0,0,0,0,0,0,0,0,0,0,0,0,0,0,0,0,0,0,0,0,0,0,0,0,0,0,0,0,0,0,0,0,0,0,0,0,0,0,0,0,0,0,0,0,0,0,0,0,0],"trees":[{"base_weights":[-6.9289166E-7,-2.7989633E0,1.925657E1,-5.740108E0,2.3051786E0,1.630829E1,4.2189285E1,-3.1054254E0,-7.064134E0,1.1200826E1,5.076695E-1,1.952603E1,5.2084007E0,4.620836E1,2.402652E0,-5.1486707E0,-2.0699969E-1,-2.8790596E0,-7.723772E0,1.8185032E1,9.341751E0,5.1782074E0,-1.7637892E0,1.5814981E1,2.4498781E1,1.1871649E1,-1.0943269E0,4.900322E1,1.7402653E1,2.000663E0,-7.99337E-1,7.531492E-1,-5.5128245E0,5.37614E0,-2.0881326E0,4.0031877E0,-4.2545233E0,-9.33208E0,-6.889772E0,1.8628212E1,6.0049725E-1,9.7572565E0,-2.997348E0,8.503288E0,2.1047401E0,1.3528135E0,-3.669314E0,1.8824038E1,8.98284E0,2.5295736E1,6.336096E0,2.3128107E1,3.52491E0,3.9406078E0,-4.1506586E0,5.404165E1,3.1002983E1,5.850746E0,1.3504972E0,1.329495E0,-2.0134335E0,-1.0640126E0,-2.1270816E0,3.1080663E0,1.122712E0,1.10440515E-1,-1.1548977E0,2.2509325E0,-4.3545958E-1,-1.6383002E0,1.1832889E0,2.0082875E-1,-2.8471336E0,-1.4632992E0,-2.2117279E0,3.1883705E0,6.132955E0,2.3293924E0,4.200969E0,-1.5993371E0,1.00663E-1,1.9097748E0,4.100967E0,1.626785E0,-1.7823921E-1,-6.356877E-2,1.9111782E0,-3.922912E-1,-1.4824963E0,6.6328883E0,4.780978E0,7.450829E0,1.985063E0,8.281752E0,5.463029E0,2.7007957E0,-1.0495028E0,7.975912E0,3.0607958E0,3.300895E0,-6.205051E-1,-1.6277192E0,3.0308952E0,-2.0390718E0,-1.4908838E-1,3.9004974E0,1.6548956E1,1.18883705E1,-6.99337E-1],"categories":[],"categories_nodes":[],"categories_segments":[],"categories_sizes":[],"default_left":[1,0,0,0,0,0,0,0,0,0,0,0,0,0,0,0,0,0,0,0,0,0,0,0,0,0,0,0,0,0,0,0,0,0,0,0,0,0,0,0,0,1,0,0,0,0,0,0,0,0,0,0,0,0,0,0,0,0,0,0,0,0,0,0,0,0,0,0,0,0,0,0,0,0,0,0,0,0,0,0,0,0,0,0,0,0,0,0,0,0,0,0,0,0,0,0,0,0,0,0,0,0,0,0,0,0,0,0,0],"id":0,"left_children":[1,3,5,7,9,11,13,15,17,19,21,23,25,27,29,31,33,35,37,39,41,43,45,47,49,51,53,55,57,-1,-1,59,61,63,65,67,69,71,73,75,-1,77,79,81,83,85,87,89,91,93,95,97,99,101,103,105,107,-1,-1,-1,-1,-1,-1,-1,-1,-1,-1,-1,-1,-1,-1,-1,-1,-1,-1,-1,-1,-1,-1,-1,-1,-1,-1,-1,-1,-1,-1,-1,-1,-1,-1,-1,-1,-1,-1,-1,-1,-1,-1,-1,-1,-1,-1,-1,-1,-1,-1,-1,-1],"loss_changes":[1.6266544E5,3.9569906E4,2.520739E4,5.8106523E3,1.540868E4,1.2077641E4,6.7649062E3,3.3212856E3,3.047582E3,1.9335547E3,8.528106E3,4.4844453E3,3.2887292E3,2.2870234E3,1.2585604E2,7.112285E2,2.4583384E3,1.4653728E3,1.2233828E3,1.9939258E2,6.9575195E2,2.6698394E3,3.217835E3,2.9968828E3,1.4464297E3,3.4887544E3,6.472818E2,1.4988047E3,4.7656128E1,0E0,0E0,5.78913E2,9.363008E2,4.416549E2,7.586036E2,5.0725916E2,1.2876758E3,5.2111914E2,5.816914E2,2.4738281E2,0E0,9.573037E2,4.0679916E1,1.3043906E3,1.2389453E3,1.6187318E3,1.0031704E3,6.532656E2,1.6735659E3,1.2323594E3,1.8883885E2,4.4394336E2,9.847748E2,9.7831836E2,2.4800537E2,4.795078E2,2.967417E3,0E0,0E0,0E0,0E0,0E0,0E0,0E0,0E0,0E0,0E0,0E0,0E0,0E0,0E0,0E0,0E0,0E0,0E0,0E0,0E0,0E0,0E0,0E0,0E0,0E0,0E0,0E0,0E0,0E0,0E0,0E0,0E0,0E0,0E0,0E0,0E0,0E0,0E0,0E0,0E0,0E0,0E0,0E0,0E0,0E0,0E0,0E0,0E0,0E0,0E0,0E0,0E0],"parents":[2147483647,0,0,1,1,2,2,3,3,4,4,5,5,6,6,7,7,8,8,9,9,10,10,11,11,12,12,13,13,14,14,15,15,16,16,17,17,18,18,19,19,20,20,21,21,22,22,23,23,24,24,25,25,26,26,27,27,28,28,31,31,32,32,33,33,34,34,35,35,36,36,37,37,38,38,39,39,41,41,42,42,43,43,44,44,45,45,46,46,47,47,48,48,49,49,50,50,51,51,52,52,53,53,54,54,55,55,56,56],"right_children":[2,4,6,8,10,12,14,16,18,20,22,24,26,28,30,32,34,36,38,40,42,44,46,48,50,52,54,56,58,-1,-1,60,62,64,66,68,70,72,74,76,-1,78,80,82,84,86,88,90,92,94,96,98,100,102,104,106,108,-1,-1,-1,-1,-1,-1,-1,-1,-1,-1,-1,-1,-1,-1,-1,-1,-1,-1,-1,-1,-1,-1,-1,-1,-1,-1,-1,-1,-1,-1,-1,-1,-1,-1,-1,-1,-1,-1,-1,-1,-1,-1,-1,-1,-1,-1,-1,-1,-1,-1,-1,-1],"split_conditions":[3.9E1,2.2E1,7.1E1,3E-1,1.4587776E1,2.540743E1,2.840124E1,1.7E1,1.5905319E1,1.024578E1,1.7670554E2,4.9E1,2.0753844E2,2.4330782E2,8.19875E0,1.27279215E1,1.912985E2,5.721668E0,1.4E1,3.8E1,1.19000025E1,9.000001E-1,3E-1,9.0000004E-1,1.0399999E1,5E-1,3E-1,1.0694584E1,1.0407084E1,2.000663E0,-7.99337E-1,2.22694E2,9.023749E0,1.6E1,7.6154156E0,2.6E1,1.56987505E1,2.1258333E0,1.7287102E2,9.621746E1,6.0049725E-1,3.2E1,1.7E1,2.194524E1,2.0972897E1,3.1E1,2.3648603E1,7.4633317E0,2.2404165E0,1.9803272E1,3.3E1,2.8E1,5.400833E0,2.890107E1,4.8E1,2.0154169E0,8.5E1,5.850746E0,1.3504972E0,1.329495E0,-2.0134335E0,-1.0640126E0,-2.1270816E0,3.1080663E0,1.122712E0,1.10440515E-1,-1.1548977E0,2.2509325E0,-4.3545958E-1,-1.6383002E0,1.1832889E0,2.0082875E-1,-2.8471336E0,-1.4632992E0,-2.2117279E0,3.1883705E0,6.132955E0,2.3293924E0,4.200969E0,-1.5993371E0,1.00663E-1,1.9097748E0,4.100967E0,1.626785E0,-1.7823921E-1,-6.356877E-2,1.9111782E0,-3.922912E-1,-1.4824963E0,6.6328883E0,4.780978E0,7.450829E0,1.985063E0,8.281752E0,5.463029E0,2.7007957E0,-1.0495028E0,7.975912E0,3.0607958E0,3.300895E0,-6.205051E-1,-1.6277192E0,3.0308952E0,-2.0390718E0,-1.4908838E-1,3.9004974E0,1.6548956E1,1.18883705E1,-6.99337E-1],"split_indices":[0,0,0,4,5,5,5,0,5,5,6,0,6,6,3,5,6,3,0,0,4,4,4,4,4,4,4,3,3,0,0,6,3,1,3,2,3,3,6,6,0,0,2,5,5,0,5,3,3,5,1,2,3,5,0,3,0,0,0,0,0,0,0,0,0,0,0,0,0,0,0,0,0,0,0,0,0,0,0,0,0,0,0,0,0,0,0,0,0,0,0,0,0,0,0,0,0,0,0,0,0,0,0,0,0,0,0,0,0],"split_type":[0,0,0,0,0,0,0,0,0,0,0,0,0,0,0,0,0,0,0,0,0,0,0,0,0,0,0,0,0,0,0,0,0,0,0,0,0,0,0,0,0,0,0,0,0,0,0,0,0,0,0,0,0,0,0,0,0,0,0,0,0,0,0,0,0,0,0,0,0,0,0,0,0,0,0,0,0,0,0,0,0,0,0,0,0,0,0,0,0,0,0,0,0,0,0,0,0,0,0,0,0,0,0,0,0,0,0,0,0],"sum_hessian":[3.016E3,2.634E3,3.82E2,1.671E3,9.63E2,3.4E2,4.2E1,5.6E2,1.111E3,1.61E2,8.02E2,2.63E2,7.7E1,3.8E1,4E0,3.28E2,2.32E2,1.52E2,9.59E2,3.2E1,1.29E2,2.62E2,5.4E2,1.53E2,1.1E2,3.7E1,4E1,3.4E1,4E0,2E0,2E0,1.9E1,3.09E2,5.8E1,1.74E2,2.5E1,1.27E2,3.24E2,6.35E2,3.1E1,1E0,1.25E2,4E0,1.25E2,1.37E2,2.05E2,3.35E2,1.05E2,4.8E1,1.05E2,5E0,1.5E1,2.2E1,1.5E1,2.5E1,2.5E1,9E0,3E0,1E0,1.3E1,6E0,1.39E2,1.7E2,1.3E1,4.5E1,7.3E1,1.01E2,1.5E1,1E1,1.11E2,1.6E1,5E0,3.19E2,1.25E2,5.1E2,7E0,2.4E1,8.7E1,3.8E1,2E0,2E0,9E1,3.5E1,6.1E1,7.6E1,1.57E2,4.8E1,1.18E2,2.17E2,4.6E1,5.9E1,5E0,4.3E1,7.7E1,2.8E1,4E0,1E0,1.1E1,4E0,9E0,1.3E1,6E0,9E0,1.4E1,1.1E1,1E0,2.4E1,7E0,2E0],"tree_param":{"num_deleted":"0","num_feature":"7","num_nodes":"109","size_leaf_vector":"1"}},{"base_weights":[3.511873E-2,-2.764525E0,9.827561E0,-4.47452E0,-1.02557965E-1,7.47528E0,2.2876314E1,-2.9816742E0,-5.5827675E0,3.047587E0,-2.4935808E0,1.6666237E1,5.896745E0,2.63124E1,4.1480856E0,-8.736828E-1,-4.05173E0,-1.8147955E0,-5.943516E0,6.0740485E0,1.5171454E0,1.0656499E0,-3.3065174E0,1.3281524E1,2.3575745E1,9.636842E0,2.5799038E0,2.0052889E1,3.334174E1,7.1777735E0,-2.602637E0,3.6007688E0,-1.4801725E0,-5.578155E0,-2.7934217E0,-4.908629E0,1.5013288E0,-5.665804E0,-8.156978E0,1.12688465E1,4.103775E0,-2.3891072E0,2.5515883E0,6.7196107E0,-2.1821E0,-2.4421148E0,-5.7081275E0,1.4240371E1,-3.223011E0,2.8483028E1,1.1141648E1,5.936515E0,1.2562014E1,5.884676E0,-6.6930497E-1,2.1083033E1,3.4505348E0,3.8546894E1,2.1293474E1,3.2788486E0,4.2467732E0,-1.5573529E0,-1.0573387E-2,3.761481E-1,4.682627E0,-6.179995E-1,1.0899184E0,-2.6673442E-1,-1.9717668E0,-1.0116524E0,-1.8032244E-1,1.4462423E0,-1.5905638E0,1.5009679E0,-1.1204627E0,-1.412727E0,-1.9603517E0,-5.71677E-1,-2.4873357E0,5.1905346E0,2.3766856E0,3.7643304E-1,1.67931E0,-1.1052177E0,9.796149E-2,-1.5278246E0,8.9991945E-1,6.867908E-1,3.3068209E0,1.0126864E-1,-1.2622423E0,-3.5490498E-1,-1.120259E0,-1.3577188E0,-2.5204723E0,5.009359E0,2.839932E0,-1.2794697E0,-1.4602089E-2,9.355382E0,1.3740853E0,7.082348E-1,3.5832477E0,4.3867574E0,9.3378955E-1,3.0843322E0,5.412616E0,9.291202E-1,3.2541497E0,7.2193927E-1,-5.543357E-1,6.511466E0,-9.4176525E-1,-2.1895696E-1,1.5261853E0,3.3154228E0,1.1761398E1,7.456336E0,-1.4477921E-2,-5.5951613E-1,1.5044914E0,-3.044945E-1,4.503977E-1],"categories":[],"categories_nodes":[],"categories_segments":[],"categories_sizes":[],"default_left":[0,0,1,0,0,0,0,0,0,0,0,0,0,0,0,0,0,0,0,0,0,0,0,0,0,0,0,0,0,0,0,0,0,0,0,0,0,0,0,0,0,0,0,0,0,0,0,0,0,0,0,1,0,1,0,0,0,0,0,0,0,0,0,0,0,0,0,0,0,0,0,0,0,0,0,0,0,0,0,0,0,0,0,0,0,0,0,0,0,0,0,0,0,0,0,0,0,0,0,0,0,0,0,0,0,0,0,0,0,0,0,0,0,0,0,0,0,0,0,0,0,0,0],"id":1,"left_children":[1,3,5,7,9,11,13,15,17,19,21,23,25,27,29,31,33,35,37,39,41,43,45,47,49,51,53,55,57,59,61,63,65,67,69,71,73,75,77,79,81,83,85,87,89,91,93,95,97,99,101,103,105,107,109,111,113,115,117,119,-1,-1,121,-1,-1,-1,-1,-1,-1,-1,-1,-1,-1,-1,-1,-1,-1,-1,-1,-1,-1,-1,-1,-1,-1,-1,-1,-1,-1,-1,-1,-1,-1,-1,-1,-1,-1,-1,-1,-1,-1,-1,-1,-1,-1,-1,-1,-1,-1,-1,-1,-1,-1,-1,-1,-1,-1,-1,-1,-1,-1,-1,-1],"loss_changes":[8.273928E4,1.0682969E4,2.0424902E4,2.3475527E3,6.92957E3,8.171422E3,6.4547383E3,1.3746733E3,1.1024707E3,1.8296184E3,1.5167869E3,1.6279766E3,6.0289297E3,3.1154258E3,3.6637506E2,5.670675E2,7.623071E2,7.563157E2,4.1296875E2,1.3150332E3,1.0769067E3,1.8142026E3,8.7041797E2,9.637656E2,1.2691094E3,2.4041426E3,2.7957913E3,7.481875E2,1.6250117E3,2.8007166E2,4.0203068E1,6.849806E2,5.5003973E2,8.427832E2,2.821902E2,1.7095105E2,6.788057E2,5.2357227E2,5.212549E1,5.897554E2,4.1008252E2,1.9813422E2,7.3468567E2,6.610757E2,3.229256E2,5.080426E2,3.1866626E2,4.8718555E2,1.30216255E1,1.0195166E3,3.5223022E1,2.4808977E3,1.4019375E3,1.7509248E3,4.829116E2,7.459551E2,3.1082E1,3.6953125E1,1.0651636E3,8.9727196E1,0E0,0E0,7.5980725E0,0E0,0E0,0E0,0E0,0E0,0E0,0E0,0E0,0E0,0E0,0E0,0E0,0E0,0E0,0E0,0E0,0E0,0E0,0E0,0E0,0E0,0E0,0E0,0E0,0E0,0E0,0E0,0E0,0E0,0E0,0E0,0E0,0E0,0E0,0E0,0E0,0E0,0E0,0E0,0E0,0E0,0E0,0E0,0E0,0E0,0E0,0E0,0E0,0E0,0E0,0E0,0E0,0E0,0E0,0E0,0E0,0E0,0E0,0E0,0E0],"parents":[2147483647,0,0,1,1,2,2,3,3,4,4,5,5,6,6,7,7,8,8,9,9,10,10,11,11,12,12,13,13,14,14,15,15,16,16,17,17,18,18,19,19,20,20,21,21,22,22,23,23,24,24,25,25,26,26,27,27,28,28,29,29,30,30,31,31,32,32,33,33,34,34,35,35,36,36,37,37,38,38,39,39,40,40,41,41,42,42,43,43,44,44,45,45,46,46,47,47,48,48,49,49,50,50,51,51,52,52,53,53,54,54,55,55,56,56,57,57,58,58,59,59,62,62],"right_children":[2,4,6,8,10,12,14,16,18,20,22,24,26,28,30,32,34,36,38,40,42,44,46,48,50,52,54,56,58,60,62,64,66,68,70,72,74,76,78,80,82,84,86,88,90,92,94,96,98,100,102,104,106,108,110,112,114,116,118,120,-1,-1,122,-1,-1,-1,-1,-1,-1,-1,-1,-1,-1,-1,-1,-1,-1,-1,-1,-1,-1,-1,-1,-1,-1,-1,-1,-1,-1,-1,-1,-1,-1,-1,-1,-1,-1,-1,-1,-1,-1,-1,-1,-1,-1,-1,-1,-1,-1,-1,-1,-1,-1,-1,-1,-1,-1,-1,-1,-1,-1,-1,-1],"split_conditions":[3.1E1,2E1,5.8E1,6E-1,2.1046917E1,1.2783802E1,2.840124E1,2.22694E2,1.4764389E1,1.4764389E1,1.6096188E2,4.4E1,1.6801793E2,7.1E1,5.3E1,1.27279215E1,1.4E1,1.5E1,1.12E1,4.034167E0,1.5E1,1.0000001E0,3.7999997E0,8.900001E0,1.3671665E1,3.9E1,8E-1,2.602633E2,2.0087564E2,9.471666E0,6.6E1,2.5E1,1.9E1,4.5008335E0,2.6545633E2,9.144637E0,1.9918407E2,2.2362521E2,1.4973576E1,1.0799999E1,1.8E1,2.6E1,2.7164171E1,7.46477E1,2.3E1,8.738334E0,2.3980554E2,1.9451114E2,2.9E1,5.5E1,1.4475833E1,2.1E1,1.0845529E2,4.2E1,1.967195E1,8.1E1,6.5E1,2.0154169E0,2.199538E1,6E1,4.2467732E0,-1.5573529E0,7.6E1,3.761481E-1,4.682627E0,-6.179995E-1,1.0899184E0,-2.6673442E-1,-1.9717668E0,-1.0116524E0,-1.8032244E-1,1.4462423E0,-1.5905638E0,1.5009679E0,-1.1204627E0,-1.412727E0,-1.9603517E0,-5.71677E-1,-2.4873357E0,5.1905346E0,2.3766856E0,3.7643304E-1,1.67931E0,-1.1052177E0,9.796149E-2,-1.5278246E0,8.9991945E-1,6.867908E-1,3.3068209E0,1.0126864E-1,-1.2622423E0,-3.5490498E-1,-1.120259E0,-1.3577188E0,-2.5204723E0,5.009359E0,2.839932E0,-1.2794697E0,-1.4602089E-2,9.355382E0,1.3740853E0,7.082348E-1,3.5832477E0,4.3867574E0,9.3378955E-1,3.0843322E0,5.412616E0,9.291202E-1,3.2541497E0,7.2193927E-1,-5.543357E-1,6.511466E0,-9.4176525E-1,-2.1895696E-1,1.5261853E0,3.3154228E0,1.1761398E1,7.456336E0,-1.4477921E-2,-5.5951613E-1,1.5044914E0,-3.044945E-1,4.503977E-1],"split_indices":[0,0,0,4,5,5,5,6,5,5,6,0,6,0,2,5,0,0,4,3,2,4,4,4,3,0,4,6,6,3,1,2,0,3,6,5,6,6,5,5,1,0,6,6,1,3,6,6,1,2,3,1,6,0,5,1,0,3,5,0,0,0,0,0,0,0,0,0,0,0,0,0,0,0,0,0,0,0,0,0,0,0,0,0,0,0,0,0,0,0,0,0,0,0,0,0,0,0,0,0,0,0,0,0,0,0,0,0,0,0,0,0,0,0,0,0,0,0,0,0,0,0,0],"split_type":[0,0,0,0,0,0,0,0,0,0,0,0,0,0,0,0,0,0,0,0,0,0,0,0,0,0,0,0,0,0,0,0,0,0,0,0,0,0,0,0,0,0,0,0,0,0,0,0,0,0,0,0,0,0,0,0,0,0,0,0,0,0,0,0,0,0,0,0,0,0,0,0,0,0,0,0,0,0,0,0,0,0,0,0,0,0,0,0,0,0,0,0,0,0,0,0,0,0,0,0,0,0,0,0,0,0,0,0,0,0,0,0,0,0,0,0,0,0,0,0,0,0,0],"sum_hessian":[3.016E3,2.346E3,6.7E2,1.428E3,9.18E2,5.69E2,1.01E2,6.1E2,8.18E2,3.96E2,5.22E2,8.2E1,4.87E2,8.5E1,1.6E1,2.06E2,4.04E2,7.2E1,7.46E2,1.32E2,2.64E2,9.7E1,4.25E2,5.7E1,2.5E1,2.28E2,2.59E2,4.7E1,3.8E1,1.1E1,5E0,2.4E1,1.82E2,1.81E2,2.23E2,3.7E1,3.5E1,6.66E2,8E1,3.5E1,9.7E1,5.5E1,2.09E2,3.5E1,6.2E1,3.14E2,1.11E2,5.4E1,3E0,1.7E1,8E0,1.02E2,1.26E2,1.28E2,1.31E2,4.4E1,3E0,2.5E1,1.3E1,8E0,3E0,2E0,3E0,2.1E1,3E0,1.64E2,1.8E1,3.2E1,1.49E2,1.76E2,4.7E1,1E0,3.6E1,2.1E1,1.4E1,3.2E2,3.46E2,2E0,7.8E1,1.1E1,2.4E1,3.4E1,6.3E1,3.7E1,1.8E1,1.1E1,1.98E2,1.8E1,1.7E1,2.8E1,3.4E1,1.6E2,1.54E2,7.9E1,3.2E1,3.4E1,2E1,2E0,1E0,1.5E1,2E0,1E0,7E0,2.4E1,7.8E1,9.1E1,3.5E1,8.3E1,4.5E1,3.6E1,9.5E1,4.3E1,1E0,1E0,2E0,1E0,2.4E1,1.1E1,2E0,2E0,6E0,2E0,1E0],"tree_param":{"num_deleted":"0","num_feature":"7","num_nodes":"123","size_leaf_vector":"1"}},{"base_weights":[4.9207516E-2,-1.2508448E0,1.0674714E1,-2.6738462E0,1.9787962E0,8.9537115E0,2.1913157E1,-1.6023861E0,-3.8037229E0,5.414412E0,6.6914195E-1,1.2069119E1,5.0984163E0,2.773107E1,1.3104685E1,1.004586E0,-2.4776084E0,-2.6785073E0,-4.4949374E0,7.6201005E0,2.5873148E0,3.5541763E0,-7.498629E-1,4.6733093E0,1.3358868E1,8.42911E0,1.6380446E0,3.0028381E1,1.2536145E1,1.924092E1,2.2622468E0,-8.8866234E-1,4.155895E0,2.7948115E0,-2.751482E0,-5.2995286E0,-1.9994749E0,-2.9714615E0,-5.363873E0,6.802688E0,1.6503555E1,2.0763834E0,1.1981923E1,-6.08259E0,4.5572176E0,1.2890912E0,-1.9605504E0,6.445975E0,-1.8734037E0,1.9778307E1,1.1705067E1,9.876081E0,-5.177666E0,4.7155175E0,7.032151E-1,3.0554605E0,3.276981E1,5.2304606E0,-1.058812E0,3.6183624E0,2.2003595E1,5.336807E0,-1.3922865E0,-4.4737622E-1,1.5473064E0,2.5994852E0,7.77794E-1,1.4393009E0,-1.4444699E0,-1.2224829E0,-6.189504E-1,-1.7238516E0,5.236178E-1,-6.455455E-1,2.6922004E0,2.0039971E-1,-9.844375E-1,-1.7007312E0,-1.0989876E0,1.8696218E0,5.53566E0,6.4948525E0,1.011674E0,1.4802328E0,-5.8677386E-2,4.3212304E0,3.4398222E-1,8.98464E-1,-2.1980093E0,1.266623E0,6.8434424E0,1.10376E0,-6.461254E-2,-1.7723107E-1,-1.0459552E0,2.3570092E0,-1.5322489E0,3.7320073E0,7.299114E0,3.6608813E0,-1.3244368E0,4.770801E0,2.0743873E0,-2.1540697E0,-3.4250263E-2,-3.802281E-1,1.5689389E0,4.9629993E0,1.0473665E1,2.9471971E-2,1.5987912E0,7.7521925E0,3.899526E0,1.7681153E0,3.8283807E-1],"categories":[],"categories_nodes":[],"categories_segments":[],"categories_sizes":[],"default_left":[0,0,1,0,0,0,0,0,0,1,0,1,0,0,0,0,0,0,0,0,0,0,0,0,0,0,0,0,0,0,0,0,0,0,0,0,0,0,0,0,0,0,0,0,0,0,0,1,0,0,0,0,0,0,0,0,0,0,0,0,0,0,0,0,0,0,0,0,0,0,0,0,0,0,0,0,0,0,0,0,0,0,0,0,0,0,0,0,0,0,0,0,0,0,0,0,0,0,0,0,0,0,0,0,0,0,0,0,0,0,0,0,0,0,0],"id":2,"left_children":[1,3,5,7,9,11,13,15,17,19,21,23,25,27,29,31,33,35,37,39,41,43,45,47,49,51,53,55,57,59,61,63,65,67,69,71,73,75,77,79,81,83,85,87,89,91,93,95,-1,97,99,101,103,-1,105,-1,107,-1,-1,109,111,113,-1,-1,-1,-1,-1,-1,-1,-1,-1,-1,-1,-1,-1,-1,-1,-1,-1,-1,-1,-1,-1,-1,-1,-1,-1,-1,-1,-1,-1,-1,-1,-1,-1,-1,-1,-1,-1,-1,-1,-1,-1,-1,-1,-1,-1,-1,-1,-1,-1,-1,-1,-1,-1],"loss_changes":[4.168933E4,1.2363354E4,6.1671133E3,2.254128E3,3.6994397E3,3.3855723E3,1.8402109E3,2.1929016E3,6.941699E2,1.3957876E3,2.4467102E3,1.4446895E3,1.4844993E3,4.962461E2,1.220575E3,1.4475164E3,1.0459087E3,6.087595E2,7.267158E2,8.0993506E2,4.5992102E2,1.931936E3,9.9241046E2,5.2410156E2,1.1911016E3,1.3505845E3,8.445236E2,8.0863477E2,4.5503674E2,4.383037E2,1.9456235E2,5.6150037E2,6.189735E2,5.7178235E2,6.146875E2,2.334353E2,4.840531E2,2.3460547E2,1.6402051E2,6.6939746E2,6.0272363E2,6.307551E2,1.1470941E2,2.3651605E2,9.987661E2,5.4016815E2,5.246803E2,3.9870007E2,0E0,5.658447E2,9.28666E2,9.608882E2,7.016019E1,0E0,5.596851E2,0E0,4.818164E1,0E0,0E0,1.754462E1,9.645508E0,6.0474854E0,0E0,0E0,0E0,0E0,0E0,0E0,0E0,0E0,0E0,0E0,0E0,0E0,0E0,0E0,0E0,0E0,0E0,0E0,0E0,0E0,0E0,0E0,0E0,0E0,0E0,0E0,0E0,0E0,0E0,0E0,0E0,0E0,0E0,0E0,0E0,0E0,0E0,0E0,0E0,0E0,0E0,0E0,0E0,0E0,0E0,0E0,0E0,0E0,0E0,0E0,0E0,0E0,0E0],"parents":[2147483647,0,0,1,1,2,2,3,3,4,4,5,5,6,6,7,7,8,8,9,9,10,10,11,11,12,12,13,13,14,14,15,15,16,16,17,17,18,18,19,19,20,20,21,21,22,22,23,23,24,24,25,25,26,26,27,27,28,28,29,29,30,30,31,31,32,32,33,33,34,34,35,35,36,36,37,37,38,38,39,39,40,40,41,41,42,42,43,43,44,44,45,45,46,46,47,47,49,49,50,50,51,51,52,52,54,54,56,56,59,59,60,60,61,61],"right_children":[2,4,6,8,10,12,14,16,18,20,22,24,26,28,30,32,34,36,38,40,42,44,46,48,50,52,54,56,58,60,62,64,66,68,70,72,74,76,78,80,82,84,86,88,90,92,94,96,-1,98,100,102,104,-1,106,-1,108,-1,-1,110,112,114,-1,-1,-1,-1,-1,-1,-1,-1,-1,-1,-1,-1,-1,-1,-1,-1,-1,-1,-1,-1,-1,-1,-1,-1,-1,-1,-1,-1,-1,-1,-1,-1,-1,-1,-1,-1,-1,-1,-1,-1,-1,-1,-1,-1,-1,-1,-1,-1,-1,-1,-1,-1,-1],"split_conditions":[4.1E1,2.4E1,7.1E1,1E0,1.6923828E1,1.9803272E1,1.912985E2,2.0319861E2,2.0043648E2,2.7E1,1.7670554E2,1.9E1,8E-1,7.2E1,2.194524E1,1.9E1,1.4800004E0,4.8559628E1,8.382083E0,3.8E1,1.7575834E1,3.4315132E1,3E-1,3.9999993E0,1.1113451E1,2.5236475E2,2E1,6.536016E1,9.3E1,3.6E1,9.244583E0,3.2E1,1.6E1,2.427265E1,1.4E1,4.3E1,1.873625E1,1.749615E1,3.7690125E1,1.7465414E1,7.6924996E0,8.915416E0,3.6E1,2.4E1,7.2E1,2.2104116E1,9.244583E0,5.7E1,-1.8734037E0,3.1E1,7.5E1,2.1E1,5E1,4.7155175E0,4.4E1,3.0554605E0,3.0237503E0,5.2304606E0,-1.058812E0,7.3E1,1E-1,8E1,-1.3922865E0,-4.4737622E-1,1.5473064E0,2.5994852E0,7.77794E-1,1.4393009E0,-1.4444699E0,-1.2224829E0,-6.189504E-1,-1.7238516E0,5.236178E-1,-6.455455E-1,2.6922004E0,2.0039971E-1,-9.844375E-1,-1.7007312E0,-1.0989876E0,1.8696218E0,5.53566E0,6.4948525E0,1.011674E0,1.4802328E0,-5.8677386E-2,4.3212304E0,3.4398222E-1,8.98464E-1,-2.1980093E0,1.266623E0,6.8434424E0,1.10376E0,-6.461254E-2,-1.7723107E-1,-1.0459552E0,2.3570092E0,-1.5322489E0,3.7320073E0,7.299114E0,3.6608813E0,-1.3244368E0,4.770801E0,2.0743873E0,-2.1540697E0,-3.4250263E-2,-3.802281E-1,1.5689389E0,4.9629993E0,1.0473665E1,2.9471971E-2,1.5987912E0,7.7521925E0,3.899526E0,1.7681153E0,3.8283807E-1],"split_indices":[0,0,0,4,5,5,6,6,6,1,6,2,4,2,5,0,3,6,3,0,3,6,4,4,5,6,1,6,0,2,3,1,1,5,0,1,3,5,5,3,3,3,0,1,2,5,3,0,0,2,1,2,0,0,2,0,3,0,0,0,4,0,0,0,0,0,0,0,0,0,0,0,0,0,0,0,0,0,0,0,0,0,0,0,0,0,0,0,0,0,0,0,0,0,0,0,0,0,0,0,0,0,0,0,0,0,0,0,0,0,0,0,0,0,0],"split_type":[0,0,0,0,0,0,0,0,0,0,0,0,0,0,0,0,0,0,0,0,0,0,0,0,0,0,0,0,0,0,0,0,0,0,0,0,0,0,0,0,0,0,0,0,0,0,0,0,0,0,0,0,0,0,0,0,0,0,0,0,0,0,0,0,0,0,0,0,0,0,0,0,0,0,0,0,0,0,0,0,0,0,0,0,0,0,0,0,0,0,0,0,0,0,0,0,0,0,0,0,0,0,0,0,0,0,0,0,0,0,0,0,0,0,0],"sum_hessian":[3.016E3,2.688E3,3.28E2,1.866E3,8.22E2,2.86E2,4.2E1,9.59E2,9.07E2,2.26E2,5.96E2,1.57E2,1.29E2,2.4E1,1.8E1,2.41E2,7.18E2,3.47E2,5.6E2,1.26E2,1E2,1.96E2,4E2,2.4E1,1.33E2,6.5E1,6.4E1,2E1,4E0,1.1E1,7E0,1.51E2,9E1,3.5E1,6.83E2,7E1,2.77E2,2.05E2,3.55E2,1.17E2,9E0,9.6E1,4E0,1.8E1,1.78E2,1.49E2,2.51E2,2.1E1,3E0,2.5E1,1.08E2,5.9E1,6E0,3E0,6.1E1,3E0,1.7E1,3E0,1E0,2E0,9E0,5E0,2E0,1.38E2,1.3E1,2.2E1,6.8E1,2.8E1,7E0,2.32E2,4.51E2,6.6E1,4E0,2.74E2,3E0,1.6E1,1.89E2,2.99E2,5.6E1,1.13E2,4E0,6E0,3E0,4.2E1,5.4E1,3E0,1E0,2E0,1.6E1,1.76E2,2E0,5.7E1,9.2E1,1.33E2,1.18E2,1.9E1,2E0,1.1E1,1.4E1,1.05E2,3E0,1.8E1,4.1E1,4E0,2E0,4.3E1,1.8E1,3E0,1.4E1,1E0,1E0,5E0,4E0,4E0,1E0],"tree_param":{"num_deleted":"0","num_feature":"7","num_nodes":"115","size_leaf_vector":"1"}},{"base_weights":[6.331535E-2,-1.3869302E0,5.1358385E0,-2.6276736E0,-4.5093557E-1,3.264007E0,1.0109553E1,-2.0100858E0,-3.606836E0,2.2811265E0,-1.0833149E0,4.516747E0,-5.833068E-1,8.1826935E0,1.6192755E1,-4.681165E0,-1.5544332E0,-3.723143E0,7.283563E-1,6.2477865E0,1.4580432E0,5.252366E-1,-1.5763592E0,1.0566931E1,3.8711553E0,4.055079E-2,-5.7692432E0,1.9931487E0,9.37224E0,1.76743E1,1.3981564E0,-2.2527359E0,-6.854989E0,-2.2897654E0,-4.5959586E-1,-3.339815E0,-5.049954E0,5.5580797E0,-2.8254972E0,4.0581694E0,4.933985E0,-3.9008594E0,2.1380198E0,1.9101723E-1,1.238661E1,-5.3322367E-2,-2.1094592E0,5.466329E0,1.4574473E1,5.397398E0,1.7587451E0,7.8576064E-1,-3.5307465E0,-7.708072E0,5.201402E-1,5.929333E0,-5.2259736E0,1.5601308E1,7.6158676E0,2.0596523E1,8.363498E0,3.9664867E0,-4.9086782E-1,-1.1857202E0,-1.1202502E-1,-2.2445557E0,-3.9733487E-1,1.3534138E0,-7.439495E-1,2.4387749E-1,-3.483633E-1,-7.9350716E-1,-1.2395829E0,-1.7263975E0,-7.120011E-1,1.9444425E0,2.79675E-1,-1.1628819E0,-3.9711766E-2,-1.4220835E0,1.5970703E0,6.5846145E-1,-1.4628588E0,5.3971785E-1,3.619043E0,6.021566E-1,-4.265277E-1,1.9404906E0,5.4364767E0,9.2675924E-1,-1.21734634E-1,-5.5940104E-1,-1.65089E0,2.7912593E0,7.5813305E-1,6.999791E0,1.3076591E0,1.1686288E0,3.4996006E0,8.880859E-1,-4.1375762E-1,-2.745355E-1,8.9317787E-1,-2.344761E-2,-1.8103843E0,-2.4920942E-1,-2.7970734E0,1.0549607E0,-1.2703569E0,4.3031263E-1,4.65941E0,-3.328873E-1,-3.0282016E0,5.1167126E0,-2.2485752E-1,3.3792667E0,8.491986E-1,4.179866E0,8.317849E0,3.5629666E0,-1.4890519E0,1.4595065E0,3.2541248E-1],"categories":[],"categories_nodes":[],"categories_segments":[],"categories_sizes":[],"default_left":[0,0,1,0,0,0,0,0,0,0,0,0,0,0,0,0,0,0,0,0,0,0,0,0,0,0,0,0,0,0,0,0,0,0,0,0,0,0,0,0,0,0,0,0,0,0,0,0,0,0,0,0,0,0,0,0,0,0,0,0,0,0,0,0,0,0,0,0,0,0,0,0,0,0,0,0,0,0,0,0,0,0,0,0,0,0,0,0,0,0,0,0,0,0,0,0,0,0,0,0,0,0,0,0,0,0,0,0,0,0,0,0,0,0,0,0,0,0,0,0,0,0,0],"id":3,"left_children":[1,3,5,7,9,11,13,15,17,19,21,23,25,27,29,31,33,35,37,39,41,43,45,47,49,51,53,55,57,59,61,63,65,67,69,71,73,75,77,-1,79,81,83,85,87,89,91,93,95,97,99,101,103,105,107,109,111,113,115,117,119,121,-1,-1,-1,-1,-1,-1,-1,-1,-1,-1,-1,-1,-1,-1,-1,-1,-1,-1,-1,-1,-1,-1,-1,-1,-1,-1,-1,-1,-1,-1,-1,-1,-1,-1,-1,-1,-1,-1,-1,-1,-1,-1,-1,-1,-1,-1,-1,-1,-1,-1,-1,-1,-1,-1,-1,-1,-1,-1,-1,-1,-1],"loss_changes":[2.2201398E4,2.724454E3,6.2139824E3,6.029116E2,2.315861E3,2.3594595E3,2.0125293E3,7.4853296E2,1.988501E2,8.1364343E2,8.6370654E2,1.4003887E3,3.9170352E2,1.0194678E3,9.177998E2,4.5966528E2,4.272444E2,1.7589502E2,2.0450978E2,3.4449768E2,7.7356506E2,1.0124952E3,6.762261E2,6.3576196E2,1.070564E3,2.928632E2,1.6253174E2,7.1296576E2,1.172169E3,8.888633E2,4.545655E1,1.3906941E2,1.5303467E2,4.2225586E2,1.9290024E2,1.5252881E2,1.4289868E2,1.5314972E1,1.9295975E1,0E0,1.684541E2,1.5339194E2,6.0742773E2,7.351232E2,1.20373535E2,2.4160529E2,5.0227637E2,1.6825293E2,1.5982256E3,1.7809224E3,5.39474E2,3.4192468E2,1.6377998E2,1.03359375E2,7.187825E1,6.6829376E2,1.691461E2,6.073003E2,1.6091787E3,9.9146484E2,5.739531E2,2.4910088E0,0E0,0E0,0E0,0E0,0E0,0E0,0E0,0E0,0E0,0E0,0E0,0E0,0E0,0E0,0E0,0E0,0E0,0E0,0E0,0E0,0E0,0E0,0E0,0E0,0E0,0E0,0E0,0E0,0E0,0E0,0E0,0E0,0E0,0E0,0E0,0E0,0E0,0E0,0E0,0E0,0E0,0E0,0E0,0E0,0E0,0E0,0E0,0E0,0E0,0E0,0E0,0E0,0E0,0E0,0E0,0E0,0E0,0E0,0E0,0E0,0E0],"parents":[2147483647,0,0,1,1,2,2,3,3,4,4,5,5,6,6,7,7,8,8,9,9,10,10,11,11,12,12,13,13,14,14,15,15,16,16,17,17,18,18,19,19,20,20,21,21,22,22,23,23,24,24,25,25,26,26,27,27,28,28,29,29,30,30,31,31,32,32,33,33,34,34,35,35,36,36,37,37,38,38,40,40,41,41,42,42,43,43,44,44,45,45,46,46,47,47,48,48,49,49,50,50,51,51,52,52,53,53,54,54,55,55,56,56,57,57,58,58,59,59,60,60,61,61],"right_children":[2,4,6,8,10,12,14,16,18,20,22,24,26,28,30,32,34,36,38,40,42,44,46,48,50,52,54,56,58,60,62,64,66,68,70,72,74,76,78,-1,80,82,84,86,88,90,92,94,96,98,100,102,104,106,108,110,112,114,116,118,120,122,-1,-1,-1,-1,-1,-1,-1,-1,-1,-1,-1,-1,-1,-1,-1,-1,-1,-1,-1,-1,-1,-1,-1,-1,-1,-1,-1,-1,-1,-1,-1,-1,-1,-1,-1,-1,-1,-1,-1,-1,-1,-1,-1,-1,-1,-1,-1,-1,-1,-1,-1,-1,-1,-1,-1,-1,-1,-1,-1,-1,-1],"split_conditions":[3.1E1,1.7E1,5E1,2E0,1.5978486E1,2.5563803E1,7.1E1,1E1,5.4E1,3.4841664E0,1.7364041E2,1.0799999E1,4.5E1,3.8362503E0,2.840124E1,1.1057083E1,2E1,2.4877226E2,3.2E1,8.217153E0,1.2E1,1.62925E1,1E-1,2.2E1,1.826025E2,2.5054723E2,1.2977917E1,1E0,6.6508336E0,1.0694584E1,8.19875E0,2.4617686E2,1.5000001E0,1.4800004E0,7.0987496E0,1.7E1,2E1,9E1,1.4E1,4.0581694E0,7.2242274E0,1.0514218E1,1.7575834E1,1.5000001E0,1.9E1,1.2E1,2.879399E2,3.7E1,1E-1,1.273176E2,1.3048749E1,8.427917E0,7.2695827E0,4.8258333E0,4.9E1,2E-1,4.6E1,7.3E0,6E-1,8.2E1,8.5E1,7.5E1,-4.9086782E-1,-1.1857202E0,-1.1202502E-1,-2.2445557E0,-3.9733487E-1,1.3534138E0,-7.439495E-1,2.4387749E-1,-3.483633E-1,-7.9350716E-1,-1.2395829E0,-1.7263975E0,-7.120011E-1,1.9444425E0,2.79675E-1,-1.1628819E0,-3.9711766E-2,-1.4220835E0,1.5970703E0,6.5846145E-1,-1.4628588E0,5.3971785E-1,3.619043E0,6.021566E-1,-4.265277E-1,1.9404906E0,5.4364767E0,9.2675924E-1,-1.21734634E-1,-5.5940104E-1,-1.65089E0,2.7912593E0,7.5813305E-1,6.999791E0,1.3076591E0,1.1686288E0,3.4996006E0,8.880859E-1,-4.1375762E-1,-2.745355E-1,8.9317787E-1,-2.344761E-2,-1.8103843E0,-2.4920942E-1,-2.7970734E0,1.0549607E0,-1.2703569E0,4.3031263E-1,4.65941E0,-3.328873E-1,-3.0282016E0,5.1167126E0,-2.2485752E-1,3.3792667E0,8.491986E-1,4.179866E0,8.317849E0,3.5629666E0,-1.4890519E0,1.4595065E0,3.2541248E-1],"split_indices":[0,0,0,4,5,5,0,0,2,3,6,5,0,3,5,3,2,6,1,5,2,3,4,2,6,6,3,4,3,3,3,6,4,3,3,1,1,2,0,0,6,5,3,4,2,2,6,0,4,6,3,3,3,3,0,4,2,4,4,0,0,0,0,0,0,0,0,0,0,0,0,0,0,0,0,0,0,0,0,0,0,0,0,0,0,0,0,0,0,0,0,0,0,0,0,0,0,0,0,0,0,0,0,0,0,0,0,0,0,0,0,0,0,0,0,0,0,0,0,0,0,0,0],"split_type":[0,0,0,0,0,0,0,0,0,0,0,0,0,0,0,0,0,0,0,0,0,0,0,0,0,0,0,0,0,0,0,0,0,0,0,0,0,0,0,0,0,0,0,0,0,0,0,0,0,0,0,0,0,0,0,0,0,0,0,0,0,0,0,0,0,0,0,0,0,0,0,0,0,0,0,0,0,0,0,0,0,0,0,0,0,0,0,0,0,0,0,0,0,0,0,0,0,0,0,0,0,0,0,0,0,0,0,0,0,0,0,0,0,0,0,0,0,0,0,0,0,0,0],"sum_hessian":[3.016E3,2.346E3,6.7E2,1.008E3,1.338E3,4.88E2,1.82E2,6.2E2,3.88E2,2.51E2,1.087E3,3.68E2,1.2E2,1.4E2,4.2E1,8.9E1,5.31E2,3.78E2,1E1,4.2E1,2.09E2,2.55E2,8.32E2,3.4E1,3.34E2,1.08E2,1.2E1,2.3E1,1.17E2,3.8E1,4E0,4.3E1,4.6E1,3.17E2,2.14E2,2.96E2,8.2E1,4E0,6E0,5E0,3.7E1,2.3E1,1.86E2,2.49E2,6E0,2.16E2,6.16E2,1.6E1,1.8E1,1.93E2,1.41E2,9E1,1.8E1,9E0,3E0,1.5E1,8E0,2.4E1,9.3E1,2.8E1,1E1,2E0,2E0,2.2E1,2.1E1,4.1E1,5E0,8E0,3.09E2,7.6E1,1.38E2,1.6E2,1.36E2,6.4E1,1.8E1,3E0,1E0,4E0,2E0,1E0,3.6E1,3E0,2E1,1.81E2,5E0,1.17E2,1.32E2,4E0,2E0,2.1E1,1.95E2,5.76E2,4E1,6E0,1E1,9E0,9E0,1.57E2,3.6E1,1.02E2,3.9E1,5.1E1,3.9E1,8E0,1E1,2E0,7E0,2E0,1E0,1.1E1,4E0,5E0,3E0,2.2E1,2E0,5.2E1,4.1E1,1.6E1,1.2E1,8E0,2E0,1E0,1E0],"tree_param":{"num_deleted":"0","num_feature":"7","num_nodes":"123","size_leaf_vector":"1"}},{"base_weights":[5.959656E-2,-6.0599375E-1,5.770806E0,-1.3587214E0,1.0737535E0,4.815151E0,1.1703898E1,5.559279E-1,-1.6043174E0,4.3194404E0,6.224847E-1,6.5338783E0,2.2861428E0,2.2561247E1,9.333484E0,1.4081675E0,-3.1652124E0,-1.2239015E0,-2.427665E0,6.6159105E0,5.945139E-1,1.1297562E0,-1.3502543E0,7.0070553E0,-3.4506667E0,6.057175E0,2.319223E-2,8.245274E-1,7.6215944E0,7.2688484E-1,1.0975829E1,2.9535873E0,-6.704205E-2,-3.8889353E0,-9.036758E-1,-1.11937776E-1,-1.7930776E0,-2.5185194E0,4.616416E0,-1.727253E0,7.6896496E0,-3.099973E0,1.759825E0,1.3363878E0,-5.8649335E0,-5.49584E-1,-3.892685E0,-5.97137E-1,7.370748E0,-6.662774E0,1.4271345E0,2.8298395E0,1.0636796E1,4.749814E0,-2.0569851E0,1.2357315E0,-2.8470564E0,1.6558496E1,7.077437E0,4.4309542E-1,1.9935235E0,-2.3111698E-1,1.2474607E0,-1.4430387E0,-2.2631644E-1,2.4057579E-1,-7.3759747E-1,-9.4590724E-1,6.9053516E-2,-5.818049E-1,5.73125E-1,-7.698744E-1,1.2696937E0,-2.5359973E-1,2.0910547E0,2.3119675E-1,-1.3253478E0,2.7976868E0,7.78885E-1,2.4896012E-1,2.7673535E0,3.7603262E-1,4.978594E0,-2.1871498E0,9.653615E-1,1.0989249E-1,-1.1694252E0,1.0331271E0,-1.6424297E0,1.1899971E0,-1.2386234E0,4.5474296E0,2.0629914E0,-3.40329E-1,-2.328376E0,-8.874283E-2,9.8939496E-1,1.859106E0,-1.2656842E0,4.067543E0,-6.744843E-1,3.0977185E0,-8.921563E-1,-7.6774347E-1,1.9989687E0,-8.135491E-2,-1.084586E0,5.8683815E0,1.6987879E0,-9.59908E-1,2.7237797E0],"categories":[],"categories_nodes":[],"categories_segments":[],"categories_sizes":[],"default_left":[1,0,0,0,0,0,0,0,0,0,0,0,0,0,0,0,0,0,0,0,0,1,0,0,0,0,0,0,0,0,0,0,0,0,0,0,0,0,0,0,0,0,0,1,0,0,0,0,0,0,0,0,0,0,0,0,0,0,0,0,0,0,0,0,0,0,0,0,0,0,0,0,0,0,0,0,0,0,0,0,0,0,0,0,0,0,0,0,0,0,0,0,0,0,0,0,0,0,0,0,0,0,0,0,0,0,0,0,0,0,0],"id":4,"left_children":[1,3,5,7,9,11,13,15,17,19,21,23,25,27,29,31,33,35,37,39,41,43,45,47,49,51,53,-1,-1,55,57,59,61,63,65,67,69,71,73,75,77,-1,79,81,83,85,87,89,91,93,95,97,99,101,103,-1,105,107,109,-1,-1,-1,-1,-1,-1,-1,-1,-1,-1,-1,-1,-1,-1,-1,-1,-1,-1,-1,-1,-1,-1,-1,-1,-1,-1,-1,-1,-1,-1,-1,-1,-1,-1,-1,-1,-1,-1,-1,-1,-1,-1,-1,-1,-1,-1,-1,-1,-1,-1,-1,-1],"loss_changes":[1.1472096E4,3.4191106E3,1.7296904E3,8.788125E2,1.2232458E3,1.1717046E3,8.960908E2,6.799447E2,5.1539844E2,8.685934E2,7.380513E2,7.895415E2,9.5562946E2,3.2461816E2,5.150171E2,3.9688632E2,6.1954712E1,7.1751135E2,3.4569897E2,5.7766016E2,5.2755414E2,8.547973E2,3.052436E2,4.3306738E2,1.3485286E2,5.9065845E2,7.078573E2,0E0,0E0,9.659249E1,5.5747485E2,4.535088E2,2.7066693E2,8.299695E1,3.114552E1,4.012816E2,4.0999268E2,1.7712085E2,9.588188E1,5.7171062E1,4.4241406E2,0E0,2.4919312E2,7.006263E2,2.4357812E2,3.571843E2,4.367E2,1.4531752E2,4.6523877E2,2.1559235E1,1.3869044E1,6.432429E2,6.704663E2,9.7817035E2,2.3599908E2,0E0,6.935047E0,2.8184595E2,4.4051184E2,0E0,0E0,0E0,0E0,0E0,0E0,0E0,0E0,0E0,0E0,0E0,0E0,0E0,0E0,0E0,0E0,0E0,0E0,0E0,0E0,0E0,0E0,0E0,0E0,0E0,0E0,0E0,0E0,0E0,0E0,0E0,0E0,0E0,0E0,0E0,0E0,0E0,0E0,0E0,0E0,0E0,0E0,0E0,0E0,0E0,0E0,0E0,0E0,0E0,0E0,0E0,0E0],"parents":[2147483647,0,0,1,1,2,2,3,3,4,4,5,5,6,6,7,7,8,8,9,9,10,10,11,11,12,12,13,13,14,14,15,15,16,16,17,17,18,18,19,19,20,20,21,21,22,22,23,23,24,24,25,25,26,26,29,29,30,30,31,31,32,32,33,33,34,34,35,35,36,36,37,37,38,38,39,39,40,40,42,42,43,43,44,44,45,45,46,46,47,47,48,48,49,49,50,50,51,51,52,52,53,53,54,54,56,56,57,57,58,58],"right_children":[2,4,6,8,10,12,14,16,18,20,22,24,26,28,30,32,34,36,38,40,42,44,46,48,50,52,54,-1,-1,56,58,60,62,64,66,68,70,72,74,76,78,-1,80,82,84,86,88,90,92,94,96,98,100,102,104,-1,106,108,110,-1,-1,-1,-1,-1,-1,-1,-1,-1,-1,-1,-1,-1,-1,-1,-1,-1,-1,-1,-1,-1,-1,-1,-1,-1,-1,-1,-1,-1,-1,-1,-1,-1,-1,-1,-1,-1,-1,-1,-1,-1,-1,-1,-1,-1,-1,-1,-1,-1,-1,-1,-1],"split_conditions":[4.2E1,2.4E1,7.1E1,1.4764389E1,1.2979984E1,2.0972897E1,4.5E1,2.5886545E2,3E0,1.0407084E1,3.0633865E1,2.7498138E2,1E-1,3.3E1,3.6E1,3E-1,2.3E1,2.2301823E2,6.4E1,1.2E1,1.1057083E1,6E1,1.0779999E1,7.050001E-1,5.1E1,1.4247455E2,5.6508336E0,8.245274E-1,7.6215944E0,2.4E1,5.4E1,2.4E1,1.533625E1,1.3215417E1,3E1,4.8559628E1,4.1835964E1,1.873625E1,1.5E1,1E-1,3.4E1,-3.099973E0,1.6713331E1,7.5E1,8.7E1,6.2000003E0,1.6096188E2,-6.720834E-1,2.5591667E0,1.6E1,6.7E1,6.91521E1,2.4830098E2,2.8999999E0,1.6019585E1,1.2357315E0,7.2E1,9.977916E0,5.9E1,4.4309542E-1,1.9935235E0,-2.3111698E-1,1.2474607E0,-1.4430387E0,-2.2631644E-1,2.4057579E-1,-7.3759747E-1,-9.4590724E-1,6.9053516E-2,-5.818049E-1,5.73125E-1,-7.698744E-1,1.2696937E0,-2.5359973E-1,2.0910547E0,2.3119675E-1,-1.3253478E0,2.7976868E0,7.78885E-1,2.4896012E-1,2.7673535E0,3.7603262E-1,4.978594E0,-2.1871498E0,9.653615E-1,1.0989249E-1,-1.1694252E0,1.0331271E0,-1.6424297E0,1.1899971E0,-1.2386234E0,4.5474296E0,2.0629914E0,-3.40329E-1,-2.328376E0,-8.874283E-2,9.8939496E-1,1.859106E0,-1.2656842E0,4.067543E0,-6.744843E-1,3.0977185E0,-8.921563E-1,-7.6774347E-1,1.9989687E0,-8.135491E-2,-1.084586E0,5.8683815E0,1.6987879E0,-9.59908E-1,2.7237797E0],"split_indices":[0,0,0,5,5,5,1,6,4,3,5,6,4,1,2,4,1,6,2,2,3,1,3,3,0,6,3,0,0,2,2,2,3,3,1,6,5,3,0,4,1,0,3,2,2,4,6,3,3,2,0,6,6,4,3,0,0,3,2,0,0,0,0,0,0,0,0,0,0,0,0,0,0,0,0,0,0,0,0,0,0,0,0,0,0,0,0,0,0,0,0,0,0,0,0,0,0,0,0,0,0,0,0,0,0,0,0,0,0,0,0],"split_type":[0,0,0,0,0,0,0,0,0,0,0,0,0,0,0,0,0,0,0,0,0,0,0,0,0,0,0,0,0,0,0,0,0,0,0,0,0,0,0,0,0,0,0,0,0,0,0,0,0,0,0,0,0,0,0,0,0,0,0,0,0,0,0,0,0,0,0,0,0,0,0,0,0,0,0,0,0,0,0,0,0,0,0,0,0,0,0,0,0,0,0,0,0,0,0,0,0,0,0,0,0,0,0,0,0,0,0,0,0,0,0],"sum_hessian":[3.016E3,2.702E3,3.14E2,1.866E3,8.36E2,2.72E2,4.2E1,2.12E2,1.654E3,1.01E2,7.35E2,1.61E2,1.11E2,6E0,3.6E1,1.73E2,3.9E1,1.133E3,5.21E2,6.2E1,3.9E1,5.85E2,1.5E2,1.54E2,7E0,4.1E1,7E1,1E0,5E0,6E0,3E1,8.4E1,8.9E1,2.9E1,1E1,3.84E2,7.49E2,5.15E2,6E0,7E0,5.5E1,3E0,3.6E1,5.69E2,1.6E1,1.15E2,3.5E1,7E0,1.47E2,4E0,3E0,2.5E1,1.6E1,2.1E1,4.9E1,3E0,3E0,1.1E1,1.9E1,6.1E1,2.3E1,7.7E1,1.2E1,2.2E1,7E0,5E0,5E0,3.8E1,3.46E2,7.21E2,2.8E1,5.12E2,3E0,2E0,4E0,4E0,3E0,4.1E1,1.4E1,3.3E1,3E0,5.67E2,2E0,1.4E1,2E0,9.1E1,2.4E1,6E0,2.9E1,3E0,4E0,7E0,1.4E2,1E0,3E0,2E0,1E0,1.7E1,8E0,1.3E1,3E0,1.2E1,9E0,4.7E1,2E0,1E0,2E0,8E0,3E0,3E0,1.6E1],"tree_param":{"num_deleted":"0","num_feature":"7","num_nodes":"111","size_leaf_vector":"1"}},{"base_weights":[5.420184E-2,-5.223383E-1,3.4231126E0,-1.1275166E0,4.0105546E-1,2.442859E0,7.115131E0,-2.62389E-1,-1.5401322E0,1.3689537E0,-4.468134E-1,4.280266E0,3.0865455E-1,9.588886E0,4.1985598E0,-5.815907E-2,-2.9974086E0,-3.7421218E-1,-1.8615069E0,1.1614994E0,7.273636E0,-2.9512072E-1,-5.140849E0,3.9828403E0,6.3881683E0,7.155529E0,-4.8526055E-1,7.5055184E0,1.8014353E1,-3.0803416E0,5.9018917E0,4.5403334E-1,-7.340675E-1,-5.181885E0,-8.8511896E-1,-1.0296165E0,3.2880175E0,-1.4704951E0,-2.549372E0,-1.30592E0,1.5615516E0,-9.6288276E-1,8.186493E0,8.7867215E-2,-1.9390177E0,3.6188004E0,-6.5500555E0,6.369817E0,2.8514774E0,1.1206109E1,1.1978621E0,8.623793E-2,-7.5588994E0,-1.5693328E0,8.528997E0,2.272235E1,1.9346312E0,9.295076E0,1.6623149E0,-6.365093E-1,2.4368258E-1,-1.0691749E0,-1.1815357E-2,-1.6460308E0,-4.5559216E-2,-7.001351E-2,-1.2849829E0,1.666963E-1,-6.0751235E-1,-4.7099593E-1,1.5090055E0,-1.0476828E0,-3.5838023E-1,-6.771408E-1,-1.2555217E0,1.9570724E0,-5.3699565E-1,8.6554843E-1,2.3746717E-1,2.97752E0,2.7724472E-1,-1.3948626E-2,2.4641554E0,3.5964036E-1,-7.9272807E-1,1.9283982E-1,1.4356204E0,4.2044547E-1,-2.364353E0,1.0170581E0,2.741134E0,-9.357611E-1,1.0836241E0,5.20739E-1,4.007014E0,-4.7316417E-1,1.9046181E0,4.860998E-1,-8.657597E-1,-2.5099173E0,7.740155E-2,-8.7171084E-1,5.664219E-1,3.7551367E0,2.040018E0,7.398062E0,1.95496E0,3.2167106E0,-9.955693E-1,1.0024669E0,-1.6410686E0],"categories":[],"categories_nodes":[],"categories_segments":[],"categories_sizes":[],"default_left":[1,0,0,0,0,0,0,0,0,0,0,0,0,0,0,0,0,0,0,0,0,0,0,0,0,0,1,0,0,0,0,0,0,0,0,0,0,0,0,0,1,0,0,0,0,0,0,0,0,0,0,0,0,0,0,0,0,0,0,0,0,0,0,0,0,0,0,0,0,0,0,0,0,0,0,0,0,0,0,0,0,0,0,0,0,0,0,0,0,0,0,0,0,0,0,0,0,0,0,0,0,0,0,0,0,0,0,0,0,0,0],"id":5,"left_children":[1,3,5,7,9,11,13,15,17,19,21,23,25,27,29,31,33,35,37,39,41,43,45,47,-1,49,51,53,55,-1,57,59,61,63,65,67,69,71,73,75,77,-1,79,81,83,85,87,89,91,93,95,97,99,101,103,105,-1,107,109,-1,-1,-1,-1,-1,-1,-1,-1,-1,-1,-1,-1,-1,-1,-1,-1,-1,-1,-1,-1,-1,-1,-1,-1,-1,-1,-1,-1,-1,-1,-1,-1,-1,-1,-1,-1,-1,-1,-1,-1,-1,-1,-1,-1,-1,-1,-1,-1,-1,-1,-1,-1],"loss_changes":[5.8617446E3,1.4405258E3,1.578648E3,5.5539087E2,8.384961E2,1.3711694E3,6.2350977E2,2.8134637E2,3.942339E2,5.758535E2,3.865505E2,8.665237E2,8.895137E2,7.2490674E2,1.144804E3,1.63045E2,1.5691202E2,5.530406E2,2.1841504E2,4.5807788E2,1.7939069E2,3.332249E2,2.3355405E2,4.8413672E2,0E0,3.9682074E2,5.949102E2,3.941897E2,3.4352515E2,0E0,5.5997534E2,2.4901633E2,3.989267E2,2.523758E1,4.1079994E1,3.0883862E2,3.040897E2,2.909032E2,1.3300073E2,2.5802628E2,4.0334668E2,0E0,1.802196E2,4.6986823E2,2.2388477E2,7.339363E0,1.6981213E2,4.555078E2,5.925554E2,1.8048438E2,1.2436563E2,6.2932587E2,7.159149E1,2.8588041E1,1.7000586E2,2.7728027E1,0E0,4.3165674E2,2.4584702E2,0E0,0E0,0E0,0E0,0E0,0E0,0E0,0E0,0E0,0E0,0E0,0E0,0E0,0E0,0E0,0E0,0E0,0E0,0E0,0E0,0E0,0E0,0E0,0E0,0E0,0E0,0E0,0E0,0E0,0E0,0E0,0E0,0E0,0E0,0E0,0E0,0E0,0E0,0E0,0E0,0E0,0E0,0E0,0E0,0E0,0E0,0E0,0E0,0E0,0E0,0E0,0E0],"parents":[2147483647,0,0,1,1,2,2,3,3,4,4,5,5,6,6,7,7,8,8,9,9,10,10,11,11,12,12,13,13,14,14,15,15,16,16,17,17,18,18,19,19,20,20,21,21,22,22,23,23,25,25,26,26,27,27,28,28,30,30,31,31,32,32,33,33,34,34,35,35,36,36,37,37,38,38,39,39,40,40,42,42,43,43,44,44,45,45,46,46,47,47,48,48,49,49,50,50,51,51,52,52,53,53,54,54,55,55,57,57,58,58],"right_children":[2,4,6,8,10,12,14,16,18,20,22,24,26,28,30,32,34,36,38,40,42,44,46,48,-1,50,52,54,56,-1,58,60,62,64,66,68,70,72,74,76,78,-1,80,82,84,86,88,90,92,94,96,98,100,102,104,106,-1,108,110,-1,-1,-1,-1,-1,-1,-1,-1,-1,-1,-1,-1,-1,-1,-1,-1,-1,-1,-1,-1,-1,-1,-1,-1,-1,-1,-1,-1,-1,-1,-1,-1,-1,-1,-1,-1,-1,-1,-1,-1,-1,-1,-1,-1,-1,-1,-1,-1,-1,-1,-1,-1],"split_conditions":[3.7E1,2.1E1,6E1,7.6924996E0,2.087379E1,1.6299382E2,6E-1,1.0600001E1,1.7287102E2,1.7575834E1,1.62E1,7.5E1,1.2241323E1,8E1,9E-1,2.6250393E1,5.4612503E0,1.4948749E1,2.1E0,1.4E1,2.2E1,2.561801E2,2.2E1,3.1E1,6.3881683E0,2.1117654E2,5.6E1,3.0237503E0,5E1,-3.0803416E0,1.7670554E2,7.344669E1,3.2737503E0,4.7668404E1,2.0600002E1,1.1057083E1,1.2E1,1E1,1.578E1,1.0514218E1,2.1E1,-9.6288276E-1,1.9110542E1,2.5541798E2,2.31774E1,1.8E1,1.6E1,7.853296E1,3.3E1,1.8133064E2,2.5657605E2,1.1705001E1,5.2E1,6.9E1,2.5E1,1.08E2,1.9346312E0,1.0399999E1,1.1705001E1,-6.365093E-1,2.4368258E-1,-1.0691749E0,-1.1815357E-2,-1.6460308E0,-4.5559216E-2,-7.001351E-2,-1.2849829E0,1.666963E-1,-6.0751235E-1,-4.7099593E-1,1.5090055E0,-1.0476828E0,-3.5838023E-1,-6.771408E-1,-1.2555217E0,1.9570724E0,-5.3699565E-1,8.6554843E-1,2.3746717E-1,2.97752E0,2.7724472E-1,-1.3948626E-2,2.4641554E0,3.5964036E-1,-7.9272807E-1,1.9283982E-1,1.4356204E0,4.2044547E-1,-2.364353E0,1.0170581E0,2.741134E0,-9.357611E-1,1.0836241E0,5.20739E-1,4.007014E0,-4.7316417E-1,1.9046181E0,4.860998E-1,-8.657597E-1,-2.5099173E0,7.740155E-2,-8.7171084E-1,5.664219E-1,3.7551367E0,2.040018E0,7.398062E0,1.95496E0,3.2167106E0,-9.955693E-1,1.0024669E0,-1.6410686E0],"split_indices":[0,0,0,3,5,6,4,4,6,3,4,2,5,0,4,5,3,3,4,2,0,6,0,1,0,6,2,3,2,0,6,6,3,5,4,3,2,0,3,5,1,0,5,6,5,1,1,6,1,6,6,3,0,0,2,0,0,4,3,0,0,0,0,0,0,0,0,0,0,0,0,0,0,0,0,0,0,0,0,0,0,0,0,0,0,0,0,0,0,0,0,0,0,0,0,0,0,0,0,0,0,0,0,0,0,0,0,0,0,0,0],"split_type":[0,0,0,0,0,0,0,0,0,0,0,0,0,0,0,0,0,0,0,0,0,0,0,0,0,0,0,0,0,0,0,0,0,0,0,0,0,0,0,0,0,0,0,0,0,0,0,0,0,0,0,0,0,0,0,0,0,0,0,0,0,0,0,0,0,0,0,0,0,0,0,0,0,0,0,0,0,0,0,0,0,0,0,0,0,0,0,0,0,0,0,0,0,0,0,0,0,0,0,0,0,0,0,0,0,0,0,0,0,0,0],"sum_hessian":[3.016E3,2.576E3,4.4E2,1.556E3,1.02E3,3.49E2,9.1E1,5.03E2,1.053E3,4.76E2,5.44E2,1.87E2,1.62E2,4.8E1,4.3E1,4.69E2,3.4E1,2.28E2,8.25E2,4.61E2,1.5E1,5.28E2,1.6E1,1.85E2,2E0,1.6E1,1.46E2,4E1,8E0,4E0,3.9E1,2.67E2,2.02E2,1.6E1,1.8E1,1.94E2,3.4E1,5.28E2,2.97E2,6.4E1,3.97E2,1E0,1.4E1,4.29E2,9.9E1,2E0,1.4E1,5.8E1,1.27E2,9E0,7E0,1.36E2,1E1,4E0,3.6E1,5E0,3E0,2.1E1,1.8E1,3.2E1,2.35E2,3.9E1,1.63E2,1.5E1,1E0,1.6E1,2E0,7.5E1,1.19E2,9E0,2.5E1,6.2E1,4.66E2,2.54E2,4.3E1,3E0,6.1E1,1.45E2,2.52E2,1.1E1,3E0,4.23E2,6E0,1.8E1,8.1E1,1E0,1E0,2E0,1.2E1,2.9E1,2.9E1,1.4E1,1.13E2,2E0,7E0,5E0,2E0,9E1,4.6E1,9E0,1E0,3E0,1E0,9E0,2.7E1,4E0,1E0,1.9E1,2E0,1.5E1,3E0],"tree_param":{"num_deleted":"0","num_feature":"7","num_nodes":"111","size_leaf_vector":"1"}},{"base_weights":[4.7213785E-2,-3.0618608E-1,3.0795712E0,6.771096E-1,-6.737671E-1,3.8212903E0,2.7706996E-1,1.4176285E0,-4.9299926E-1,9.680301E-2,-1.20722E0,4.575157E0,1.0334348E-1,-1.9630152E0,4.6477985E0,1.2598045E0,1.2912944E1,-2.8805451E0,1.0378473E0,2.534847E-1,-3.3619134E0,-5.8490634E-1,-1.5935059E0,4.76058E0,-6.025205E0,-2.7384126E0,3.2108219E0,5.1525126E0,-2.788313E0,8.886134E0,2.214702E-2,2.67203E0,3.465718E-1,4.7713537E0,-3.067343E-1,-1.0813286E0,-4.028842E0,-3.5076547E0,1.5173169E0,3.2941978E0,8.282525E-2,-2.3474967E0,-7.8736777E0,7.2596854E-1,-1.1604849E0,-1.3755397E0,-2.9562154E0,5.879389E0,2.7578366E0,-2.081292E0,-4.9318543E-1,-5.0397844E0,1.4014753E0,5.342409E0,-4.6787386E0,-4.3868184E0,2.4060054E0,-1.3760129E0,1.2039373E1,3.884838E0,-3.291895E0,1.1484625E0,-3.9773324E-1,-2.0271023E-1,4.66251E-1,4.5050904E-2,-2.038734E0,-1.4010074E0,4.0913376E-1,-1.6128242E0,-4.9864453E-1,1.1737213E0,2.7200738E-1,-5.738934E-1,1.6544569E0,-5.642037E-2,5.2168214E-1,5.6414172E-2,-1.0874014E0,-3.0489287E0,-6.589688E-1,1.4271278E0,1.0972469E-2,-3.8564213E-2,-6.476858E-1,-1.8433813E0,-3.9331704E-1,-1.2392728E0,-4.9395445E-1,1.1624335E0,3.7296798E0,-2.41926E-1,1.2757665E0,-3.0129945E0,-1.0492345E0,2.1828387E0,-8.2456195E-1,2.3338182E0,2.2489832E-1,-1.8832875E0,2.5752097E-1,-9.552199E-2,-1.9774437E0,3.8777938E0,1.8423043E-2,4.1393394E0,-5.679669E-1,1.5787774E-1,1.629769E0,-7.604981E-2,-1.336966E0],"categories":[],"categories_nodes":[],"categories_segments":[],"categories_sizes":[],"default_left":[1,0,0,0,0,0,0,0,0,0,0,0,0,0,0,0,0,0,0,1,0,0,0,0,0,0,0,0,0,0,0,0,0,0,0,0,0,0,0,0,0,0,0,0,0,0,0,0,0,0,0,0,0,0,0,0,0,0,0,0,0,0,0,0,0,0,0,0,0,0,0,0,0,0,0,0,0,0,0,0,0,0,0,0,0,0,0,0,0,0,0,0,0,0,0,0,0,0,0,0,0,0,0,0,0,0,0,0,0,0,0],"id":6,"left_children":[1,3,5,7,9,11,13,15,17,19,21,23,25,27,29,31,33,35,37,39,41,43,45,47,49,51,53,-1,55,57,59,61,63,-1,-1,65,67,69,71,73,75,77,79,81,83,85,87,89,91,-1,-1,93,95,97,99,101,103,-1,105,107,109,-1,-1,-1,-1,-1,-1,-1,-1,-1,-1,-1,-1,-1,-1,-1,-1,-1,-1,-1,-1,-1,-1,-1,-1,-1,-1,-1,-1,-1,-1,-1,-1,-1,-1,-1,-1,-1,-1,-1,-1,-1,-1,-1,-1,-1,-1,-1,-1,-1,-1],"loss_changes":[3.2340647E3,9.7743066E2,6.5372217E2,6.3843384E2,8.090885E2,6.9743384E2,6.651076E2,8.0195306E2,1.0483099E3,4.3763773E2,2.786427E2,4.3555225E2,3.885125E2,7.5864606E2,4.5071957E2,5.742759E2,2.6639362E2,2.2703937E2,3.867226E2,4.0033838E2,1.4170493E2,3.3810913E2,2.0890015E2,4.4088574E2,4.5852814E0,2.2619382E2,3.7815875E2,0E0,3.758932E2,5.650184E2,1.6640192E2,8.1395654E2,3.368326E2,0E0,0E0,3.1770065E2,2.4148938E2,4.9683426E1,2.2899045E2,4.8464743E2,3.2872437E2,9.783156E1,5.565982E1,3.8055325E2,3.201633E2,1.8260864E2,1.4397125E2,1.6595034E3,4.0299628E2,0E0,0E0,8.063095E1,2.3941783E2,1.8443979E2,4.9655037E1,3.028631E2,2.7052206E2,0E0,2.7111646E2,2.833001E1,2.364112E1,0E0,0E0,0E0,0E0,0E0,0E0,0E0,0E0,0E0,0E0,0E0,0E0,0E0,0E0,0E0,0E0,0E0,0E0,0E0,0E0,0E0,0E0,0E0,0E0,0E0,0E0,0E0,0E0,0E0,0E0,0E0,0E0,0E0,0E0,0E0,0E0,0E0,0E0,0E0,0E0,0E0,0E0,0E0,0E0,0E0,0E0,0E0,0E0,0E0,0E0],"parents":[2147483647,0,0,1,1,2,2,3,3,4,4,5,5,6,6,7,7,8,8,9,9,10,10,11,11,12,12,13,13,14,14,15,15,16,16,17,17,18,18,19,19,20,20,21,21,22,22,23,23,24,24,25,25,26,26,28,28,29,29,30,30,31,31,32,32,35,35,36,36,37,37,38,38,39,39,40,40,41,41,42,42,43,43,44,44,45,45,46,46,47,47,48,48,51,51,52,52,53,53,54,54,55,55,56,56,58,58,59,59,60,60],"right_children":[2,4,6,8,10,12,14,16,18,20,22,24,26,28,30,32,34,36,38,40,42,44,46,48,50,52,54,-1,56,58,60,62,64,-1,-1,66,68,70,72,74,76,78,80,82,84,86,88,90,92,-1,-1,94,96,98,100,102,104,-1,106,108,110,-1,-1,-1,-1,-1,-1,-1,-1,-1,-1,-1,-1,-1,-1,-1,-1,-1,-1,-1,-1,-1,-1,-1,-1,-1,-1,-1,-1,-1,-1,-1,-1,-1,-1,-1,-1,-1,-1,-1,-1,-1,-1,-1,-1,-1,-1,-1,-1,-1,-1],"split_conditions":[4.2E1,1E-1,2.6000004E0,1.0215417E1,2.0687135E2,2.4330782E2,6E1,6.9E1,1.2790417E1,1.69E1,8.2175E0,3.5362556E1,3.1E1,1.4800004E0,1.4525235E2,2.22694E2,8E1,1.9E1,1.1E1,1.1E1,3E1,2.346802E2,6.6000004E0,1.0482083E1,5.5E1,2E-1,1.3025834E1,5.1525126E0,1.4898749E1,4.88E0,5.7E1,3.1E1,2.1E1,4.7713537E0,-3.067343E-1,3.4349354E1,2.625471E2,1.2E1,1.5E1,9.315694E1,1.51050005E1,2.3000591E1,1.7E1,2.1046917E1,2.631942E1,2.0753844E2,2.4107077E2,8.427917E0,1.2275834E1,-2.081292E0,-4.9318543E-1,2E1,1.8E1,6.2E1,1.56987505E1,3.3E1,4.3E1,-1.3760129E0,1.0399999E1,3.2E1,4E1,1.1484625E0,-3.9773324E-1,-2.0271023E-1,4.66251E-1,4.5050904E-2,-2.038734E0,-1.4010074E0,4.0913376E-1,-1.6128242E0,-4.9864453E-1,1.1737213E0,2.7200738E-1,-5.738934E-1,1.6544569E0,-5.642037E-2,5.2168214E-1,5.6414172E-2,-1.0874014E0,-3.0489287E0,-6.589688E-1,1.4271278E0,1.0972469E-2,-3.8564213E-2,-6.476858E-1,-1.8433813E0,-3.9331704E-1,-1.2392728E0,-4.9395445E-1,1.1624335E0,3.7296798E0,-2.41926E-1,1.2757665E0,-3.0129945E0,-1.0492345E0,2.1828387E0,-8.2456195E-1,2.3338182E0,2.2489832E-1,-1.8832875E0,2.5752097E-1,-9.552199E-2,-1.9774437E0,3.8777938E0,1.8423043E-2,4.1393394E0,-5.679669E-1,1.5787774E-1,1.629769E0,-7.604981E-2,-1.336966E0],"split_indices":[0,4,4,3,6,6,0,2,3,4,3,5,2,3,6,6,2,2,0,1,0,6,4,3,0,4,3,0,3,3,1,2,1,0,0,5,6,2,1,6,3,5,2,5,5,6,6,3,3,0,0,1,2,0,3,1,0,0,4,2,2,0,0,0,0,0,0,0,0,0,0,0,0,0,0,0,0,0,0,0,0,0,0,0,0,0,0,0,0,0,0,0,0,0,0,0,0,0,0,0,0,0,0,0,0,0,0,0,0,0,0],"split_type":[0,0,0,0,0,0,0,0,0,0,0,0,0,0,0,0,0,0,0,0,0,0,0,0,0,0,0,0,0,0,0,0,0,0,0,0,0,0,0,0,0,0,0,0,0,0,0,0,0,0,0,0,0,0,0,0,0,0,0,0,0,0,0,0,0,0,0,0,0,0,0,0,0,0,0,0,0,0,0,0,0,0,0,0,0,0,0,0,0,0,0,0,0,0,0,0,0,0,0,0,0,0,0,0,0,0,0,0,0,0,0],"sum_hessian":[3.016E3,2.702E3,3.14E2,7.35E2,1.967E3,2.48E2,6.6E1,4.5E2,2.85E2,8.05E2,1.162E3,2.06E2,4.2E1,4.4E1,2.2E1,4.45E2,5E0,1.11E2,1.74E2,7.71E2,3.4E1,4.46E2,7.16E2,2.03E2,3E0,2.2E1,2E1,1E0,4.3E1,1.1E1,1.1E1,1.74E2,2.71E2,4E0,1E0,4.4E1,6.7E1,1.6E1,1.58E2,4E1,7.31E2,2.9E1,5E0,1.36E2,3.1E2,6.19E2,9.7E1,1.29E2,7.4E1,2E0,1E0,1.4E1,8E0,1.6E1,4E0,3.3E1,1E1,2E0,9E0,5E0,6E0,1.35E2,3.9E1,1.47E2,1.24E2,3.7E1,7E0,6E1,7E0,7E0,9E0,3.1E1,1.27E2,1.2E1,2.8E1,6.29E2,1.02E2,1E1,1.9E1,3E0,2E0,1.9E1,1.17E2,1.53E2,1.57E2,7E0,6.12E2,5E1,4.7E1,1E2,2.9E1,2.2E1,5.2E1,2E0,1.2E1,3E0,5E0,1E1,6E0,3E0,1E0,1.2E1,2.1E1,1E0,9E0,8E0,1E0,2E0,3E0,2E0,4E0],"tree_param":{"num_deleted":"0","num_feature":"7","num_nodes":"111","size_leaf_vector":"1"}},{"base_weights":[3.52183E-2,-3.8960248E-1,1.5239407E0,-8.6575377E-1,-3.0153379E-2,9.103721E-1,3.0356603E0,-1.6372693E0,-5.8346635E-1,7.639833E-1,-3.4101462E-1,1.1797925E0,-3.1523006E0,3.4357235E0,-1.9408072E0,4.3074045E0,-1.7886914E0,-2.7170532E0,-4.7384515E-1,6.5689676E-2,3.1620545E0,-4.051164E-1,5.2435303E0,2.3374815E0,4.1784984E-1,-4.2169785E0,3.014485E0,4.8757367E0,1.7490929E0,-5.0007105E0,6.547629E-1,-1.4332731E0,1.2439399E1,2.2190084E0,-1.9226E0,-2.2347641E-1,-3.805288E0,3.4431633E-1,-6.877664E-1,-1.3279788E-1,7.153409E0,9.935236E-1,4.9789934E0,5.289587E-1,-7.656671E-1,1.5866928E0,8.026446E0,1.6914111E0,5.0240316E0,-3.7765474E0,8.7651193E-1,-5.032537E0,1.5267262E0,6.7724915E0,-5.2450496E-1,3.9496543E0,1.1029176E1,7.9784503E0,1.0791714E0,-2.048092E-1,-1.6819791E0,-5.252526E-1,1.5142331E0,3.0023456E-1,-1.675424E0,1.1412544E0,4.4564753E0,-1.4627019E-1,9.185905E-1,-6.5761274E-1,1.3315696E-1,-9.340847E-1,6.857133E-1,-2.3872624E-1,-1.3553652E0,7.7917296E-1,-1.9299449E-1,-1.5372351E0,-1.8425658E-1,2.1488252E-1,-4.809779E-1,2.8533504E0,-1.4026351E0,7.0778275E-1,-2.1416857E0,1.062096E0,3.1500514E0,4.9253407E-1,-2.7725637E-1,-1.8824801E-1,-7.5486434E-1,7.2221994E-1,-1.0944176E-2,-9.957705E-2,2.9293518E0,3.1100404E0,3.9225817E-1,4.86367E0,7.6079684E-1,-1.4542758E0,1.0781469E0,1.2979352E0,1.07686765E-1,-9.407574E-1,-2.2903495E0,1.1178589E0,-1.3454877E-1,6.327324E-1,2.4148889E0,8.0874366E-1,2.292755E0,-5.27722E-1,3.705498E0,-1.4987469E0,3.1636822E0,-1.0539052E0,6.4662606E-1,1.3194254E-1,-1.092102E0],"categories":[],"categories_nodes":[],"categories_segments":[],"categories_sizes":[],"default_left":[1,1,0,1,0,1,0,0,0,0,0,0,0,0,0,0,0,0,0,0,0,0,0,0,0,0,0,0,0,0,0,0,0,0,0,0,0,0,0,0,0,0,0,0,0,0,0,0,0,0,1,0,0,0,0,0,0,0,0,0,0,0,0,0,0,0,0,0,0,0,0,0,0,0,0,0,0,0,0,0,0,0,0,0,0,0,0,0,0,0,0,0,0,0,0,0,0,0,0,0,0,0,0,0,0,0,0,0,0,0,0,0,0,0,0,0,0,0,0],"id":7,"left_children":[1,3,5,7,9,11,13,15,17,19,21,23,25,27,29,31,33,35,37,39,41,43,45,47,49,51,53,55,57,59,61,63,65,67,69,71,73,75,77,79,81,83,85,87,89,91,93,95,97,99,101,103,105,107,-1,109,111,113,115,-1,-1,117,-1,-1,-1,-1,-1,-1,-1,-1,-1,-1,-1,-1,-1,-1,-1,-1,-1,-1,-1,-1,-1,-1,-1,-1,-1,-1,-1,-1,-1,-1,-1,-1,-1,-1,-1,-1,-1,-1,-1,-1,-1,-1,-1,-1,-1,-1,-1,-1,-1,-1,-1,-1,-1,-1,-1,-1,-1],"loss_changes":[1.9086659E3,4.0183914E2,6.186908E2,2.1901166E2,3.3081454E2,5.2692224E2,3.909121E2,2.5074658E2,1.720224E2,6.311006E2,3.4685815E2,3.950829E2,2.0968127E2,4.2622192E2,1.22407196E2,3.4461118E2,1.4594592E2,9.683911E1,1.23802444E2,4.131494E2,3.2996075E2,3.2135773E2,9.920792E1,3.0045697E2,5.265868E2,1.2947574E2,1.0133451E2,5.0350317E2,3.4193704E2,1.4485947E1,4.9302063E1,5.611368E1,6.0648193E0,2.2026722E1,1.6420459E2,9.413962E1,5.001941E1,3.2875482E2,1.7964615E2,3.5822772E2,2.6758575E2,4.611206E2,3.282119E2,4.3166394E2,1.6483426E2,8.080721E0,9.040506E1,4.6934485E2,9.053345E2,2.3055807E2,4.37689E2,8.9566284E1,1.904895E1,8.89801E-1,0E0,3.7296985E2,2.2467468E2,3.191399E2,3.8813193E2,0E0,0E0,2.5651047E1,0E0,0E0,0E0,0E0,0E0,0E0,0E0,0E0,0E0,0E0,0E0,0E0,0E0,0E0,0E0,0E0,0E0,0E0,0E0,0E0,0E0,0E0,0E0,0E0,0E0,0E0,0E0,0E0,0E0,0E0,0E0,0E0,0E0,0E0,0E0,0E0,0E0,0E0,0E0,0E0,0E0,0E0,0E0,0E0,0E0,0E0,0E0,0E0,0E0,0E0,0E0,0E0,0E0,0E0,0E0,0E0,0E0],"parents":[2147483647,0,0,1,1,2,2,3,3,4,4,5,5,6,6,7,7,8,8,9,9,10,10,11,11,12,12,13,13,14,14,15,15,16,16,17,17,18,18,19,19,20,20,21,21,22,22,23,23,24,24,25,25,26,26,27,27,28,28,29,29,30,30,31,31,32,32,33,33,34,34,35,35,36,36,37,37,38,38,39,39,40,40,41,41,42,42,43,43,44,44,45,45,46,46,47,47,48,48,49,49,50,50,51,51,52,52,53,53,55,55,56,56,57,57,58,58,61,61],"right_children":[2,4,6,8,10,12,14,16,18,20,22,24,26,28,30,32,34,36,38,40,42,44,46,48,50,52,54,56,58,60,62,64,66,68,70,72,74,76,78,80,82,84,86,88,90,92,94,96,98,100,102,104,106,108,-1,110,112,114,116,-1,-1,118,-1,-1,-1,-1,-1,-1,-1,-1,-1,-1,-1,-1,-1,-1,-1,-1,-1,-1,-1,-1,-1,-1,-1,-1,-1,-1,-1,-1,-1,-1,-1,-1,-1,-1,-1,-1,-1,-1,-1,-1,-1,-1,-1,-1,-1,-1,-1,-1,-1,-1,-1,-1,-1,-1,-1,-1,-1],"split_conditions":[3.1E1,1.7E1,4.9E1,1.3E1,1.7039845E2,5.5E1,2.5277798E2,1.9467272E1,4.1519043E1,1.3116193E2,5.8E1,1E-1,6.7E1,2.006334E1,3.1E1,1.2E1,1.7966667E0,5.4612503E0,6.0091667E0,1.638E1,2E1,6.1716666E0,2.5455843E1,2.3532547E1,3E-1,4.2999997E0,7.8E1,2.1865982E2,1.5E1,1.6E1,6.1E1,1.5E1,1.3E1,1.4587776E1,3.7690125E1,3.6445835E0,1.4386494E1,2.1434364E1,7E0,2.6E1,4E1,1.9E1,1.6518997E2,2.494413E1,3.8E1,1.8556595E1,1.9E1,1.4E1,4.76125E0,4.6E1,1.8E1,1.3E0,7.4633317E0,4.5E1,-5.2450496E-1,1.7873556E1,3E1,5E1,2.199538E1,-2.048092E-1,-1.6819791E0,2.1434364E1,1.5142331E0,3.0023456E-1,-1.675424E0,1.1412544E0,4.4564753E0,-1.4627019E-1,9.185905E-1,-6.5761274E-1,1.3315696E-1,-9.340847E-1,6.857133E-1,-2.3872624E-1,-1.3553652E0,7.7917296E-1,-1.9299449E-1,-1.5372351E0,-1.8425658E-1,2.1488252E-1,-4.809779E-1,2.8533504E0,-1.4026351E0,7.0778275E-1,-2.1416857E0,1.062096E0,3.1500514E0,4.9253407E-1,-2.7725637E-1,-1.8824801E-1,-7.5486434E-1,7.2221994E-1,-1.0944176E-2,-9.957705E-2,2.9293518E0,3.1100404E0,3.9225817E-1,4.86367E0,7.6079684E-1,-1.4542758E0,1.0781469E0,1.2979352E0,1.07686765E-1,-9.407574E-1,-2.2903495E0,1.1178589E0,-1.3454877E-1,6.327324E-1,2.4148889E0,8.0874366E-1,2.292755E0,-5.27722E-1,3.705498E0,-1.4987469E0,3.1636822E0,-1.0539052E0,6.4662606E-1,1.3194254E-1,-1.092102E0],"split_indices":[0,0,0,1,6,1,6,6,6,6,1,4,2,5,2,1,3,3,3,3,2,3,5,5,4,4,2,6,2,2,1,0,0,5,5,3,5,5,0,1,2,2,6,5,2,5,0,1,3,0,1,4,3,0,0,5,1,0,5,0,0,5,0,0,0,0,0,0,0,0,0,0,0,0,0,0,0,0,0,0,0,0,0,0,0,0,0,0,0,0,0,0,0,0,0,0,0,0,0,0,0,0,0,0,0,0,0,0,0,0,0,0,0,0,0,0,0,0,0],"split_type":[0,0,0,0,0,0,0,0,0,0,0,0,0,0,0,0,0,0,0,0,0,0,0,0,0,0,0,0,0,0,0,0,0,0,0,0,0,0,0,0,0,0,0,0,0,0,0,0,0,0,0,0,0,0,0,0,0,0,0,0,0,0,0,0,0,0,0,0,0,0,0,0,0,0,0,0,0,0,0,0,0,0,0,0,0,0,0,0,0,0,0,0,0,0,0,0,0,0,0,0,0,0,0,0,0,0,0,0,0,0,0,0,0,0,0,0,0,0,0],"sum_hessian":[3.016E3,2.347E3,6.69E2,1.009E3,1.338E3,4.77E2,1.92E2,2.69E2,7.4E2,3.76E2,9.62E2,4.48E2,2.9E1,1.78E2,1.4E1,6E0,2.63E2,3.5E1,7.05E2,2.92E2,8.4E1,9.52E2,1E1,1.77E2,2.71E2,2.5E1,4E0,9.5E1,8.3E1,6E0,8E0,4E0,2E0,8E0,2.55E2,1.1E1,2.4E1,1.46E2,5.59E2,2.85E2,7E0,3.9E1,4.5E1,2.65E2,6.87E2,5E0,5E0,1.44E2,3.3E1,2.6E1,2.45E2,2.2E1,3E0,2E0,2E0,8.4E1,1.1E1,7E0,7.6E1,1E0,5E0,7E0,1E0,3E0,1E0,1E0,1E0,2E0,6E0,2.29E2,2.6E1,5E0,6E0,5E0,1.9E1,4.4E1,1.02E2,8E0,5.51E2,1.81E2,1.04E2,6E0,1E0,3.4E1,5E0,3.7E1,8E0,1.5E2,1.15E2,6.38E2,4.9E1,3E0,2E0,1E0,4E0,5E0,1.39E2,5E0,2.8E1,2.3E1,3E0,3.1E1,2.14E2,1.4E1,8E0,1E0,2E0,1E0,1E0,6.4E1,2E1,1E0,1E1,1E0,6E0,1.4E1,6.2E1,6E0,1E0],"tree_param":{"num_deleted":"0","num_feature":"7","num_nodes":"119","size_leaf_vector":"1"}},{"base_weights":[3.2907605E-2,-2.6920012E-1,1.0915883E0,-1.8065907E-1,-1.6538062E0,2.9977682E0,7.158817E-1,-4.6832538E-1,2.9382753E-1,1.098731E0,-2.0655494E0,4.1877995E0,2.6655233E0,-3.932758E0,7.887964E-1,3.291064E-1,-8.7616587E-1,2.8629966E0,1.6079259E-1,3.2581584E0,-2.2777514E0,-1.7616893E0,-5.322999E0,1.3798383E0,5.675905E0,3.2107788E-1,2.652628E0,-3.4313643E-1,9.745455E-1,-9.6378446E-1,3.7830794E0,6.2384095E0,4.5319587E-1,-2.8337307E0,2.6585943E-1,1.9375575E0,1.473756E0,5.396404E-1,-1.5690161E0,-2.0232184E0,2.508912E-1,-1.7287494E0,-2.051262E-1,2.033407E0,-3.2024128E0,-9.900635E-1,6.663546E0,8.1639796E-1,-1.9675996E0,4.2085066E0,-7.48908E-1,-6.3228637E-1,3.357369E-2,7.2242546E-1,-1.3655066E-1,-8.450038E-1,-2.5936687E-1,1.8815659E0,2.621791E-1,3.335799E0,1.319478E0,-4.866357E-1,1.8064353E0,-1.3790265E0,3.6092067E-1,2.6246837E-1,-8.0419816E-2,-1.1765919E-1,6.1887413E-1,-2.0400038E-1,3.0436537E-1,-6.4187133E-1,1.4418074E0,1.0607275E0,-4.2498946E-1,7.328793E-1,-1.5389129E0,-2.734697E0,1.9022141E-1,6.1639255E-1,-6.7947006E-1,2.860695E0,1.0616041E0,1.6543302E-1,1.380643E0,7.3639905E-1,-7.2758335E-1,1.0162556E0,3.2598262E0,6.58434E-1,-8.1657803E-1],"categories":[],"categories_nodes":[],"categories_segments":[],"categories_sizes":[],"default_left":[1,0,0,1,0,0,0,0,0,0,0,0,0,0,0,1,0,0,0,0,0,0,0,0,0,1,0,0,0,0,0,0,0,0,0,0,0,0,0,0,0,0,0,0,0,0,0,0,0,0,0,0,0,0,0,0,0,0,0,0,0,0,0,0,0,0,0,0,0,0,0,0,0,0,0,0,0,0,0,0,0,0,0,0,0,0,0,0,0,0,0],"id":8,"left_children":[1,3,5,7,9,11,13,15,17,19,21,-1,23,-1,25,27,29,31,33,35,37,39,41,43,45,47,49,51,53,55,57,59,61,63,65,-1,67,69,-1,71,73,-1,-1,75,77,79,81,83,85,87,89,-1,-1,-1,-1,-1,-1,-1,-1,-1,-1,-1,-1,-1,-1,-1,-1,-1,-1,-1,-1,-1,-1,-1,-1,-1,-1,-1,-1,-1,-1,-1,-1,-1,-1,-1,-1,-1,-1,-1,-1],"loss_changes":[9.6523785E2,2.8755307E2,4.7768408E2,3.0151593E2,1.6207019E2,3.6340253E2,5.7585754E2,4.4747275E2,2.845919E2,1.4595538E2,1.1236908E2,0E0,4.1017175E2,0E0,4.864557E2,2.0252798E2,3.7514124E2,3.3066977E2,2.5056569E2,5.9010597E1,6.9364685E1,6.051129E1,1.644928E1,2.3711263E2,2.1727197E2,5.0947174E2,5.95898E2,1.8410606E2,4.888894E2,1.6193524E2,1.17604065E2,1.0378186E2,2.9866458E2,1.9768858E2,2.4997224E2,0E0,1.0703136E1,3.5860004E0,0E0,9.053754E1,8.169512E1,0E0,0E0,2.1200735E2,2.3264066E2,2.406107E1,2.1755457E2,3.6758777E2,1.678711E2,3.8405713E2,2.1506027E2,0E0,0E0,0E0,0E0,0E0,0E0,0E0,0E0,0E0,0E0,0E0,0E0,0E0,0E0,0E0,0E0,0E0,0E0,0E0,0E0,0E0,0E0,0E0,0E0,0E0,0E0,0E0,0E0,0E0,0E0,0E0,0E0,0E0,0E0,0E0,0E0,0E0,0E0,0E0,0E0],"parents":[2147483647,0,0,1,1,2,2,3,3,4,4,5,5,6,6,7,7,8,8,9,9,10,10,12,12,14,14,15,15,16,16,17,17,18,18,19,19,20,20,21,21,22,22,23,23,24,24,25,25,26,26,27,27,28,28,29,29,30,30,31,31,32,32,33,33,34,34,36,36,37,37,39,39,40,40,43,43,44,44,45,45,46,46,47,47,48,48,49,49,50,50],"right_children":[2,4,6,8,10,12,14,16,18,20,22,-1,24,-1,26,28,30,32,34,36,38,40,42,44,46,48,50,52,54,56,58,60,62,64,66,-1,68,70,-1,72,74,-1,-1,76,78,80,82,84,86,88,90,-1,-1,-1,-1,-1,-1,-1,-1,-1,-1,-1,-1,-1,-1,-1,-1,-1,-1,-1,-1,-1,-1,-1,-1,-1,-1,-1,-1,-1,-1,-1,-1,-1,-1,-1,-1,-1,-1,-1,-1],"split_conditions":[3.1E1,2.8540195E2,1.30447235E1,2.2E1,2.2404165E0,1.2E1,1.3207634E1,8.01125E0,1.2313894E1,2.3E1,3.1700449E1,4.1877995E0,4E1,-3.932758E0,5.4E1,1.9E1,1.9154999E1,2.1E1,3.4315132E1,1.7E1,1.8556595E1,9E0,2.8E1,3.7E1,2.2E1,4.7E1,2.0087564E2,1.9201874E1,7E-1,9E0,2.0221666E1,1.05107445E2,4.4E1,5.1E0,2.1423956E2,1.9375575E0,1.4800004E0,1.30447235E1,-1.5690161E0,2.9522196E1,1.967195E1,-1.7287494E0,-2.051262E-1,1.19000025E1,5.1475613E1,1.5E1,5.5E1,4.4E1,5.0580162E1,8.7E1,8.3175E0,-6.3228637E-1,3.357369E-2,7.2242546E-1,-1.3655066E-1,-8.450038E-1,-2.5936687E-1,1.8815659E0,2.621791E-1,3.335799E0,1.319478E0,-4.866357E-1,1.8064353E0,-1.3790265E0,3.6092067E-1,2.6246837E-1,-8.0419816E-2,-1.1765919E-1,6.1887413E-1,-2.0400038E-1,3.0436537E-1,-6.4187133E-1,1.4418074E0,1.0607275E0,-4.2498946E-1,7.328793E-1,-1.5389129E0,-2.734697E0,1.9022141E-1,6.1639255E-1,-6.7947006E-1,2.860695E0,1.0616041E0,1.6543302E-1,1.380643E0,7.3639905E-1,-7.2758335E-1,1.0162556E0,3.2598262E0,6.58434E-1,-8.1657803E-1],"split_indices":[0,6,5,2,3,1,5,3,5,1,5,0,1,0,0,0,3,1,6,1,5,4,0,1,2,1,6,5,4,1,3,6,2,4,6,0,3,5,0,5,5,0,0,4,6,2,1,1,6,0,3,0,0,0,0,0,0,0,0,0,0,0,0,0,0,0,0,0,0,0,0,0,0,0,0,0,0,0,0,0,0,0,0,0,0,0,0,0,0,0,0],"split_type":[0,0,0,0,0,0,0,0,0,0,0,0,0,0,0,0,0,0,0,0,0,0,0,0,0,0,0,0,0,0,0,0,0,0,0,0,0,0,0,0,0,0,0,0,0,0,0,0,0,0,0,0,0,0,0,0,0,0,0,0,0,0,0,0,0,0,0,0,0,0,0,0,0,0,0,0,0,0,0,0,0,0,0,0,0,0,0,0,0,0,0],"sum_hessian":[3.016E3,2.347E3,6.69E2,2.207E3,1.4E2,1.09E2,5.6E2,1.374E3,8.33E2,1.8E1,1.22E2,2E0,1.07E2,2E0,5.58E2,4.65E2,9.09E2,4E1,7.93E2,1.1E1,7E0,1.13E2,9E0,7.6E1,3.1E1,4.47E2,1.11E2,2.28E2,2.37E2,8.93E2,1.6E1,1.6E1,2.4E1,2.6E1,7.67E2,3E0,8E0,4E0,3E0,1E2,1.3E1,8E0,1E0,6.7E1,9E0,4E0,2.7E1,3.68E2,7.9E1,7.6E1,3.5E1,4.6E1,1.82E2,1.18E2,1.19E2,4.4E1,8.49E2,8E0,8E0,3E0,1.3E1,1.8E1,6E0,1.8E1,8E0,3.58E2,4.09E2,2E0,6E0,1E0,3E0,9.9E1,1E0,4E0,9E0,6.4E1,3E0,3E0,6E0,1E0,3E0,1.3E1,1.4E1,3.45E2,2.3E1,7E0,7.2E1,6.9E1,7E0,1.4E1,2.1E1],"tree_param":{"num_deleted":"0","num_feature":"7","num_nodes":"91","size_leaf_vector":"1"}},{"base_weights":[2.736878E-2,-1.5979858E-1,9.120111E-1,1.785806E0,-2.1596394E-1,-2.56189E0,1.061248E0,2.5681298E0,-8.0427057E-1,-2.8716526E0,-1.7242879E-1,-9.702525E-1,-5.833934E0,1.0214818E1,8.749361E-1,1.6160283E0,8.729951E0,-3.1865664E0,5.5505524E0,-1.2741587E0,-4.864047E0,1.3162427E-1,-4.3833965E-1,1.5942599E0,-2.668386E0,-2.0061316E0,-1.0723572E-1,2.7613735E0,5.1347966E0,1.149116E0,-1.4935095E0,3.0493755E0,-1.1770977E0,1.5075817E0,4.13095E0,1.6601118E0,-4.3743978E0,2.8297934E-1,2.6903825E0,6.082456E-1,-1.8707796E0,-1.7397013E0,-7.447943E0,3.422176E-1,-1.2020758E0,-5.2496046E-1,1.2322878E0,2.6124086E0,-6.77195E-1,-3.347915E0,5.171065E-1,1.2135079E0,-5.485337E-1,1.0134344E0,7.624611E0,-2.9896889E0,2.7810981E0,-1.1160042E0,1.0874007E0,-8.7668407E-1,2.3823543E0,-5.0205998E-2,9.7985804E-1,1.4603366E0,-1.6971369E0,1.22403435E-1,4.9372674E-3,-1.2568111E0,-9.001452E-2,-1.2201242E0,2.8068548E-1,-2.3728485E0,-5.633297E-1,5.5482827E-2,8.3710414E-1,-6.5176094E-1,1.2245919E-1,-1.4556189E-1,-1.244424E0,-3.2547998E-1,9.721952E-1,-1.6661711E-1,1.007114E0,-2.2665425E-1,-1.0732578E0,9.310989E-1,1.8018028E-1,6.6923296E-1,4.142763E0,-1.4240153E0,2.6685017E-1,-1.4852338E0,1.6019589E0],"categories":[],"categories_nodes":[],"categories_segments":[],"categories_sizes":[],"default_left":[1,0,0,0,0,0,0,0,0,0,0,0,0,0,0,0,0,0,0,0,0,0,0,0,0,0,0,0,0,0,0,0,0,0,0,0,0,0,0,0,0,0,0,0,0,0,0,0,0,0,0,0,0,0,0,0,0,0,0,0,0,0,0,0,0,0,0,0,0,0,0,0,0,0,0,0,0,0,0,0,0,0,0,0,0,0,0,0,0,0,0,0,0],"id":9,"left_children":[1,3,5,7,9,11,13,15,17,19,21,23,25,27,29,31,33,35,37,39,41,43,45,47,49,-1,-1,51,-1,53,55,57,59,61,-1,-1,63,65,-1,-1,67,69,71,73,75,77,79,81,-1,83,-1,-1,-1,85,87,89,91,-1,-1,-1,-1,-1,-1,-1,-1,-1,-1,-1,-1,-1,-1,-1,-1,-1,-1,-1,-1,-1,-1,-1,-1,-1,-1,-1,-1,-1,-1,-1,-1,-1,-1,-1,-1],"loss_changes":[4.9968903E2,2.7259116E2,2.759334E2,1.4390498E2,2.795264E2,1.08913574E2,8.540041E2,3.026929E2,2.7505133E2,1.17933105E2,1.9280649E2,7.393224E1,3.031633E1,4.671112E2,3.244582E2,1.9575833E2,2.3404004E2,1.5886342E2,8.7468994E1,4.909906E1,1.2428351E2,3.1301782E2,1.8471944E2,3.334738E1,3.561618E1,0E0,0E0,4.2746517E1,0E0,3.8413116E2,3.4088483E2,1.3810406E2,2.9372836E2,1.2328849E1,0E0,0E0,1.6979987E2,9.325646E-2,0E0,0E0,7.158066E1,5.9843582E1,8.286133E0,3.6988205E2,2.3841826E2,1.7226862E2,2.967066E2,1.6017647E1,0E0,2.6543121E0,0E0,0E0,0E0,3.7609326E2,2.694231E2,2.7004022E2,3.0341324E2,0E0,0E0,0E0,0E0,0E0,0E0,0E0,0E0,0E0,0E0,0E0,0E0,0E0,0E0,0E0,0E0,0E0,0E0,0E0,0E0,0E0,0E0,0E0,0E0,0E0,0E0,0E0,0E0,0E0,0E0,0E0,0E0,0E0,0E0,0E0,0E0],"parents":[2147483647,0,0,1,1,2,2,3,3,4,4,5,5,6,6,7,7,8,8,9,9,10,10,11,11,12,12,13,13,14,14,15,15,16,16,17,17,18,18,19,19,20,20,21,21,22,22,23,23,24,24,27,27,29,29,30,30,31,31,32,32,33,33,36,36,37,37,40,40,41,41,42,42,43,43,44,44,45,45,46,46,47,47,49,49,53,53,54,54,55,55,56,56],"right_children":[2,4,6,8,10,12,14,16,18,20,22,24,26,28,30,32,34,36,38,40,42,44,46,48,50,-1,-1,52,-1,54,56,58,60,62,-1,-1,64,66,-1,-1,68,70,72,74,76,78,80,82,-1,84,-1,-1,-1,86,88,90,92,-1,-1,-1,-1,-1,-1,-1,-1,-1,-1,-1,-1,-1,-1,-1,-1,-1,-1,-1,-1,-1,-1,-1,-1,-1,-1,-1,-1,-1,-1,-1,-1,-1,-1,-1,-1],"split_conditions":[3.4E1,1.0948973E1,8.8208324E-1,1.8E0,2.4055233E1,1.7581125E1,1.7966667E0,3.1E1,5E0,7.2695827E0,2.22694E2,-6.720834E-1,2.5853662E2,1.7873556E1,6.4999995E0,2.6E1,4.3841667E0,9E0,1.5E1,1.2E1,1.6E1,3.4746994E1,4.1835964E1,4.8E1,3E1,-2.0061316E0,-1.0723572E-1,4.8E1,5.1347966E0,5.8999996E0,1.5067498E1,7E0,1.0799999E1,1.7E1,4.13095E0,1.6601118E0,1.1E1,6E0,2.6903825E0,6.082456E-1,1.3E0,1.3E1,3.2E1,2.1802243E2,4.0843742E1,3.3E1,2.401813E2,3.6E1,-6.77195E-1,3.5E1,5.171065E-1,1.2135079E0,-5.485337E-1,1.30447235E1,1.9803272E1,5.3E1,2.8E1,-1.1160042E0,1.0874007E0,-8.7668407E-1,2.3823543E0,-5.0205998E-2,9.7985804E-1,1.4603366E0,-1.6971369E0,1.22403435E-1,4.9372674E-3,-1.2568111E0,-9.001452E-2,-1.2201242E0,2.8068548E-1,-2.3728485E0,-5.633297E-1,5.5482827E-2,8.3710414E-1,-6.5176094E-1,1.2245919E-1,-1.4556189E-1,-1.244424E0,-3.2547998E-1,9.721952E-1,-1.6661711E-1,1.007114E0,-2.2665425E-1,-1.0732578E0,9.310989E-1,1.8018028E-1,6.6923296E-1,4.142763E0,-1.4240153E0,2.6685017E-1,-1.4852338E0,1.6019589E0],"split_indices":[0,5,3,4,6,5,3,0,4,3,6,3,6,5,4,0,3,2,0,1,1,5,5,0,2,0,0,1,0,4,3,1,5,1,0,0,1,0,0,0,4,1,0,6,5,0,6,0,0,0,0,0,0,5,5,0,1,0,0,0,0,0,0,0,0,0,0,0,0,0,0,0,0,0,0,0,0,0,0,0,0,0,0,0,0,0,0,0,0,0,0,0,0],"split_type":[0,0,0,0,0,0,0,0,0,0,0,0,0,0,0,0,0,0,0,0,0,0,0,0,0,0,0,0,0,0,0,0,0,0,0,0,0,0,0,0,0,0,0,0,0,0,0,0,0,0,0,0,0,0,0,0,0,0,0,0,0,0,0,0,0,0,0,0,0,0,0,0,0,0,0,0,0,0,0,0,0,0,0,0,0,0,0,0,0,0,0,0,0],"sum_hessian":[3.016E3,2.49E3,5.26E2,6.9E1,2.421E3,2.1E1,5.05E2,5.3E1,1.6E1,3.8E1,2.383E3,1.5E1,6E0,9E0,4.96E2,4.7E1,6E0,1.2E1,4E0,2.2E1,1.6E1,1.112E3,1.271E3,6E0,9E0,5E0,1E0,5E0,4E0,4.45E2,5.1E1,3.1E1,1.6E1,3E0,3E0,1E0,1.1E1,2E0,2E0,3E0,1.9E1,8E0,8E0,9.61E2,1.51E2,1.209E3,6.2E1,5E0,1E0,8E0,1E0,4E0,1E0,4.37E2,8E0,3.8E1,1.3E1,2E0,2.9E1,1.4E1,2E0,2E0,1E0,1E0,1E1,1E0,1E0,7E0,1.2E1,4E0,4E0,7E0,1E0,9.04E2,5.7E1,9.4E1,5.7E1,1.197E3,1.2E1,2.9E1,3.3E1,1E0,4E0,1E0,7E0,7.1E1,3.66E2,5E0,3E0,2.6E1,1.2E1,3E0,1E1],"tree_param":{"num_deleted":"0","num_feature":"7","num_nodes":"93","size_leaf_vector":"1"}},{"base_weights":[2.3710333E-2,-2.3977911E-1,4.5168823E-1,-2.6716512E-1,2.9468493E0,5.129657E-1,-3.6624494E0,2.9729052E0,-2.9344782E-1,-9.4170254E-1,4.799982E0,4.8330626E-1,8.770929E0,1.0249634E-1,-4.8287787E0,-7.9062116E-1,4.413335E0,-2.7119893E-1,-3.1743808E0,-4.2593307E0,1.7819443E0,5.3490143E0,-1.03550725E-1,9.108099E-1,-1.3650774E-2,4.1484847E0,7.427155E-1,7.4309945E-1,-6.9185126E-1,-5.1995883E0,-5.68594E-2,-9.573078E-1,5.6199723E-1,7.294846E0,1.7246363E0,-3.1410006E-1,1.755679E0,-1.6407157E0,-6.5983644E0,-3.1998253E-1,-1.5967164E0,1.237135E-2,7.045301E-1,6.267194E0,3.3525926E-1,7.589595E-1,4.1502953E0,-2.7621458E0,2.5032505E-1,-9.044123E-2,-5.617465E0,4.945819E-1,2.4882765E0,8.1329316E-1,-1.4824314E-1,-7.416292E-2,-4.678539E-1,-2.4055701E-1,1.4886467E0,-7.530685E-1,-2.8576585E-2,-3.0032817E-1,-2.4391272E0,3.9530757E-1,2.0358071E0,-1.4325397E0,2.503907E-1,3.7676542E0,5.0052124E-1,-1.1051742E0,3.50335E0,5.563438E-1,-1.1149814E-1,-4.7883025E-1,-1.7579975E0],"categories":[],"categories_nodes":[],"categories_segments":[],"categories_sizes":[],"default_left":[1,1,0,0,0,0,0,0,1,0,0,0,0,0,0,0,0,1,0,0,0,0,0,0,0,0,0,0,0,0,0,0,0,0,0,1,0,0,0,0,0,0,0,0,0,0,0,0,0,0,0,0,0,0,0,0,0,0,0,0,0,0,0,0,0,0,0,0,0,0,0,0,0,0,0],"id":10,"left_children":[1,3,5,7,9,11,13,15,17,19,21,23,25,27,29,31,33,35,37,39,41,43,-1,45,47,-1,-1,-1,-1,49,-1,-1,-1,51,53,55,57,59,61,-1,-1,-1,-1,63,-1,65,67,69,71,-1,73,-1,-1,-1,-1,-1,-1,-1,-1,-1,-1,-1,-1,-1,-1,-1,-1,-1,-1,-1,-1,-1,-1,-1,-1],"loss_changes":[3.4032834E2,1.6380588E2,2.9179822E2,1.586698E2,1.1981621E2,2.7350763E2,7.514476E1,8.480571E1,1.1701462E2,6.1806175E1,3.2919693E1,2.402944E2,9.3113464E1,3.43093E1,2.1378113E1,3.795056E1,7.264169E1,1.5933203E2,6.269139E1,4.505234E0,3.8475227E0,3.1848816E1,0E0,2.959357E2,3.808724E2,0E0,0E0,0E0,0E0,2.2868195E1,0E0,0E0,0E0,1.4540527E1,1.6658926E1,1.4864906E2,3.1560474E2,1.4542652E1,2.6162064E1,0E0,0E0,0E0,0E0,1.1601715E1,0E0,2.4772626E2,5.425128E2,6.552944E2,4.7861655E2,0E0,1.3750305E0,0E0,0E0,0E0,0E0,0E0,0E0,0E0,0E0,0E0,0E0,0E0,0E0,0E0,0E0,0E0,0E0,0E0,0E0,0E0,0E0,0E0,0E0,0E0,0E0],"parents":[2147483647,0,0,1,1,2,2,3,3,4,4,5,5,6,6,7,7,8,8,9,9,10,10,11,11,12,12,13,13,14,14,15,15,16,16,17,17,18,18,19,19,20,20,21,21,23,23,24,24,29,29,33,33,34,34,35,35,36,36,37,37,38,38,43,43,45,45,46,46,47,47,48,48,50,50],"right_children":[2,4,6,8,10,12,14,16,18,20,22,24,26,28,30,32,34,36,38,40,42,44,-1,46,48,-1,-1,-1,-1,50,-1,-1,-1,52,54,56,58,60,62,-1,-1,-1,-1,64,-1,66,68,70,72,-1,74,-1,-1,-1,-1,-1,-1,-1,-1,-1,-1,-1,-1,-1,-1,-1,-1,-1,-1,-1,-1,-1,-1,-1,-1],"split_conditions":[2.4E1,6.5E1,1.69E1,9.449572E0,6.536016E1,1.04E2,1.8E1,1.3E1,5.8E1,1.5E1,7.6E1,2.0972897E1,1.08E2,3E1,2.9451178E2,2E1,1.4E1,4.8E1,2E1,1.2E1,2.9E1,2.350622E2,-1.03550725E-1,2.0598795E1,2.199538E1,4.1484847E0,7.427155E-1,7.4309945E-1,-6.9185126E-1,2.402917E0,-5.68594E-2,-9.573078E-1,5.6199723E-1,1.4E1,2.1865982E2,3.7E1,2.6459389E1,1.83814E2,7.2242274E0,-3.1998253E-1,-1.5967164E0,1.237135E-2,7.045301E-1,1.9E1,3.3525926E-1,1.1725089E1,6.607938E1,2.6156888E2,1.6299382E2,-9.044123E-2,1.1725089E1,4.945819E-1,2.4882765E0,8.1329316E-1,-1.4824314E-1,-7.416292E-2,-4.678539E-1,-2.4055701E-1,1.4886467E0,-7.530685E-1,-2.8576585E-2,-3.0032817E-1,-2.4391272E0,3.9530757E-1,2.0358071E0,-1.4325397E0,2.503907E-1,3.7676542E0,5.0052124E-1,-1.1051742E0,3.50335E0,5.563438E-1,-1.1149814E-1,-4.7883025E-1,-1.7579975E0],"split_indices":[0,2,4,5,6,0,1,2,2,0,1,5,0,0,6,0,1,2,0,0,1,6,0,5,5,0,0,0,0,3,0,0,0,2,6,2,5,6,6,0,0,0,0,1,0,6,6,6,6,0,6,0,0,0,0,0,0,0,0,0,0,0,0,0,0,0,0,0,0,0,0,0,0,0,0],"split_type":[0,0,0,0,0,0,0,0,0,0,0,0,0,0,0,0,0,0,0,0,0,0,0,0,0,0,0,0,0,0,0,0,0,0,0,0,0,0,0,0,0,0,0,0,0,0,0,0,0,0,0,0,0,0,0,0,0,0,0,0,0,0,0,0,0,0,0,0,0,0,0,0,0,0,0],"sum_hessian":[3.016E3,1.867E3,1.149E3,1.852E3,1.5E1,1.133E3,1.6E1,1.4E1,1.838E3,5E0,1E1,1.13E3,3E0,4E0,1.2E1,4E0,1E1,1.825E3,1.3E1,2E0,3E0,9E0,1E0,6.07E2,5.23E2,1E0,2E0,2E0,2E0,1.1E1,1E0,2E0,2E0,4E0,6E0,1.788E3,3.7E1,1E1,3E0,1E0,1E0,1E0,2E0,7E0,2E0,5.81E2,2.6E1,4.5E1,4.78E2,1E0,1E1,1E0,3E0,4E0,2E0,1.698E3,9E1,2.1E1,1.6E1,6E0,4E0,1E0,2E0,1E0,6E0,7E0,5.74E2,5E0,2.1E1,4.3E1,2E0,1.33E2,3.45E2,1E0,9E0],"tree_param":{"num_deleted":"0","num_feature":"7","num_nodes":"75","size_leaf_vector":"1"}},{"base_weights":[2.0040665E-2,1.3007982E-1,-7.04388E-1,3.6150403E-2,1.219126E0,-8.346466E-1,3.555149E0,1.4040248E-2,3.823881E0,4.7004882E-1,2.657908E0,5.4944927E-1,-1.1858082E0,2.6936493E0,7.4960774E-1,6.0217373E-2,-2.2990448E0,7.348488E0,1.0492672E0,-7.733319E-2,8.32445E0,7.2195177E0,-3.0534163E-1,2.9216647E0,5.8565367E-2,-2.1121244E0,-7.390585E-1,1.1318693E0,-6.531748E-1,-2.0449271E0,7.18917E-2,1.3169312E0,-2.6938758E0,8.935543E0,-8.801823E-2,1.774059E0,-2.975009E-1,2.053606E0,-2.1748137E0,1.3061435E1,-8.621392E-1,1.3515878E1,4.8879704E0,-7.6485147E0,6.201886E-1,-1.3534319E0,2.3936448E0,-5.847537E0,-1.6321058E0,3.481912E-1,-1.3711368E0,-1.5004463E0,2.9300082E-1,1.4789598E-2,9.5126516E-1,-1.2456152E0,-1.4381387E-2,7.824406E-1,2.9596086E0,1.051569E-2,6.174154E-1,-7.119509E-1,1.0642548E0,1.2275246E0,-8.962968E-1,4.3969374E0,7.6294786E-1,-1.6482593E0,1.9551053E0,4.4315085E0,8.9714533E-1,-1.1391913E0,1.9377563E0,-2.3414041E-1,-2.7511232E0,5.956916E-1,-1.5269452E0,1.0884781E-1,-1.1323003E0,-4.799234E-1,1.0514859E0,6.4962846E-1,-2.059613E0,7.391721E-1,-5.706105E-1,-3.4886277E-1,6.4302146E-1,-5.862836E-1,-3.1547725E-2,-5.053531E-1,-1.14628606E-1],"categories":[],"categories_nodes":[],"categories_segments":[],"categories_sizes":[],"default_left":[0,1,0,1,0,0,0,1,0,0,0,0,0,0,0,0,0,0,0,0,0,0,0,0,0,0,0,0,0,0,0,0,0,0,0,0,0,0,0,0,0,0,0,0,0,0,0,0,0,0,0,0,0,0,0,0,0,0,0,0,0,0,0,0,0,0,0,0,0,0,0,0,0,0,0,0,0,0,0,0,0,0,0,0,0,0,0,0,0,0,0],"id":11,"left_children":[1,3,5,7,9,11,13,15,17,19,21,23,25,-1,27,29,31,33,35,37,39,41,43,-1,45,47,49,-1,51,-1,53,-1,55,57,-1,59,-1,61,63,65,67,69,71,73,75,77,79,81,83,85,87,89,-1,-1,-1,-1,-1,-1,-1,-1,-1,-1,-1,-1,-1,-1,-1,-1,-1,-1,-1,-1,-1,-1,-1,-1,-1,-1,-1,-1,-1,-1,-1,-1,-1,-1,-1,-1,-1,-1,-1],"loss_changes":[2.4059334E2,2.6796478E2,2.2379405E2,2.0202858E2,2.229245E2,1.8874951E2,1.7586574E2,2.5648633E2,1.2920142E2,5.9395514E2,9.6192474E2,3.5579428E2,1.2631293E2,0E0,4.0633526E1,1.8946953E2,1.3595026E2,7.539017E1,1.5072569E1,5.855148E2,4.0291138E2,3.4498206E2,3.0378198E2,0E0,2.5382118E2,1.6976297E2,1.4479507E2,0E0,1.1131883E1,0E0,1.6445049E2,0E0,1.7342175E2,3.686493E0,0E0,3.3849144E0,0E0,4.382771E2,3.4841068E2,6.3387573E1,1.725285E2,4.835132E1,3.2474945E2,4.510501E1,3.2197565E2,2.0080429E2,1.343057E2,1.0458151E2,1.0419339E2,2.140822E2,9.798102E1,3.8559723E-1,0E0,0E0,0E0,0E0,0E0,0E0,0E0,0E0,0E0,0E0,0E0,0E0,0E0,0E0,0E0,0E0,0E0,0E0,0E0,0E0,0E0,0E0,0E0,0E0,0E0,0E0,0E0,0E0,0E0,0E0,0E0,0E0,0E0,0E0,0E0,0E0,0E0,0E0,0E0],"parents":[2147483647,0,0,1,1,2,2,3,3,4,4,5,5,6,6,7,7,8,8,9,9,10,10,11,11,12,12,14,14,15,15,16,16,17,17,18,18,19,19,20,20,21,21,22,22,24,24,25,25,26,26,28,28,30,30,32,32,33,33,35,35,37,37,38,38,39,39,40,40,41,41,42,42,43,43,44,44,45,45,46,46,47,47,48,48,49,49,50,50,51,51],"right_children":[2,4,6,8,10,12,14,16,18,20,22,24,26,-1,28,30,32,34,36,38,40,42,44,-1,46,48,50,-1,52,-1,54,-1,56,58,-1,60,-1,62,64,66,68,70,72,74,76,78,80,82,84,86,88,90,-1,-1,-1,-1,-1,-1,-1,-1,-1,-1,-1,-1,-1,-1,-1,-1,-1,-1,-1,-1,-1,-1,-1,-1,-1,-1,-1,-1,-1,-1,-1,-1,-1,-1,-1,-1,-1,-1,-1],"split_conditions":[6.5999994E0,4.7E1,5.7E1,7.5E1,4.6E1,7.769897E1,3.3E1,5.7E1,8E1,7.7E1,5.5E1,1.4113653E1,8.3E0,2.6936493E0,3.6634132E1,5E0,1.1592894E1,7E1,3.2E1,3.9E1,1.0000001E0,7.344669E1,4.7112503E0,2.9216647E0,2.8808998E1,1.5096083E2,1.0600001E1,1.1318693E0,3.842568E1,-2.0449271E0,4.7668404E1,1.3169312E0,5.2E1,1.4E1,-8.801823E-2,1.6E1,-2.975009E-1,6.0091667E0,4.9262672E1,1.08E2,9E1,6.1E1,7.976903E1,5.2E1,2.5842384E1,2.4E1,2.7164171E1,6.7999988E0,1.6299382E2,9.5E0,2.3594377E2,1.9E1,2.9300082E-1,1.4789598E-2,9.5126516E-1,-1.2456152E0,-1.4381387E-2,7.824406E-1,2.9596086E0,1.051569E-2,6.174154E-1,-7.119509E-1,1.0642548E0,1.2275246E0,-8.962968E-1,4.3969374E0,7.6294786E-1,-1.6482593E0,1.9551053E0,4.4315085E0,8.9714533E-1,-1.1391913E0,1.9377563E0,-2.3414041E-1,-2.7511232E0,5.956916E-1,-1.5269452E0,1.0884781E-1,-1.1323003E0,-4.799234E-1,1.0514859E0,6.4962846E-1,-2.059613E0,7.391721E-1,-5.706105E-1,-3.4886277E-1,6.4302146E-1,-5.862836E-1,-3.1547725E-2,-5.053531E-1,-1.14628606E-1],"split_indices":[4,0,2,2,2,6,1,2,2,0,2,5,4,0,6,0,5,1,0,1,4,6,3,0,5,6,4,0,5,0,5,0,1,0,0,0,0,3,6,0,0,0,6,0,5,1,6,4,6,4,6,0,0,0,0,0,0,0,0,0,0,0,0,0,0,0,0,0,0,0,0,0,0,0,0,0,0,0,0,0,0,0,0,0,0,0,0,0,0,0,0],"split_type":[0,0,0,0,0,0,0,0,0,0,0,0,0,0,0,0,0,0,0,0,0,0,0,0,0,0,0,0,0,0,0,0,0,0,0,0,0,0,0,0,0,0,0,0,0,0,0,0,0,0,0,0,0,0,0,0,0,0,0,0,0,0,0,0,0,0,0,0,0,0,0,0,0,0,0,0,0,0,0,0,0,0,0,0,0,0,0,0,0,0,0],"sum_hessian":[3.016E3,2.619E3,3.97E2,2.412E3,2.07E2,3.86E2,1.1E1,2.399E3,1.3E1,1.37E2,7E1,7.8E1,3.08E2,3E0,8E0,2.353E3,4.6E1,5E0,8E0,1.29E2,8E0,2.7E1,4.3E1,3E0,7.5E1,9.9E1,2.09E2,2E0,6E0,3E0,2.35E3,2E0,4.4E1,4E0,1E0,6E0,2E0,6.4E1,6.5E1,5E0,3E0,6E0,2.1E1,4E0,3.9E1,4.7E1,2.8E1,1E1,8.9E1,7.7E1,1.32E2,4E0,2E0,2.334E3,1.6E1,2.8E1,1.6E1,1E0,3E0,1E0,5E0,1.6E1,4.8E1,7E0,5.8E1,4E0,1E0,2E0,1E0,5E0,1E0,3E0,1.8E1,1E0,3E0,3.2E1,7E0,2.8E1,1.9E1,6E0,2.2E1,1E0,9E0,5E0,8.4E1,4.2E1,3.5E1,9E1,4.2E1,3E0,1E0],"tree_param":{"num_deleted":"0","num_feature":"7","num_nodes":"91","size_leaf_vector":"1"}},{"base_weights":[1.924119E-2,5.789496E-1,-7.833414E-2,1.5120141E-1,1.6018072E0,-1.2328651E-1,1.7124418E0,8.824066E-1,-7.4468744E-1,1.0392014E0,5.107244E0,1.13974206E-1,-3.8532433E-1,5.496361E0,4.1545966E-1,-2.1883402E0,1.2484052E0,2.200298E0,-1.4179347E0,1.4250377E0,-2.3913133E0,6.463941E-1,8.611285E0,-2.0016289E0,1.3972925E-1,-3.0896194E0,-3.341887E-1,7.2201753E0,1.4199734E0,2.9410782E0,-1.493592E0,-1.2818174E0,-5.267346E0,3.9318411E0,1.0108465E0,7.0278025E0,-2.0221971E-1,-9.629082E0,-9.6539164E-1,9.510849E-1,3.9723353E0,-7.220874E-1,-4.583812E0,2.3577065E0,-1.194197E0,-1.4784778E0,1.1318535E1,-6.9833523E-1,3.0629706E-1,-5.594688E0,1.1504445E0,5.6692934E0,-3.596242E-1,3.046839E0,1.6658036E0,1.8475926E0,-7.594887E-1,-8.7299097E-1,5.874379E0,-5.1613464E0,1.1832694E0,-1.4604075E0,-1.2653582E-1,-4.7583935E-1,-1.7897123E0,4.9990508E-1,-2.0420472E-1,-1.4907919E-1,3.2618973E0,-8.604632E-1,1.1466132E0,-8.013065E-1,-3.145947E0,-6.3798225E-1,6.012314E-1,4.7169977E-1,-1.4237459E0,1.4845902E0,-5.811539E-2,1.9050446E-1,-9.5867884E-1,-1.5891483E0,-2.5956288E-1,7.876683E-3,8.8020164E-1,1.9191171E-1,-7.890103E-1,-1.19420104E-1,-5.458949E-1,3.993264E0,1.0683005E0,-1.522512E-1,-1.9134098E0,6.870739E-1,4.3080226E-2,-1.8240414E0,1.07423976E-1,1.1356752E0,-2.3941676E-1,3.6126146E0,3.1967783E-1,-9.984017E-2,-1.1321858E0,-6.018042E-1,9.255784E-1,-4.9496642E-1,4.2031634E-1,4.168477E-1,-1.3842268E0,2.5686142E0,1.1977044E-1,-2.6267538E0,-3.2261755E-2,-1.2232522E0,1.582069E0],"categories":[],"categories_nodes":[],"categories_segments":[],"categories_sizes":[],"default_left":[0,0,0,0,0,0,0,0,0,0,0,0,0,0,0,0,0,0,0,0,0,0,0,0,0,0,0,0,0,0,0,0,0,0,0,0,0,0,0,1,0,0,0,0,0,0,0,0,0,0,0,0,0,0,0,0,0,0,0,0,0,0,0,0,0,0,0,0,0,0,0,0,0,0,0,0,0,0,0,0,0,0,0,0,0,0,0,0,0,0,0,0,0,0,0,0,0,0,0,0,0,0,0,0,0,0,0,0,0,0,0,0,0,0,0],"id":12,"left_children":[1,3,5,7,9,11,13,15,17,19,21,23,25,27,29,31,33,35,37,39,41,43,45,-1,47,49,51,53,55,57,59,61,63,-1,65,67,69,71,73,75,77,79,81,83,85,87,89,91,93,95,97,99,101,-1,103,-1,105,107,109,111,113,-1,-1,-1,-1,-1,-1,-1,-1,-1,-1,-1,-1,-1,-1,-1,-1,-1,-1,-1,-1,-1,-1,-1,-1,-1,-1,-1,-1,-1,-1,-1,-1,-1,-1,-1,-1,-1,-1,-1,-1,-1,-1,-1,-1,-1,-1,-1,-1,-1,-1,-1,-1,-1,-1],"loss_changes":[1.6481499E2,1.9576924E2,2.0709517E2,2.0831703E2,2.5502014E2,1.5596948E2,3.0690002E2,1.9941254E2,2.8664642E2,1.5562369E2,2.7579178E2,2.311117E2,1.6380418E2,1.0217853E2,2.358265E2,4.62808E1,4.2900616E2,3.1457166E2,4.2546417E2,1.2178105E2,4.0607407E1,3.1164007E1,2.8988934E2,0E0,1.8350156E2,2.4011269E2,1.8085233E2,1.6246313E2,6.6643906E1,2.4007234E2,2.810132E2,4.7294746E1,8.208771E-1,0E0,1.729988E2,2.658092E2,2.148068E2,7.7857666E0,3.9046326E2,3.224498E2,6.60356E1,2.8883684E1,8.680138E0,6.6410255E0,1.4848375E1,3.8147497E-1,7.624548E1,2.3304538E2,3.5343936E2,4.2633972E1,4.9232235E1,1.3385938E2,1.0562332E2,0E0,3.2249027E1,0E0,1.1930313E1,9.105296E1,1.7316614E2,2.1704932E2,3.873111E2,0E0,0E0,0E0,0E0,0E0,0E0,0E0,0E0,0E0,0E0,0E0,0E0,0E0,0E0,0E0,0E0,0E0,0E0,0E0,0E0,0E0,0E0,0E0,0E0,0E0,0E0,0E0,0E0,0E0,0E0,0E0,0E0,0E0,0E0,0E0,0E0,0E0,0E0,0E0,0E0,0E0,0E0,0E0,0E0,0E0,0E0,0E0,0E0,0E0,0E0,0E0,0E0,0E0,0E0],"parents":[2147483647,0,0,1,1,2,2,3,3,4,4,5,5,6,6,7,7,8,8,9,9,10,10,11,11,12,12,13,13,14,14,15,15,16,16,17,17,18,18,19,19,20,20,21,21,22,22,24,24,25,25,26,26,27,27,28,28,29,29,30,30,31,31,32,32,34,34,35,35,36,36,37,37,38,38,39,39,40,40,41,41,42,42,43,43,44,44,45,45,46,46,47,47,48,48,49,49,50,50,51,51,52,52,54,54,56,56,57,57,58,58,59,59,60,60],"right_children":[2,4,6,8,10,12,14,16,18,20,22,24,26,28,30,32,34,36,38,40,42,44,46,-1,48,50,52,54,56,58,60,62,64,-1,66,68,70,72,74,76,78,80,82,84,86,88,90,92,94,96,98,100,102,-1,104,-1,106,108,110,112,114,-1,-1,-1,-1,-1,-1,-1,-1,-1,-1,-1,-1,-1,-1,-1,-1,-1,-1,-1,-1,-1,-1,-1,-1,-1,-1,-1,-1,-1,-1,-1,-1,-1,-1,-1,-1,-1,-1,-1,-1,-1,-1,-1,-1,-1,-1,-1,-1,-1,-1,-1,-1,-1,-1],"split_conditions":[1.4764389E1,1.0000001E0,6.1E1,9.667497E0,1.4113653E1,1.0000001E0,4.5E1,6.1935596E1,4.9262672E1,1.12E1,1.2092392E2,7E0,1.5137133E1,9.565417E0,5E-1,5.1475613E1,6.74772E1,1.3448752E1,5.3912613E1,3.8E1,1.3324863E1,1.448972E1,1.7E1,-2.0016289E0,1.7388409E1,2.4683434E2,1.51884165E1,1.0000001E0,6.4E1,8.427917E0,1.7E0,1.4E1,1.5E1,3.9318411E0,2.4132695E2,1.3E1,4.3751354E1,9E0,1.5067498E1,3.8E1,6.1E1,3.6E1,4.8E1,1.3E1,2.1E1,1.1E1,1.5402916E1,5.7E1,1.836353E1,4.9E1,1.1132083E1,7.769897E1,5.7E1,3.046839E0,4.88E0,1.8475926E0,4.3E1,7.4008336E0,7.2E1,7.1E1,2.1316135E1,-1.4604075E0,-1.2653582E-1,-4.7583935E-1,-1.7897123E0,4.9990508E-1,-2.0420472E-1,-1.4907919E-1,3.2618973E0,-8.604632E-1,1.1466132E0,-8.013065E-1,-3.145947E0,-6.3798225E-1,6.012314E-1,4.7169977E-1,-1.4237459E0,1.4845902E0,-5.811539E-2,1.9050446E-1,-9.5867884E-1,-1.5891483E0,-2.5956288E-1,7.876683E-3,8.8020164E-1,1.9191171E-1,-7.890103E-1,-1.19420104E-1,-5.458949E-1,3.993264E0,1.0683005E0,-1.522512E-1,-1.9134098E0,6.870739E-1,4.3080226E-2,-1.8240414E0,1.07423976E-1,1.1356752E0,-2.3941676E-1,3.6126146E0,3.1967783E-1,-9.984017E-2,-1.1321858E0,-6.018042E-1,9.255784E-1,-4.9496642E-1,4.2031634E-1,4.168477E-1,-1.3842268E0,2.5686142E0,1.1977044E-1,-2.6267538E0,-3.2261755E-2,-1.2232522E0,1.582069E0],"split_indices":[5,4,0,3,5,4,1,6,6,4,6,2,5,3,4,6,6,3,6,0,5,5,0,0,5,6,5,4,0,3,4,0,0,0,6,0,6,0,3,2,0,0,0,0,1,0,3,2,5,0,3,6,0,0,3,0,1,3,2,0,5,0,0,0,0,0,0,0,0,0,0,0,0,0,0,0,0,0,0,0,0,0,0,0,0,0,0,0,0,0,0,0,0,0,0,0,0,0,0,0,0,0,0,0,0,0,0,0,0,0,0,0,0,0,0],"split_type":[0,0,0,0,0,0,0,0,0,0,0,0,0,0,0,0,0,0,0,0,0,0,0,0,0,0,0,0,0,0,0,0,0,0,0,0,0,0,0,0,0,0,0,0,0,0,0,0,0,0,0,0,0,0,0,0,0,0,0,0,0,0,0,0,0,0,0,0,0,0,0,0,0,0,0,0,0,0,0,0,0,0,0,0,0,0,0,0,0,0,0,0,0,0,0,0,0,0,0,0,0,0,0,0,0,0,0,0,0,0,0,0,0,0,0],"sum_hessian":[3.016E3,4.47E2,2.569E3,3.16E2,1.31E2,2.507E3,6.2E1,1.74E2,1.42E2,1.14E2,1.7E1,1.316E3,1.191E3,1.5E1,4.7E1,1.8E1,1.56E2,2.6E1,1.16E2,1.03E2,1.1E1,8E0,9E0,4E0,1.312E3,2.1E1,1.17E3,1E1,5E0,2E1,2.7E1,1.5E1,3E0,2E0,1.54E2,8E0,1.8E1,5E0,1.11E2,8.8E1,1.5E1,7E0,4E0,4E0,4E0,2E0,7E0,2.17E2,1.095E3,1.3E1,8E0,4E0,1.166E3,6E0,4E0,1E0,4E0,9E0,1.1E1,1.1E1,1.6E1,2E0,1.3E1,1E0,2E0,1.11E2,4.3E1,3E0,5E0,1.1E1,7E0,1E0,4E0,8E1,3.1E1,8E1,8E0,1.2E1,3E0,5E0,2E0,3E0,1E0,1E0,3E0,2E0,2E0,1E0,1E0,5E0,2E0,2.11E2,6E0,8.2E1,1.013E3,1.2E1,1E0,3E0,5E0,1E0,3E0,1.158E3,8E0,1E0,3E0,3E0,1E0,6E0,3E0,7E0,4E0,6E0,5E0,7E0,9E0],"tree_param":{"num_deleted":"0","num_feature":"7","num_nodes":"115","size_leaf_vector":"1"}},{"base_weights":[1.5272798E-2,-4.8326116E-2,7.8252345E-1,-6.0986973E-2,5.830147E0,4.938423E-1,3.9776056E0,-6.834582E-5,-1.3779184E0,2.2353725E0,2.6039393E0,1.6824694E0,-4.0654734E-1,7.060406E0,-2.3221843E-1,1.2261005E-2,-6.5494056E0,-1.673924E0,5.9425974E0,8.7176365E-1,3.3578113E-2,6.500012E-1,4.27835E0,9.836769E-1,-1.260942E0,2.1922925E0,1.0751786E1,1.749126E0,-2.7973177E0,-8.133171E-2,8.787593E-1,-2.6640863E0,4.1611806E-1,-8.927657E-1,-3.682616E0,2.385113E0,5.861857E-1,1.1885102E0,-5.022926E0,6.500242E0,7.329865E-2,-2.5914207E-1,3.0003932E0,-2.2008073E0,-8.2154816E-1,9.469237E-1,1.7603557E-1,1.3182601E1,-2.1034355E-1,-1.1759897E0,6.2011085E-3,-3.8862586E-4,-2.475033E-1,9.4413495E-1,2.1241803E-2,-4.9127117E-1,1.5017965E0,-1.6479867E0,-4.2463386E-1,-3.3331686E-1,7.4431443E-1,-3.1001155E0,6.476998E-2,2.556707E0,-6.6066545E-1,-1.7685705E0,4.1744858E-1,-4.9365607E-1,5.041177E-1,2.3724458E0,4.4748935E-1,7.630695E-2,-8.951867E-1,-1.6815835E-1,2.4737436E-1,4.772364E0,1.8189367E0,-2.0137912E-1,2.0416962E-1],"categories":[],"categories_nodes":[],"categories_segments":[],"categories_sizes":[],"default_left":[1,1,0,1,0,0,0,1,0,0,0,0,0,0,0,0,0,0,0,0,0,0,0,0,0,0,0,0,0,0,0,0,0,0,0,0,0,0,0,0,0,0,0,0,0,0,0,0,0,0,0,0,0,0,0,0,0,0,0,0,0,0,0,0,0,0,0,0,0,0,0,0,0,0,0,0,0,0,0],"id":13,"left_children":[1,3,5,7,9,11,13,15,17,19,-1,21,23,25,27,29,31,33,35,-1,-1,37,39,41,43,45,47,-1,49,51,53,-1,-1,55,57,-1,-1,59,61,63,65,67,69,-1,71,-1,73,75,-1,-1,77,-1,-1,-1,-1,-1,-1,-1,-1,-1,-1,-1,-1,-1,-1,-1,-1,-1,-1,-1,-1,-1,-1,-1,-1,-1,-1,-1,-1],"loss_changes":[1.4725629E2,2.0778226E2,2.1110085E2,2.2318768E2,4.2060516E1,2.2864247E2,2.482225E2,2.1487285E2,2.7647775E2,5.3698845E0,0E0,2.4379419E2,1.4615198E2,1.7409955E2,1.5627097E2,2.1546758E2,1.0481227E2,1.8343594E2,2.4506958E1,0E0,0E0,2.1064961E2,2.4244589E2,1.1857895E2,1.96844E2,1.1107836E1,1.7628271E2,0E0,2.2055859E1,1.4273108E2,4.7445337E2,0E0,0E0,3.9042517E2,1.2769293E2,0E0,0E0,1.8703775E2,1.6916495E2,3.1792334E2,8.6880196E1,8.343296E1,1.2148747E2,0E0,1.6827017E2,0E0,1.8952854E0,5.6134033E-1,0E0,0E0,1.827413E0,0E0,0E0,0E0,0E0,0E0,0E0,0E0,0E0,0E0,0E0,0E0,0E0,0E0,0E0,0E0,0E0,0E0,0E0,0E0,0E0,0E0,0E0,0E0,0E0,0E0,0E0,0E0,0E0],"parents":[2147483647,0,0,1,1,2,2,3,3,4,4,5,5,6,6,7,7,8,8,9,9,11,11,12,12,13,13,14,14,15,15,16,16,17,17,18,18,21,21,22,22,23,23,24,24,25,25,26,26,28,28,29,29,30,30,33,33,34,34,37,37,38,38,39,39,40,40,41,41,42,42,44,44,46,46,47,47,50,50],"right_children":[2,4,6,8,10,12,14,16,18,20,-1,22,24,26,28,30,32,34,36,-1,-1,38,40,42,44,46,48,-1,50,52,54,-1,-1,56,58,-1,-1,60,62,64,66,68,70,-1,72,-1,74,76,-1,-1,78,-1,-1,-1,-1,-1,-1,-1,-1,-1,-1,-1,-1,-1,-1,-1,-1,-1,-1,-1,-1,-1,-1,-1,-1,-1,-1,-1,-1],"split_conditions":[4.7E1,9.2E1,1.5546666E1,4E1,4E1,5.5E1,1.1000001E0,6.7E1,1.12E1,8.1E1,2.6039393E0,4.2E1,2.7E1,1E-1,4.4790977E1,3.5E1,5.8E1,4.6E1,3.8E1,8.7176365E-1,3.3578113E-2,4E1,9.244583E0,2.3803596E1,5.6E1,4.9E1,2.4279893E2,1.749126E0,2.5460265E2,1.56987505E1,3.8E1,-2.6640863E0,4.1611806E-1,4.3E1,1.435086E2,2.385113E0,5.861857E-1,2E1,1.8899143E1,2.3000002E0,9.319583E0,8.19875E0,6.1E1,-2.2008073E0,2.5264202E1,9.469237E-1,4.5E1,1.6465414E1,-2.1034355E-1,-1.1759897E0,1.5E1,-3.8862586E-4,-2.475033E-1,9.4413495E-1,2.1241803E-2,-4.9127117E-1,1.5017965E0,-1.6479867E0,-4.2463386E-1,-3.3331686E-1,7.4431443E-1,-3.1001155E0,6.476998E-2,2.556707E0,-6.6066545E-1,-1.7685705E0,4.1744858E-1,-4.9365607E-1,5.041177E-1,2.3724458E0,4.4748935E-1,7.630695E-2,-8.951867E-1,-1.6815835E-1,2.4737436E-1,4.772364E0,1.8189367E0,-2.0137912E-1,2.0416962E-1],"split_indices":[2,0,3,2,2,2,4,1,4,1,0,0,0,4,6,1,0,1,1,0,0,0,3,5,2,1,6,0,6,3,1,0,0,1,6,0,0,0,5,4,3,3,2,0,5,0,0,3,0,0,0,0,0,0,0,0,0,0,0,0,0,0,0,0,0,0,0,0,0,0,0,0,0,0,0,0,0,0,0],"split_type":[0,0,0,0,0,0,0,0,0,0,0,0,0,0,0,0,0,0,0,0,0,0,0,0,0,0,0,0,0,0,0,0,0,0,0,0,0,0,0,0,0,0,0,0,0,0,0,0,0,0,0,0,0,0,0,0,0,0,0,0,0,0,0,0,0,0,0,0,0,0,0,0,0,0,0,0,0,0,0],"sum_hessian":[3.016E3,2.786E3,2.3E2,2.781E3,5E0,2.12E2,1.8E1,2.659E3,1.22E2,3E0,2E0,9.1E1,1.21E2,1E1,8E0,2.655E3,4E0,1.18E2,4E0,2E0,1E0,6.6E1,2.5E1,4.6E1,7.5E1,5E0,5E0,2E0,6E0,2.397E3,2.58E2,3E0,1E0,8.6E1,3.2E1,2E0,2E0,6.1E1,5E0,1.6E1,9E0,2.9E1,1.7E1,4E0,7.1E1,3E0,2E0,4E0,1E0,4E0,2E0,2.165E3,2.32E2,6.7E1,1.91E2,7.7E1,9E0,1.7E1,1.5E1,2.2E1,3.9E1,2E0,3E0,1.3E1,3E0,1E0,8E0,1.7E1,1.2E1,3E0,1.4E1,4.8E1,2.3E1,1E0,1E0,2E0,2E0,1E0,1E0],"tree_param":{"num_deleted":"0","num_feature":"7","num_nodes":"79","size_leaf_vector":"1"}},{"base_weights":[1.3874099E-2,-1.1107732E0,5.520814E-2,1.4081672E-1,-1.7473656E0,4.7806004E-1,-1.0887987E-1,2.561717E0,-9.8193794E-1,-1.7061738E0,-1.2275779E0,6.273057E-2,1.8417592E0,-1.7487863E-2,-9.619358E-1,-6.1367023E-1,7.1299934E0,-2.9921093E0,7.769987E-2,2.6391414E-1,-2.2550178E0,-3.063342E-1,1.7559142E0,2.1666834E0,-2.0934687E0,8.638539E-2,-8.343159E-1,-1.2704877E0,1.6343532E0,-2.1607018E0,1.4735367E0,7.191331E-1,2.8458636E0,-3.667733E0,-4.182841E-1,1.5513558E0,-1.0011135E0,-1.9144282E0,1.2818704E0,-3.2993212E0,9.989642E-1,-2.075769E0,8.4338225E-2,1.0966843E0,8.37039E0,1.8404317E0,8.015974E0,-4.3881216E0,5.313857E0,-4.8838277E0,1.0410583E-1,-3.3757055E0,-6.531529E-1,-1.3283893E-1,-1.7881926E0,-3.4374402E0,3.7511158E0,2.5362283E-1,-9.370746E-1,9.700599E-2,5.247441E-1,-1.3055881E0,-3.9143315E-1,2.2894764E-2,-2.1112262E-1,-3.4419572E-1,1.3610582E0,-7.8572214E-1,8.927655E-2,-1.3462611E0,3.6014654E-2,-5.257927E-1,7.4724406E-1,-1.2098969E0,5.5572033E-2,9.7869307E-1,-1.3112563E-1,-1.1100336E0,1.448097E-1,5.457303E-1,-1.4444743E-1,2.5591993E0,1.3972865E-1,4.8356705E0,-7.8057015E-1,4.6397775E-1,1.8985296E0,3.029576E0,1.453663E-1,-1.7834599E0,6.7912024E-1,2.0758045E0,7.460747E-2,-1.9218858E0,4.0926936E-1,1.4283813E-2,4.3852788E-1,3.98065E-1,-1.1518534E0,-1.04278445E-1,-5.623003E-1,-3.2130712E-1,1.5282177E0,-1.5820769E0,-4.416936E-1,-4.619129E-2,-1.7584649E0,-5.2002186E-1,1.9204987E0],"categories":[],"categories_nodes":[],"categories_segments":[],"categories_sizes":[],"default_left":[0,0,0,0,0,0,0,0,0,0,0,0,0,0,0,0,0,0,0,0,0,0,0,0,0,0,0,0,0,0,0,0,0,0,0,0,0,0,0,0,0,0,0,0,0,0,0,0,0,0,0,0,0,0,0,0,0,0,0,0,0,0,0,0,0,0,0,0,0,0,0,0,0,0,0,0,0,0,0,0,0,0,0,0,0,0,0,0,0,0,0,0,0,0,0,0,0,0,0,0,0,0,0,0,0,0,0,0,0],"id":14,"left_children":[1,3,5,7,9,11,13,15,17,-1,19,21,23,25,27,29,31,33,35,37,39,41,43,45,47,49,51,53,55,57,59,-1,-1,61,63,65,67,69,71,73,75,77,79,81,83,85,87,89,91,93,95,97,99,101,103,105,107,-1,-1,-1,-1,-1,-1,-1,-1,-1,-1,-1,-1,-1,-1,-1,-1,-1,-1,-1,-1,-1,-1,-1,-1,-1,-1,-1,-1,-1,-1,-1,-1,-1,-1,-1,-1,-1,-1,-1,-1,-1,-1,-1,-1,-1,-1,-1,-1,-1,-1,-1,-1],"loss_changes":[1.4031024E2,8.549858E1,2.0203157E2,1.0308429E2,1.3841945E2,4.6092142E2,1.635485E2,1.7844803E2,5.5613884E1,0E0,9.86699E1,3.9109692E2,2.4747949E2,1.6094121E2,1.6469762E2,2.9015675E1,3.3019028E1,1.411628E1,3.0169481E1,6.2325394E1,1.3242542E2,3.554875E2,4.7919183E2,3.2111523E2,2.7827646E2,1.4873756E2,9.632201E1,1.06954346E2,2.4908142E2,1.7113329E1,7.024164E-1,0E0,0E0,5.6392517E0,4.772691E-1,6.966048E1,2.3893135E1,4.76531E1,7.406802E1,7.4885925E1,3.392868E1,3.882781E2,4.151027E2,4.7912378E2,8.9212866E2,2.1176257E2,1.3627197E2,1.3772046E2,3.0807533E1,6.58141E1,1.286298E2,3.562979E1,7.435E1,2.89876E2,1.2985684E2,5.481391E1,2.436884E2,0E0,0E0,0E0,0E0,0E0,0E0,0E0,0E0,0E0,0E0,0E0,0E0,0E0,0E0,0E0,0E0,0E0,0E0,0E0,0E0,0E0,0E0,0E0,0E0,0E0,0E0,0E0,0E0,0E0,0E0,0E0,0E0,0E0,0E0,0E0,0E0,0E0,0E0,0E0,0E0,0E0,0E0,0E0,0E0,0E0,0E0,0E0,0E0,0E0,0E0,0E0,0E0],"parents":[2147483647,0,0,1,1,2,2,3,3,4,4,5,5,6,6,7,7,8,8,10,10,11,11,12,12,13,13,14,14,15,15,16,16,17,17,18,18,19,19,20,20,21,21,22,22,23,23,24,24,25,25,26,26,27,27,28,28,29,29,30,30,33,33,34,34,35,35,36,36,37,37,38,38,39,39,40,40,41,41,42,42,43,43,44,44,45,45,46,46,47,47,48,48,49,49,50,50,51,51,52,52,53,53,54,54,55,55,56,56],"right_children":[2,4,6,8,10,12,14,16,18,-1,20,22,24,26,28,30,32,34,36,38,40,42,44,46,48,50,52,54,56,58,60,-1,-1,62,64,66,68,70,72,74,76,78,80,82,84,86,88,90,92,94,96,98,100,102,104,106,108,-1,-1,-1,-1,-1,-1,-1,-1,-1,-1,-1,-1,-1,-1,-1,-1,-1,-1,-1,-1,-1,-1,-1,-1,-1,-1,-1,-1,-1,-1,-1,-1,-1,-1,-1,-1,-1,-1,-1,-1,-1,-1,-1,-1,-1,-1,-1,-1,-1,-1,-1,-1],"split_conditions":[3.82111E1,1.5E1,1.7039845E2,1.3E1,1.4E1,1.273176E2,1.56987505E1,1.3E1,1.6E1,-1.7061738E0,1.803237E1,2.50064E1,5.9E1,6.6000004E0,3.3E1,1.5E1,1.2E1,1.2754998E1,4.621667E0,1.9467272E1,2.8808998E1,5.7691665E0,9.621746E1,4.8E1,1.9E0,6E0,7E0,1.9110542E1,2.0264131E2,1.1E1,1.6E1,7.191331E-1,2.8458636E0,7.999999E0,1E1,3.6445835E0,1.9000002E0,8E-1,2.3E1,1.1827918E1,8.900001E0,1E0,5.267344E1,2.5264202E1,6.2000003E0,4.9E1,2.291026E1,7.4E1,9.3E1,1.1057083E1,4.2273567E1,2.2404165E0,1.3561248E1,1.9154999E1,1.9803272E1,1.6465414E1,1.6225832E1,2.5362283E-1,-9.370746E-1,9.700599E-2,5.247441E-1,-1.3055881E0,-3.9143315E-1,2.2894764E-2,-2.1112262E-1,-3.4419572E-1,1.3610582E0,-7.8572214E-1,8.927655E-2,-1.3462611E0,3.6014654E-2,-5.257927E-1,7.4724406E-1,-1.2098969E0,5.5572033E-2,9.7869307E-1,-1.3112563E-1,-1.1100336E0,1.448097E-1,5.457303E-1,-1.4444743E-1,2.5591993E0,1.3972865E-1,4.8356705E0,-7.8057015E-1,4.6397775E-1,1.8985296E0,3.029576E0,1.453663E-1,-1.7834599E0,6.7912024E-1,2.0758045E0,7.460747E-2,-1.9218858E0,4.0926936E-1,1.4283813E-2,4.3852788E-1,3.98065E-1,-1.1518534E0,-1.04278445E-1,-5.623003E-1,-3.2130712E-1,1.5282177E0,-1.5820769E0,-4.416936E-1,-4.619129E-2,-1.7584649E0,-5.2002186E-1,1.9204987E0],"split_indices":[6,0,6,1,2,6,3,0,1,0,5,5,1,4,2,2,1,3,3,6,5,3,6,1,4,2,4,5,6,0,2,0,0,4,0,3,4,4,0,3,4,4,6,5,4,2,5,2,0,3,5,3,3,3,5,3,3,0,0,0,0,0,0,0,0,0,0,0,0,0,0,0,0,0,0,0,0,0,0,0,0,0,0,0,0,0,0,0,0,0,0,0,0,0,0,0,0,0,0,0,0,0,0,0,0,0,0,0,0],"split_type":[0,0,0,0,0,0,0,0,0,0,0,0,0,0,0,0,0,0,0,0,0,0,0,0,0,0,0,0,0,0,0,0,0,0,0,0,0,0,0,0,0,0,0,0,0,0,0,0,0,0,0,0,0,0,0,0,0,0,0,0,0,0,0,0,0,0,0,0,0,0,0,0,0,0,0,0,0,0,0,0,0,0,0,0,0,0,0,0,0,0,0,0,0,0,0,0,0,0,0,0,0,0,0,0,0,0,0,0,0],"sum_hessian":[3.016E3,1.06E2,2.91E3,3.6E1,7E1,8.13E2,2.097E3,1.1E1,2.5E1,7E0,6.3E1,6.24E2,1.89E2,1.895E3,2.02E2,7E0,4E0,8E0,1.7E1,2.6E1,3.7E1,5.13E2,1.11E2,1.75E2,1.4E1,1.682E3,2.13E2,1.81E2,2.1E1,4E0,3E0,2E0,2E0,6E0,2E0,7E0,1E1,8E0,1.8E1,2.8E1,9E0,9.2E1,4.21E2,1.02E2,9E0,1.67E2,8E0,1.1E1,3E0,5E0,1.677E3,1.3E1,2E2,5.7E1,1.24E2,6E0,1.5E1,1E0,3E0,1E0,2E0,4E0,2E0,1E0,1E0,4E0,3E0,4E0,6E0,3E0,5E0,5E0,1.3E1,2.3E1,5E0,3E0,6E0,5.6E1,3.6E1,1.03E2,3.18E2,7E0,9.5E1,5E0,4E0,1.58E2,9E0,6E0,2E0,9E0,2E0,2E0,1E0,4E0,1E0,1.611E3,6.6E1,1E0,1.2E1,1.61E2,3.9E1,4.9E1,8E0,9E0,1.15E2,3E0,3E0,5E0,1E1],"tree_param":{"num_deleted":"0","num_feature":"7","num_nodes":"109","size_leaf_vector":"1"}},{"base_weights":[1.2333298E-2,8.970889E-1,-2.2719828E-2,-7.319894E-1,1.5616202E0,-1.3550134E0,4.4396054E-3,7.968573E-1,-2.9729745E0,1.6336332E-1,3.434612E0,-4.9183494E-1,-3.7966695E0,2.1669362E0,-4.9274113E-2,5.4554577E0,-2.826571E-1,-6.927385E0,-6.3705444E-3,4.8428786E-1,-2.2380135E0,9.27433E0,1.0564663E0,3.6448187E-1,-3.09392E0,-4.4611998E0,8.2601315E-1,3.225493E0,-1.011502E0,-1.4333302E0,2.749059E-2,1.1481667E0,2.7565997E0,-1.9933156E0,2.1048305E0,-2.253757E0,-6.0025436E-1,-3.5086408E0,3.4971738E0,1.3566929E0,-4.8503453E-1,1.0938957E1,5.231644E-1,3.3162677E0,-2.890843E0,-1.4615761E0,1.7158012E0,-4.8202763E0,9.3493676E-1,-4.875007E0,1.377451E-1,9.642022E-1,4.9856825E0,-4.445943E0,1.0762137E0,-2.2089715E0,-3.4683284E-1,-9.601486E-1,7.585862E-2,1.025651E-1,4.1410992E-1,1.9298859E-2,-9.5349085E-1,1.5401608E-1,1.0703783E0,-1.2289091E0,-1.7366238E-1,1.404484E0,-1.860878E-1,-3.497265E-1,7.2072273E-1,-8.5129064E-1,2.1647416E-1,7.19779E-1,3.5448484E0,-3.2828894E-1,1.9539279E0,-1.5673923E0,1.2888697E0,1.384812E-1,-8.384957E-1,1.0809447E0,-2.9739198E-1,-1.641722E0,-5.0756437E-1,-8.4207785E-1,-1.6446823E0,-5.458557E-1,1.169865E0,2.4685988E0,5.5094093E-1,1.6377926E-2,-1.5615394E0,-1.178448E0,7.409713E-1,-7.83799E-1,3.23995E-1,1.7413231E0,-3.3286345E-1,-3.8608125E-1,3.0528498E-1,6.5469466E-2,-8.093572E-2],"categories":[],"categories_nodes":[],"categories_segments":[],"categories_sizes":[],"default_left":[0,0,0,0,0,0,0,0,0,0,0,0,0,0,0,0,0,0,0,0,0,0,0,0,0,0,0,0,0,0,0,0,0,0,0,0,0,0,0,0,0,0,0,0,0,0,0,0,0,0,0,0,0,0,0,0,0,0,0,0,0,0,0,0,0,0,0,0,0,0,0,0,0,0,0,0,0,0,0,0,0,0,0,0,0,0,0,0,0,0,0,0,0,0,0,0,0,0,0,0,0,0,0],"id":15,"left_children":[1,3,5,7,9,11,13,15,17,19,21,23,25,27,29,31,33,35,37,39,-1,41,43,45,47,49,-1,51,53,55,57,59,-1,61,63,-1,-1,65,67,69,71,73,-1,75,77,79,81,83,-1,85,-1,87,89,91,93,95,97,99,101,-1,-1,-1,-1,-1,-1,-1,-1,-1,-1,-1,-1,-1,-1,-1,-1,-1,-1,-1,-1,-1,-1,-1,-1,-1,-1,-1,-1,-1,-1,-1,-1,-1,-1,-1,-1,-1,-1,-1,-1,-1,-1,-1,-1],"loss_changes":[9.358796E1,1.2563905E2,1.0504914E2,1.18857216E2,2.1419067E2,1.203726E2,3.30686E2,1.0715157E2,1.6419223E2,1.2104666E2,4.762715E2,9.9168884E1,7.757393E1,2.3541708E2,2.9519263E2,5.3769936E1,7.771076E1,2.264801E0,1.22703545E2,4.0403206E1,0E0,1.0627759E2,2.4151033E2,8.640575E1,1.3295673E2,3.074347E1,0E0,2.0216827E2,1.3384724E2,1.22272736E2,1.2585166E2,8.9731455E-2,0E0,2.702557E1,1.6795757E1,0E0,0E0,6.2381744E0,2.728843E1,6.874472E1,6.73373E1,3.157837E1,0E0,2.4682382E2,1.9017809E2,3.975597E1,1.05756874E2,9.102417E0,0E0,9.380188E-1,0E0,2.0320386E2,2.810605E2,2.4201447E1,9.339676E1,1.1567813E2,2.973211E2,8.080593E1,1.2362618E2,0E0,0E0,0E0,0E0,0E0,0E0,0E0,0E0,0E0,0E0,0E0,0E0,0E0,0E0,0E0,0E0,0E0,0E0,0E0,0E0,0E0,0E0,0E0,0E0,0E0,0E0,0E0,0E0,0E0,0E0,0E0,0E0,0E0,0E0,0E0,0E0,0E0,0E0,0E0,0E0,0E0,0E0,0E0,0E0],"parents":[2147483647,0,0,1,1,2,2,3,3,4,4,5,5,6,6,7,7,8,8,9,9,10,10,11,11,12,12,13,13,14,14,15,15,16,16,17,17,18,18,19,19,21,21,22,22,23,23,24,24,25,25,27,27,28,28,29,29,30,30,31,31,33,33,34,34,37,37,38,38,39,39,40,40,41,41,43,43,44,44,45,45,46,46,47,47,49,49,51,51,52,52,53,53,54,54,55,55,56,56,57,57,58,58],"right_children":[2,4,6,8,10,12,14,16,18,20,22,24,26,28,30,32,34,36,38,40,-1,42,44,46,48,50,-1,52,54,56,58,60,-1,62,64,-1,-1,66,68,70,72,74,-1,76,78,80,82,84,-1,86,-1,88,90,92,94,96,98,100,102,-1,-1,-1,-1,-1,-1,-1,-1,-1,-1,-1,-1,-1,-1,-1,-1,-1,-1,-1,-1,-1,-1,-1,-1,-1,-1,-1,-1,-1,-1,-1,-1,-1,-1,-1,-1,-1,-1,-1,-1,-1,-1,-1,-1],"split_conditions":[1.0948973E1,7.976903E1,7.050001E-1,4.9262672E1,2.2E1,3E1,1.7966667E0,1.3E1,5.6575127E1,5.1E1,1.2092392E2,2.5071098E1,5.7E1,2.4693481E1,3.2737503E0,1.3E1,4.4790977E1,1.0799999E1,9.746631E0,1.5E1,-2.2380135E0,4.1E1,1E-1,2.4E1,3.4349354E1,2.7155652E2,8.2601315E-1,2.2E1,2.7212759E1,2.4E1,1E1,1.1E1,2.7565997E0,3.7E1,1.3671665E1,-2.253757E0,-6.0025436E-1,1.4382083E1,5.2E1,1.4019446E2,1.8E1,2.7E1,5.231644E-1,3.1E1,5E0,1.7E1,3.3E1,3E1,9.3493676E-1,2.5E1,1.377451E-1,2.550543E2,2.4617686E2,1.1E1,1.3E1,2.9165042E2,2.5E1,3.7163788E1,2.4330782E2,1.025651E-1,4.1410992E-1,1.9298859E-2,-9.5349085E-1,1.5401608E-1,1.0703783E0,-1.2289091E0,-1.7366238E-1,1.404484E0,-1.860878E-1,-3.497265E-1,7.2072273E-1,-8.5129064E-1,2.1647416E-1,7.19779E-1,3.5448484E0,-3.2828894E-1,1.9539279E0,-1.5673923E0,1.2888697E0,1.384812E-1,-8.384957E-1,1.0809447E0,-2.9739198E-1,-1.641722E0,-5.0756437E-1,-8.4207785E-1,-1.6446823E0,-5.458557E-1,1.169865E0,2.4685988E0,5.5094093E-1,1.6377926E-2,-1.5615394E0,-1.178448E0,7.409713E-1,-7.83799E-1,3.23995E-1,1.7413231E0,-3.3286345E-1,-3.8608125E-1,3.0528498E-1,6.5469466E-2,-8.093572E-2],"split_indices":[5,6,3,6,2,1,3,1,6,0,6,5,1,5,3,0,6,5,5,2,0,1,4,0,5,6,0,1,5,1,0,1,0,0,3,0,0,3,0,6,1,0,0,0,4,0,0,2,0,0,0,6,6,0,1,6,1,5,6,0,0,0,0,0,0,0,0,0,0,0,0,0,0,0,0,0,0,0,0,0,0,0,0,0,0,0,0,0,0,0,0,0,0,0,0,0,0,0,0,0,0,0,0],"split_type":[0,0,0,0,0,0,0,0,0,0,0,0,0,0,0,0,0,0,0,0,0,0,0,0,0,0,0,0,0,0,0,0,0,0,0,0,0,0,0,0,0,0,0,0,0,0,0,0,0,0,0,0,0,0,0,0,0,0,0,0,0,0,0,0,0,0,0,0,0,0,0,0,0,0,0,0,0,0,0,0,0,0,0,0,0,0,0,0,0,0,0,0,0,0,0,0,0,0,0,0,0,0,0],"sum_hessian":[3.016E3,1.14E2,2.902E3,3.3E1,8.1E1,5.7E1,2.845E3,2E1,1.3E1,4.7E1,3.4E1,4.3E1,1.4E1,6.8E1,2.777E3,3E0,1.7E1,5E0,8E0,4.6E1,1E0,9E0,2.5E1,3.3E1,1E1,1.3E1,1E0,5.1E1,1.7E1,1.45E2,2.632E3,2E0,1E0,1E1,7E0,4E0,1E0,4E0,4E0,2.4E1,2.2E1,7E0,2E0,1.6E1,9E0,1.4E1,1.9E1,8E0,2E0,1.2E1,1E0,2.3E1,2.8E1,6E0,1.1E1,8.4E1,6.1E1,1.22E2,2.51E3,1E0,1E0,4E0,6E0,4E0,3E0,3E0,1E0,3E0,1E0,7E0,1.7E1,7E0,1.5E1,1E0,6E0,7E0,9E0,7E0,2E0,6E0,8E0,1.1E1,8E0,6E0,2E0,4E0,8E0,1.2E1,1.1E1,1.3E1,1.5E1,1E0,5E0,2E0,9E0,7.5E1,9E0,6E0,5.5E1,1.05E2,1.7E1,1.778E3,7.32E2],"tree_param":{"num_deleted":"0","num_feature":"7","num_nodes":"103","size_leaf_vector":"1"}},{"base_weights":[9.9652065E-3,4.7525007E-2,-6.791765E-1,7.1257E-2,-1.345248E0,-4.791188E-1,-3.2727451E0,6.508996E-2,4.388874E0,1.5002626E-1,-2.0294642E0,-6.762799E-1,1.2878405E0,-3.6545238E0,-3.109484E-1,-7.636794E-1,9.434899E-2,2.0788262E0,1.2322184E0,2.1766644E0,-2.1486948E0,-3.5694203E0,-1.204726E0,-1.9203255E-1,-2.2477944E0,-2.9055816E-1,3.7038648E0,-2.4520169E-1,-3.9070044E0,-2.530833E-1,-1.7307847E0,2.563315E-1,-1.0285516E-1,4.4325143E-1,1.1124688E-1,-7.536485E-1,3.7674286E0,-1.0700756E0,-5.843767E-1,-8.6636215E-2,-3.868605E0,1.3933799E0,-1.8250314E0,1.0951271E0,-9.73395E-1,-2.4157256E-1,-3.191635E0,-1.7386565E0,1.5052716E0,1.4904932E0,7.8331566E-1,-1.2415422E0,-3.4300777E-1,8.227441E-1,-1.6602819E-1,-6.7099124E-2,-1.2096682E0,-1.0379186E-1,1.496811E-1,4.2186567E-1,-6.367569E-2,7.263465E-2,-3.498825E-1,1.390435E0,4.0654394E-1,-2.2696304E-1,-6.522532E-2,-2.4688926E-1,-1.2346708E0,-2.2875597E-1,9.25446E-1,-6.5129355E-2,-6.7180216E-1,8.4639454E-1,-2.0574515E-1,6.9094884E-1,-4.248557E-1,-2.5950208E-1,5.1277643E-1,-1.0368897E0,3.152467E-1,-6.043603E-1,-5.3890232E-2,-2.5014353E-1,6.895486E-1,2.9349577E-1,5.8996297E-2],"categories":[],"categories_nodes":[],"categories_segments":[],"categories_sizes":[],"default_left":[0,0,0,1,0,0,0,0,0,0,0,0,0,0,0,0,0,0,0,0,0,0,0,0,0,0,0,0,0,0,0,1,0,0,0,0,0,0,0,0,0,0,0,0,0,0,0,0,0,0,0,0,0,0,0,0,0,0,0,0,0,0,0,0,0,0,0,0,0,0,0,0,0,0,0,0,0,0,0,0,0,0,0,0,0,0,0],"id":16,"left_children":[1,3,5,7,9,11,13,15,17,19,21,23,25,27,-1,29,31,-1,33,35,37,39,41,43,45,47,49,-1,51,53,55,57,59,-1,-1,61,63,-1,65,-1,67,69,71,73,75,77,79,81,83,-1,85,-1,-1,-1,-1,-1,-1,-1,-1,-1,-1,-1,-1,-1,-1,-1,-1,-1,-1,-1,-1,-1,-1,-1,-1,-1,-1,-1,-1,-1,-1,-1,-1,-1,-1,-1,-1],"loss_changes":[7.812438E1,9.469436E1,7.937467E1,7.4669136E1,4.9412834E1,5.173379E1,5.6033936E0,6.8260185E1,2.3539963E1,7.921579E1,3.761183E1,1.0002058E2,5.8277924E1,3.2536545E0,0E0,4.6966785E1,8.68172E1,0E0,8.5972786E-2,4.4792248E1,1.5664001E1,9.679459E0,3.9610207E1,1.0365128E2,5.792914E1,2.8622532E1,1.8265503E1,0E0,3.8584137E-1,5.909853E1,1.1356037E2,2.1818715E2,2.0269678E2,0E0,0E0,1.9258878E0,6.273018E0,0E0,1.5140462E-1,0E0,4.134659E0,2.058511E1,1.2171295E1,1.21830444E2,9.611477E1,1.4856854E1,2.7211288E1,2.2187176E0,1.1193594E1,0E0,1.5081239E-1,0E0,0E0,0E0,0E0,0E0,0E0,0E0,0E0,0E0,0E0,0E0,0E0,0E0,0E0,0E0,0E0,0E0,0E0,0E0,0E0,0E0,0E0,0E0,0E0,0E0,0E0,0E0,0E0,0E0,0E0,0E0,0E0,0E0,0E0,0E0,0E0],"parents":[2147483647,0,0,1,1,2,2,3,3,4,4,5,5,6,6,7,7,8,8,9,9,10,10,11,11,12,12,13,13,15,15,16,16,18,18,19,19,20,20,21,21,22,22,23,23,24,24,25,25,26,26,28,28,29,29,30,30,31,31,32,32,35,35,36,36,38,38,40,40,41,41,42,42,43,43,44,44,45,45,46,46,47,47,48,48,50,50],"right_children":[2,4,6,8,10,12,14,16,18,20,22,24,26,28,-1,30,32,-1,34,36,38,40,42,44,46,48,50,-1,52,54,56,58,60,-1,-1,62,64,-1,66,-1,68,70,72,74,76,78,80,82,84,-1,86,-1,-1,-1,-1,-1,-1,-1,-1,-1,-1,-1,-1,-1,-1,-1,-1,-1,-1,-1,-1,-1,-1,-1,-1,-1,-1,-1,-1,-1,-1,-1,-1,-1,-1,-1,-1],"split_conditions":[2.8540195E2,1.69E1,3.1700449E1,1.04E2,2.3000591E1,3.6E1,7.3E0,3.82111E1,1.08E2,1.8E1,2.819285E1,2.3E1,2.7E1,1E1,-3.109484E-1,2.5E1,1.0407084E1,2.0788262E0,1.2E2,1.5E1,1.7E1,1.1E1,2.9204409E1,5.400833E0,2.9814896E2,2.4E1,5.2E1,-2.4520169E-1,8.98625E0,1.1457958E1,1.8440998E1,1.7E1,5.267344E1,4.4325143E-1,1.1124688E-1,1.2E1,1.7E1,-1.0700756E0,2.8E1,-8.6636215E-2,3.0237503E0,2E1,2.7164171E1,1.7E1,1E-1,3.3000002E0,4.8E1,1.1015416E1,1.7E1,1.4904932E0,3.2E1,-1.2415422E0,-3.4300777E-1,8.227441E-1,-1.6602819E-1,-6.7099124E-2,-1.2096682E0,-1.0379186E-1,1.496811E-1,4.2186567E-1,-6.367569E-2,7.263465E-2,-3.498825E-1,1.390435E0,4.0654394E-1,-2.2696304E-1,-6.522532E-2,-2.4688926E-1,-1.2346708E0,-2.2875597E-1,9.25446E-1,-6.5129355E-2,-6.7180216E-1,8.4639454E-1,-2.0574515E-1,6.9094884E-1,-4.248557E-1,-2.5950208E-1,5.1277643E-1,-1.0368897E0,3.152467E-1,-6.043603E-1,-5.3890232E-2,-2.5014353E-1,6.895486E-1,2.9349577E-1,5.8996297E-2],"split_indices":[6,4,5,0,5,2,4,6,0,1,5,1,0,0,0,0,3,0,0,1,2,2,5,3,6,1,1,0,3,5,5,2,6,0,0,0,1,0,2,0,3,1,6,0,4,4,1,3,0,0,0,0,0,0,0,0,0,0,0,0,0,0,0,0,0,0,0,0,0,0,0,0,0,0,0,0,0,0,0,0,0,0,0,0,0,0,0],"split_type":[0,0,0,0,0,0,0,0,0,0,0,0,0,0,0,0,0,0,0,0,0,0,0,0,0,0,0,0,0,0,0,0,0,0,0,0,0,0,0,0,0,0,0,0,0,0,0,0,0,0,0,0,0,0,0,0,0,0,0,0,0,0,0,0,0,0,0,0,0,0,0,0,0,0,0,0,0,0,0,0,0,0,0,0,0,0,0],"sum_hessian":[3.016E3,2.861E3,1.55E2,2.814E3,4.7E1,1.45E2,1E1,2.811E3,3E0,1.5E1,3.2E1,1.31E2,1.4E1,8E0,2E0,9.5E1,2.716E3,1E0,2E0,8E0,7E0,1E1,2.2E1,1.01E2,3E1,9E0,5E0,1E0,7E0,6.3E1,3.2E1,1.491E3,1.225E3,1E0,1E0,3E0,5E0,3E0,4E0,1E0,9E0,4E0,1.8E1,3.8E1,6.3E1,1E1,2E1,5E0,4E0,3E0,2E0,6E0,1E0,5E0,5.8E1,2E1,1.2E1,4.28E2,1.063E3,8.2E1,1.143E3,1E0,2E0,3E0,2E0,2E0,2E0,1E0,8E0,2E0,2E0,4E0,1.4E1,1.9E1,1.9E1,7E0,5.6E1,8E0,2E0,1.9E1,1E0,4E0,1E0,1E0,3E0,1E0,1E0],"tree_param":{"num_deleted":"0","num_feature":"7","num_nodes":"87","size_leaf_vector":"1"}},{"base_weights":[7.269879E-3,2.326162E-3,3.7305431E0,9.145478E-2,-2.051513E-1,1.7670022E0,1.0473862E0,5.6712794E-1,-7.962582E-2,-5.945121E-1,2.3887326E-1,3.7676355E-1,9.456024E-2,1.9884235E-1,1.7541797E0,4.535519E-2,-8.919196E-1,-1.3309637E0,7.4694194E-2,2.4057102E0,-9.061656E-2,-2.3622936E-2,2.1860585E0,9.2088556E-1,4.037284E0,-2.3422554E0,8.3133824E-2,4.141235E-1,-1.3215499E0,-2.2938077E0,4.0195036E-1,2.2652216E0,-2.974352E-1,3.8615006E-1,3.3521821E0,-1.6441146E0,1.0325589E-1,-1.3668376E-1,3.8447756E-1,-8.800617E-1,1.088258E0,1.625286E-1,2.3592696E0,3.3780577E0,7.3743784E-1,-1.0780126E0,7.140007E-1,1.548447E-1,-2.4747262E-2,5.205942E-1,-3.5987097E-1,-4.4548196E-1,5.660341E-1,-1.4915574E0,-4.882492E-1,-1.3967793E-1,1.0681838E0,1.1359514E0,-1.1168228E0,-1.7940606E0,-3.2518104E-2,1.4630101E0,-6.184626E-1,2.9420733E-1,1.4568505E0,-9.7432554E-1,-2.076936E-1,-3.9795235E-1,1.03876136E-1],"categories":[],"categories_nodes":[],"categories_segments":[],"categories_sizes":[],"default_left":[1,0,0,0,0,0,0,0,0,0,0,0,0,0,0,0,0,0,0,0,0,0,0,0,0,0,0,0,0,0,0,0,0,0,0,0,0,0,0,0,0,0,0,0,0,0,0,0,0,0,0,0,0,0,0,0,0,0,0,0,0,0,0,0,0,0,0,0,0],"id":17,"left_children":[1,3,5,7,9,-1,11,13,15,17,19,-1,-1,21,23,25,27,29,31,33,35,37,39,41,43,45,47,49,51,53,55,57,59,61,63,65,67,-1,-1,-1,-1,-1,-1,-1,-1,-1,-1,-1,-1,-1,-1,-1,-1,-1,-1,-1,-1,-1,-1,-1,-1,-1,-1,-1,-1,-1,-1,-1,-1],"loss_changes":[5.5524666E1,5.5754192E1,1.7007614E1,1.7167232E2,1.5677649E2,0E0,6.21109E-2,2.4359431E2,1.576015E2,2.381402E2,3.029331E2,0E0,0E0,1.8882262E2,2.4741177E2,1.21604805E2,1.1669821E2,3.8468292E2,2.0772429E2,1.0574716E2,1.11305374E2,2.1766199E2,3.2797015E2,2.5371332E2,3.7153485E2,1.3262253E2,9.5140656E1,1.1294542E2,8.457834E1,2.5600146E2,2.2910075E2,3.5114355E2,2.3354459E2,2.1889168E2,1.3077176E2,6.0331726E1,1.1476363E2,0E0,0E0,0E0,0E0,0E0,0E0,0E0,0E0,0E0,0E0,0E0,0E0,0E0,0E0,0E0,0E0,0E0,0E0,0E0,0E0,0E0,0E0,0E0,0E0,0E0,0E0,0E0,0E0,0E0,0E0,0E0,0E0],"parents":[2147483647,0,0,1,1,2,2,3,3,4,4,6,6,7,7,8,8,9,9,10,10,13,13,14,14,15,15,16,16,17,17,18,18,19,19,20,20,21,21,22,22,23,23,24,24,25,25,26,26,27,27,28,28,29,29,30,30,31,31,32,32,33,33,34,34,35,35,36,36],"right_children":[2,4,6,8,10,-1,12,14,16,18,20,-1,-1,22,24,26,28,30,32,34,36,38,40,42,44,46,48,50,52,54,56,58,60,62,64,66,68,-1,-1,-1,-1,-1,-1,-1,-1,-1,-1,-1,-1,-1,-1,-1,-1,